{"learner":{"attributes":{"scikit_learn":"{\"_estimator_type\": \"regressor\"}"},"feature_names":[],"feature_types":[],"gradient_booster":{"model":{"gbtree_model_param":{"num_parallel_tree":"1","num_trees":"100"},"iteration_indptr":[0,1,2,3,4,5,6,7,8,9,10,11,12,13,14,15,16,17,18,19,20,21,22,23,24,25,26,27,28,29,30,31,32,33,34,35,36,37,38,39,40,41,42,43,44,45,46,47,48,49,50,51,52,53,54,55,56,57,58,59,60,61,62,63,64,65,66,67,68,69,70,71,72,73,74,75,76,77,78,79,80,81,82,83,84,85,86,87,88,89,90,91,92,93,94,95,96,97,98,99,100],"tree_info":[0,0,0,0,0,0,0,0,0,0,0,0,0,0,0,0,0,0,0,0,0,0,0,0,0,0,0,0,0,0,0,0,0,0,0,0,0,0,0,0,0,0,0,0,0,0,0,0,0,0,0,0,0,0,0,0,0,0,0,0,0,0,0,0,0,0,0,0,0,0,0,0,0,0,0,0,0,0,0,0,0,0,0,0,0,0,0,0,0,0,0,0,0,0,0,0,0,0,0,0],"trees":[{"base_weights":[1.3575295E-8,-1.9959964E-1,1.5039603E-1,-3.1273794E-1,-1.1503981E-1,7.924344E-2,3.0697754E-1,-3.5404615E-2,-2.6367933E-2,-1.5697992E-1,-7.2771706E-2,1.8523438E-2,1.1486203E-1,2.6053E-1,4.309141E-2,-1.7441928E-2,-1.3264532E-2,-8.0134355E-2,-3.1410255E-2,-5.206902E-3,3.9526567E-2,9.4500504E-2,1.596427E-1,2.2079395E-2,2.8549755E-2,-9.582775E-3,-6.767568E-3,-6.834447E-4,-3.655587E-3,-1.1933796E-3,2.4912122E-3,3.4754523E-3,1.581526E-2,7.6445267E-3,1.0616983E-2,4.5575635E-3,1.6086577E-2],"categories":[],"categories_nodes":[],"categories_segments":[],"categories_sizes":[],"default_left":[0,0,0,0,0,0,0,0,0,0,0,0,0,0,0,0,0,0,0,0,0,0,0,0,0,0,0,0,0,0,0,0,0,0,0,0,0],"id":0,"left_children":[1,3,5,7,9,11,13,-1,-1,15,17,19,21,23,-1,-1,-1,25,27,29,31,33,35,-1,-1,-1,-1,-1,-1,-1,-1,-1,-1,-1,-1,-1,-1],"loss_changes":[2.263432E1,3.063717E0,4.7663803E0,1.86306E-1,3.2007647E-1,6.4021254E-1,6.59112E-1,0E0,0E0,1.6331673E-2,2.6413321E-2,5.5529468E-2,1.5542078E-1,3.617525E-2,0E0,0E0,0E0,9.156287E-3,1.7734822E-3,1.1035492E-2,2.7902722E-2,1.948464E-2,6.2048435E-4,0E0,0E0,0E0,0E0,0E0,0E0,0E0,0E0,0E0,0E0,0E0,0E0,0E0,0E0],"parents":[2147483647,0,0,1,1,2,2,3,3,4,4,5,5,6,6,9,9,10,10,11,11,12,12,13,13,17,17,18,18,19,19,20,20,21,21,22,22],"right_children":[2,4,6,8,10,12,14,-1,-1,16,18,20,22,24,-1,-1,-1,26,28,30,32,34,36,-1,-1,-1,-1,-1,-1,-1,-1,-1,-1,-1,-1,-1,-1],"split_conditions":[4.182058E-1,2.4098505E-1,6.4995605E-1,1.4335972E-1,3.3245382E-1,5.180299E-1,8.1970096E-1,-3.5404615E-2,-2.6367933E-2,2.9595426E-1,4.599824E-1,4.5426562E-1,5.8795077E-1,7.07124E-1,4.309141E-2,-1.7441928E-2,-1.3264532E-2,3.6543536E-1,5.219877E-1,4.6657872E-1,6.5831137E-1,5.400176E-1,3.641161E-1,2.2079395E-2,2.8549755E-2,-9.582775E-3,-6.767568E-3,-6.834447E-4,-3.655587E-3,-1.1933796E-3,2.4912122E-3,3.4754523E-3,1.581526E-2,7.6445267E-3,1.0616983E-2,4.5575635E-3,1.6086577E-2],"split_indices":[59,59,59,59,59,59,59,0,0,59,20,55,59,59,0,0,0,59,1,59,6,59,16,0,0,0,0,0,0,0,0,0,0,0,0,0,0],"split_type":[0,0,0,0,0,0,0,0,0,0,0,0,0,0,0,0,0,0,0,0,0,0,0,0,0,0,0,0,0,0,0,0,0,0,0,0,0],"sum_hessian":[7.52E2,3.23E2,4.29E2,1.37E2,1.86E2,2.96E2,1.33E2,7.1E1,6.6E1,9.2E1,9.4E1,1.1E2,1.86E2,9.9E1,3.4E1,5E1,4.2E1,7.9E1,1.5E1,5.2E1,5.8E1,1.3E2,5.6E1,4.2E1,5.7E1,3.2E1,4.7E1,3E0,1.2E1,4.3E1,9E0,5.7E1,1E0,5.4E1,7.6E1,1E0,5.5E1],"tree_param":{"num_deleted":"0","num_feature":"60","num_nodes":"37","size_leaf_vector":"1"}},{"base_weights":[5.319301E-5,-1.7998895E-1,1.3571273E-1,-2.8191176E-1,-1.03810675E-1,7.1519405E-2,2.7697918E-1,-3.2093365E-2,-2.3942006E-1,-1.3486639E-1,-5.7693847E-2,1.4300734E-2,1.0227817E-1,2.3498327E-1,3.8905382E-2,-2.4488924E-2,-1.4026728E-2,-1.5021062E-2,-1.0387514E-1,-6.428677E-2,-2.8540421E-2,-1.3126652E-2,2.7619857E-2,8.415601E-2,1.440406E-2,1.9922802E-2,2.5744004E-2,-1.0585156E-2,-1.3397277E-3,-4.8700715E-3,-7.0041055E-3,-6.321855E-4,-3.3181484E-3,-1.8720968E-4,-2.800792E-3,2.3721715E-3,1.5024497E-2,7.2395215E-3,1.0089214E-2],"categories":[],"categories_nodes":[],"categories_segments":[],"categories_sizes":[],"default_left":[0,0,0,0,0,0,0,0,0,0,0,0,0,0,0,0,0,0,0,0,0,0,0,0,0,0,0,0,0,0,0,0,0,0,0,0,0,0,0],"id":1,"left_children":[1,3,5,7,9,11,13,-1,15,17,19,21,23,25,-1,-1,-1,-1,27,29,31,33,35,37,-1,-1,-1,-1,-1,-1,-1,-1,-1,-1,-1,-1,-1,-1,-1],"loss_changes":[1.8416025E1,2.48637E0,3.8795862E0,1.519804E-1,2.600386E-1,5.212501E-1,5.3927326E-1,0E0,3.6101341E-3,3.7181616E-2,1.2965113E-2,3.8719974E-2,1.3394547E-1,2.9006004E-2,0E0,0E0,0E0,0E0,5.7348013E-3,2.1495223E-3,1.4401162E-3,5.8094375E-3,3.0374665E-2,1.9661665E-2,0E0,0E0,0E0,0E0,0E0,0E0,0E0,0E0,0E0,0E0,0E0,0E0,0E0,0E0,0E0],"parents":[2147483647,0,0,1,1,2,2,3,3,4,4,5,5,6,6,8,8,9,9,10,10,11,11,12,12,13,13,18,18,19,19,20,20,21,21,22,22,23,23],"right_children":[2,4,6,8,10,12,14,-1,16,18,20,22,24,26,-1,-1,-1,-1,28,30,32,34,36,38,-1,-1,-1,-1,-1,-1,-1,-1,-1,-1,-1,-1,-1,-1,-1],"split_conditions":[4.182058E-1,2.4098505E-1,6.4995605E-1,1.3852243E-1,3.5092348E-1,5.1275283E-1,8.1970096E-1,-3.2093365E-2,3.2673702E-1,3.1442392E-1,4.599824E-1,4.4635004E-1,5.8795077E-1,7.07124E-1,3.8905382E-2,-2.4488924E-2,-1.4026728E-2,-1.5021062E-2,4.7009674E-1,3.2541776E-1,5.219877E-1,4.362357E-1,6.5831137E-1,5.5277044E-1,1.440406E-2,1.9922802E-2,2.5744004E-2,-1.0585156E-2,-1.3397277E-3,-4.8700715E-3,-7.0041055E-3,-6.321855E-4,-3.3181484E-3,-1.8720968E-4,-2.800792E-3,2.3721715E-3,1.5024497E-2,7.2395215E-3,1.0089214E-2],"split_indices":[59,59,59,59,59,59,59,0,46,59,20,59,59,59,0,0,0,0,19,52,1,45,6,59,0,0,0,0,0,0,0,0,0,0,0,0,0,0,0],"split_type":[0,0,0,0,0,0,0,0,0,0,0,0,0,0,0,0,0,0,0,0,0,0,0,0,0,0,0,0,0,0,0,0,0,0,0,0,0,0,0],"sum_hessian":[7.52E2,3.23E2,4.29E2,1.37E2,1.86E2,2.96E2,1.33E2,6.8E1,6.9E1,1.1E2,7.6E1,1.04E2,1.92E2,9.9E1,3.4E1,6.4E1,5E0,7.1E1,3.9E1,6.1E1,1.5E1,3.4E1,7E1,1.36E2,5.6E1,4.2E1,5.7E1,3.8E1,1E0,1.9E1,4.2E1,3E0,1.2E1,2E1,1.4E1,6.9E1,1E0,8.3E1,5.3E1],"tree_param":{"num_deleted":"0","num_feature":"60","num_nodes":"39","size_leaf_vector":"1"}},{"base_weights":[7.089533E-5,-1.6233999E-1,1.2244544E-1,-2.4922143E-1,-8.9677565E-2,6.544355E-2,2.5204945E-1,-2.715461E-1,-1.8043658E-2,-1.17143124E-1,-5.2129973E-2,1.3007885E-2,9.320019E-2,2.1365334E-1,3.5126008E-2,-3.319114E-2,-2.53369E-2,-1.301138E-1,-9.378574E-2,-5.8049608E-2,-2.5933264E-2,1.03881005E-2,1.4273273E-2,7.586689E-2,1.3122456E-1,1.8150651E-1,2.3213988E-2,-1.3101797E-2,-3.7027404E-3,-9.553782E-3,-1.272741E-3,-4.8337462E-3,-6.679798E-3,-8.020056E-4,-3.1235996E-3,-3.262377E-4,3.7392252E-3,6.0416744E-3,8.611991E-3,1.3223422E-2,3.5827234E-3,5.1399516E-3,1.8352468E-2],"categories":[],"categories_nodes":[],"categories_segments":[],"categories_sizes":[],"default_left":[0,0,0,0,0,0,0,0,0,0,0,0,0,0,0,0,0,0,0,0,0,0,0,0,0,0,0,0,0,0,0,0,0,0,0,0,0,0,0,0,0,0,0],"id":2,"left_children":[1,3,5,7,9,11,13,15,-1,17,19,21,23,25,-1,-1,-1,27,29,31,33,35,-1,37,39,41,-1,-1,-1,-1,-1,-1,-1,-1,-1,-1,-1,-1,-1,-1,-1,-1,-1],"loss_changes":[1.4985722E1,2.0230684E0,3.160204E0,1.7673588E-1,1.7745864E-1,4.3541896E-1,4.2397118E-1,3.550625E-2,0E0,1.869917E-2,1.0435343E-2,3.4201644E-2,1.1922562E-1,1.5510559E-2,0E0,0E0,0E0,4.5120716E-4,4.4648647E-3,2.0390302E-3,1.2693079E-3,3.8458418E-2,0E0,1.6499221E-2,1.0416508E-3,1.0699034E-3,0E0,0E0,0E0,0E0,0E0,0E0,0E0,0E0,0E0,0E0,0E0,0E0,0E0,0E0,0E0,0E0,0E0],"parents":[2147483647,0,0,1,1,2,2,3,3,4,4,5,5,6,6,7,7,9,9,10,10,11,11,12,12,13,13,17,17,18,18,19,19,20,20,21,21,23,23,24,24,25,25],"right_children":[2,4,6,8,10,12,14,16,-1,18,20,22,24,26,-1,-1,-1,28,30,32,34,36,-1,38,40,42,-1,-1,-1,-1,-1,-1,-1,-1,-1,-1,-1,-1,-1,-1,-1,-1,-1],"split_conditions":[4.182058E-1,2.5461742E-1,6.530343E-1,1.9261214E-1,3.5092348E-1,5.1275283E-1,8.1970096E-1,6.46438E-2,-1.8043658E-2,3.1442392E-1,4.599824E-1,6.5831137E-1,5.8795077E-1,7.07124E-1,3.5126008E-2,-3.319114E-2,-2.53369E-2,5.976253E-1,4.7009674E-1,1.4687775E-1,4.1380826E-1,4.7845206E-1,1.4273273E-2,5.369393E-1,7.955145E-1,5.171504E-1,2.3213988E-2,-1.3101797E-2,-3.7027404E-3,-9.553782E-3,-1.272741E-3,-4.8337462E-3,-6.679798E-3,-8.020056E-4,-3.1235996E-3,-3.262377E-4,3.7392252E-3,6.0416744E-3,8.611991E-3,1.3223422E-2,3.5827234E-3,5.1399516E-3,1.8352468E-2],"split_indices":[59,59,59,59,59,59,59,59,0,59,20,6,59,59,0,0,0,10,19,7,55,59,0,59,6,29,0,0,0,0,0,0,0,0,0,0,0,0,0,0,0,0,0],"split_type":[0,0,0,0,0,0,0,0,0,0,0,0,0,0,0,0,0,0,0,0,0,0,0,0,0,0,0,0,0,0,0,0,0,0,0,0,0,0,0,0,0,0,0],"sum_hessian":[7.52E2,3.23E2,4.29E2,1.46E2,1.77E2,2.99E2,1.3E2,1.08E2,3.8E1,1.01E2,7.6E1,1.04E2,1.95E2,9.6E1,3.4E1,2.1E1,8.7E1,6.2E1,3.9E1,6.1E1,1.5E1,1.03E2,1E0,1.36E2,5.9E1,3.9E1,5.7E1,6.1E1,1E0,3.8E1,1E0,3.2E1,2.9E1,4E0,1.1E1,6.9E1,3.4E1,5.7E1,7.9E1,5.8E1,1E0,1E0,3.8E1],"tree_param":{"num_deleted":"0","num_feature":"60","num_nodes":"43","size_leaf_vector":"1"}},{"base_weights":[7.886187E-5,-1.3444605E-1,1.2040749E-1,-2.2482018E-1,-7.054395E-2,6.9019586E-2,2.3079233E-1,-2.5065976E-1,-1.7426208E-2,-1.0569971E-1,-3.699871E-2,4.207549E-2,1.0405569E-1,1.9543496E-1,3.1713765E-2,-3.0022895E-2,-2.3253568E-1,-1.1736917E-1,-8.467782E-2,-4.7117475E-2,-1.2267093E-2,1.9958137E-2,5.7244536E-2,8.4017895E-2,1.2266945E-1,1.7761041E-1,2.2635201E-2,-6.6943155E-3,-2.3388704E-2,-1.18250735E-2,-3.1356008E-3,-8.6229E-3,-1.2091041E-3,-5.2430346E-3,-2.3585279E-3,-5.845937E-4,-3.5281968E-3,1.6032605E-3,1.3559609E-2,5.8548953E-3,-9.69549E-5,1.6729087E-4,8.538522E-3,7.1331225E-3,1.2713546E-2,7.1549127E-3,1.7991489E-2],"categories":[],"categories_nodes":[],"categories_segments":[],"categories_sizes":[],"default_left":[0,0,0,0,0,0,0,0,0,0,0,0,0,0,0,0,0,0,0,0,0,0,0,0,0,0,0,0,0,0,0,0,0,0,0,0,0,0,0,0,0,0,0,0,0,0,0],"id":3,"left_children":[1,3,5,7,9,11,13,15,-1,17,19,21,23,25,-1,-1,27,29,31,33,35,37,39,41,43,45,-1,-1,-1,-1,-1,-1,-1,-1,-1,-1,-1,-1,-1,-1,-1,-1,-1,-1,-1,-1,-1],"loss_changes":[1.220515E1,2.0400739E0,2.241704E0,1.4836073E-1,2.4374402E-1,2.5333822E-1,3.2269144E-1,1.5533447E-2,0E0,1.5083432E-2,2.6699618E-2,5.1195383E-2,3.3705115E-2,1.0497093E-2,0E0,0E0,9.0265274E-4,1.0691881E-3,3.461212E-3,8.390218E-3,4.670554E-3,2.7332168E-2,7.042855E-3,6.6126883E-3,4.4586062E-3,2.5253296E-3,0E0,0E0,0E0,0E0,0E0,0E0,0E0,0E0,0E0,0E0,0E0,0E0,0E0,0E0,0E0,0E0,0E0,0E0,0E0,0E0,0E0],"parents":[2147483647,0,0,1,1,2,2,3,3,4,4,5,5,6,6,7,7,9,9,10,10,11,11,12,12,13,13,16,16,17,17,18,18,19,19,20,20,21,21,22,22,23,23,24,24,25,25],"right_children":[2,4,6,8,10,12,14,16,-1,18,20,22,24,26,-1,-1,28,30,32,34,36,38,40,42,44,46,-1,-1,-1,-1,-1,-1,-1,-1,-1,-1,-1,-1,-1,-1,-1,-1,-1,-1,-1,-1,-1],"split_conditions":[4.4547054E-1,2.5461742E-1,6.596306E-1,1.7194371E-1,3.5092348E-1,5.5277044E-1,8.1970096E-1,6.46438E-2,-1.7426208E-2,3.1442392E-1,4.182058E-1,5.0791556E-1,5.9542656E-1,7.348285E-1,3.1713765E-2,-3.0022895E-2,1.644679E-1,6.275286E-1,4.7009674E-1,4.599824E-1,4.705365E-1,6.4423925E-1,6.332454E-1,2.2691293E-1,5.1934916E-1,5.417766E-1,2.2635201E-2,-6.6943155E-3,-2.3388704E-2,-1.18250735E-2,-3.1356008E-3,-8.6229E-3,-1.2091041E-3,-5.2430346E-3,-2.3585279E-3,-5.845937E-4,-3.5281968E-3,1.6032605E-3,1.3559609E-2,5.8548953E-3,-9.69549E-5,1.6729087E-4,8.538522E-3,7.1331225E-3,1.2713546E-2,7.1549127E-3,1.7991489E-2],"split_indices":[59,59,59,59,59,59,59,59,0,59,59,59,59,59,0,0,1,0,19,20,48,5,54,21,51,29,0,0,0,0,0,0,0,0,0,0,0,0,0,0,0,0,0,0,0,0,0],"split_type":[0,0,0,0,0,0,0,0,0,0,0,0,0,0,0,0,0,0,0,0,0,0,0,0,0,0,0,0,0,0,0,0,0,0,0,0,0,0,0,0,0,0,0,0,0,0,0],"sum_hessian":[7.52E2,3.55E2,3.97E2,1.46E2,2.09E2,2.72E2,1.25E2,9.4E1,5.2E1,1.01E2,1.08E2,1.55E2,1.17E2,9.1E1,3.4E1,2.1E1,7.3E1,6.2E1,3.9E1,7.6E1,3.2E1,6.4E1,9.1E1,5.9E1,5.8E1,6.2E1,2.9E1,1E0,7.2E1,6.1E1,1E0,3.8E1,1E0,6.1E1,1.5E1,2.6E1,6E0,6.3E1,1E0,8.9E1,2E0,1E0,5.8E1,6E0,5.2E1,2E0,6E1],"tree_param":{"num_deleted":"0","num_feature":"60","num_nodes":"47","size_leaf_vector":"1"}},{"base_weights":[9.080602E-5,-1.2132178E-1,1.0869078E-1,-2.0286559E-1,-6.366339E-2,6.2298857E-2,2.08344E-1,-2.2139513E-1,-1.4587618E-2,-9.5372796E-2,-3.340631E-2,3.8002048E-2,9.3892105E-2,1.7641082E-1,2.8632997E-2,-2.6156846E-2,-2.0282846E-2,-1.1187459E-1,-8.2447425E-2,-4.2504452E-2,-1.1165005E-2,8.817986E-3,4.7325574E-2,7.982417E-2,1.1657282E-2,1.6024852E-1,2.044713E-2,-2.9511333E-3,-1.1316366E-2,-6.856214E-3,-9.636358E-3,-4.7271876E-3,-2.137416E-3,-9.4478855E-5,-2.3366278E-3,-2.5321532E-4,3.4566813E-3,1.2881628E-2,4.552808E-3,1.5892675E-3,8.133729E-3,4.5252084E-3,1.6137343E-2],"categories":[],"categories_nodes":[],"categories_segments":[],"categories_sizes":[],"default_left":[0,0,0,0,0,0,0,0,0,0,0,0,0,0,0,0,0,0,0,0,0,0,0,0,0,0,0,0,0,0,0,0,0,0,0,0,0,0,0,0,0,0,0],"id":4,"left_children":[1,3,5,7,9,11,13,15,-1,17,19,21,23,25,-1,-1,-1,27,29,31,33,35,37,39,-1,41,-1,-1,-1,-1,-1,-1,-1,-1,-1,-1,-1,-1,-1,-1,-1,-1,-1],"loss_changes":[9.941796E0,1.6608839E0,1.8270159E0,1.22933865E-1,1.9829506E-1,2.0599091E-1,2.6327133E-1,2.8247833E-2,0E0,1.2532055E-2,2.1582074E-2,4.2030007E-2,2.8344989E-2,8.957863E-3,0E0,0E0,0E0,1.1196136E-3,5.1801205E-3,6.7463517E-3,4.093013E-3,1.1485386E-2,1.1419803E-2,6.0592294E-3,0E0,8.4733963E-4,0E0,0E0,0E0,0E0,0E0,0E0,0E0,0E0,0E0,0E0,0E0,0E0,0E0,0E0,0E0,0E0,0E0],"parents":[2147483647,0,0,1,1,2,2,3,3,4,4,5,5,6,6,7,7,9,9,10,10,11,11,12,12,13,13,17,17,18,18,19,19,20,20,21,21,22,22,23,23,25,25],"right_children":[2,4,6,8,10,12,14,16,-1,18,20,22,24,26,-1,-1,-1,28,30,32,34,36,38,40,-1,42,-1,-1,-1,-1,-1,-1,-1,-1,-1,-1,-1,-1,-1,-1,-1,-1,-1],"split_conditions":[4.4547054E-1,2.5461742E-1,6.596306E-1,1.9261214E-1,3.5092348E-1,5.5277044E-1,8.1970096E-1,8.6191736E-2,-1.4587618E-2,2.9595426E-1,4.182058E-1,4.7845206E-1,6.112577E-1,7.348285E-1,2.8632997E-2,-2.6156846E-2,-2.0282846E-2,1.8029904E-2,3.7686896E-1,4.599824E-1,4.362357E-1,4.7845206E-1,4.5118734E-1,3.5620052E-1,1.1657282E-2,5.171504E-1,2.044713E-2,-2.9511333E-3,-1.1316366E-2,-6.856214E-3,-9.636358E-3,-4.7271876E-3,-2.137416E-3,-9.4478855E-5,-2.3366278E-3,-2.5321532E-4,3.4566813E-3,1.2881628E-2,4.552808E-3,1.5892675E-3,8.133729E-3,4.5252084E-3,1.6137343E-2],"split_indices":[59,59,59,59,59,59,59,59,0,59,59,56,59,59,0,0,0,35,28,20,45,59,59,36,0,29,0,0,0,0,0,0,0,0,0,0,0,0,0,0,0,0,0],"split_type":[0,0,0,0,0,0,0,0,0,0,0,0,0,0,0,0,0,0,0,0,0,0,0,0,0,0,0,0,0,0,0,0,0,0,0,0,0,0,0,0,0,0,0],"sum_hessian":[7.52E2,3.55E2,3.97E2,1.46E2,2.09E2,2.72E2,1.25E2,1.08E2,3.8E1,1.01E2,1.08E2,1.55E2,1.17E2,9.1E1,3.4E1,3E1,7.8E1,4.1E1,6E1,7.6E1,3.2E1,3.8E1,1.17E2,7.5E1,4.2E1,6.2E1,2.9E1,1E0,4E1,3.3E1,2.7E1,6.1E1,1.5E1,1.8E1,1.4E1,2.7E1,1.1E1,1E0,1.16E2,2E0,7.3E1,1E0,6.1E1],"tree_param":{"num_deleted":"0","num_feature":"60","num_nodes":"43","size_leaf_vector":"1"}},{"base_weights":[9.589946E-5,-1.0947355E-1,9.81025E-2,-1.8299419E-1,-5.74878E-2,5.573684E-2,1.8703213E-1,-2.2586664E-2,-1.6058546E-1,-8.6137086E-2,-3.0150963E-2,2.9795337E-2,7.909359E-2,1.5842645E-1,2.5851503E-2,-1.7501185E-2,-1.2879332E-2,-9.573466E-2,-6.886749E-2,-3.8343158E-2,-1.012218E-2,6.1125583E-3,3.915179E-2,6.466979E-2,9.946821E-2,1.4386022E-1,1.8470573E-1,-9.753733E-3,-4.476094E-3,-3.7307912E-3,-7.333954E-3,-4.2620935E-3,-1.9370327E-3,-4.5276713E-4,-3.0254973E-3,-2.2879956E-4,2.69401E-3,4.2680367E-3,-1.0296456E-3,7.9463425E-5,6.541191E-3,5.6735277E-3,1.0338317E-2,5.989166E-3,1.4557523E-2,5.212313E-3,1.874802E-2],"categories":[],"categories_nodes":[],"categories_segments":[],"categories_sizes":[],"default_left":[0,0,0,0,0,0,0,0,0,0,0,0,0,0,0,0,0,0,0,0,0,0,0,0,0,0,0,0,0,0,0,0,0,0,0,0,0,0,0,0,0,0,0,0,0,0,0],"id":5,"left_children":[1,3,5,7,9,11,13,-1,15,17,19,21,23,25,-1,-1,-1,27,29,31,33,35,37,39,41,43,45,-1,-1,-1,-1,-1,-1,-1,-1,-1,-1,-1,-1,-1,-1,-1,-1,-1,-1,-1,-1],"loss_changes":[8.096852E0,1.3501215E0,1.4890659E0,1.0495424E-1,1.618709E-1,1.6184473E-1,2.2078085E-1,0E0,2.3324251E-2,1.0313153E-2,1.7496578E-2,2.8566979E-2,3.5298288E-2,9.41062E-3,0E0,0E0,0E0,1.4231205E-3,2.9092878E-3,5.4238513E-3,3.579907E-3,6.7102285E-3,1.6666263E-2,4.0246844E-3,3.670454E-3,6.417036E-4,1.2632608E-3,0E0,0E0,0E0,0E0,0E0,0E0,0E0,0E0,0E0,0E0,0E0,0E0,0E0,0E0,0E0,0E0,0E0,0E0,0E0,0E0],"parents":[2147483647,0,0,1,1,2,2,3,3,4,4,5,5,6,6,8,8,9,9,10,10,11,11,12,12,13,13,17,17,18,18,19,19,20,20,21,21,22,22,23,23,24,24,25,25,26,26],"right_children":[2,4,6,8,10,12,14,-1,16,18,20,22,24,26,-1,-1,-1,28,30,32,34,36,38,40,42,44,46,-1,-1,-1,-1,-1,-1,-1,-1,-1,-1,-1,-1,-1,-1,-1,-1,-1,-1,-1,-1],"split_conditions":[4.4547054E-1,2.5461742E-1,6.5831137E-1,1.14775725E-1,3.5092348E-1,5.369393E-1,8.1970096E-1,-2.2586664E-2,1.9613017E-1,3.1442392E-1,4.182058E-1,4.7845206E-1,5.9542656E-1,7.348285E-1,2.5851503E-2,-1.7501185E-2,-1.2879332E-2,4.4547054E-1,1.02902375E-1,4.599824E-1,4.705365E-1,4.7845206E-1,6.112577E-1,2.2691293E-1,5.1934916E-1,5.417766E-1,5.28584E-1,-9.753733E-3,-4.476094E-3,-3.7307912E-3,-7.333954E-3,-4.2620935E-3,-1.9370327E-3,-4.5276713E-4,-3.0254973E-3,-2.2879956E-4,2.69401E-3,4.2680367E-3,-1.0296456E-3,7.9463425E-5,6.541191E-3,5.6735277E-3,1.0338317E-2,5.989166E-3,1.4557523E-2,5.212313E-3,1.874802E-2],"split_indices":[59,59,59,59,59,59,59,0,59,59,59,56,59,59,0,0,0,14,19,20,48,59,52,21,51,29,1,0,0,0,0,0,0,0,0,0,0,0,0,0,0,0,0,0,0,0,0],"split_type":[0,0,0,0,0,0,0,0,0,0,0,0,0,0,0,0,0,0,0,0,0,0,0,0,0,0,0,0,0,0,0,0,0,0,0,0,0,0,0,0,0,0,0,0,0,0,0],"sum_hessian":[7.52E2,3.55E2,3.97E2,1.46E2,2.09E2,2.7E2,1.27E2,4.7E1,9.9E1,1.01E2,1.08E2,1.29E2,1.41E2,9.3E1,3.4E1,6.5E1,3.4E1,6.2E1,3.9E1,7.6E1,3.2E1,3.7E1,9.2E1,8.5E1,5.6E1,6.4E1,2.9E1,5.9E1,3E0,6E0,3.3E1,6.1E1,1.5E1,2.6E1,6E0,2.7E1,1E1,8.6E1,6E0,1E0,8.4E1,6E0,5E1,2E0,6.2E1,1E0,2.8E1],"tree_param":{"num_deleted":"0","num_feature":"60","num_nodes":"47","size_leaf_vector":"1"}},{"base_weights":[1.0059034E-4,-1.0308687E-1,8.484367E-2,-1.6868137E-1,-5.7987712E-2,4.1723877E-2,1.5889408E-1,-2.0375052E-2,-1.4832972E-1,-8.0340065E-2,-3.0685572E-2,1.4293829E-2,5.8464438E-2,1.3132238E-1,2.2358546E-1,-1.5449344E-1,-9.487745E-3,-9.487937E-2,-6.68672E-2,-5.07982E-2,-2.5846608E-2,1.2031939E-2,1.2024144E-2,4.8154674E-2,7.326754E-2,1.1450283E-1,1.4958096E-2,4.951698E-3,2.26482E-2,-8.872608E-3,-1.5769493E-2,-2.3158893E-3,-9.58506E-3,-5.5262703E-3,-7.943352E-3,-5.553787E-3,-2.1509812E-3,-2.3059987E-3,-6.1361953E-3,-6.1837774E-5,2.6310347E-3,4.8740725E-3,-4.6390443E-4,1.262628E-3,7.499225E-3,1.1659211E-2,5.558278E-3],"categories":[],"categories_nodes":[],"categories_segments":[],"categories_sizes":[],"default_left":[0,0,0,0,0,0,0,0,0,0,0,0,0,0,0,0,0,0,0,0,0,0,0,0,0,0,0,0,0,0,0,0,0,0,0,0,0,0,0,0,0,0,0,0,0,0,0],"id":6,"left_children":[1,3,5,7,9,11,13,-1,15,17,19,21,23,25,27,29,-1,31,33,35,37,39,-1,41,43,45,-1,-1,-1,-1,-1,-1,-1,-1,-1,-1,-1,-1,-1,-1,-1,-1,-1,-1,-1,-1,-1],"loss_changes":[6.593297E0,9.960258E-1,1.3152883E0,6.827021E-2,1.2141889E-1,1.1993241E-1,2.4175334E-1,0E0,1.53234005E-2,1.5399098E-2,7.738188E-3,2.275709E-2,2.1348357E-2,1.6346574E-2,1.0969877E-2,2.8526783E-3,0E0,1.33273E-3,4.505664E-3,1.1652857E-3,6.205514E-3,1.8078908E-2,0E0,3.2891184E-3,5.851358E-3,1.0285378E-3,0E0,0E0,0E0,0E0,0E0,0E0,0E0,0E0,0E0,0E0,0E0,0E0,0E0,0E0,0E0,0E0,0E0,0E0,0E0,0E0,0E0],"parents":[2147483647,0,0,1,1,2,2,3,3,4,4,5,5,6,6,8,8,9,9,10,10,11,11,12,12,13,13,14,14,15,15,17,17,18,18,19,19,20,20,21,21,23,23,24,24,25,25],"right_children":[2,4,6,8,10,12,14,-1,16,18,20,22,24,26,28,30,-1,32,34,36,38,40,-1,42,44,46,-1,-1,-1,-1,-1,-1,-1,-1,-1,-1,-1,-1,-1,-1,-1,-1,-1,-1,-1,-1,-1],"split_conditions":[4.3271768E-1,2.4098505E-1,6.2884784E-1,1.14775725E-1,3.5092348E-1,5.219877E-1,7.8496045E-1,-2.0375052E-2,3.53562E-1,2.9595426E-1,3.4652594E-1,6.5831137E-1,5.637643E-1,7.07124E-1,5.28584E-1,1.7194371E-1,-9.487745E-3,1.8029904E-2,3.8434476E-1,3.5971856E-1,5.8399296E-1,4.7845206E-1,1.2024144E-2,6.5435356E-1,3.7950748E-1,8.201407E-1,1.4958096E-2,4.951698E-3,2.26482E-2,-8.872608E-3,-1.5769493E-2,-2.3158893E-3,-9.58506E-3,-5.5262703E-3,-7.943352E-3,-5.553787E-3,-2.1509812E-3,-2.3059987E-3,-6.1361953E-3,-6.1837774E-5,2.6310347E-3,4.8740725E-3,-4.6390443E-4,1.262628E-3,7.499225E-3,1.1659211E-2,5.558278E-3],"split_indices":[59,59,59,59,59,59,59,0,34,59,57,6,59,59,1,14,0,35,29,58,3,59,0,55,35,23,0,0,0,0,0,0,0,0,0,0,0,0,0,0,0,0,0,0,0,0,0],"split_type":[0,0,0,0,0,0,0,0,0,0,0,0,0,0,0,0,0,0,0,0,0,0,0,0,0,0,0,0,0,0,0,0,0,0,0,0,0,0,0,0,0,0,0,0,0,0,0],"sum_hessian":[7.52E2,3.39E2,4.13E2,1.37E2,2.02E2,2.62E2,1.51E2,4.7E1,9E1,1.1E2,9.2E1,1E2,1.62E2,1.08E2,4.3E1,7.9E1,1.1E1,5E1,6E1,1.6E1,7.6E1,9.9E1,1E0,9.8E1,6.4E1,6E1,4.8E1,1E0,4.2E1,5E0,7.4E1,1E0,4.9E1,3.4E1,2.6E1,1.3E1,3E0,7.2E1,4E0,5.3E1,4.6E1,9.7E1,1E0,2E0,6.2E1,5.7E1,3E0],"tree_param":{"num_deleted":"0","num_feature":"60","num_nodes":"47","size_leaf_vector":"1"}},{"base_weights":[7.926557E-5,-8.919479E-2,7.993224E-2,-1.4900364E-1,-4.690386E-2,4.5677643E-2,1.5351616E-1,-1.7403175E-1,-1.2333224E-1,-7.012294E-2,-2.4745598E-2,2.7775196E-2,6.8958186E-2,1.3206612E-1,2.2070887E-2,-1.820172E-2,-1.1893646E-2,-1.2489261E-1,-4.3732375E-3,-7.7388026E-2,-5.3316653E-2,-3.157205E-2,-8.067335E-3,1.0938521E-2,3.7358552E-2,5.8680534E-2,8.551967E-2,1.1775054E-1,1.5344987E-2,-6.8519176E-3,-1.279846E-2,-5.324551E-3,-8.48649E-3,-5.4833624E-3,-1.6282649E-4,-3.3924629E-3,-7.0405117E-4,-2.95162E-4,-2.6646904E-3,-4.8291954E-4,1.9364402E-3,1.035989E-2,3.4924743E-3,9.869516E-4,5.986638E-3,8.847149E-3,4.539156E-3,1.1862356E-2,3.1811595E-3],"categories":[],"categories_nodes":[],"categories_segments":[],"categories_sizes":[],"default_left":[0,0,0,0,0,0,0,0,0,0,0,0,0,0,0,0,0,0,0,0,0,0,0,0,0,0,0,0,0,0,0,0,0,0,0,0,0,0,0,0,0,0,0,0,0,0,0,0,0],"id":7,"left_children":[1,3,5,7,9,11,13,15,17,19,21,23,25,27,-1,-1,-1,29,-1,31,33,35,37,39,41,43,45,47,-1,-1,-1,-1,-1,-1,-1,-1,-1,-1,-1,-1,-1,-1,-1,-1,-1,-1,-1,-1,-1],"loss_changes":[5.3751154E0,8.934679E-1,9.961815E-1,7.2984695E-2,1.0630864E-1,1.1186522E-1,1.524539E-1,1.0028839E-2,3.9776564E-3,8.328021E-3,1.2155324E-2,2.4762236E-2,1.50668025E-2,1.1931062E-2,0E0,0E0,0E0,4.1292906E-3,0E0,7.936537E-3,2.5766566E-3,4.204996E-3,3.057925E-3,7.7992147E-3,1.2342259E-2,3.8082004E-3,1.0775328E-3,9.5301867E-4,0E0,0E0,0E0,0E0,0E0,0E0,0E0,0E0,0E0,0E0,0E0,0E0,0E0,0E0,0E0,0E0,0E0,0E0,0E0,0E0,0E0],"parents":[2147483647,0,0,1,1,2,2,3,3,4,4,5,5,6,6,7,7,8,8,9,9,10,10,11,11,12,12,13,13,17,17,19,19,20,20,21,21,22,22,23,23,24,24,25,25,26,26,27,27],"right_children":[2,4,6,8,10,12,14,16,18,20,22,24,26,28,-1,-1,-1,30,-1,32,34,36,38,40,42,44,46,48,-1,-1,-1,-1,-1,-1,-1,-1,-1,-1,-1,-1,-1,-1,-1,-1,-1,-1,-1,-1,-1],"split_conditions":[4.4547054E-1,2.5461742E-1,6.596306E-1,1.4335972E-1,3.5092348E-1,5.5277044E-1,8.5400176E-1,3.2233948E-1,4.1644678E-1,3.2145998E-1,4.182058E-1,4.9824098E-1,6.112577E-1,7.348285E-1,2.2070887E-2,-1.820172E-2,-1.1893646E-2,1.3852243E-1,-4.3732375E-3,2.6077396E-1,4.7009674E-1,5.9146875E-1,4.705365E-1,4.6657872E-1,4.6262094E-1,2.8188214E-1,7.603342E-1,9.5602465E-1,1.5344987E-2,-6.8519176E-3,-1.279846E-2,-5.324551E-3,-8.48649E-3,-5.4833624E-3,-1.6282649E-4,-3.3924629E-3,-7.0405117E-4,-2.95162E-4,-2.6646904E-3,-4.8291954E-4,1.9364402E-3,1.035989E-2,3.4924743E-3,9.869516E-4,5.986638E-3,8.847149E-3,4.539156E-3,1.1862356E-2,3.1811595E-3],"split_indices":[59,59,59,59,59,59,59,15,37,58,59,55,59,59,0,0,0,19,0,48,19,43,48,59,58,25,4,18,0,0,0,0,0,0,0,0,0,0,0,0,0,0,0,0,0,0,0,0,0],"split_type":[0,0,0,0,0,0,0,0,0,0,0,0,0,0,0,0,0,0,0,0,0,0,0,0,0,0,0,0,0,0,0,0,0,0,0,0,0,0,0,0,0,0,0,0,0,0,0,0,0],"sum_hessian":[7.52E2,3.55E2,3.97E2,1.46E2,2.09E2,2.72E2,1.25E2,7.1E1,7.5E1,1.01E2,1.08E2,1.55E2,1.17E2,9.7E1,2.8E1,6E1,1.1E1,7.3E1,2E0,6.8E1,3.3E1,7.6E1,3.2E1,5.7E1,9.8E1,7.5E1,4.2E1,6.2E1,3.5E1,5E0,6.8E1,1.8E1,5E1,3.2E1,1E0,6.9E1,7E0,2.6E1,6E0,2E1,3.7E1,2E0,9.6E1,2E0,7.3E1,3.8E1,4E0,6.1E1,1E0],"tree_param":{"num_deleted":"0","num_feature":"60","num_nodes":"49","size_leaf_vector":"1"}},{"base_weights":[8.128932E-5,-8.050181E-2,7.2160445E-2,-1.3743366E-1,-4.4259362E-2,4.1240525E-2,1.385809E-1,-1.8821955E-2,-1.2670952E-1,-6.538919E-2,-2.2335779E-2,2.2086957E-2,5.9014875E-2,1.20274335E-1,2.0436483E-2,-1.315834E-1,-7.759677E-3,-7.738333E-2,-5.4289352E-2,-2.8468054E-2,-7.350295E-3,9.278508E-3,3.2173716E-2,4.6890933E-2,7.246917E-2,1.0621429E-1,1.3990276E-1,-8.310132E-3,-1.3526295E-2,-7.885086E-3,-2.7619302E-3,-2.628097E-3,-5.7433387E-3,-4.2978707E-3,-2.3957414E-3,-4.7888945E-5,-1.9335346E-3,-4.3692748E-4,1.6211631E-3,3.6062542E-3,-1.7910103E-3,-3.6989153E-5,4.7517656E-3,3.9306344E-3,7.517545E-3,4.927404E-3,1.0824008E-2,3.936863E-3,1.4151238E-2],"categories":[],"categories_nodes":[],"categories_segments":[],"categories_sizes":[],"default_left":[0,0,0,0,0,0,0,0,0,0,0,0,0,0,0,0,0,0,0,0,0,0,0,0,0,0,0,0,0,0,0,0,0,0,0,0,0,0,0,0,0,0,0,0,0,0,0,0,0],"id":8,"left_children":[1,3,5,7,9,11,13,-1,15,17,19,21,23,25,-1,27,-1,29,31,33,35,37,39,41,43,45,47,-1,-1,-1,-1,-1,-1,-1,-1,-1,-1,-1,-1,-1,-1,-1,-1,-1,-1,-1,-1,-1,-1],"loss_changes":[4.3795056E0,7.284696E-1,8.116634E-1,5.131054E-2,9.9989414E-2,9.163728E-2,1.2715912E-1,0E0,1.7795682E-2,1.0576695E-2,9.807315E-3,1.6884506E-2,1.9601673E-2,1.301384E-2,0E0,7.490754E-3,0E0,1.5467107E-3,3.8622022E-3,4.0101744E-3,2.7084278E-3,5.748138E-3,1.5058681E-2,2.2982657E-3,2.8787255E-3,1.9335747E-3,7.3987246E-4,0E0,0E0,0E0,0E0,0E0,0E0,0E0,0E0,0E0,0E0,0E0,0E0,0E0,0E0,0E0,0E0,0E0,0E0,0E0,0E0,0E0,0E0],"parents":[2147483647,0,0,1,1,2,2,3,3,4,4,5,5,6,6,8,8,9,9,10,10,11,11,12,12,13,13,15,15,17,17,18,18,19,19,20,20,21,21,22,22,23,23,24,24,25,25,26,26],"right_children":[2,4,6,8,10,12,14,-1,16,18,20,22,24,26,-1,28,-1,30,32,34,36,38,40,42,44,46,48,-1,-1,-1,-1,-1,-1,-1,-1,-1,-1,-1,-1,-1,-1,-1,-1,-1,-1,-1,-1,-1,-1],"split_conditions":[4.4547054E-1,2.4098505E-1,6.596306E-1,6.46438E-2,3.5092348E-1,5.400176E-1,8.7115216E-1,-1.8821955E-2,3.5092348E-1,2.9595426E-1,4.182058E-1,5.096746E-1,5.8795077E-1,7.348285E-1,2.0436483E-2,2.0932278E-1,-7.759677E-3,5.3649956E-1,1.02902375E-1,3.4652594E-1,5.30343E-1,4.6657872E-1,6.2401056E-1,2.2691293E-1,5.558487E-1,5.4221636E-1,5.28584E-1,-8.310132E-3,-1.3526295E-2,-7.885086E-3,-2.7619302E-3,-2.628097E-3,-5.7433387E-3,-4.2978707E-3,-2.3957414E-3,-4.7888945E-5,-1.9335346E-3,-4.3692748E-4,1.6211631E-3,3.6062542E-3,-1.7910103E-3,-3.6989153E-5,4.7517656E-3,3.9306344E-3,7.517545E-3,4.927404E-3,1.0824008E-2,3.936863E-3,1.4151238E-2],"split_indices":[59,59,59,59,59,59,59,0,34,59,59,55,59,59,0,5,0,32,19,57,5,59,53,21,57,31,1,0,0,0,0,0,0,0,0,0,0,0,0,0,0,0,0,0,0,0,0,0,0],"split_type":[0,0,0,0,0,0,0,0,0,0,0,0,0,0,0,0,0,0,0,0,0,0,0,0,0,0,0,0,0,0,0,0,0,0,0,0,0,0,0,0,0,0,0,0,0,0,0,0,0],"sum_hessian":[7.52E2,3.55E2,3.97E2,1.37E2,2.18E2,2.72E2,1.25E2,2.1E1,1.16E2,1.1E2,1.08E2,1.32E2,1.4E2,1E2,2.5E1,1.04E2,1.2E1,5E1,6E1,7.6E1,3.2E1,5.9E1,7.3E1,7.6E1,6.4E1,6.2E1,3.8E1,9E0,9.5E1,4.8E1,2E0,7E0,5.3E1,1.6E1,6E1,2.1E1,1.1E1,2E1,3.9E1,6.8E1,5E0,1E0,7.5E1,6E0,5.8E1,3E0,5.9E1,1E0,3.7E1],"tree_param":{"num_deleted":"0","num_feature":"60","num_nodes":"49","size_leaf_vector":"1"}},{"base_weights":[6.9615584E-5,-7.266542E-2,6.512892E-2,-1.24070056E-1,-3.994166E-2,3.4340512E-2,1.19791195E-1,-1.7025314E-2,-1.1432563E-1,-5.8985677E-2,-2.018178E-2,1.951357E-2,4.92473E-2,9.839039E-2,1.6570687E-1,-1.2227692E-1,-8.7191E-3,-6.53172E-2,-4.2725537E-2,-2.570817E-2,-6.675303E-3,1.8002104E-2,1.0724628E-2,3.9391384E-2,5.7759717E-2,1.0078374E-1,5.2195336E-3,1.34737985E-2,1.9936392E-2,-6.911713E-3,-1.2464658E-2,-4.447005E-3,-7.2217556E-3,-4.410054E-3,1.3248176E-4,-2.3163382E-3,-5.1960927E-3,1.1998619E-4,-1.6205491E-3,6.55054E-4,2.8833894E-3,-3.5139918E-5,4.0048664E-3,3.0328573E-3,5.9510986E-3,4.305412E-3,1.022138E-2],"categories":[],"categories_nodes":[],"categories_segments":[],"categories_sizes":[],"default_left":[0,0,0,0,0,0,0,0,0,0,0,0,0,0,0,0,0,0,0,0,0,0,0,0,0,0,0,0,0,0,0,0,0,0,0,0,0,0,0,0,0,0,0,0,0,0,0],"id":9,"left_children":[1,3,5,7,9,11,13,-1,15,17,19,21,23,25,27,29,-1,31,33,35,37,39,-1,41,43,45,-1,-1,-1,-1,-1,-1,-1,-1,-1,-1,-1,-1,-1,-1,-1,-1,-1,-1,-1,-1,-1],"loss_changes":[3.5679977E0,5.938909E-1,6.6570616E-1,4.2639256E-2,8.1220865E-2,5.562067E-2,1.242125E-1,0E0,1.4582038E-2,8.636922E-3,7.964373E-3,1.5307985E-2,8.379757E-3,5.7956576E-3,1.9000292E-2,2.4701357E-3,0E0,8.008987E-3,2.117779E-3,3.940601E-3,2.4961545E-3,1.5812408E-2,0E0,1.6336441E-3,1.3656914E-3,3.3595562E-3,0E0,0E0,0E0,0E0,0E0,0E0,0E0,0E0,0E0,0E0,0E0,0E0,0E0,0E0,0E0,0E0,0E0,0E0,0E0,0E0,0E0],"parents":[2147483647,0,0,1,1,2,2,3,3,4,4,5,5,6,6,8,8,9,9,10,10,11,11,12,12,13,13,14,14,15,15,17,17,18,18,19,19,20,20,21,21,23,23,24,24,25,25],"right_children":[2,4,6,8,10,12,14,-1,16,18,20,22,24,26,28,30,-1,32,34,36,38,40,-1,42,44,46,-1,-1,-1,-1,-1,-1,-1,-1,-1,-1,-1,-1,-1,-1,-1,-1,-1,-1,-1,-1,-1],"split_conditions":[4.4547054E-1,2.4098505E-1,6.358839E-1,6.46438E-2,3.5092348E-1,5.369393E-1,7.840809E-1,-1.7025314E-2,1.9261214E-1,3.2145998E-1,4.182058E-1,7.1064204E-1,5.694811E-1,7.255937E-1,8.9313984E-1,2.1899736E-1,-8.7191E-3,2.6737028E-1,4.7009674E-1,5.8399296E-1,4.362357E-1,5.0791556E-1,1.0724628E-2,2.2691293E-1,4.533861E-1,5.2506596E-1,5.2195336E-3,1.34737985E-2,1.9936392E-2,-6.911713E-3,-1.2464658E-2,-4.447005E-3,-7.2217556E-3,-4.410054E-3,1.3248176E-4,-2.3163382E-3,-5.1960927E-3,1.1998619E-4,-1.6205491E-3,6.55054E-4,2.8833894E-3,-3.5139918E-5,4.0048664E-3,3.0328573E-3,5.9510986E-3,4.305412E-3,1.022138E-2],"split_indices":[59,58,59,59,59,59,58,0,59,58,59,7,59,2,59,1,0,48,19,3,45,59,0,21,31,44,0,0,0,0,0,0,0,0,0,0,0,0,0,0,0,0,0,0,0,0,0],"split_type":[0,0,0,0,0,0,0,0,0,0,0,0,0,0,0,0,0,0,0,0,0,0,0,0,0,0,0,0,0,0,0,0,0,0,0,0,0,0,0,0,0,0,0,0,0,0,0],"sum_hessian":[7.52E2,3.55E2,3.97E2,1.37E2,2.18E2,2.55E2,1.42E2,2.1E1,1.16E2,1.1E2,1.08E2,1.29E2,1.26E2,9.9E1,4.3E1,8.7E1,2.9E1,7.7E1,3.3E1,7.6E1,3.2E1,1.28E2,1E0,6.1E1,6.5E1,9.3E1,6E0,2.5E1,1.8E1,5E0,8.2E1,2.1E1,5.6E1,3.2E1,1E0,7.1E1,5E0,1.8E1,1.4E1,6.3E1,6.5E1,1E0,6E1,5E0,6E1,3E0,9E1],"tree_param":{"num_deleted":"0","num_feature":"60","num_nodes":"47","size_leaf_vector":"1"}},{"base_weights":[7.632348E-5,-6.559574E-2,5.8817975E-2,-1.0821162E-1,-3.3312276E-2,3.3509646E-2,1.1318589E-1,-1.22739464E-1,-8.0855556E-2,-4.820952E-2,-1.5712181E-2,2.2743125E-2,5.479276E-2,9.810661E-2,1.6740979E-1,-1.5400171E-2,-1.1221337E-1,-8.3136074E-2,-3.0424849E-3,-5.5416644E-2,-3.736983E-2,-1.30068865E-2,-4.786348E-2,1.0040268E-2,3.0892361E-2,4.604186E-2,6.390591E-2,8.619523E-2,1.148325E-1,1.7022721E-2,4.8486977E-3,-1.1428173E-2,-4.5895413E-3,-2.4108903E-3,-8.380759E-3,-3.953421E-3,-6.1737425E-3,-4.5415754E-3,-2.6999481E-3,-3.5546094E-3,-1.0026899E-3,-2.0228773E-4,-5.5166436E-3,7.349606E-4,1.0188398E-2,3.1683908E-3,1.7975495E-4,6.640723E-4,4.7545223E-3,1.661273E-3,6.585525E-3,9.126507E-3,5.967549E-3,1.3394348E-2,9.20734E-3],"categories":[],"categories_nodes":[],"categories_segments":[],"categories_sizes":[],"default_left":[0,0,0,0,0,0,0,0,0,0,0,0,0,0,0,0,0,0,0,0,0,0,0,0,0,0,0,0,0,0,0,0,0,0,0,0,0,0,0,0,0,0,0,0,0,0,0,0,0,0,0,0,0,0,0],"id":10,"left_children":[1,3,5,7,9,11,13,15,17,19,21,23,25,27,29,-1,31,33,-1,35,37,39,41,43,45,47,49,51,53,-1,-1,-1,-1,-1,-1,-1,-1,-1,-1,-1,-1,-1,-1,-1,-1,-1,-1,-1,-1,-1,-1,-1,-1,-1,-1],"loss_changes":[2.9086955E0,4.8617613E-1,5.438396E-1,5.0881743E-2,5.272986E-2,6.13105E-2,8.660078E-2,1.496768E-2,3.911078E-3,6.5226257E-3,7.640425E-3,1.863373E-2,4.3147504E-3,1.0224104E-2,4.5776367E-4,0E0,5.3170323E-3,8.022785E-5,0E0,3.984183E-3,2.6954338E-3,5.6214053E-3,2.2318084E-3,1.7290981E-2,2.4993643E-3,2.6459843E-3,2.7779639E-3,3.0241013E-3,4.630387E-3,0E0,0E0,0E0,0E0,0E0,0E0,0E0,0E0,0E0,0E0,0E0,0E0,0E0,0E0,0E0,0E0,0E0,0E0,0E0,0E0,0E0,0E0,0E0,0E0,0E0,0E0],"parents":[2147483647,0,0,1,1,2,2,3,3,4,4,5,5,6,6,7,7,8,8,9,9,10,10,11,11,12,12,13,13,14,14,16,16,17,17,19,19,20,20,21,21,22,22,23,23,24,24,25,25,26,26,27,27,28,28],"right_children":[2,4,6,8,10,12,14,16,18,20,22,24,26,28,30,-1,32,34,-1,36,38,40,42,44,46,48,50,52,54,-1,-1,-1,-1,-1,-1,-1,-1,-1,-1,-1,-1,-1,-1,-1,-1,-1,-1,-1,-1,-1,-1,-1,-1,-1,-1],"split_conditions":[4.4547054E-1,2.6341248E-1,6.596306E-1,1.76781E-1,3.6543536E-1,5.637643E-1,8.7115216E-1,6.46438E-2,3.1002638E-1,3.2145998E-1,5.8399296E-1,5.1275283E-1,6.112577E-1,7.348285E-1,7.07124E-1,-1.5400171E-2,4.639402E-1,1.24010555E-1,-3.0424849E-3,2.6737028E-1,3.6543536E-1,7.651715E-2,5.2506596E-1,6.5831137E-1,6.332454E-1,2.6341248E-1,5.8795077E-1,7.1899736E-1,6.398417E-1,1.7022721E-2,4.8486977E-3,-1.1428173E-2,-4.5895413E-3,-2.4108903E-3,-8.380759E-3,-3.953421E-3,-6.1737425E-3,-4.5415754E-3,-2.6999481E-3,-3.5546094E-3,-1.0026899E-3,-2.0228773E-4,-5.5166436E-3,7.349606E-4,1.0188398E-2,3.1683908E-3,1.7975495E-4,6.640723E-4,4.7545223E-3,1.661273E-3,6.585525E-3,9.126507E-3,5.967549E-3,1.3394348E-2,9.20734E-3],"split_indices":[59,59,59,59,59,59,59,59,57,58,3,59,58,59,12,0,17,9,0,48,51,12,0,6,55,15,59,26,24,0,0,0,0,0,0,0,0,0,0,0,0,0,0,0,0,0,0,0,0,0,0,0,0,0,0],"split_type":[0,0,0,0,0,0,0,0,0,0,0,0,0,0,0,0,0,0,0,0,0,0,0,0,0,0,0,0,0,0,0,0,0,0,0,0,0,0,0,0,0,0,0,0,0,0,0,0,0,0,0,0,0,0,0],"sum_hessian":[7.52E2,3.55E2,3.97E2,1.52E2,2.03E2,2.72E2,1.25E2,9.7E1,5.5E1,1.09E2,9.4E1,1.82E2,9E1,1E2,2.5E1,2.1E1,7.6E1,5.2E1,3E0,6.3E1,4.6E1,8.8E1,6E0,7.2E1,1.1E2,4.9E1,4.1E1,6.2E1,3.8E1,2.4E1,1E0,7.3E1,3E0,1E0,5.1E1,2E1,4.3E1,2.4E1,2.2E1,9E0,7.9E1,1E0,5E0,7.1E1,1E0,1.07E2,3E0,2E0,4.7E1,2E0,3.9E1,5E1,1.2E1,1.8E1,2E1],"tree_param":{"num_deleted":"0","num_feature":"60","num_nodes":"55","size_leaf_vector":"1"}},{"base_weights":[8.8087996E-5,-6.4588316E-2,4.88208E-2,-1.0410321E-1,-3.89167E-2,2.307183E-2,9.576253E-2,-1.3930156E-2,-9.5815785E-2,-5.3645562E-2,-2.4240013E-2,5.6237536E-3,3.439529E-2,7.504134E-2,1.2805133E-1,-5.785245E-3,-9.916767E-2,-5.7615023E-2,-3.7314016E-2,-2.7044687E-2,-7.6498967E-3,3.9150645E-3,9.678978E-3,2.831114E-2,4.3694366E-2,8.02673E-2,5.280377E-2,1.130921E-1,1.7597068E-2,-1.058941E-2,-7.5828843E-3,-4.9646054E-3,-6.7838463E-3,-3.9566667E-3,-9.85836E-4,-2.0518606E-3,-3.9830194E-3,-1.5450786E-3,2.0823405E-4,6.8915926E-4,-2.3500193E-3,2.8946304E-3,-2.933224E-4,3.543383E-3,5.1611285E-3,6.0304217E-3,8.551347E-3,2.2755861E-3,6.07715E-3,4.7090664E-3,1.1652197E-2],"categories":[],"categories_nodes":[],"categories_segments":[],"categories_sizes":[],"default_left":[0,0,0,0,0,0,0,0,0,0,0,0,0,0,0,0,0,0,0,0,0,0,0,0,0,0,0,0,0,0,0,0,0,0,0,0,0,0,0,0,0,0,0,0,0,0,0,0,0,0,0],"id":11,"left_children":[1,3,5,7,9,11,13,-1,15,17,19,21,23,25,27,-1,29,31,33,35,37,39,-1,41,43,45,47,49,-1,-1,-1,-1,-1,-1,-1,-1,-1,-1,-1,-1,-1,-1,-1,-1,-1,-1,-1,-1,-1,-1,-1],"loss_changes":[2.376501E0,3.2461786E-1,5.175321E-1,2.3699045E-2,4.1501462E-2,5.4929316E-2,9.208822E-2,0E0,7.751286E-3,4.20326E-3,4.4926293E-3,1.691202E-2,8.324474E-3,6.801784E-3,2.1675706E-2,0E0,7.040918E-3,2.9053092E-3,9.705927E-4,6.358519E-3,1.2468954E-3,9.138204E-3,0E0,2.1686628E-3,2.4220794E-3,2.6979446E-3,3.6447756E-3,5.1525235E-3,0E0,0E0,0E0,0E0,0E0,0E0,0E0,0E0,0E0,0E0,0E0,0E0,0E0,0E0,0E0,0E0,0E0,0E0,0E0,0E0,0E0,0E0,0E0],"parents":[2147483647,0,0,1,1,2,2,3,3,4,4,5,5,6,6,8,8,9,9,10,10,11,11,12,12,13,13,14,14,16,16,17,17,18,18,19,19,20,20,21,21,23,23,24,24,25,25,26,26,27,27],"right_children":[2,4,6,8,10,12,14,-1,16,18,20,22,24,26,28,-1,30,32,34,36,38,40,-1,42,44,46,48,50,-1,-1,-1,-1,-1,-1,-1,-1,-1,-1,-1,-1,-1,-1,-1,-1,-1,-1,-1,-1,-1,-1,-1],"split_conditions":[4.182058E-1,2.2251539E-1,6.2884784E-1,6.46438E-2,3.2673702E-1,5.180299E-1,7.4186456E-1,-1.3930156E-2,2.0932278E-1,4.599824E-1,4.8109058E-1,6.5831137E-1,5.637643E-1,7.176781E-1,9.173263E-1,-5.785245E-3,3.1354442E-1,3.1530344E-1,6.3632363E-1,3.4652594E-1,5.3649956E-1,5.457344E-1,9.678978E-3,7.4362355E-1,5.5189097E-1,5.6420404E-1,7.1459985E-1,5.5189097E-1,1.7597068E-2,-1.058941E-2,-7.5828843E-3,-4.9646054E-3,-6.7838463E-3,-3.9566667E-3,-9.85836E-4,-2.0518606E-3,-3.9830194E-3,-1.5450786E-3,2.0823405E-4,6.8915926E-4,-2.3500193E-3,2.8946304E-3,-2.933224E-4,3.543383E-3,5.1611285E-3,6.0304217E-3,8.551347E-3,2.2755861E-3,6.07715E-3,4.7090664E-3,1.1652197E-2],"split_indices":[59,58,59,59,59,59,59,0,5,3,19,6,59,25,59,0,30,0,2,27,0,50,0,0,39,32,31,19,0,0,0,0,0,0,0,0,0,0,0,0,0,0,0,0,0,0,0,0,0,0,0],"split_type":[0,0,0,0,0,0,0,0,0,0,0,0,0,0,0,0,0,0,0,0,0,0,0,0,0,0,0,0,0,0,0,0,0,0,0,0,0,0,0,0,0,0,0,0,0,0,0,0,0,0,0],"sum_hessian":[7.52E2,3.23E2,4.29E2,1.26E2,1.97E2,2.78E2,1.51E2,2.1E1,1.05E2,9.7E1,1E2,1.1E2,1.68E2,9.4E1,5.7E1,1E1,9.5E1,7.6E1,2.1E1,8.5E1,1.5E1,1.09E2,1E0,1.04E2,6.4E1,7.4E1,2E1,4.6E1,1.1E1,7.1E1,2.4E1,4.6E1,3E1,1.9E1,2E0,5.8E1,2.7E1,8E0,7E0,9.9E1,1E1,1.02E2,2E0,3.4E1,3E1,1.8E1,5.6E1,5E0,1.5E1,3E0,4.3E1],"tree_param":{"num_deleted":"0","num_feature":"60","num_nodes":"51","size_leaf_vector":"1"}},{"base_weights":[9.822705E-5,-5.3573016E-2,4.8105426E-2,-8.752207E-2,-2.6655145E-2,2.4245964E-2,8.656056E-2,-1.06992096E-1,-7.2603114E-2,-3.867106E-2,-1.2967332E-2,1.4395872E-2,3.4892287E-2,7.104416E-2,1.23031646E-1,-1.2194257E-1,-9.026617E-2,-7.683385E-2,-4.5763075E-2,-1.2423389E-2,-4.040147E-2,-1.0611966E-2,-4.1061662E-2,1.3081881E-2,9.19503E-3,2.8931508E-2,4.2420313E-2,7.399721E-2,4.1007254E-2,1.0591855E-1,1.5984003E-2,-5.9331707E-3,-1.2637364E-2,-9.17154E-3,-2.0496293E-3,-3.0259339E-3,-7.829337E-3,-4.7411365E-3,-1.1343539E-3,-1.7586738E-3,2.0444393E-4,-4.2008213E-3,-1.6873766E-3,-3.0307153E-3,-8.017418E-4,-1.1491925E-4,-4.7522206E-3,-6.516341E-5,1.8612227E-3,3.7913811E-3,1.856991E-3,4.843282E-3,2.789999E-3,5.338276E-3,7.736854E-3,2.1415115E-3,4.812644E-3,2.1859736E-3,1.0786227E-2],"categories":[],"categories_nodes":[],"categories_segments":[],"categories_sizes":[],"default_left":[0,0,0,0,0,0,0,0,0,0,0,0,0,0,0,0,0,0,0,0,0,0,0,0,0,0,0,0,0,0,0,0,0,0,0,0,0,0,0,0,0,0,0,0,0,0,0,0,0,0,0,0,0,0,0,0,0,0,0],"id":12,"left_children":[1,3,5,7,9,11,13,15,17,19,21,23,25,27,29,31,33,35,37,39,41,43,45,47,-1,49,51,53,55,57,-1,-1,-1,-1,-1,-1,-1,-1,-1,-1,-1,-1,-1,-1,-1,-1,-1,-1,-1,-1,-1,-1,-1,-1,-1,-1,-1,-1,-1],"loss_changes":[1.9427615E0,3.229928E-1,3.6307377E-1,3.7836313E-2,3.239286E-2,2.5399908E-2,7.727611E-2,5.4966807E-3,6.930709E-3,4.3125004E-3,5.8506355E-3,1.2044864E-2,4.067719E-3,6.633997E-3,1.0785818E-2,1.3798773E-3,1.6590953E-3,2.933085E-3,3.1318516E-4,6.3357456E-4,3.0336678E-3,4.304924E-3,1.7503826E-3,9.809818E-3,0E0,5.717844E-3,3.0139163E-3,2.6805997E-3,6.4312667E-4,3.0339062E-3,0E0,0E0,0E0,0E0,0E0,0E0,0E0,0E0,0E0,0E0,0E0,0E0,0E0,0E0,0E0,0E0,0E0,0E0,0E0,0E0,0E0,0E0,0E0,0E0,0E0,0E0,0E0,0E0,0E0],"parents":[2147483647,0,0,1,1,2,2,3,3,4,4,5,5,6,6,7,7,8,8,9,9,10,10,11,11,12,12,13,13,14,14,15,15,16,16,17,17,18,18,19,19,20,20,21,21,22,22,23,23,25,25,26,26,27,27,28,28,29,29],"right_children":[2,4,6,8,10,12,14,16,18,20,22,24,26,28,30,32,34,36,38,40,42,44,46,48,-1,50,52,54,56,58,-1,-1,-1,-1,-1,-1,-1,-1,-1,-1,-1,-1,-1,-1,-1,-1,-1,-1,-1,-1,-1,-1,-1,-1,-1,-1,-1,-1,-1],"split_conditions":[4.4547054E-1,2.6737028E-1,6.2884784E-1,1.3368514E-1,3.6543536E-1,5.369393E-1,7.8496045E-1,1.76781E-1,3.289358E-1,9.4986804E-2,5.8399296E-1,7.1064204E-1,5.514512E-1,7.07124E-1,9.173263E-1,1.3368514E-1,4.5118734E-1,8.6191736E-2,4.419525E-1,4.001759E-2,4.4371152E-1,7.651715E-2,5.2506596E-1,4.7845206E-1,9.19503E-3,4.9824098E-1,7.1899736E-1,5.5540895E-1,6.644679E-1,5.28584E-1,1.5984003E-2,-5.9331707E-3,-1.2637364E-2,-9.17154E-3,-2.0496293E-3,-3.0259339E-3,-7.829337E-3,-4.7411365E-3,-1.1343539E-3,-1.7586738E-3,2.0444393E-4,-4.2008213E-3,-1.6873766E-3,-3.0307153E-3,-8.017418E-4,-1.1491925E-4,-4.7522206E-3,-6.516341E-5,1.8612227E-3,3.7913811E-3,1.856991E-3,4.843282E-3,2.789999E-3,5.338276E-3,7.736854E-3,2.1415115E-3,4.812644E-3,2.1859736E-3,1.0786227E-2],"split_indices":[59,59,59,59,59,59,59,28,45,5,3,7,31,2,59,7,11,57,22,11,51,12,0,59,0,31,17,23,53,1,0,0,0,0,0,0,0,0,0,0,0,0,0,0,0,0,0,0,0,0,0,0,0,0,0,0,0,0,0],"split_type":[0,0,0,0,0,0,0,0,0,0,0,0,0,0,0,0,0,0,0,0,0,0,0,0,0,0,0,0,0,0,0,0,0,0,0,0,0,0,0,0,0,0,0,0,0,0,0,0,0,0,0,0,0,0,0,0,0,0,0],"sum_hessian":[7.52E2,3.55E2,3.97E2,1.56E2,1.99E2,2.46E2,1.51E2,6.5E1,9.1E1,1.05E2,9.4E1,1.29E2,1.17E2,1.08E2,4.3E1,3.1E1,3.4E1,7.7E1,1.4E1,7E0,9.8E1,8.8E1,6E0,1.28E2,1E0,6.8E1,4.9E1,9.7E1,1.1E1,3.2E1,1.1E1,3E0,2.8E1,3.3E1,1E0,3E0,7.4E1,1.3E1,1E0,5E0,2E0,9.1E1,7E0,9E0,7.9E1,1E0,5E0,3.7E1,9.1E1,3.5E1,3.3E1,3.3E1,1.6E1,1.6E1,8.1E1,4E0,7E0,1E0,3.1E1],"tree_param":{"num_deleted":"0","num_feature":"60","num_nodes":"59","size_leaf_vector":"1"}},{"base_weights":[1.0247294E-4,-5.051358E-2,4.1670963E-2,-8.504281E-2,-2.9785888E-2,2.0385206E-2,7.8226775E-2,-1.1440392E-2,-7.81467E-2,-4.3036625E-2,-1.7102443E-2,7.001694E-3,2.8552994E-2,6.935784E-2,1.3329384E-1,-5.2497983E-3,-8.1797615E-2,-4.6155173E-2,-2.6656011E-2,-1.51377E-2,-4.0506292E-2,5.324655E-3,8.735279E-3,2.3515517E-2,3.5786185E-2,5.9806254E-2,8.670749E-2,1.3664156E-2,3.4843415E-3,-9.07326E-3,-6.56266E-3,-3.4810167E-3,-5.256225E-3,-1.7311963E-3,-3.5114735E-3,-2.336858E-3,-9.4101665E-4,-1.0917336E-4,-4.5980983E-3,9.260266E-4,-1.1940858E-3,2.4306139E-3,-1.3383105E-4,1.2241802E-4,3.6863962E-3,6.3943923E-3,4.1196747E-3,1.0126716E-2,6.5245614E-3],"categories":[],"categories_nodes":[],"categories_segments":[],"categories_sizes":[],"default_left":[0,0,0,0,0,0,0,0,0,0,0,0,0,0,0,0,0,0,0,0,0,0,0,0,0,0,0,0,0,0,0,0,0,0,0,0,0,0,0,0,0,0,0,0,0,0,0,0,0],"id":13,"left_children":[1,3,5,7,9,11,13,-1,15,17,19,21,23,25,27,-1,29,31,33,35,37,39,-1,41,43,45,47,-1,-1,-1,-1,-1,-1,-1,-1,-1,-1,-1,-1,-1,-1,-1,-1,-1,-1,-1,-1,-1,-1],"loss_changes":[1.5864418E0,2.4080878E-1,3.2054627E-1,1.6774297E-2,3.5229877E-2,2.854959E-2,6.498963E-2,0E0,5.631745E-3,4.0823966E-3,4.4908896E-3,1.3144817E-2,5.097702E-3,1.6854644E-2,1.8306375E-3,0E0,7.193923E-3,4.4214875E-3,8.9383125E-4,4.682932E-3,1.6760603E-3,6.905609E-3,0E0,1.9778796E-3,2.3761243E-3,4.2186975E-3,7.4542463E-3,0E0,0E0,0E0,0E0,0E0,0E0,0E0,0E0,0E0,0E0,0E0,0E0,0E0,0E0,0E0,0E0,0E0,0E0,0E0,0E0,0E0,0E0],"parents":[2147483647,0,0,1,1,2,2,3,3,4,4,5,5,6,6,8,8,9,9,10,10,11,11,12,12,13,13,14,14,16,16,17,17,18,18,19,19,20,20,21,21,23,23,24,24,25,25,26,26],"right_children":[2,4,6,8,10,12,14,-1,16,18,20,22,24,26,28,-1,30,32,34,36,38,40,-1,42,44,46,48,-1,-1,-1,-1,-1,-1,-1,-1,-1,-1,-1,-1,-1,-1,-1,-1,-1,-1,-1,-1,-1,-1],"split_conditions":[4.3271768E-1,2.2251539E-1,6.2884784E-1,6.46438E-2,3.3245382E-1,5.219877E-1,8.9313984E-1,-1.1440392E-2,2.3922603E-1,3.6543536E-1,5.8399296E-1,6.5831137E-1,5.637643E-1,7.348285E-1,7.07124E-1,-5.2497983E-3,4.1512752E-1,2.708883E-1,4.2040458E-1,3.7950748E-1,5.2506596E-1,5.2990323E-1,8.735279E-3,6.332454E-1,3.7950748E-1,7.211961E-1,6.495163E-1,1.3664156E-2,3.4843415E-3,-9.07326E-3,-6.56266E-3,-3.4810167E-3,-5.256225E-3,-1.7311963E-3,-3.5114735E-3,-2.336858E-3,-9.4101665E-4,-1.0917336E-4,-4.5980983E-3,9.260266E-4,-1.1940858E-3,2.4306139E-3,-1.3383105E-4,1.2241802E-4,3.6863962E-3,6.3943923E-3,4.1196747E-3,1.0126716E-2,6.5245614E-3],"split_indices":[59,58,59,59,59,59,59,0,1,50,3,6,59,59,12,0,10,50,47,59,0,1,0,55,35,24,24,0,0,0,0,0,0,0,0,0,0,0,0,0,0,0,0,0,0,0,0,0,0],"split_type":[0,0,0,0,0,0,0,0,0,0,0,0,0,0,0,0,0,0,0,0,0,0,0,0,0,0,0,0,0,0,0,0,0,0,0,0,0,0,0,0,0,0,0,0,0,0,0,0,0],"sum_hessian":[7.52E2,3.39E2,4.13E2,1.26E2,2.13E2,2.62E2,1.51E2,2.1E1,1.05E2,1.03E2,1.1E2,1E2,1.62E2,1.32E2,1.9E1,1.5E1,9E1,8.5E1,1.8E1,1.03E2,7E0,9.9E1,1E0,9.8E1,6.4E1,8.8E1,4.4E1,1.8E1,1E0,5.5E1,3.5E1,3.3E1,5.2E1,1E1,8E0,4.1E1,6.2E1,1E0,6E0,8.1E1,1.8E1,9.5E1,3E0,2E0,6.2E1,7E1,1.8E1,2.4E1,2E1],"tree_param":{"num_deleted":"0","num_feature":"60","num_nodes":"49","size_leaf_vector":"1"}},{"base_weights":[9.833205E-5,-4.3506242E-2,3.951838E-2,-7.151247E-2,-2.1523647E-2,2.2529699E-2,7.5743884E-2,-8.212855E-2,-5.2980997E-2,-3.1772032E-2,-1.0752574E-2,1.4111034E-2,3.435521E-2,6.661021E-2,1.2082186E-1,-8.5925385E-2,-4.7757432E-2,-5.4891404E-2,-2.0988246E-3,-2.499761E-2,-3.769134E-2,-8.82272E-3,-3.513167E-2,-7.060894E-3,1.6677354E-2,2.8795669E-2,4.293549E-2,5.7581805E-2,7.921174E-2,1.5151209E-2,9.264159E-3,-1.0575147E-2,-7.922074E-3,-8.4268156E-4,-5.056687E-3,-2.4302155E-3,-5.616434E-3,-2.8875887E-3,-5.423874E-5,-4.1086543E-3,-1.3457515E-3,-1.9209947E-3,-6.109825E-4,-1.03715065E-4,-4.0641236E-3,-2.2293413E-3,-1.1163588E-4,1.7571574E-3,-1.8789709E-3,3.0592436E-3,7.99776E-4,8.9951156E-4,4.4407635E-3,2.253616E-3,5.9479326E-3,9.352427E-3,5.879175E-3],"categories":[],"categories_nodes":[],"categories_segments":[],"categories_sizes":[],"default_left":[0,0,0,0,0,0,0,0,0,0,0,0,0,0,0,0,0,0,0,0,0,0,0,0,0,0,0,0,0,0,0,0,0,0,0,0,0,0,0,0,0,0,0,0,0,0,0,0,0,0,0,0,0,0,0,0,0],"id":14,"left_children":[1,3,5,7,9,11,13,15,17,19,21,23,25,27,29,31,33,35,-1,37,39,41,43,45,47,49,51,53,55,-1,-1,-1,-1,-1,-1,-1,-1,-1,-1,-1,-1,-1,-1,-1,-1,-1,-1,-1,-1,-1,-1,-1,-1,-1,-1,-1,-1],"loss_changes":[1.2960466E0,2.1886331E-1,2.420013E-1,2.653569E-2,2.1956362E-2,2.6494622E-2,4.38298E-2,8.685529E-3,2.5150627E-3,3.1880885E-3,4.3948526E-3,8.811183E-3,4.106313E-3,7.612407E-3,3.260851E-3,3.1869411E-3,8.9984573E-4,8.1562996E-4,0E0,4.8213936E-3,3.8078576E-3,2.5314996E-3,1.2727696E-3,1.6050169E-3,4.865464E-3,2.4085306E-3,1.6990826E-3,3.048569E-3,6.7765415E-3,0E0,0E0,0E0,0E0,0E0,0E0,0E0,0E0,0E0,0E0,0E0,0E0,0E0,0E0,0E0,0E0,0E0,0E0,0E0,0E0,0E0,0E0,0E0,0E0,0E0,0E0,0E0,0E0],"parents":[2147483647,0,0,1,1,2,2,3,3,4,4,5,5,6,6,7,7,8,8,9,9,10,10,11,11,12,12,13,13,14,14,15,15,16,16,17,17,19,19,20,20,21,21,22,22,23,23,24,24,25,25,26,26,27,27,28,28],"right_children":[2,4,6,8,10,12,14,16,18,20,22,24,26,28,30,32,34,36,-1,38,40,42,44,46,48,50,52,54,56,-1,-1,-1,-1,-1,-1,-1,-1,-1,-1,-1,-1,-1,-1,-1,-1,-1,-1,-1,-1,-1,-1,-1,-1,-1,-1,-1,-1],"split_conditions":[4.4635004E-1,2.6737028E-1,6.596306E-1,1.76781E-1,3.6279684E-1,5.5540895E-1,8.9313984E-1,3.1354442E-1,3.1002638E-1,3.5971856E-1,5.8399296E-1,4.2040458E-1,6.112577E-1,7.4010557E-1,5.9146875E-1,5.5848725E-2,4.0765172E-1,1.24010555E-1,-2.0988246E-3,3.2585752E-1,4.4371152E-1,1.12137206E-1,5.2506596E-1,2.6341248E-1,6.332454E-1,6.2401056E-1,5.8795077E-1,5.5540895E-1,6.4599824E-1,1.5151209E-2,9.264159E-3,-1.0575147E-2,-7.922074E-3,-8.4268156E-4,-5.056687E-3,-2.4302155E-3,-5.616434E-3,-2.8875887E-3,-5.423874E-5,-4.1086543E-3,-1.3457515E-3,-1.9209947E-3,-6.109825E-4,-1.03715065E-4,-4.0641236E-3,-2.2293413E-3,-1.1163588E-4,1.7571574E-3,-1.8789709E-3,3.0592436E-3,7.99776E-4,8.9951156E-4,4.4407635E-3,2.253616E-3,5.9479326E-3,9.352427E-3,5.879175E-3],"split_indices":[59,59,59,59,58,59,59,30,57,28,3,49,58,59,4,59,5,57,0,4,49,12,0,28,54,56,59,26,23,0,0,0,0,0,0,0,0,0,0,0,0,0,0,0,0,0,0,0,0,0,0,0,0,0,0,0,0],"split_type":[0,0,0,0,0,0,0,0,0,0,0,0,0,0,0,0,0,0,0,0,0,0,0,0,0,0,0,0,0,0,0,0,0,0,0,0,0,0,0,0,0,0,0,0,0,0,0,0,0,0,0,0,0,0,0,0,0],"sum_hessian":[7.52E2,3.57E2,3.95E2,1.56E2,2.01E2,2.7E2,1.25E2,9.7E1,5.9E1,1.02E2,9.9E1,1.59E2,1.11E2,1.06E2,1.9E1,8.6E1,1.1E1,5.5E1,4E0,5E1,5.2E1,9.3E1,6E0,1.7E1,1.42E2,7E1,4.1E1,6.5E1,4.1E1,7E0,1.2E1,1.8E1,6.8E1,1E0,1E1,3E0,5.2E1,4.3E1,7E0,4.5E1,7E0,1.8E1,7.5E1,1E0,5E0,4E0,1.3E1,1.39E2,3E0,6.4E1,6E0,2E0,3.9E1,4E0,6.1E1,2.2E1,1.9E1],"tree_param":{"num_deleted":"0","num_feature":"60","num_nodes":"57","size_leaf_vector":"1"}},{"base_weights":[9.506506E-5,-4.306522E-2,3.2615617E-2,-7.1463645E-2,-2.709736E-2,1.5392688E-2,6.401418E-2,-9.3750864E-2,-6.555015E-2,-3.7955597E-2,-1.6979896E-2,2.212982E-3,2.229454E-2,5.6623656E-2,1.09960444E-1,-9.599754E-3,-2.3285404E-3,-4.1658194E-3,-6.818292E-2,-3.796257E-3,-3.8972937E-2,-3.578865E-2,-1.5153829E-2,5.254804E-4,8.210656E-3,1.8387191E-2,2.9807806E-2,4.4375204E-2,6.6083E-2,7.100819E-3,1.2547256E-2,-7.491469E-3,-5.4257177E-3,7.439703E-5,-5.5576564E-4,-1.114407E-3,-4.005005E-3,-3.9279605E-3,-1.5713553E-3,-4.7912533E-4,-1.7943647E-3,7.2010024E-4,-8.6051226E-4,3.4985587E-3,1.6277585E-3,2.4720787E-3,3.97517E-3,4.765318E-3,2.701906E-3,1.1032629E-2,6.120737E-3],"categories":[],"categories_nodes":[],"categories_segments":[],"categories_sizes":[],"default_left":[0,0,0,0,0,0,0,0,0,0,0,0,0,0,0,0,0,0,0,0,0,0,0,0,0,0,0,0,0,0,0,0,0,0,0,0,0,0,0,0,0,0,0,0,0,0,0,0,0,0,0],"id":15,"left_children":[1,3,5,7,9,11,13,15,17,19,21,23,25,27,29,-1,-1,-1,31,33,35,37,39,41,-1,43,45,47,49,-1,-1,-1,-1,-1,-1,-1,-1,-1,-1,-1,-1,-1,-1,-1,-1,-1,-1,-1,-1,-1,-1],"loss_changes":[1.0583125E0,1.4498526E-1,2.3154801E-1,9.142876E-3,2.2315815E-2,2.5329717E-2,4.5387805E-2,1.2475401E-3,3.1353235E-3,3.3272058E-3,3.2357275E-3,1.3034446E-2,4.8242435E-3,1.2477219E-2,3.175065E-3,0E0,0E0,0E0,3.809899E-3,3.6123347E-5,2.4612248E-3,1.3507903E-5,2.8628167E-3,5.913314E-3,0E0,3.7374943E-3,2.1029785E-3,2.1829307E-3,8.994371E-3,0E0,0E0,0E0,0E0,0E0,0E0,0E0,0E0,0E0,0E0,0E0,0E0,0E0,0E0,0E0,0E0,0E0,0E0,0E0,0E0,0E0,0E0],"parents":[2147483647,0,0,1,1,2,2,3,3,4,4,5,5,6,6,7,7,8,8,9,9,10,10,11,11,12,12,13,13,14,14,18,18,19,19,20,20,21,21,22,22,23,23,25,25,26,26,27,27,28,28],"right_children":[2,4,6,8,10,12,14,16,18,20,22,24,26,28,30,-1,-1,-1,32,34,36,38,40,42,-1,44,46,48,50,-1,-1,-1,-1,-1,-1,-1,-1,-1,-1,-1,-1,-1,-1,-1,-1,-1,-1,-1,-1,-1,-1],"split_conditions":[4.182058E-1,2.0272647E-1,6.2884784E-1,6.46438E-2,3.2145998E-1,5.0791556E-1,8.9313984E-1,1.8293755E-1,2.3922603E-1,1.8029904E-2,7.9155676E-2,6.4423925E-1,5.5277044E-1,7.07124E-1,5.562885E-1,-9.599754E-3,-2.3285404E-3,-4.1658194E-3,3.3685136E-1,1.2840809E-1,1.21811785E-1,1.06420405E-1,3.289358E-1,4.3403694E-1,8.210656E-3,4.8504838E-1,5.9542656E-1,6.9613016E-1,5.5189097E-1,7.100819E-3,1.2547256E-2,-7.491469E-3,-5.4257177E-3,7.439703E-5,-5.5576564E-4,-1.114407E-3,-4.005005E-3,-3.9279605E-3,-1.5713553E-3,-4.7912533E-4,-1.7943647E-3,7.2010024E-4,-8.6051226E-4,3.4985587E-3,1.6277585E-3,2.4720787E-3,3.97517E-3,4.765318E-3,2.701906E-3,1.1032629E-2,6.120737E-3],"split_indices":[59,59,59,59,58,59,59,29,1,13,27,5,31,59,30,0,0,0,17,2,52,11,54,2,0,57,59,1,31,0,0,0,0,0,0,0,0,0,0,0,0,0,0,0,0,0,0,0,0,0,0],"split_type":[0,0,0,0,0,0,0,0,0,0,0,0,0,0,0,0,0,0,0,0,0,0,0,0,0,0,0,0,0,0,0,0,0,0,0,0,0,0,0,0,0,0,0,0,0,0,0,0,0,0,0],"sum_hessian":[7.52E2,3.23E2,4.29E2,1.15E2,2.08E2,2.78E2,1.51E2,2.1E1,9.4E1,9.9E1,1.09E2,9.6E1,1.82E2,1.32E2,1.9E1,2E1,1E0,1.1E1,8.3E1,3E0,9.6E1,8E0,1.01E2,9.5E1,1E0,1.22E2,6E1,6E1,7.2E1,7E0,1.2E1,5.3E1,3E1,1E0,2E0,4E0,9.2E1,6E0,2E0,2.2E1,7.9E1,5.5E1,4E1,1.2E1,1.1E2,4.2E1,1.8E1,4.9E1,1.1E1,5E0,6.7E1],"tree_param":{"num_deleted":"0","num_feature":"60","num_nodes":"51","size_leaf_vector":"1"}},{"base_weights":[1.1414839E-4,-3.699488E-2,3.1083204E-2,-6.289253E-2,-2.1667706E-2,1.7318737E-2,6.2079664E-2,-8.081659E-2,-5.6515843E-2,-3.1708762E-2,-1.2485999E-2,8.387757E-3,2.6067428E-2,5.442151E-2,9.9946804E-2,-8.376151E-2,-2.5410086E-3,-2.9878446E-3,-5.85745E-2,-3.4037013E-2,-1.8823296E-2,-1.9219605E-2,-8.348587E-3,7.348217E-3,7.800123E-3,2.2163903E-2,3.472073E-2,4.6805702E-2,6.5093465E-2,1.3090654E-2,7.7327876E-3,-3.2567296E-3,-8.634749E-3,-6.74454E-3,-5.096549E-3,-2.8123863E-3,-4.5281253E-3,-1.0769776E-3,-2.7543975E-3,-1.3912607E-3,-3.339337E-3,8.852199E-4,-1.1543117E-3,1.0048762E-3,-1.6186318E-3,2.5318833E-3,1.4799997E-3,1.0467947E-3,3.6277992E-3,5.0393795E-3,2.8300886E-3,3.3435181E-3,7.1559087E-3],"categories":[],"categories_nodes":[],"categories_segments":[],"categories_sizes":[],"default_left":[0,0,0,0,0,0,0,0,0,0,0,0,0,0,0,0,0,0,0,0,0,0,0,0,0,0,0,0,0,0,0,0,0,0,0,0,0,0,0,0,0,0,0,0,0,0,0,0,0,0,0,0,0],"id":16,"left_children":[1,3,5,7,9,11,13,15,17,19,21,23,25,27,29,31,-1,-1,33,35,37,39,41,43,-1,45,47,49,51,-1,-1,-1,-1,-1,-1,-1,-1,-1,-1,-1,-1,-1,-1,-1,-1,-1,-1,-1,-1,-1,-1,-1,-1],"loss_changes":[8.6652124E-1,1.347869E-1,1.742779E-1,9.948194E-3,1.9610196E-2,2.2127785E-2,3.1099796E-2,2.9298365E-3,3.5691261E-3,2.4493635E-3,3.0434094E-3,9.775169E-3,4.0945336E-3,5.6497455E-3,3.8827807E-3,1.0271221E-3,0E0,0E0,2.5700033E-3,4.444562E-3,9.675361E-4,2.7698781E-3,4.1134157E-3,9.1876155E-3,0E0,1.9950047E-3,1.2442656E-3,2.956003E-3,6.2044114E-3,0E0,0E0,0E0,0E0,0E0,0E0,0E0,0E0,0E0,0E0,0E0,0E0,0E0,0E0,0E0,0E0,0E0,0E0,0E0,0E0,0E0,0E0,0E0,0E0],"parents":[2147483647,0,0,1,1,2,2,3,3,4,4,5,5,6,6,7,7,8,8,9,9,10,10,11,11,12,12,13,13,14,14,15,15,18,18,19,19,20,20,21,21,22,22,23,23,25,25,26,26,27,27,28,28],"right_children":[2,4,6,8,10,12,14,16,18,20,22,24,26,28,30,32,-1,-1,34,36,38,40,42,44,-1,46,48,50,52,-1,-1,-1,-1,-1,-1,-1,-1,-1,-1,-1,-1,-1,-1,-1,-1,-1,-1,-1,-1,-1,-1,-1,-1],"split_conditions":[4.3403694E-1,2.2251539E-1,6.596306E-1,8.6191736E-2,3.3245382E-1,5.369393E-1,8.9313984E-1,4.5118734E-1,1.9613017E-1,3.6543536E-1,3.7950748E-1,7.1064204E-1,6.112577E-1,7.4010557E-1,5.628848E-1,1.8293755E-1,-2.5410086E-3,-2.9878446E-3,2.8188214E-1,3.2541776E-1,4.2040458E-1,3.8962182E-1,3.2233948E-1,5.8135444E-1,7.800123E-3,5.659631E-1,5.8795077E-1,7.1899736E-1,6.1565524E-1,1.3090654E-2,7.7327876E-3,-3.2567296E-3,-8.634749E-3,-6.74454E-3,-5.096549E-3,-2.8123863E-3,-4.5281253E-3,-1.0769776E-3,-2.7543975E-3,-1.3912607E-3,-3.339337E-3,8.852199E-4,-1.1543117E-3,1.0048762E-3,-1.6186318E-3,2.5318833E-3,1.4799997E-3,1.0467947E-3,3.6277992E-3,5.0393795E-3,2.8300886E-3,3.3435181E-3,7.1559087E-3],"split_indices":[57,58,59,59,59,59,59,0,5,50,59,7,58,59,20,1,0,0,22,49,47,56,52,51,0,51,59,26,42,0,0,0,0,0,0,0,0,0,0,0,0,0,0,0,0,0,0,0,0,0,0,0,0],"split_type":[0,0,0,0,0,0,0,0,0,0,0,0,0,0,0,0,0,0,0,0,0,0,0,0,0,0,0,0,0,0,0,0,0,0,0,0,0,0,0,0,0,0,0,0,0,0,0,0,0,0,0,0,0],"sum_hessian":[7.52E2,3.42E2,4.1E2,1.26E2,2.16E2,2.85E2,1.25E2,3E1,9.6E1,1.02E2,1.14E2,1.42E2,1.43E2,1.06E2,1.9E1,2.8E1,2E0,8E0,8.8E1,8.5E1,1.7E1,4.2E1,7.2E1,1.41E2,1E0,1.01E2,4.2E1,6.5E1,4.1E1,6E0,1.3E1,2E0,2.6E1,3.7E1,5.1E1,5.8E1,2.7E1,1E1,7E0,3.2E1,1E1,1.1E1,6.1E1,1.27E2,1.4E1,6.9E1,3.2E1,3E0,3.9E1,5.3E1,1.2E1,8E0,3.3E1],"tree_param":{"num_deleted":"0","num_feature":"60","num_nodes":"53","size_leaf_vector":"1"}},{"base_weights":[1.1552568E-4,-3.3730976E-2,2.791189E-2,-5.6833677E-2,-1.9862872E-2,1.5489609E-2,5.6182742E-2,-7.3200494E-2,-5.101713E-2,-2.8593903E-2,-1.1503501E-2,7.4621267E-3,2.3521017E-2,4.915103E-2,9.099328E-2,-7.5857595E-2,-2.3115005E-3,-2.8418337E-3,-5.300544E-2,-3.4979448E-2,-2.3883004E-2,-9.888417E-3,-3.1061642E-2,6.4915046E-3,7.410118E-3,1.998685E-2,3.135739E-2,4.2244356E-2,5.8834113E-2,1.1649135E-2,6.8302676E-3,-7.72307E-3,-1.8705375E-3,-5.760601E-3,-4.108972E-3,-2.7882063E-3,-4.477007E-3,-2.4737797E-3,1.4588237E-4,-2.6357626E-3,-8.2414254E-4,-3.869285E-3,-5.445341E-4,-1.7709091E-4,1.1270622E-3,3.5650035E-5,2.099505E-3,1.4897244E-3,3.3623974E-3,1.2889504E-3,4.3930323E-3,7.1901805E-3,4.0864563E-3],"categories":[],"categories_nodes":[],"categories_segments":[],"categories_sizes":[],"default_left":[0,0,0,0,0,0,0,0,0,0,0,0,0,0,0,0,0,0,0,0,0,0,0,0,0,0,0,0,0,0,0,0,0,0,0,0,0,0,0,0,0,0,0,0,0,0,0,0,0,0,0,0,0],"id":17,"left_children":[1,3,5,7,9,11,13,15,17,19,21,23,25,27,29,31,-1,-1,33,35,37,39,41,43,-1,45,47,49,51,-1,-1,-1,-1,-1,-1,-1,-1,-1,-1,-1,-1,-1,-1,-1,-1,-1,-1,-1,-1,-1,-1,-1,-1],"loss_changes":[7.093712E-1,1.0780391E-1,1.4452177E-1,8.355707E-3,1.5290067E-2,1.8456884E-2,2.6369572E-2,2.372101E-3,2.8522313E-3,2.29308E-3,3.19912E-3,8.96245E-3,3.3613518E-3,4.6705306E-3,3.6146492E-3,8.3117187E-4,0E0,0E0,2.4570525E-3,1.6702078E-3,1.4007986E-3,2.6037404E-3,1.3531707E-3,5.7455814E-3,0E0,2.011232E-3,1.1033528E-3,2.7001798E-3,6.924227E-3,0E0,0E0,0E0,0E0,0E0,0E0,0E0,0E0,0E0,0E0,0E0,0E0,0E0,0E0,0E0,0E0,0E0,0E0,0E0,0E0,0E0,0E0,0E0,0E0],"parents":[2147483647,0,0,1,1,2,2,3,3,4,4,5,5,6,6,7,7,8,8,9,9,10,10,11,11,12,12,13,13,14,14,15,15,18,18,19,19,20,20,21,21,22,22,23,23,25,25,26,26,27,27,28,28],"right_children":[2,4,6,8,10,12,14,16,18,20,22,24,26,28,30,32,-1,-1,34,36,38,40,42,44,-1,46,48,50,52,-1,-1,-1,-1,-1,-1,-1,-1,-1,-1,-1,-1,-1,-1,-1,-1,-1,-1,-1,-1,-1,-1,-1,-1],"split_conditions":[4.3271768E-1,2.2251539E-1,6.596306E-1,8.6191736E-2,3.3245382E-1,5.369393E-1,8.9313984E-1,1.644679E-1,2.0932278E-1,2.7792436E-1,5.8399296E-1,7.1064204E-1,6.112577E-1,7.4010557E-1,5.9146875E-1,4.5118734E-1,-2.3115005E-3,-2.8418337E-3,2.9903254E-1,4.0413368E-1,6.433597E-1,1.76781E-1,4.2084432E-1,4.7845206E-1,7.410118E-3,2.6341248E-1,5.976253E-1,5.5540895E-1,6.495163E-1,1.1649135E-2,6.8302676E-3,-7.72307E-3,-1.8705375E-3,-5.760601E-3,-4.108972E-3,-2.7882063E-3,-4.477007E-3,-2.4737797E-3,1.4588237E-4,-2.6357626E-3,-8.2414254E-4,-3.869285E-3,-5.445341E-4,-1.7709091E-4,1.1270622E-3,3.5650035E-5,2.099505E-3,1.4897244E-3,3.3623974E-3,1.2889504E-3,4.3930323E-3,7.1901805E-3,4.0864563E-3],"split_indices":[59,58,59,59,59,59,59,43,5,59,3,7,58,59,4,0,0,0,32,13,2,41,25,59,0,15,59,26,24,0,0,0,0,0,0,0,0,0,0,0,0,0,0,0,0,0,0,0,0,0,0,0,0],"split_type":[0,0,0,0,0,0,0,0,0,0,0,0,0,0,0,0,0,0,0,0,0,0,0,0,0,0,0,0,0,0,0,0,0,0,0,0,0,0,0,0,0,0,0,0,0,0,0,0,0,0,0,0,0],"sum_hessian":[7.52E2,3.39E2,4.13E2,1.26E2,2.13E2,2.88E2,1.25E2,3E1,9.6E1,1.03E2,1.1E2,1.45E2,1.43E2,1.06E2,1.9E1,2.8E1,2E0,9E0,8.7E1,4.1E1,6.2E1,1.03E2,7E0,1.44E2,1E0,1.01E2,4.2E1,6.5E1,4.1E1,7E0,1.2E1,2.7E1,1E0,6E1,2.7E1,2.6E1,1.5E1,6E1,2E0,8E0,9.5E1,5E0,2E0,5.3E1,9.1E1,5E0,9.6E1,6E0,3.6E1,4E0,6.1E1,2.2E1,1.9E1],"tree_param":{"num_deleted":"0","num_feature":"60","num_nodes":"53","size_leaf_vector":"1"}},{"base_weights":[1.1552768E-4,-3.0254927E-2,2.5460904E-2,-5.1344145E-2,-1.7772963E-2,1.6341705E-2,5.6903113E-2,-7.1809046E-2,-4.7305822E-2,-2.3418372E-2,-6.99111E-3,9.641051E-3,2.7885223E-2,5.043312E-2,9.234129E-2,-7.394866E-3,-1.6648009E-3,-3.2494407E-2,-5.0071627E-2,-2.9559776E-2,-1.8428428E-2,8.173704E-3,-9.962227E-3,-4.6078307E-3,1.1748236E-2,1.762974E-2,3.0342232E-2,6.194214E-2,3.7375547E-2,5.8833364E-4,9.905584E-3,-1.2110327E-3,-3.408651E-3,-6.81808E-3,-4.492044E-3,-3.2463123E-3,-1.3147617E-3,-1.4260518E-3,-2.43649E-3,2.428493E-4,2.0493306E-3,-2.1333927E-3,-5.3951447E-4,1.0941619E-3,-1.1730843E-3,4.1346307E-4,1.558452E-3,3.245646E-3,1.0060658E-3,3.112925E-3,5.048797E-4,9.730995E-4,6.5808E-3,2.1664712E-3,4.593546E-3],"categories":[],"categories_nodes":[],"categories_segments":[],"categories_sizes":[],"default_left":[0,0,0,0,0,0,0,0,0,0,0,0,0,0,0,0,0,0,0,0,0,0,0,0,0,0,0,0,0,0,0,0,0,0,0,0,0,0,0,0,0,0,0,0,0,0,0,0,0,0,0,0,0,0,0],"id":18,"left_children":[1,3,5,7,9,11,13,15,17,19,21,23,25,27,29,-1,-1,31,33,35,37,39,41,43,45,47,49,51,53,-1,-1,-1,-1,-1,-1,-1,-1,-1,-1,-1,-1,-1,-1,-1,-1,-1,-1,-1,-1,-1,-1,-1,-1,-1,-1],"loss_changes":[5.803925E-1,8.9377046E-2,1.16915226E-1,7.098794E-3,1.30446255E-2,2.4482876E-2,1.6437143E-2,1.0113493E-3,2.8381795E-3,3.806889E-3,3.505717E-3,6.1792377E-3,2.4132207E-3,9.707272E-3,6.9640726E-3,0E0,0E0,2.3627281E-4,5.3328127E-3,2.5275014E-3,1.6566999E-3,8.703555E-4,3.2087718E-3,3.1188447E-3,5.134579E-3,2.479082E-3,1.6941279E-3,7.6351166E-3,4.3841563E-3,0E0,0E0,0E0,0E0,0E0,0E0,0E0,0E0,0E0,0E0,0E0,0E0,0E0,0E0,0E0,0E0,0E0,0E0,0E0,0E0,0E0,0E0,0E0,0E0,0E0,0E0],"parents":[2147483647,0,0,1,1,2,2,3,3,4,4,5,5,6,6,7,7,8,8,9,9,10,10,11,11,12,12,13,13,14,14,17,17,18,18,19,19,20,20,21,21,22,22,23,23,24,24,25,25,26,26,27,27,28,28],"right_children":[2,4,6,8,10,12,14,16,18,20,22,24,26,28,30,-1,-1,32,34,36,38,40,42,44,46,48,50,52,54,-1,-1,-1,-1,-1,-1,-1,-1,-1,-1,-1,-1,-1,-1,-1,-1,-1,-1,-1,-1,-1,-1,-1,-1,-1,-1],"split_conditions":[4.3403694E-1,2.2251539E-1,7.07124E-1,5.5848725E-2,3.7818822E-1,5.694811E-1,8.7115216E-1,1.76781E-1,2.6077396E-1,2.9595426E-1,3.2233948E-1,4.4547054E-1,5.562885E-1,6.4599824E-1,5.28584E-1,-7.394866E-3,-1.6648009E-3,1.06420405E-1,1.8865435E-1,4.4547054E-1,3.8434476E-1,3.1222516E-1,3.7950748E-1,4.5778364E-1,4.5778364E-1,4.8724714E-1,8.201407E-1,5.5189097E-1,7.05365E-1,5.8833364E-4,9.905584E-3,-1.2110327E-3,-3.408651E-3,-6.81808E-3,-4.492044E-3,-3.2463123E-3,-1.3147617E-3,-1.4260518E-3,-2.43649E-3,2.428493E-4,2.0493306E-3,-2.1333927E-3,-5.3951447E-4,1.0941619E-3,-1.1730843E-3,4.1346307E-4,1.558452E-3,3.245646E-3,1.0060658E-3,3.112925E-3,5.048797E-4,9.730995E-4,6.5808E-3,2.1664712E-3,4.593546E-3],"split_indices":[57,58,59,59,59,59,33,29,1,59,52,59,54,23,1,0,0,19,28,3,29,52,45,3,32,52,23,19,29,0,0,0,0,0,0,0,0,0,0,0,0,0,0,0,0,0,0,0,0,0,0,0,0,0,0],"split_type":[0,0,0,0,0,0,0,0,0,0,0,0,0,0,0,0,0,0,0,0,0,0,0,0,0,0,0,0,0,0,0,0,0,0,0,0,0,0,0,0,0,0,0,0,0,0,0,0,0,0,0,0,0,0,0],"sum_hessian":[7.52E2,3.42E2,4.1E2,1.26E2,2.16E2,3.19E2,9.1E1,1.8E1,1.08E2,1.41E2,7.5E1,2.03E2,1.16E2,7.9E1,1.2E1,1.7E1,1E0,1.9E1,8.9E1,6.1E1,8E1,1.2E1,6.3E1,2.6E1,1.77E2,2.4E1,9.2E1,4E1,3.9E1,1E0,1.1E1,2E0,1.7E1,1.7E1,7.2E1,5.1E1,1E1,4.9E1,3.1E1,9E0,3E0,1.7E1,4.6E1,8E0,1.8E1,6E1,1.17E2,7E0,1.7E1,8.9E1,3E0,3E0,3.7E1,1.5E1,2.4E1],"tree_param":{"num_deleted":"0","num_feature":"60","num_nodes":"55","size_leaf_vector":"1"}},{"base_weights":[1.0501014E-4,-2.8779067E-2,2.1868583E-2,-4.7817104E-2,-1.8074803E-2,1.0263661E-2,4.3025848E-2,-6.510497E-2,-4.3977447E-2,-2.5261968E-2,-1.13766985E-2,1.5071394E-3,1.4849011E-2,3.7788853E-2,7.570058E-2,-6.696462E-2,-1.5815608E-3,-4.472614E-2,-5.3601116E-3,-2.104002E-2,-3.357611E-2,-2.7678682E-2,-9.826751E-3,7.2486386E-5,6.9616917E-3,1.2498901E-2,2.3205854E-2,3.22798E-2,4.7844782E-2,1.012105E-2,5.753844E-2,-6.8599964E-3,-1.958192E-3,-2.9888852E-3,-4.7104787E-3,-7.0026296E-4,-1.0375381E-4,-2.3826116E-3,-9.4216684E-4,-3.653601E-4,-3.5449155E-3,-3.085948E-3,-1.1030595E-3,-9.686053E-5,-1.2250635E-3,2.579094E-4,-1.7688692E-3,1.4567141E-3,-4.0723597E-5,2.6380215E-3,7.6076837E-4,3.549958E-3,1.939658E-3,8.369336E-3,4.1271374E-3,5.9757275E-3,1.4346779E-3],"categories":[],"categories_nodes":[],"categories_segments":[],"categories_sizes":[],"default_left":[0,0,0,0,0,0,0,0,0,0,0,0,0,0,0,0,0,0,0,0,0,0,0,0,0,0,0,0,0,0,0,0,0,0,0,0,0,0,0,0,0,0,0,0,0,0,0,0,0,0,0,0,0,0,0,0,0],"id":19,"left_children":[1,3,5,7,9,11,13,15,17,19,21,23,25,27,29,31,-1,33,35,37,39,41,43,45,-1,47,49,51,53,-1,55,-1,-1,-1,-1,-1,-1,-1,-1,-1,-1,-1,-1,-1,-1,-1,-1,-1,-1,-1,-1,-1,-1,-1,-1,-1,-1],"loss_changes":[4.7398075E-1,6.5163076E-2,1.05135605E-1,4.8368573E-3,9.77394E-3,1.117995E-2,2.3149222E-2,6.8248063E-4,2.5936961E-3,2.8037503E-3,2.5074026E-3,9.473202E-3,3.3039823E-3,5.8235824E-3,3.4428164E-3,5.143881E-5,0E0,1.9801855E-3,1.4034216E-5,2.0090379E-3,1.6639642E-3,1.3618916E-4,2.1781875E-3,4.3195705E-3,0E0,3.8764141E-3,1.7303601E-3,3.003247E-3,7.1499944E-3,0E0,4.843697E-4,0E0,0E0,0E0,0E0,0E0,0E0,0E0,0E0,0E0,0E0,0E0,0E0,0E0,0E0,0E0,0E0,0E0,0E0,0E0,0E0,0E0,0E0,0E0,0E0,0E0,0E0],"parents":[2147483647,0,0,1,1,2,2,3,3,4,4,5,5,6,6,7,7,8,8,9,9,10,10,11,11,12,12,13,13,14,14,15,15,17,17,18,18,19,19,20,20,21,21,22,22,23,23,25,25,26,26,27,27,28,28,30,30],"right_children":[2,4,6,8,10,12,14,16,18,20,22,24,26,28,30,32,-1,34,36,38,40,42,44,46,-1,48,50,52,54,-1,56,-1,-1,-1,-1,-1,-1,-1,-1,-1,-1,-1,-1,-1,-1,-1,-1,-1,-1,-1,-1,-1,-1,-1,-1,-1,-1],"split_conditions":[4.182058E-1,2.0272647E-1,6.2884784E-1,5.5848725E-2,3.2145998E-1,5.0791556E-1,8.9313984E-1,1.76781E-1,5.8399296E-1,4.1644678E-1,7.9155676E-2,6.4423925E-1,5.8135444E-1,7.348285E-1,5.628848E-1,3.4256816E-1,-1.5815608E-3,2.6077396E-1,4.7933158E-1,3.1002638E-1,3.289358E-1,1.06420405E-1,3.289358E-1,5.373791E-1,6.9616917E-3,5.8927E-1,7.5637645E-1,7.1503955E-1,5.5189097E-1,1.012105E-2,7.07124E-1,-6.8599964E-3,-1.958192E-3,-2.9888852E-3,-4.7104787E-3,-7.0026296E-4,-1.0375381E-4,-2.3826116E-3,-9.4216684E-4,-3.653601E-4,-3.5449155E-3,-3.085948E-3,-1.1030595E-3,-9.686053E-5,-1.2250635E-3,2.579094E-4,-1.7688692E-3,1.4567141E-3,-4.0723597E-5,2.6380215E-3,7.6076837E-4,3.549958E-3,1.939658E-3,8.369336E-3,4.1271374E-3,5.9757275E-3,1.4346779E-3],"split_indices":[59,59,59,59,58,59,59,29,3,12,27,5,40,59,20,6,0,1,0,57,27,11,54,49,0,54,16,26,31,0,12,0,0,0,0,0,0,0,0,0,0,0,0,0,0,0,0,0,0,0,0,0,0,0,0,0,0],"split_type":[0,0,0,0,0,0,0,0,0,0,0,0,0,0,0,0,0,0,0,0,0,0,0,0,0,0,0,0,0,0,0,0,0,0,0,0,0,0,0,0,0,0,0,0,0,0,0,0,0,0,0,0,0,0,0,0,0],"sum_hessian":[7.52E2,3.23E2,4.29E2,1.15E2,2.08E2,2.78E2,1.51E2,1.8E1,9.7E1,9.9E1,1.09E2,9.6E1,1.82E2,1.32E2,1.9E1,1.7E1,1E0,9.5E1,2E0,6.8E1,3.1E1,8E0,1.01E2,9.5E1,1E0,1.44E2,3.8E1,8.8E1,4.4E1,6E0,1.3E1,1.6E1,1E0,1.5E1,8E1,1E0,1E0,5.4E1,1.4E1,2E0,2.9E1,6E0,2E0,2.2E1,7.9E1,8.4E1,1.1E1,1.24E2,2E1,3.1E1,7E0,6.9E1,1.9E1,5E0,3.9E1,1.2E1,1E0],"tree_param":{"num_deleted":"0","num_feature":"60","num_nodes":"57","size_leaf_vector":"1"}},{"base_weights":[1.1327517E-4,-2.474154E-2,2.0855581E-2,-3.915578E-2,-1.2507436E-2,1.3317716E-2,4.6847556E-2,-5.490975E-2,-3.5002008E-2,-1.7009977E-2,-5.707541E-3,7.824151E-3,2.2782411E-2,4.1323107E-2,7.7240504E-2,-5.7022106E-2,-1.6187051E-3,-3.8120225E-2,-2.142278E-2,-1.28921755E-2,-2.1858208E-2,7.914614E-3,-8.38536E-3,6.6136727E-3,2.664067E-2,2.1141706E-2,3.8223792E-2,6.8269745E-2,3.6037847E-2,1.768907E-2,8.645995E-3,-2.513203E-3,-5.9735114E-3,-2.8196455E-3,-4.266746E-3,-2.47697E-3,-8.799757E-4,-2.0711808E-3,-6.8375195E-4,-3.6208716E-3,-1.5271656E-3,3.3212116E-4,2.2118888E-3,-1.196384E-3,3.0978172E-4,2.6214402E-5,1.056116E-3,6.653195E-3,1.2009222E-3,2.3053377E-3,5.3984753E-4,-2.4427773E-4,4.301372E-3,7.983683E-3,2.5176376E-3,4.5244116E-3,3.0122416E-3,3.525585E-4,2.300802E-3],"categories":[],"categories_nodes":[],"categories_segments":[],"categories_sizes":[],"default_left":[0,0,0,0,0,0,0,0,0,0,0,0,0,0,0,0,0,0,0,0,0,0,0,0,0,0,0,0,0,0,0,0,0,0,0,0,0,0,0,0,0,0,0,0,0,0,0,0,0,0,0,0,0,0,0,0,0,0,0],"id":20,"left_children":[1,3,5,7,9,11,13,15,17,19,21,23,25,27,29,31,-1,33,35,37,39,41,43,45,47,49,51,53,55,57,-1,-1,-1,-1,-1,-1,-1,-1,-1,-1,-1,-1,-1,-1,-1,-1,-1,-1,-1,-1,-1,-1,-1,-1,-1,-1,-1,-1,-1],"loss_changes":[3.887223E-1,5.9996694E-2,7.9900846E-2,8.351877E-3,5.6282543E-3,1.646012E-2,1.22554E-2,1.6126558E-3,4.5609176E-3,1.9541718E-3,2.8386703E-3,4.470314E-3,2.1560527E-3,8.933291E-3,5.608E-3,1.0077655E-3,0E0,3.3997595E-3,8.8048726E-4,2.841129E-3,4.1730534E-3,7.7473576E-4,2.6669698E-3,4.836238E-3,6.20501E-3,3.1259023E-3,2.052972E-3,3.9715692E-3,2.3948103E-3,1.4488777E-4,0E0,0E0,0E0,0E0,0E0,0E0,0E0,0E0,0E0,0E0,0E0,0E0,0E0,0E0,0E0,0E0,0E0,0E0,0E0,0E0,0E0,0E0,0E0,0E0,0E0,0E0,0E0,0E0,0E0],"parents":[2147483647,0,0,1,1,2,2,3,3,4,4,5,5,6,6,7,7,8,8,9,9,10,10,11,11,12,12,13,13,14,14,15,15,17,17,18,18,19,19,20,20,21,21,22,22,23,23,24,24,25,25,26,26,27,27,28,28,29,29],"right_children":[2,4,6,8,10,12,14,16,18,20,22,24,26,28,30,32,-1,34,36,38,40,42,44,46,48,50,52,54,56,58,-1,-1,-1,-1,-1,-1,-1,-1,-1,-1,-1,-1,-1,-1,-1,-1,-1,-1,-1,-1,-1,-1,-1,-1,-1,-1,-1,-1,-1],"split_conditions":[4.3403694E-1,2.6737028E-1,7.07124E-1,8.6191736E-2,3.7818822E-1,5.694811E-1,8.7115216E-1,4.5118734E-1,3.1002638E-1,3.6279684E-1,3.2233948E-1,7.1635884E-1,7.4362355E-1,5.562885E-1,7.5637645E-1,1.76781E-1,-1.6187051E-3,1.5039578E-1,3.9577836E-1,1.3368514E-1,3.7862796E-1,3.1530344E-1,5.4221636E-1,5.0791556E-1,6.4467895E-1,7.1899736E-1,4.5118734E-1,6.2708884E-1,6.147757E-1,5.628848E-1,8.645995E-3,-2.513203E-3,-5.9735114E-3,-2.8196455E-3,-4.266746E-3,-2.47697E-3,-8.799757E-4,-2.0711808E-3,-6.8375195E-4,-3.6208716E-3,-1.5271656E-3,3.3212116E-4,2.2118888E-3,-1.196384E-3,3.0978172E-4,2.6214402E-5,1.056116E-3,6.653195E-3,1.2009222E-3,2.3053377E-3,5.3984753E-4,-2.4427773E-4,4.301372E-3,7.983683E-3,2.5176376E-3,4.5244116E-3,3.0122416E-3,3.525585E-4,2.300802E-3],"split_indices":[57,59,59,59,59,59,33,0,46,38,52,10,41,34,50,3,0,42,37,32,17,52,18,59,1,17,9,24,21,0,0,0,0,0,0,0,0,0,0,0,0,0,0,0,0,0,0,0,0,0,0,0,0,0,0,0,0,0,0],"split_type":[0,0,0,0,0,0,0,0,0,0,0,0,0,0,0,0,0,0,0,0,0,0,0,0,0,0,0,0,0,0,0,0,0,0,0,0,0,0,0,0,0,0,0,0,0,0,0,0,0,0,0,0,0,0,0,0,0,0,0],"sum_hessian":[7.52E2,3.42E2,4.1E2,1.56E2,1.86E2,3.19E2,9.1E1,3E1,1.26E2,1.11E2,7.5E1,2.03E2,1.16E2,7.9E1,1.2E1,2.8E1,2E0,1.01E2,2.5E1,6.2E1,4.9E1,1.2E1,6.3E1,1.92E2,1.1E1,1.07E2,9E0,1.1E1,6.8E1,2E0,1E1,3E0,2.5E1,3.4E1,6.7E1,1.9E1,6E0,2.6E1,3.6E1,1.4E1,3.5E1,1E1,2E0,4.8E1,1.5E1,7.4E1,1.18E2,2E0,9E0,9.5E1,1.2E1,1E0,8E0,8E0,3E0,2.4E1,4.4E1,1E0,1E0],"tree_param":{"num_deleted":"0","num_feature":"60","num_nodes":"59","size_leaf_vector":"1"}},{"base_weights":[1.2635479E-4,-2.2345506E-2,1.8879937E-2,-3.457087E-2,-1.0548878E-2,1.0392286E-2,3.7995715E-2,-4.0887933E-2,-2.5364628E-2,-1.441281E-2,-4.899593E-3,6.0952655E-3,1.7013593E-2,3.2938834E-2,6.315023E-2,-4.3224957E-2,-1.5999647E-2,-2.1357154E-2,-3.2799475E-2,-1.0382771E-2,-1.824318E-2,7.8021265E-3,-7.278965E-3,2.2626376E-2,4.848506E-3,1.958266E-3,1.8310094E-2,6.686193E-2,3.1317383E-2,3.7249157E-3,7.423164E-2,-2.535112E-3,-4.516657E-3,-4.287643E-4,-2.6854123E-3,-2.2588188E-3,-1.8609948E-4,-4.0551354E-3,-1.8666899E-3,-2.2663854E-3,-6.2355306E-4,-3.7168355E-3,-1.3417717E-3,3.1692654E-4,2.0644288E-3,-1.1881029E-3,2.2717801E-4,3.8691223E-4,3.1521362E-3,-2.7903717E-4,8.728585E-4,1.4145863E-3,-8.524443E-4,3.4756397E-3,1.6559287E-3,8.447924E-3,7.005006E-4,2.442587E-3,3.9475686E-3,8.501567E-3,3.9974074E-3],"categories":[],"categories_nodes":[],"categories_segments":[],"categories_sizes":[],"default_left":[0,0,0,0,0,0,0,0,0,0,0,0,0,0,0,0,0,0,0,0,0,0,0,0,0,0,0,0,0,0,0,0,0,0,0,0,0,0,0,0,0,0,0,0,0,0,0,0,0,0,0,0,0,0,0,0,0,0,0,0,0],"id":21,"left_children":[1,3,5,7,9,11,13,15,17,19,21,23,25,27,29,31,33,35,37,39,41,43,45,47,49,51,53,55,57,-1,59,-1,-1,-1,-1,-1,-1,-1,-1,-1,-1,-1,-1,-1,-1,-1,-1,-1,-1,-1,-1,-1,-1,-1,-1,-1,-1,-1,-1,-1,-1],"loss_changes":[3.177571E-1,4.9102113E-2,6.628908E-2,8.733183E-3,3.7711896E-3,8.033536E-3,1.3947532E-2,5.0085187E-3,1.4149323E-3,1.4159866E-3,2.2630058E-3,3.4971018E-3,2.150301E-3,3.7915707E-3,2.9753447E-3,1.943633E-3,1.1561357E-3,1.1339821E-3,1.7627738E-3,2.558107E-3,4.250068E-3,6.485241E-4,2.7520857E-3,1.8801866E-3,4.8852256E-3,1.3981758E-3,2.3902766E-3,3.6262926E-3,4.882969E-3,0E0,1.4042184E-3,0E0,0E0,0E0,0E0,0E0,0E0,0E0,0E0,0E0,0E0,0E0,0E0,0E0,0E0,0E0,0E0,0E0,0E0,0E0,0E0,0E0,0E0,0E0,0E0,0E0,0E0,0E0,0E0,0E0,0E0],"parents":[2147483647,0,0,1,1,2,2,3,3,4,4,5,5,6,6,7,7,8,8,9,9,10,10,11,11,12,12,13,13,14,14,15,15,16,16,17,17,18,18,19,19,20,20,21,21,22,22,23,23,24,24,25,25,26,26,27,27,28,28,30,30],"right_children":[2,4,6,8,10,12,14,16,18,20,22,24,26,28,30,32,34,36,38,40,42,44,46,48,50,52,54,56,58,-1,60,-1,-1,-1,-1,-1,-1,-1,-1,-1,-1,-1,-1,-1,-1,-1,-1,-1,-1,-1,-1,-1,-1,-1,-1,-1,-1,-1,-1,-1,-1],"split_conditions":[4.3403694E-1,2.7792436E-1,6.596306E-1,1.76781E-1,3.7950748E-1,5.5540895E-1,8.9313984E-1,3.1442392E-1,4.3271768E-1,3.53562E-1,3.2233948E-1,2.6868954E-1,4.2568162E-1,5.549692E-1,5.562885E-1,7.9155676E-2,2.7968338E-1,4.4151276E-1,4.7933158E-1,1.14775725E-1,3.7686896E-1,3.1530344E-1,5.2506596E-1,2.7616534E-1,4.5778364E-1,3.1530344E-1,5.171504E-1,7.022867E-1,7.211961E-1,3.7249157E-3,8.9313984E-1,-2.535112E-3,-4.516657E-3,-4.287643E-4,-2.6854123E-3,-2.2588188E-3,-1.8609948E-4,-4.0551354E-3,-1.8666899E-3,-2.2663854E-3,-6.2355306E-4,-3.7168355E-3,-1.3417717E-3,3.1692654E-4,2.0644288E-3,-1.1881029E-3,2.2717801E-4,3.8691223E-4,3.1521362E-3,-2.7903717E-4,8.728585E-4,1.4145863E-3,-8.524443E-4,3.4756397E-3,1.6559287E-3,8.447924E-3,7.005006E-4,2.442587E-3,3.9475686E-3,8.501567E-3,3.9974074E-3],"split_indices":[57,59,59,59,59,59,59,30,7,37,52,22,23,52,30,38,42,2,9,42,34,52,27,31,32,2,54,3,40,0,52,0,0,0,0,0,0,0,0,0,0,0,0,0,0,0,0,0,0,0,0,0,0,0,0,0,0,0,0,0,0],"split_type":[0,0,0,0,0,0,0,0,0,0,0,0,0,0,0,0,0,0,0,0,0,0,0,0,0,0,0,0,0,0,0,0,0,0,0,0,0,0,0,0,0,0,0,0,0,0,0,0,0,0,0,0,0,0,0,0,0,0,0,0,0],"sum_hessian":[7.52E2,3.42E2,4.1E2,1.67E2,1.75E2,2.85E2,1.25E2,9.7E1,7E1,1.03E2,7.2E1,1.74E2,1.11E2,1.06E2,1.9E1,8.8E1,9E0,4.8E1,2.2E1,5.2E1,5.1E1,1.1E1,6.1E1,1.1E1,1.63E2,9E0,1.02E2,3E0,1.03E2,7E0,1.2E1,1E1,7.8E1,5E0,4E0,4.5E1,3E0,1.3E1,9E0,1.2E1,4E1,9E0,4.2E1,9E0,2E0,4.1E1,2E1,4E0,7E0,5.5E1,1.08E2,4E0,5E0,8E0,9.4E1,2E0,1E0,5.8E1,4.5E1,8E0,4E0],"tree_param":{"num_deleted":"0","num_feature":"60","num_nodes":"61","size_leaf_vector":"1"}},{"base_weights":[1.3566723E-4,-1.8769747E-2,1.844839E-2,-3.1224096E-2,-8.421213E-3,1.2072673E-2,3.8774066E-2,-4.202236E-2,-2.6682438E-2,-9.375868E-3,1.6139828E-2,7.8046652E-3,2.0108838E-2,3.402749E-2,6.463603E-2,-4.4728022E-2,-1.5628058E-2,-1.8805064E-2,-2.930346E-2,-1.3465495E-2,-5.73793E-3,4.6673953E-3,2.6445412E-3,1.3111098E-2,4.3208217E-3,2.5016272E-2,1.1314508E-2,6.1003268E-2,2.923385E-2,1.4172912E-2,7.2522694E-3,-2.6522554E-3,-4.8767044E-3,-1.8052284E-3,-1.7534643E-4,-2.083587E-3,-3.265387E-4,-4.454614E-3,-2.4529786E-3,-9.512144E-4,-1.7749263E-3,-4.5608552E-4,-2.4595698E-3,7.785986E-4,-6.993612E-7,5.8525376E-4,2.6067279E-3,-1.1334384E-3,6.7107484E-4,2.0928679E-3,3.697383E-3,-5.2566506E-4,1.826041E-3,6.827471E-3,1.8854538E-3,3.3237305E-3,1.8500373E-3,1.3755262E-4,1.9883842E-3],"categories":[],"categories_nodes":[],"categories_segments":[],"categories_sizes":[],"default_left":[0,0,0,0,0,0,0,0,0,0,0,0,0,0,0,0,0,0,0,0,0,0,0,0,0,0,0,0,0,0,0,0,0,0,0,0,0,0,0,0,0,0,0,0,0,0,0,0,0,0,0,0,0,0,0,0,0,0,0],"id":22,"left_children":[1,3,5,7,9,11,13,15,17,19,21,23,25,27,29,31,33,35,37,39,41,43,-1,45,47,49,51,53,55,57,-1,-1,-1,-1,-1,-1,-1,-1,-1,-1,-1,-1,-1,-1,-1,-1,-1,-1,-1,-1,-1,-1,-1,-1,-1,-1,-1,-1,-1],"loss_changes":[2.610421E-1,4.7553107E-2,4.916516E-2,7.117793E-3,4.93458E-3,9.8924935E-3,8.971363E-3,2.728857E-3,1.9472092E-3,2.8536636E-3,8.224095E-4,3.5112975E-3,4.075866E-3,8.432299E-3,4.1459575E-3,1.8684566E-3,1.7015683E-4,9.733783E-4,5.3832456E-3,1.3892092E-3,2.2407048E-3,7.294197E-5,0E0,6.994727E-3,4.491008E-3,2.3543537E-3,4.4698515E-3,2.0840093E-3,2.3500957E-3,1.9190414E-4,0E0,0E0,0E0,0E0,0E0,0E0,0E0,0E0,0E0,0E0,0E0,0E0,0E0,0E0,0E0,0E0,0E0,0E0,0E0,0E0,0E0,0E0,0E0,0E0,0E0,0E0,0E0,0E0,0E0],"parents":[2147483647,0,0,1,1,2,2,3,3,4,4,5,5,6,6,7,7,8,8,9,9,10,10,11,11,12,12,13,13,14,14,15,15,16,16,17,17,18,18,19,19,20,20,21,21,23,23,24,24,25,25,26,26,27,27,28,28,29,29],"right_children":[2,4,6,8,10,12,14,16,18,20,22,24,26,28,30,32,34,36,38,40,42,44,-1,46,48,50,52,54,56,58,-1,-1,-1,-1,-1,-1,-1,-1,-1,-1,-1,-1,-1,-1,-1,-1,-1,-1,-1,-1,-1,-1,-1,-1,-1,-1,-1,-1,-1],"split_conditions":[4.5778364E-1,2.7792436E-1,7.07124E-1,1.14775725E-1,4.6657872E-1,5.628848E-1,8.7115216E-1,3.1442392E-1,2.9331574E-1,3.6279684E-1,4.2612138E-1,3.7994722E-1,6.9613016E-1,5.562885E-1,7.5637645E-1,7.9155676E-2,4.0765172E-1,2.6868954E-1,2.8188214E-1,3.6279684E-1,5.8399296E-1,3.4828496E-1,2.6445412E-3,4.6745822E-1,4.8636764E-1,6.3852245E-1,6.5831137E-1,6.2708884E-1,6.701847E-1,5.628848E-1,7.2522694E-3,-2.6522554E-3,-4.8767044E-3,-1.8052284E-3,-1.7534643E-4,-2.083587E-3,-3.265387E-4,-4.454614E-3,-2.4529786E-3,-9.512144E-4,-1.7749263E-3,-4.5608552E-4,-2.4595698E-3,7.785986E-4,-6.993612E-7,5.8525376E-4,2.6067279E-3,-1.1334384E-3,6.7107484E-4,2.0928679E-3,3.697383E-3,-5.2566506E-4,1.826041E-3,6.827471E-3,1.8854538E-3,3.3237305E-3,1.8500373E-3,1.3755262E-4,1.9883842E-3],"split_indices":[58,59,59,59,59,32,33,15,0,58,50,3,1,34,50,39,10,59,22,38,3,1,0,32,59,8,31,24,16,0,0,0,0,0,0,0,0,0,0,0,0,0,0,0,0,0,0,0,0,0,0,0,0,0,0,0,0,0,0],"split_type":[0,0,0,0,0,0,0,0,0,0,0,0,0,0,0,0,0,0,0,0,0,0,0,0,0,0,0,0,0,0,0,0,0,0,0,0,0,0,0,0,0,0,0,0,0,0,0,0,0,0,0,0,0,0,0,0,0,0,0],"sum_hessian":[7.52E2,3.7E2,3.82E2,1.67E2,2.03E2,2.92E2,9E1,4.7E1,1.2E2,1.96E2,7E0,1.92E2,1E2,7.8E1,1.2E1,4.2E1,5E0,3.2E1,8.8E1,9.1E1,1.05E2,4E0,3E0,7.5E1,1.17E2,6.3E1,3.7E1,1E1,6.8E1,2E0,1E1,9E0,3.3E1,4E0,1E0,2.8E1,4E0,1.9E1,6.9E1,4.9E1,4.2E1,1E2,5E0,2E0,2E0,4.9E1,2.6E1,1.5E1,1.02E2,4.9E1,1.4E1,1.1E1,2.6E1,8E0,2E0,4.8E1,2E1,1E0,1E0],"tree_param":{"num_deleted":"0","num_feature":"60","num_nodes":"59","size_leaf_vector":"1"}},{"base_weights":[1.3808794E-4,-1.6949499E-2,1.6689932E-2,-2.8213752E-2,-7.589968E-3,1.0898918E-2,3.515232E-2,-4.153879E-2,-2.5015999E-2,-8.466917E-3,1.49536505E-2,7.038331E-3,1.8168168E-2,3.0800525E-2,5.889382E-2,-4.3328013E-2,-1.0396704E-3,-2.833598E-2,-1.96486E-2,-1.6069276E-2,-6.6672014E-3,4.3562353E-3,2.4462007E-3,1.1428628E-2,3.550133E-3,2.3458533E-2,1.1332764E-2,5.569502E-2,2.6385454E-2,1.3067425E-4,6.358384E-2,-1.9356605E-3,-4.5349463E-3,-1.1828375E-3,-3.0183818E-3,-1.5243659E-3,-2.970823E-3,-1.7984223E-3,4.22509E-4,3.3137947E-4,-8.3547144E-4,7.266929E-4,-6.5366424E-7,5.436037E-4,2.1691981E-3,-1.1042246E-3,5.6412077E-4,1.9897262E-3,4.981958E-3,-6.138864E-4,1.5748534E-3,6.220584E-3,1.7597557E-3,-4.5496225E-4,2.7376793E-3,6.5929717E-3,1.8889636E-3],"categories":[],"categories_nodes":[],"categories_segments":[],"categories_sizes":[],"default_left":[0,0,0,0,0,0,0,0,0,0,0,0,0,0,0,0,0,0,0,0,0,0,0,0,0,0,0,0,0,0,0,0,0,0,0,0,0,0,0,0,0,0,0,0,0,0,0,0,0,0,0,0,0,0,0,0,0],"id":23,"left_children":[1,3,5,7,9,11,13,15,17,19,21,23,25,27,29,31,-1,33,35,37,39,41,-1,43,45,47,49,51,53,-1,55,-1,-1,-1,-1,-1,-1,-1,-1,-1,-1,-1,-1,-1,-1,-1,-1,-1,-1,-1,-1,-1,-1,-1,-1,-1,-1],"loss_changes":[2.1325466E-1,3.8899697E-2,4.05657E-2,6.1193556E-3,4.1596107E-3,8.094754E-3,7.587984E-3,1.2768582E-3,1.9023567E-3,2.588232E-3,6.9954956E-4,2.9150723E-3,3.38649E-3,7.213436E-3,3.4280233E-3,5.274415E-4,0E0,2.1747574E-3,2.0286143E-3,1.5139021E-3,2.7394164E-3,6.354097E-5,0E0,5.1099285E-3,3.388291E-3,4.2659417E-3,3.64561E-3,1.6338304E-3,2.240587E-3,0E0,1.276657E-5,0E0,0E0,0E0,0E0,0E0,0E0,0E0,0E0,0E0,0E0,0E0,0E0,0E0,0E0,0E0,0E0,0E0,0E0,0E0,0E0,0E0,0E0,0E0,0E0,0E0,0E0],"parents":[2147483647,0,0,1,1,2,2,3,3,4,4,5,5,6,6,7,7,8,8,9,9,10,10,11,11,12,12,13,13,14,14,15,15,17,17,18,18,19,19,20,20,21,21,23,23,24,24,25,25,26,26,27,27,28,28,30,30],"right_children":[2,4,6,8,10,12,14,16,18,20,22,24,26,28,30,32,-1,34,36,38,40,42,-1,44,46,48,50,52,54,-1,56,-1,-1,-1,-1,-1,-1,-1,-1,-1,-1,-1,-1,-1,-1,-1,-1,-1,-1,-1,-1,-1,-1,-1,-1,-1,-1],"split_conditions":[4.5778364E-1,2.7792436E-1,7.07124E-1,8.6191736E-2,4.6657872E-1,5.628848E-1,8.7115216E-1,1.644679E-1,1.9613017E-1,3.0826738E-1,4.2612138E-1,3.9401934E-1,6.4467895E-1,5.562885E-1,5.28584E-1,1.76781E-1,-1.0396704E-3,7.9155676E-2,4.3271768E-1,4.4371152E-1,3.2233948E-1,3.4828496E-1,2.4462007E-3,4.6745822E-1,4.8636764E-1,6.921724E-1,6.3456464E-1,6.2708884E-1,5.549692E-1,1.3067425E-4,6.147757E-1,-1.9356605E-3,-4.5349463E-3,-1.1828375E-3,-3.0183818E-3,-1.5243659E-3,-2.970823E-3,-1.7984223E-3,4.22509E-4,3.3137947E-4,-8.3547144E-4,7.266929E-4,-6.5366424E-7,5.436037E-4,2.1691981E-3,-1.1042246E-3,5.6412077E-4,1.9897262E-3,4.981958E-3,-6.138864E-4,1.5748534E-3,6.220584E-3,1.7597557E-3,-4.5496225E-4,2.7376793E-3,6.5929717E-3,1.8889636E-3],"split_indices":[58,59,59,59,59,32,33,43,59,56,50,3,1,34,1,3,0,57,7,41,54,1,0,32,59,11,32,24,39,0,0,0,0,0,0,0,0,0,0,0,0,0,0,0,0,0,0,0,0,0,0,0,0,0,0,0,0],"split_type":[0,0,0,0,0,0,0,0,0,0,0,0,0,0,0,0,0,0,0,0,0,0,0,0,0,0,0,0,0,0,0,0,0,0,0,0,0,0,0,0,0,0,0,0,0,0,0,0,0,0,0,0,0,0,0,0,0],"sum_hessian":[7.52E2,3.7E2,3.82E2,1.67E2,2.03E2,2.92E2,9E1,3E1,1.37E2,1.96E2,7E0,1.92E2,1E2,7.8E1,1.2E1,2.8E1,2E0,8.2E1,5.5E1,3.6E1,1.6E2,4E0,3E0,8.4E1,1.08E2,5.5E1,4.5E1,1E1,6.8E1,1E0,1.1E1,3E0,2.5E1,9E0,7.3E1,4E1,1.5E1,3.3E1,3E0,2.3E1,1.37E2,2E0,2E0,5.4E1,3E1,1.3E1,9.5E1,5E1,5E0,9E0,3.6E1,8E0,2E0,2E0,6.6E1,1E1,1E0],"tree_param":{"num_deleted":"0","num_feature":"60","num_nodes":"57","size_leaf_vector":"1"}},{"base_weights":[1.429618E-4,-1.7420163E-2,1.3376241E-2,-2.7781239E-2,-1.0243573E-2,6.060524E-3,2.618679E-2,-5.9751314E-3,-2.9139899E-2,-1.4447188E-2,-5.373069E-3,-3.6576486E-3,7.730245E-3,2.1954382E-2,4.3964777E-2,4.681755E-3,-1.2083867E-2,-3.558164E-2,-2.3993338E-2,-6.921606E-3,-1.6898403E-2,-1.7667206E-3,-1.2647088E-2,-7.76626E-4,-2.4245685E-2,2.9169563E-2,7.041138E-3,6.761235E-3,2.106249E-2,5.4819103E-2,2.6388751E-2,6.986936E-4,-1.1168942E-4,-3.8644075E-4,-1.5227495E-3,-2.5215924E-3,-4.5376197E-3,-1.099412E-3,-2.7221306E-3,-1.6959191E-3,-3.2461446E-4,-2.0106921E-3,-8.975134E-4,-1.0420148E-3,2.2992158E-4,-2.0562958E-3,-4.4355151E-4,-5.3498277E-4,4.918307E-4,-7.386148E-4,-2.6614033E-3,3.2392757E-3,4.915208E-4,5.225171E-4,1.6323315E-3,1.9007762E-3,3.5137285E-3,2.3735806E-3,5.9784395E-3,3.0598731E-3,2.1559E-4],"categories":[],"categories_nodes":[],"categories_segments":[],"categories_sizes":[],"default_left":[0,0,0,0,0,0,0,0,0,0,0,0,0,0,0,0,0,0,0,0,0,0,0,0,0,0,0,0,0,0,0,0,0,0,0,0,0,0,0,0,0,0,0,0,0,0,0,0,0,0,0,0,0,0,0,0,0,0,0,0,0],"id":24,"left_children":[1,3,5,7,9,11,13,15,17,19,21,23,25,27,29,31,33,35,37,39,41,43,45,47,49,51,53,-1,55,57,59,-1,-1,-1,-1,-1,-1,-1,-1,-1,-1,-1,-1,-1,-1,-1,-1,-1,-1,-1,-1,-1,-1,-1,-1,-1,-1,-1,-1,-1,-1],"loss_changes":[1.7524357E-1,2.3807146E-2,4.0140197E-2,3.73666E-3,3.8738027E-3,4.490602E-3,1.07727945E-2,6.424746E-4,3.25723E-3,1.783058E-3,2.364827E-3,2.413069E-3,3.2664984E-3,3.7883297E-3,4.0858984E-3,6.127143E-5,9.618822E-5,4.2367578E-3,2.7219206E-3,9.4105245E-4,1.7770287E-3,2.205384E-3,1.8588454E-3,9.899429E-4,3.0708034E-6,3.8801832E-4,3.7747603E-3,0E0,3.0049458E-3,1.2047067E-3,1.2602909E-3,0E0,0E0,0E0,0E0,0E0,0E0,0E0,0E0,0E0,0E0,0E0,0E0,0E0,0E0,0E0,0E0,0E0,0E0,0E0,0E0,0E0,0E0,0E0,0E0,0E0,0E0,0E0,0E0,0E0,0E0],"parents":[2147483647,0,0,1,1,2,2,3,3,4,4,5,5,6,6,7,7,8,8,9,9,10,10,11,11,12,12,13,13,14,14,15,15,16,16,17,17,18,18,19,19,20,20,21,21,22,22,23,23,24,24,25,25,26,26,28,28,29,29,30,30],"right_children":[2,4,6,8,10,12,14,16,18,20,22,24,26,28,30,32,34,36,38,40,42,44,46,48,50,52,54,-1,56,58,60,-1,-1,-1,-1,-1,-1,-1,-1,-1,-1,-1,-1,-1,-1,-1,-1,-1,-1,-1,-1,-1,-1,-1,-1,-1,-1,-1,-1,-1,-1],"split_conditions":[4.1776606E-1,2.2823219E-1,6.2401056E-1,1.1081794E-1,3.4256816E-1,4.4063324E-1,8.5400176E-1,1.5039578E-1,1.8865435E-1,2.6737028E-1,3.9401934E-1,6.0510117E-1,2.3922603E-1,4.5074758E-1,8.9313984E-1,1.6226913E-1,1.06420405E-1,2.3922603E-1,1.3060686E-1,5.5848725E-2,4.4547054E-1,1.14775725E-1,4.067722E-1,5.417766E-1,6.1081797E-1,3.592788E-1,6.1257696E-1,6.761235E-3,8.7291116E-1,5.562885E-1,7.128408E-1,6.986936E-4,-1.1168942E-4,-3.8644075E-4,-1.5227495E-3,-2.5215924E-3,-4.5376197E-3,-1.099412E-3,-2.7221306E-3,-1.6959191E-3,-3.2461446E-4,-2.0106921E-3,-8.975134E-4,-1.0420148E-3,2.2992158E-4,-2.0562958E-3,-4.4355151E-4,-5.3498277E-4,4.918307E-4,-7.386148E-4,-2.6614033E-3,3.2392757E-3,4.915208E-4,5.225171E-4,1.6323315E-3,1.9007762E-3,3.5137285E-3,2.3735806E-3,5.9784395E-3,3.0598731E-3,2.1559E-4],"split_indices":[53,55,59,20,59,59,57,2,28,48,53,3,19,57,52,0,18,7,52,29,3,12,43,9,3,3,9,0,42,11,2,0,0,0,0,0,0,0,0,0,0,0,0,0,0,0,0,0,0,0,0,0,0,0,0,0,0,0,0,0,0],"split_type":[0,0,0,0,0,0,0,0,0,0,0,0,0,0,0,0,0,0,0,0,0,0,0,0,0,0,0,0,0,0,0,0,0,0,0,0,0,0,0,0,0,0,0,0,0,0,0,0,0,0,0,0,0,0,0,0,0,0,0,0,0],"sum_hessian":[7.52E2,3.23E2,4.29E2,1.31E2,1.92E2,2.74E2,1.55E2,8E0,1.23E2,1.02E2,9E1,4E1,2.34E2,1.27E2,2.8E1,3E0,5E0,5.2E1,7.1E1,2.6E1,7.6E1,6.1E1,2.9E1,3.6E1,4E0,6E0,2.28E2,1E0,1.26E2,1.6E1,1.2E1,2E0,1E0,2E0,3E0,2.7E1,2.5E1,1.5E1,5.6E1,6E0,2E1,5.3E1,2.3E1,1.9E1,4.2E1,1.4E1,1.5E1,2E1,1.6E1,1E0,3E0,5E0,1E0,1.92E2,3.6E1,1.12E2,1.4E1,3E0,1.3E1,1E1,2E0],"tree_param":{"num_deleted":"0","num_feature":"60","num_nodes":"61","size_leaf_vector":"1"}},{"base_weights":[1.3637201E-4,-1.5546939E-2,1.227678E-2,-2.5095563E-2,-9.102671E-3,6.7535765E-3,2.6258642E-2,-3.6775745E-2,-2.2554485E-2,-1.3693736E-2,-5.599661E-3,3.4887095E-3,1.1925663E-2,2.3463788E-2,5.1820025E-2,-3.798745E-2,-5.664971E-4,-1.40243545E-2,-2.5983587E-2,-5.011817E-3,-1.6287992E-2,3.1429145E-3,-7.4932184E-3,2.6387207E-3,2.0195292E-2,-4.2681993E-4,1.2949509E-2,1.5525577E-2,2.9139508E-2,2.378361E-3,5.9360727E-3,-3.9248513E-3,-6.38311E-4,4.3603333E-4,-1.5944174E-3,-3.3224467E-3,-1.9317186E-3,-1.099708E-3,2.67168E-4,-1.2809793E-3,-2.613936E-3,-1.2409854E-4,1.4309495E-3,-1.5116422E-3,-4.1955625E-4,4.21036E-4,-1.1827254E-3,5.7217213E-3,8.415401E-4,1.0234272E-3,-9.239927E-4,2.2172292E-3,1.0225134E-3,1.849746E-3,5.9214566E-5,4.6155956E-3,2.2364634E-3],"categories":[],"categories_nodes":[],"categories_segments":[],"categories_sizes":[],"default_left":[0,0,0,0,0,0,0,0,0,0,0,0,0,0,0,0,0,0,0,0,0,0,0,0,0,0,0,0,0,0,0,0,0,0,0,0,0,0,0,0,0,0,0,0,0,0,0,0,0,0,0,0,0,0,0,0,0],"id":25,"left_children":[1,3,5,7,9,11,13,15,17,19,21,23,25,27,29,31,-1,33,35,37,39,41,43,45,47,49,51,53,55,-1,-1,-1,-1,-1,-1,-1,-1,-1,-1,-1,-1,-1,-1,-1,-1,-1,-1,-1,-1,-1,-1,-1,-1,-1,-1,-1,-1],"loss_changes":[1.4356342E-1,2.0016208E-2,3.264314E-2,3.0883402E-3,3.1076632E-3,5.1255664E-3,7.3569417E-3,6.1413646E-4,2.8824173E-3,1.8328317E-3,1.9107715E-3,2.6305872E-3,1.4978759E-3,4.5036525E-3,9.137448E-4,5.864315E-4,0E0,1.2695612E-3,3.1233057E-3,9.951235E-4,1.892386E-3,1.0457746E-3,2.299616E-3,4.164885E-3,3.4435214E-3,1.0341374E-3,2.5120564E-3,2.1193055E-3,6.2306486E-3,0E0,0E0,0E0,0E0,0E0,0E0,0E0,0E0,0E0,0E0,0E0,0E0,0E0,0E0,0E0,0E0,0E0,0E0,0E0,0E0,0E0,0E0,0E0,0E0,0E0,0E0,0E0,0E0],"parents":[2147483647,0,0,1,1,2,2,3,3,4,4,5,5,6,6,7,7,8,8,9,9,10,10,11,11,12,12,13,13,14,14,15,15,17,17,18,18,19,19,20,20,21,21,22,22,23,23,24,24,25,25,26,26,27,27,28,28],"right_children":[2,4,6,8,10,12,14,16,18,20,22,24,26,28,30,32,-1,34,36,38,40,42,44,46,48,50,52,54,56,-1,-1,-1,-1,-1,-1,-1,-1,-1,-1,-1,-1,-1,-1,-1,-1,-1,-1,-1,-1,-1,-1,-1,-1,-1,-1,-1,-1],"split_conditions":[4.2172384E-1,2.2823219E-1,6.6490763E-1,6.46438E-2,3.2145998E-1,5.5540895E-1,8.790677E-1,1.8293755E-1,1.3852243E-1,2.6737028E-1,3.2233948E-1,6.8029904E-1,4.2568162E-1,6.1169744E-1,8.7115216E-1,3.4256816E-1,-5.664971E-4,4.001759E-2,3.5048372E-1,2.8452066E-1,4.362357E-1,3.1442392E-1,3.6279684E-1,5.817942E-1,6.759015E-1,3.1530344E-1,5.2638525E-1,7.0096743E-1,6.020229E-1,2.378361E-3,5.9360727E-3,-3.9248513E-3,-6.38311E-4,4.3603333E-4,-1.5944174E-3,-3.3224467E-3,-1.9317186E-3,-1.099708E-3,2.67168E-4,-1.2809793E-3,-2.613936E-3,-1.2409854E-4,1.4309495E-3,-1.5116422E-3,-4.1955625E-4,4.21036E-4,-1.1827254E-3,5.7217213E-3,8.415401E-4,1.0234272E-3,-9.239927E-4,2.2172292E-3,1.0225134E-3,1.849746E-3,5.9214566E-5,4.6155956E-3,2.2364634E-3],"split_indices":[56,55,58,59,58,59,31,29,40,48,54,22,23,0,33,6,0,39,10,57,12,52,54,52,20,2,46,21,32,0,0,0,0,0,0,0,0,0,0,0,0,0,0,0,0,0,0,0,0,0,0,0,0,0,0,0,0],"split_type":[0,0,0,0,0,0,0,0,0,0,0,0,0,0,0,0,0,0,0,0,0,0,0,0,0,0,0,0,0,0,0,0,0,0,0,0,0,0,0,0,0,0,0,0,0,0,0,0,0,0,0,0,0,0,0,0,0],"sum_hessian":[7.52E2,3.28E2,4.24E2,1.31E2,1.97E2,3.05E2,1.19E2,2.1E1,1.1E2,8.4E1,1.13E2,1.88E2,1.17E2,1.09E2,1E1,2E1,1E0,3.3E1,7.7E1,2E1,6.4E1,2E1,9.3E1,1.8E2,8E0,9E0,1.08E2,4.7E1,6.2E1,3E0,7E0,1.9E1,1E0,3E0,3E1,3.5E1,4.2E1,1.1E1,9E0,4.9E1,1.5E1,1.5E1,5E0,2.7E1,6.6E1,1.63E2,1.7E1,1E0,7E0,4E0,5E0,2.3E1,8.5E1,3.9E1,8E0,1.6E1,4.6E1],"tree_param":{"num_deleted":"0","num_feature":"60","num_nodes":"57","size_leaf_vector":"1"}},{"base_weights":[1.351098E-4,-1.4272052E-2,1.0990425E-2,-2.2673447E-2,-8.452073E-3,7.057163E-3,2.7349275E-2,-5.5065164E-3,-2.3884796E-2,-1.191652E-2,-4.437894E-3,3.629916E-3,1.2919385E-2,3.124187E-2,1.1557026E-2,1.4169564E-3,-1.271338E-2,-3.8606875E-2,-2.194541E-2,-8.526795E-3,-1.6448073E-2,-1.1011016E-3,-1.1186003E-2,2.5316412E-3,1.9687865E-2,2.4033863E-2,1.1453976E-2,1.6245114E-2,3.6113292E-2,-6.460273E-3,1.7166274E-2,6.230454E-4,-2.5474056E-4,-1.4082531E-3,-3.6183893E-4,-1.3400365E-3,-4.482879E-3,-2.3842303E-3,-1.3187866E-3,-6.88968E-4,-2.0171728E-3,-2.2272854E-3,-4.0902934E-4,1.9906406E-4,-1.1843549E-3,-1.8055572E-3,-4.0466562E-4,3.5912424E-4,-2.1296353E-3,5.1635406E-3,1.0060326E-3,2.9115898E-3,4.049808E-4,3.1950505E-4,1.4201811E-3,-4.5295508E-4,2.0702016E-3,2.0440368E-3,4.4554337E-3,-1.8088063E-3,7.3209405E-4,1.0267032E-3,2.7531504E-3],"categories":[],"categories_nodes":[],"categories_segments":[],"categories_sizes":[],"default_left":[0,0,0,0,0,0,0,0,0,0,0,0,0,0,0,0,0,0,0,0,0,0,0,0,0,0,0,0,0,0,0,0,0,0,0,0,0,0,0,0,0,0,0,0,0,0,0,0,0,0,0,0,0,0,0,0,0,0,0,0,0,0,0],"id":26,"left_children":[1,3,5,7,9,11,13,15,17,19,21,23,25,27,29,31,33,35,37,39,41,43,45,47,49,51,53,55,57,59,61,-1,-1,-1,-1,-1,-1,-1,-1,-1,-1,-1,-1,-1,-1,-1,-1,-1,-1,-1,-1,-1,-1,-1,-1,-1,-1,-1,-1,-1,-1,-1,-1],"loss_changes":[1.1792175E-1,1.5650652E-2,2.7474757E-2,2.6134327E-3,2.6311502E-3,6.9448706E-3,4.7411807E-3,5.1697955E-4,2.6646256E-3,1.4419053E-3,2.0367336E-3,3.8477231E-3,1.8094871E-3,4.2349994E-3,1.9300417E-3,1.3036616E-4,1.1305965E-5,1.4381036E-3,1.5295185E-3,1.0239333E-3,3.0040955E-3,2.0827746E-3,1.3982623E-3,5.328101E-3,3.7865979E-3,1.3039215E-3,2.5644535E-3,1.7604027E-3,5.57179E-3,9.336469E-4,7.185051E-4,0E0,0E0,0E0,0E0,0E0,0E0,0E0,0E0,0E0,0E0,0E0,0E0,0E0,0E0,0E0,0E0,0E0,0E0,0E0,0E0,0E0,0E0,0E0,0E0,0E0,0E0,0E0,0E0,0E0,0E0,0E0,0E0],"parents":[2147483647,0,0,1,1,2,2,3,3,4,4,5,5,6,6,7,7,8,8,9,9,10,10,11,11,12,12,13,13,14,14,15,15,16,16,17,17,18,18,19,19,20,20,21,21,22,22,23,23,24,24,25,25,26,26,27,27,28,28,29,29,30,30],"right_children":[2,4,6,8,10,12,14,16,18,20,22,24,26,28,30,32,34,36,38,40,42,44,46,48,50,52,54,56,58,60,62,-1,-1,-1,-1,-1,-1,-1,-1,-1,-1,-1,-1,-1,-1,-1,-1,-1,-1,-1,-1,-1,-1,-1,-1,-1,-1,-1,-1,-1,-1,-1,-1],"split_conditions":[4.1776606E-1,2.2823219E-1,7.1459985E-1,1.6182938E-1,3.4256816E-1,5.677221E-1,6.882146E-1,1.1081794E-1,4.001759E-2,3.2541776E-1,3.9401934E-1,7.176781E-1,3.51803E-1,6.1565524E-1,5.9454703E-1,1.6226913E-1,2.1899736E-1,1.21811785E-1,4.4371152E-1,5.3386104E-1,3.6543536E-1,4.0149516E-1,4.067722E-1,6.1169744E-1,7.2383463E-1,4.7757256E-1,5.5540895E-1,5.5189097E-1,5.8135444E-1,6.0114336E-1,8.601583E-1,6.230454E-4,-2.5474056E-4,-1.4082531E-3,-3.6183893E-4,-1.3400365E-3,-4.482879E-3,-2.3842303E-3,-1.3187866E-3,-6.88968E-4,-2.0171728E-3,-2.2272854E-3,-4.0902934E-4,1.9906406E-4,-1.1843549E-3,-1.8055572E-3,-4.0466562E-4,3.5912424E-4,-2.1296353E-3,5.1635406E-3,1.0060326E-3,2.9115898E-3,4.049808E-4,3.1950505E-4,1.4201811E-3,-4.5295508E-4,2.0702016E-3,2.0440368E-3,4.4554337E-3,-1.8088063E-3,7.3209405E-4,1.0267032E-3,2.7531504E-3],"split_indices":[53,55,59,5,59,57,17,18,55,49,53,11,5,42,6,0,2,21,10,26,50,56,43,3,11,23,26,19,12,0,19,0,0,0,0,0,0,0,0,0,0,0,0,0,0,0,0,0,0,0,0,0,0,0,0,0,0,0,0,0,0,0,0],"split_type":[0,0,0,0,0,0,0,0,0,0,0,0,0,0,0,0,0,0,0,0,0,0,0,0,0,0,0,0,0,0,0,0,0,0,0,0,0,0,0,0,0,0,0,0,0,0,0,0,0,0,0,0,0,0,0,0,0,0,0,0,0,0,0],"sum_hessian":[7.52E2,3.23E2,4.29E2,1.31E2,1.92E2,3.47E2,8.2E1,9E0,1.22E2,1.02E2,9E1,2.2E2,1.27E2,6.5E1,1.7E1,5E0,4E0,1.2E1,1.1E2,6E1,4.2E1,6.1E1,2.9E1,2.07E2,1.3E1,1.3E1,1.14E2,1.7E1,4.8E1,4E0,1.3E1,2E0,3E0,3E0,1E0,3E0,9E0,8.9E1,2.1E1,5.4E1,6E0,2.8E1,1.4E1,4.8E1,1.3E1,1.4E1,1.5E1,1.99E2,8E0,2E0,1.1E1,1E1,3E0,2.9E1,8.5E1,3E0,1.4E1,1.8E1,3E1,2E0,2E0,9E0,4E0],"tree_param":{"num_deleted":"0","num_feature":"60","num_nodes":"63","size_leaf_vector":"1"}},{"base_weights":[1.2267524E-4,-1.2985211E-2,9.999029E-3,-2.2540795E-2,-8.802689E-3,7.0275185E-3,2.785903E-2,-2.4248077E-2,-5.091916E-3,-1.16451625E-2,-4.7305655E-3,3.4045386E-3,1.23185245E-2,1.2088954E-2,3.2299288E-2,-2.8491816E-2,-1.946549E-2,1.724815E-3,-2.157256E-3,-9.4428975E-3,-1.830097E-2,5.974378E-3,-6.65456E-3,2.1727812E-3,1.5675064E-2,1.0964775E-2,2.5741521E-2,1.970625E-2,5.6829624E-4,5.918286E-2,2.6115093E-2,-1.8180497E-3,-3.5327764E-3,-1.1471588E-3,-3.3237466E-3,-3.646073E-4,8.007221E-4,-6.9134106E-4,-1.6570883E-3,-2.73339E-3,-7.5596705E-4,5.682707E-5,1.667294E-3,-1.8778712E-3,-4.4810693E-4,4.3458288E-4,-5.2911596E-4,3.0182356E-3,-1.850465E-4,1.3281464E-3,4.2818833E-4,-9.7135006E-4,2.9505566E-3,2.0725743E-3,5.775154E-4,-9.614408E-4,3.867815E-4,6.2838914E-3,1.6795248E-3,3.7050832E-3,1.5483543E-3],"categories":[],"categories_nodes":[],"categories_segments":[],"categories_sizes":[],"default_left":[0,0,0,0,0,0,0,0,0,0,0,0,0,0,0,0,0,0,0,0,0,0,0,0,0,0,0,0,0,0,0,0,0,0,0,0,0,0,0,0,0,0,0,0,0,0,0,0,0,0,0,0,0,0,0,0,0,0,0,0,0],"id":27,"left_children":[1,3,5,7,9,11,13,15,17,19,21,23,25,27,29,31,33,35,-1,37,39,41,43,45,47,49,51,53,55,57,59,-1,-1,-1,-1,-1,-1,-1,-1,-1,-1,-1,-1,-1,-1,-1,-1,-1,-1,-1,-1,-1,-1,-1,-1,-1,-1,-1,-1,-1,-1],"loss_changes":[9.761181E-2,1.2750708E-2,2.2624832E-2,2.7959608E-3,2.5724135E-3,7.0506707E-3,3.8809478E-3,1.2517422E-3,1.16065E-3,1.7766822E-3,1.9964015E-3,3.3062045E-3,2.4434552E-3,1.3051447E-3,6.268341E-3,2.5296696E-3,4.572846E-3,2.9913167E-4,0E0,1.7245142E-3,2.898178E-3,8.5808884E-4,2.0503418E-3,3.2993332E-3,5.1408103E-3,2.0796712E-3,2.0215074E-3,8.129515E-6,2.723729E-4,1.843758E-4,4.0768776E-3,0E0,0E0,0E0,0E0,0E0,0E0,0E0,0E0,0E0,0E0,0E0,0E0,0E0,0E0,0E0,0E0,0E0,0E0,0E0,0E0,0E0,0E0,0E0,0E0,0E0,0E0,0E0,0E0,0E0,0E0],"parents":[2147483647,0,0,1,1,2,2,3,3,4,4,5,5,6,6,7,7,8,8,9,9,10,10,11,11,12,12,13,13,14,14,15,15,16,16,17,17,19,19,20,20,21,21,22,22,23,23,24,24,25,25,26,26,27,27,28,28,29,29,30,30],"right_children":[2,4,6,8,10,12,14,16,18,20,22,24,26,28,30,32,34,36,-1,38,40,42,44,46,48,50,52,54,56,58,60,-1,-1,-1,-1,-1,-1,-1,-1,-1,-1,-1,-1,-1,-1,-1,-1,-1,-1,-1,-1,-1,-1,-1,-1,-1,-1,-1,-1,-1,-1],"split_conditions":[4.182058E-1,1.76781E-1,7.4010557E-1,3.1442392E-1,3.3245382E-1,5.677221E-1,6.1565524E-1,1.8865435E-1,3.2233948E-1,3.4256816E-1,3.2541776E-1,6.112577E-1,7.576957E-1,6.3632363E-1,6.8865436E-1,2.3922603E-1,2.880387E-1,2.9595426E-1,-2.157256E-3,4.3271768E-1,4.599824E-1,2.880387E-1,2.8188214E-1,5.3649956E-1,7.07124E-1,7.05365E-1,4.5118734E-1,7.022867E-1,5.5189097E-1,7.022867E-1,6.2884784E-1,-1.8180497E-3,-3.5327764E-3,-1.1471588E-3,-3.3237466E-3,-3.646073E-4,8.007221E-4,-6.9134106E-4,-1.6570883E-3,-2.73339E-3,-7.5596705E-4,5.682707E-5,1.667294E-3,-1.8778712E-3,-4.4810693E-4,4.3458288E-4,-5.2911596E-4,3.0182356E-3,-1.850465E-4,1.3281464E-3,4.2818833E-4,-9.7135006E-4,2.9505566E-3,2.0725743E-3,5.775154E-4,-9.614408E-4,3.867815E-4,6.2838914E-3,1.6795248E-3,3.7050832E-3,1.5483543E-3],"split_indices":[59,59,59,30,56,57,42,28,38,47,52,9,51,47,42,7,28,38,0,14,3,49,44,13,18,21,9,13,16,0,20,0,0,0,0,0,0,0,0,0,0,0,0,0,0,0,0,0,0,0,0,0,0,0,0,0,0,0,0,0,0],"split_type":[0,0,0,0,0,0,0,0,0,0,0,0,0,0,0,0,0,0,0,0,0,0,0,0,0,0,0,0,0,0,0,0,0,0,0,0,0,0,0,0,0,0,0,0,0,0,0,0,0,0,0,0,0,0,0,0,0,0,0,0,0],"sum_hessian":[7.52E2,3.23E2,4.29E2,9.7E1,2.26E2,3.69E2,6E1,8.8E1,9E0,1.32E2,9.4E1,2.2E2,1.49E2,1.4E1,4.6E1,4.4E1,4.4E1,7E0,2E0,1.01E2,3.1E1,1.4E1,8E1,2.01E2,1.9E1,1.37E2,1.2E1,8E0,6E0,7E0,3.9E1,1.9E1,2.5E1,2.9E1,1.5E1,4E0,3E0,7.6E1,2.5E1,1.6E1,1.5E1,1E1,4E0,1.1E1,6.9E1,1.56E2,4.5E1,1E1,9E0,1.01E2,3.6E1,1E0,1.1E1,7E0,1E0,1E0,5E0,6E0,1E0,1.8E1,2.1E1],"tree_param":{"num_deleted":"0","num_feature":"60","num_nodes":"61","size_leaf_vector":"1"}},{"base_weights":[1.1543122E-4,-1.03796115E-2,1.0281347E-2,-1.7767362E-2,-5.2849064E-3,7.433219E-3,2.5489878E-2,-2.7760906E-2,-1.5939474E-2,-5.8986754E-3,1.1794034E-2,3.96733E-3,1.2574874E-2,4.570298E-3,2.8166609E-2,-2.8852072E-2,-2.4232194E-4,-9.025489E-3,-1.8391727E-2,-6.932189E-3,6.7128043E-4,3.0432164E-3,1.9784048E-3,5.38468E-3,-4.331454E-3,1.7467227E-2,6.200449E-3,1.0840023E-2,-4.4094324E-3,3.8793985E-2,1.9980082E-2,-2.998413E-3,-3.1054506E-4,4.5856537E-4,-1.0401825E-3,-3.6695742E-3,-1.5557919E-3,-3.84578E-4,-9.879183E-4,2.928397E-4,-1.1199982E-3,6.2363053E-4,-1.1642774E-4,5.738618E-4,-2.6684538E-3,3.0569546E-4,-1.2465961E-3,1.2550367E-3,2.49211E-3,-2.4394096E-4,1.1947769E-3,1.3230965E-3,6.381273E-5,2.0988782E-5,-9.1336964E-4,2.8037585E-3,4.8897904E-3,4.889518E-3,1.5302825E-3],"categories":[],"categories_nodes":[],"categories_segments":[],"categories_sizes":[],"default_left":[0,0,0,0,0,0,0,0,0,0,0,0,0,0,0,0,0,0,0,0,0,0,0,0,0,0,0,0,0,0,0,0,0,0,0,0,0,0,0,0,0,0,0,0,0,0,0,0,0,0,0,0,0,0,0,0,0,0,0],"id":28,"left_children":[1,3,5,7,9,11,13,15,17,19,21,23,25,27,29,31,-1,33,35,37,39,41,-1,43,45,47,49,51,53,55,57,-1,-1,-1,-1,-1,-1,-1,-1,-1,-1,-1,-1,-1,-1,-1,-1,-1,-1,-1,-1,-1,-1,-1,-1,-1,-1,-1,-1],"loss_changes":[8.044558E-2,1.3869952E-2,1.6400494E-2,2.3158342E-3,2.3862077E-3,5.7239216E-3,3.2310374E-3,5.383324E-4,2.0381324E-3,1.4577424E-3,4.991462E-4,2.3169683E-3,3.9458685E-3,4.982018E-4,3.8359612E-3,5.1896647E-4,0E0,7.221054E-4,4.3567456E-3,1.6446989E-3,8.3664263E-4,7.443529E-5,0E0,2.0486698E-3,1.7810387E-3,2.3626555E-3,2.909195E-3,1.13517686E-4,8.920861E-5,1.020018E-3,3.5795532E-3,0E0,0E0,0E0,0E0,0E0,0E0,0E0,0E0,0E0,0E0,0E0,0E0,0E0,0E0,0E0,0E0,0E0,0E0,0E0,0E0,0E0,0E0,0E0,0E0,0E0,0E0,0E0,0E0],"parents":[2147483647,0,0,1,1,2,2,3,3,4,4,5,5,6,6,7,7,8,8,9,9,10,10,11,11,12,12,13,13,14,14,15,15,17,17,18,18,19,19,20,20,21,21,23,23,24,24,25,25,26,26,27,27,28,28,29,29,30,30],"right_children":[2,4,6,8,10,12,14,16,18,20,22,24,26,28,30,32,-1,34,36,38,40,42,-1,44,46,48,50,52,54,56,58,-1,-1,-1,-1,-1,-1,-1,-1,-1,-1,-1,-1,-1,-1,-1,-1,-1,-1,-1,-1,-1,-1,-1,-1,-1,-1,-1,-1],"split_conditions":[4.5778364E-1,2.6077396E-1,7.4010557E-1,6.46438E-2,4.6657872E-1,5.628848E-1,5.9938437E-1,1.8293755E-1,2.3922603E-1,5.3078276E-1,4.2612138E-1,5.8311343E-1,6.890941E-1,6.3544416E-1,6.16095E-1,3.4256816E-1,-2.4232194E-4,4.001759E-2,1.8293755E-1,3.5620052E-1,6.398417E-1,3.4828496E-1,1.9784048E-3,6.3632363E-1,5.2418643E-1,6.121372E-1,7.0096743E-1,7.1064204E-1,7.1064204E-1,6.3544416E-1,6.0246265E-1,-2.998413E-3,-3.1054506E-4,4.5856537E-4,-1.0401825E-3,-3.6695742E-3,-1.5557919E-3,-3.84578E-4,-9.879183E-4,2.928397E-4,-1.1199982E-3,6.2363053E-4,-1.1642774E-4,5.738618E-4,-2.6684538E-3,3.0569546E-4,-1.2465961E-3,1.2550367E-3,2.49211E-3,-2.4394096E-4,1.1947769E-3,1.3230965E-3,6.381273E-5,2.0988782E-5,-9.1336964E-4,2.8037585E-3,4.8897904E-3,4.889518E-3,1.5302825E-3],"split_indices":[58,55,59,59,59,32,42,29,9,18,50,51,19,45,21,6,0,39,28,31,18,1,0,25,6,25,28,2,0,26,46,0,0,0,0,0,0,0,0,0,0,0,0,0,0,0,0,0,0,0,0,0,0,0,0,0,0,0,0],"split_type":[0,0,0,0,0,0,0,0,0,0,0,0,0,0,0,0,0,0,0,0,0,0,0,0,0,0,0,0,0,0,0,0,0,0,0,0,0,0,0,0,0,0,0,0,0,0,0,0,0,0,0,0,0,0,0,0,0,0,0],"sum_hessian":[7.52E2,3.7E2,3.82E2,1.5E2,2.2E2,3.23E2,5.9E1,2.1E1,1.29E2,2.13E2,7E0,1.94E2,1.29E2,7E0,5.2E1,2E1,1E0,3.5E1,9.4E1,1.84E2,2.9E1,4E0,3E0,1.66E2,2.8E1,7.2E1,5.7E1,4E0,3E0,2.1E1,3.1E1,1.9E1,1E0,3E0,3.2E1,1.1E1,8.3E1,9.1E1,9.3E1,2.5E1,4E0,2E0,2E0,1.65E2,1E0,1.5E1,1.3E1,4.5E1,2.7E1,2.3E1,3.4E1,3E0,1E0,2E0,1E0,1.2E1,9E0,3E0,2.8E1],"tree_param":{"num_deleted":"0","num_feature":"60","num_nodes":"59","size_leaf_vector":"1"}},{"base_weights":[1.1344241E-4,-9.366107E-3,9.295687E-3,-1.6849043E-2,-5.211468E-3,6.695021E-3,2.3184353E-2,-2.3756996E-3,-1.7763648E-2,-5.7431543E-3,1.0925334E-2,3.6616798E-3,1.1557978E-2,3.1881526E-2,1.650064E-2,-6.593343E-3,4.5446903E-3,-3.2525936E-3,-1.6183395E-2,-9.232344E-3,-3.7141321E-3,2.840334E-3,1.830025E-3,3.189165E-3,2.6135743E-3,1.6855888E-2,5.8100387E-3,1.3617635E-2,3.8227618E-2,2.8832236E-2,8.2770325E-3,-1.6235809E-4,-8.6723285E-4,5.9702795E-4,1.3396144E-5,-1.4812697E-3,-2.8957387E-3,-7.129147E-4,-1.9389335E-3,-1.6404152E-3,-2.8777897E-4,5.8205426E-4,-1.0866523E-4,8.440177E-4,1.05890525E-4,1.1830631E-3,2.4738375E-3,-7.4926374E-4,8.565321E-4,2.7760566E-4,1.9567371E-3,4.448136E-3,1.8306583E-3,3.4690157E-3,5.51489E-4,1.490206E-3,9.6225245E-5],"categories":[],"categories_nodes":[],"categories_segments":[],"categories_sizes":[],"default_left":[0,0,0,0,0,0,0,0,0,0,0,0,0,0,0,0,0,0,0,0,0,0,0,0,0,0,0,0,0,0,0,0,0,0,0,0,0,0,0,0,0,0,0,0,0,0,0,0,0,0,0,0,0,0,0,0,0],"id":29,"left_children":[1,3,5,7,9,11,13,15,17,19,21,23,25,27,29,31,33,-1,35,37,39,41,-1,43,-1,45,47,49,51,53,55,-1,-1,-1,-1,-1,-1,-1,-1,-1,-1,-1,-1,-1,-1,-1,-1,-1,-1,-1,-1,-1,-1,-1,-1,-1,-1],"loss_changes":[6.5630846E-2,1.1446174E-2,1.3678659E-2,1.7051324E-3,2.1218783E-3,4.7370037E-3,2.9616952E-3,2.9265435E-4,2.3663118E-3,1.6152677E-3,4.2503065E-4,2.051134E-3,3.6781244E-3,2.377037E-3,3.412122E-3,4.7912123E-5,2.4351764E-5,0E0,1.5671197E-3,1.6775541E-3,1.5341598E-3,6.484109E-5,0E0,2.2058946E-3,0E0,2.2424664E-3,2.2999868E-3,4.617161E-4,1.4281571E-3,1.720964E-3,1.1002547E-3,0E0,0E0,0E0,0E0,0E0,0E0,0E0,0E0,0E0,0E0,0E0,0E0,0E0,0E0,0E0,0E0,0E0,0E0,0E0,0E0,0E0,0E0,0E0,0E0,0E0,0E0],"parents":[2147483647,0,0,1,1,2,2,3,3,4,4,5,5,6,6,7,7,8,8,9,9,10,10,11,11,12,12,13,13,14,14,15,15,16,16,18,18,19,19,20,20,21,21,23,23,25,25,26,26,27,27,28,28,29,29,30,30],"right_children":[2,4,6,8,10,12,14,16,18,20,22,24,26,28,30,32,34,-1,36,38,40,42,-1,44,-1,46,48,50,52,54,56,-1,-1,-1,-1,-1,-1,-1,-1,-1,-1,-1,-1,-1,-1,-1,-1,-1,-1,-1,-1,-1,-1,-1,-1,-1,-1],"split_conditions":[4.5778364E-1,2.2823219E-1,7.4010557E-1,1.1081794E-1,4.6657872E-1,5.6420404E-1,6.1169744E-1,1.1081794E-1,6.46438E-2,3.2145998E-1,4.2612138E-1,6.3852245E-1,6.8029904E-1,5.5189097E-1,7.05365E-1,1.644679E-1,1.6226913E-1,-3.2525936E-3,2.3922603E-1,3.5092348E-1,7.9155676E-2,3.4828496E-1,1.830025E-3,3.7774846E-1,2.6135743E-3,6.121372E-1,6.1257696E-1,5.457344E-1,6.794195E-1,6.596306E-1,6.4467895E-1,-1.6235809E-4,-8.6723285E-4,5.9702795E-4,1.3396144E-5,-1.4812697E-3,-2.8957387E-3,-7.129147E-4,-1.9389335E-3,-1.6404152E-3,-2.8777897E-4,5.8205426E-4,-1.0866523E-4,8.440177E-4,1.05890525E-4,1.1830631E-3,2.4738375E-3,-7.4926374E-4,8.565321E-4,2.7760566E-4,1.9567371E-3,4.448136E-3,1.8306583E-3,3.4690157E-3,5.51489E-4,1.490206E-3,9.6225245E-5],"split_indices":[58,55,59,20,59,32,1,22,48,58,50,14,19,3,49,1,0,0,52,52,27,1,0,13,0,25,38,1,18,18,3,0,0,0,0,0,0,0,0,0,0,0,0,0,0,0,0,0,0,0,0,0,0,0,0,0,0],"split_type":[0,0,0,0,0,0,0,0,0,0,0,0,0,0,0,0,0,0,0,0,0,0,0,0,0,0,0,0,0,0,0,0,0,0,0,0,0,0,0,0,0,0,0,0,0,0,0,0,0,0,0,0,0,0,0,0,0],"sum_hessian":[7.52E2,3.7E2,3.82E2,1.31E2,2.39E2,3.23E2,5.9E1,8E0,1.23E2,2.32E2,7E0,2E2,1.23E2,2.4E1,3.5E1,5E0,3E0,1E1,1.13E2,8.4E1,1.48E2,4E0,3E0,1.97E2,3E0,6.3E1,6E1,7E0,1.7E1,1.3E1,2.2E1,2E0,3E0,2E0,1E0,1.04E2,9E0,7.1E1,1.3E1,8E0,1.4E2,2E0,2E0,5.6E1,1.41E2,4E1,2.3E1,1E1,5E1,3E0,4E0,1.2E1,5E0,1E1,3E0,1.1E1,1.1E1],"tree_param":{"num_deleted":"0","num_feature":"60","num_nodes":"57","size_leaf_vector":"1"}},{"base_weights":[1.1686284E-4,-9.540192E-3,7.5120386E-3,-1.6853724E-2,-6.3825124E-3,3.0559876E-3,1.4431303E-2,-1.851877E-2,-3.3776585E-3,-8.6640725E-3,-3.3298433E-3,3.905899E-3,-7.974772E-3,1.1879532E-2,2.6164576E-2,-1.6269363E-2,-2.908572E-2,4.607618E-3,-2.0500116E-2,-6.54595E-3,-1.5576887E-2,1.5799013E-4,-6.9632614E-3,-2.931198E-4,5.9685656E-3,-1.602354E-2,5.0952286E-3,4.6408135E-3,1.1036719E-2,2.9346535E-2,5.02187E-3,-1.8980807E-3,-3.293125E-4,-3.4898394E-3,-5.829435E-4,9.997282E-4,2.46572E-5,-2.3849607E-3,-5.2258227E-4,-4.4679415E-4,-1.2448286E-3,-3.1806642E-4,-2.3664334E-3,-7.4691133E-4,2.632849E-4,-2.435831E-3,-4.432954E-4,1.4105792E-3,-4.0544794E-4,2.1539393E-3,4.1272552E-4,-1.8359547E-3,-2.895673E-4,7.113477E-4,-6.396771E-5,8.956753E-4,1.815671E-3,9.457922E-4,3.2684465E-3,8.688271E-4,1.9332021E-4],"categories":[],"categories_nodes":[],"categories_segments":[],"categories_sizes":[],"default_left":[0,0,0,0,0,0,0,0,0,0,0,0,0,0,0,0,0,0,0,0,0,0,0,0,0,0,0,0,0,0,0,0,0,0,0,0,0,0,0,0,0,0,0,0,0,0,0,0,0,0,0,0,0,0,0,0,0,0,0,0,0],"id":30,"left_children":[1,3,5,7,9,11,13,15,17,19,21,23,25,27,29,31,33,35,37,39,41,43,45,47,49,51,53,-1,55,57,59,-1,-1,-1,-1,-1,-1,-1,-1,-1,-1,-1,-1,-1,-1,-1,-1,-1,-1,-1,-1,-1,-1,-1,-1,-1,-1,-1,-1,-1,-1],"loss_changes":[5.3847626E-2,7.4441005E-3,1.3121415E-2,2.1364E-3,1.5730653E-3,2.4780675E-3,4.689265E-3,1.5947279E-3,1.7351875E-3,1.816161E-3,1.2683759E-3,2.106415E-3,2.0803947E-3,3.532866E-3,1.8036049E-3,2.541136E-3,1.6890997E-3,2.0907613E-4,8.0010504E-5,1.1954228E-3,2.932345E-3,1.0012173E-3,2.0487467E-3,4.4441097E-3,4.58443E-3,3.148378E-4,9.714604E-5,