{"learner":{"attributes":{"scikit_learn":"{\"_estimator_type\": \"regressor\"}"},"feature_names":[],"feature_types":[],"gradient_booster":{"model":{"gbtree_model_param":{"num_parallel_tree":"1","num_trees":"100"},"iteration_indptr":[0,1,2,3,4,5,6,7,8,9,10,11,12,13,14,15,16,17,18,19,20,21,22,23,24,25,26,27,28,29,30,31,32,33,34,35,36,37,38,39,40,41,42,43,44,45,46,47,48,49,50,51,52,53,54,55,56,57,58,59,60,61,62,63,64,65,66,67,68,69,70,71,72,73,74,75,76,77,78,79,80,81,82,83,84,85,86,87,88,89,90,91,92,93,94,95,96,97,98,99,100],"tree_info":[0,0,0,0,0,0,0,0,0,0,0,0,0,0,0,0,0,0,0,0,0,0,0,0,0,0,0,0,0,0,0,0,0,0,0,0,0,0,0,0,0,0,0,0,0,0,0,0,0,0,0,0,0,0,0,0,0,0,0,0,0,0,0,0,0,0,0,0,0,0,0,0,0,0,0,0,0,0,0,0,0,0,0,0,0,0,0,0,0,0,0,0,0,0,0,0,0,0,0,0],"trees":[{"base_weights":[1.4881373E-8,-2.6029542E-1,3.2208666E-1,-3.7479174E-1,-2.0654085E-1,2.1429466E-1,3.726789E-1,-4.2545706E-2,-3.3870976E-2,-2.3134397E-1,-1.0719083E-1,1.6699082E-1,2.4693418E-1,3.2407567E-2,4.009147E-2,-2.5810236E-2,-1.9321445E-2,-1.3279703E-1,-2.322618E-2,3.4018338E-3,1.6909622E-2,2.50814E-2,8.573292E-3,-4.524784E-3,-1.3581681E-2,6.269996E-4,-4.3586963E-3],"categories":[],"categories_nodes":[],"categories_segments":[],"categories_sizes":[],"default_left":[0,0,0,0,0,0,0,0,0,0,0,0,0,0,0,0,0,0,0,0,0,0,0,0,0,0,0],"id":0,"left_children":[1,3,5,7,9,11,13,-1,-1,15,17,19,21,-1,-1,-1,-1,23,25,-1,-1,-1,-1,-1,-1,-1,-1],"loss_changes":[6.321361E1,2.4891014E0,1.757946E0,9.72023E-2,6.7996025E-1,1.2860155E-1,1.8297005E-1,0E0,0E0,1.8275547E-1,1.237666E-1,7.6856613E-3,1.7899036E-2,0E0,0E0,0E0,0E0,5.75155E-3,9.2817675E-3,0E0,0E0,0E0,0E0,0E0,0E0,0E0,0E0],"parents":[2147483647,0,0,1,1,2,2,3,3,4,4,5,5,6,6,9,9,10,10,11,11,12,12,17,17,18,18],"right_children":[2,4,6,8,10,12,14,-1,-1,16,18,20,22,-1,-1,-1,-1,24,26,-1,-1,-1,-1,-1,-1,-1,-1],"split_conditions":[5.193133E-1,2.1220791E-1,8.078207E-1,1.21125415E-1,3.524082E-1,7.24845E-1,8.640916E-1,-4.2545706E-2,-3.3870976E-2,2.865999E-1,4.2918456E-1,1.4020029E-1,9.6375775E-1,3.2407567E-2,4.009147E-2,-2.5810236E-2,-1.9321445E-2,2.2174536E-1,2.3557463E-1,3.4018338E-3,1.6909622E-2,2.50814E-2,8.573292E-3,-4.524784E-3,-1.3581681E-2,6.269996E-4,-4.3586963E-3],"split_indices":[56,59,59,59,59,59,59,0,0,59,59,27,4,0,0,0,0,46,17,0,0,0,0,0,0,0,0],"split_type":[0,0,0,0,0,0,0,0,0,0,0,0,0,0,0,0,0,0,0,0,0,0,0,0,0,0,0],"sum_hessian":[7.52E2,4.16E2,3.36E2,1.31E2,2.85E2,1.09E2,2.27E2,5E1,8.1E1,2.27E2,5.8E1,4.7E1,6.2E1,8.8E1,1.39E2,1.3E2,9.7E1,4.4E1,1.4E1,1E0,4.6E1,6E1,2E0,2E0,4.2E1,6E0,8E0],"tree_param":{"num_deleted":"0","num_feature":"60","num_nodes":"27","size_leaf_vector":"1"}},{"base_weights":[-2.2455317E-5,-2.3460974E-1,2.9025325E-1,-3.378915E-1,-1.8612093E-1,1.9127525E-1,3.348437E-1,-3.795333E-2,-3.0221418E-2,-2.1219184E-1,-1.0856383E-1,1.4828293E-1,2.1894795E-1,2.912343E-2,3.611096E-2,-2.3591924E-2,-1.8138463E-2,-1.340831E-2,-3.7773155E-2,3.2317431E-3,1.5018403E-2,2.2331767E-2,9.8665105E-3,-2.642444E-4,-6.3900985E-3],"categories":[],"categories_nodes":[],"categories_segments":[],"categories_sizes":[],"default_left":[0,0,0,0,0,0,0,0,0,0,0,0,0,0,0,0,0,0,0,0,0,0,0,0,0],"id":1,"left_children":[1,3,5,7,9,11,13,-1,-1,15,17,19,21,-1,-1,-1,-1,-1,23,-1,-1,-1,-1,-1,-1],"loss_changes":[5.134362E1,2.0254536E0,1.4232941E0,8.14085E-2,5.5525017E-1,9.4833136E-2,1.5942764E-1,0E0,0E0,1.129055E-1,1.2861812E-1,5.0671697E-3,1.1079311E-2,0E0,0E0,0E0,0E0,0E0,1.9106824E-2,0E0,0E0,0E0,0E0,0E0,0E0],"parents":[2147483647,0,0,1,1,2,2,3,3,4,4,5,5,6,6,9,9,10,10,11,11,12,12,18,18],"right_children":[2,4,6,8,10,12,14,-1,-1,16,18,20,22,-1,-1,-1,-1,-1,24,-1,-1,-1,-1,-1,-1],"split_conditions":[5.193133E-1,2.1220791E-1,7.99237E-1,1.3590844E-1,3.4000954E-1,7.167382E-1,8.640916E-1,-3.795333E-2,-3.0221418E-2,2.7753934E-1,4.0772533E-1,1.4020029E-1,9.6375775E-1,2.912343E-2,3.611096E-2,-2.3591924E-2,-1.8138463E-2,-1.340831E-2,2.3986648E-1,3.2317431E-3,1.5018403E-2,2.2331767E-2,9.8665105E-3,-2.642444E-4,-6.3900985E-3],"split_indices":[56,59,59,59,59,59,59,0,0,59,59,27,4,0,0,0,0,0,18,0,0,0,0,0,0],"split_type":[0,0,0,0,0,0,0,0,0,0,0,0,0,0,0,0,0,0,0,0,0,0,0,0,0],"sum_hessian":[7.52E2,4.16E2,3.36E2,1.31E2,2.85E2,1.06E2,2.3E2,5.6E1,7.5E1,2.12E2,7.3E1,4.4E1,6.2E1,9.1E1,1.39E2,1.16E2,9.6E1,5.3E1,2E1,1E0,4.3E1,5.9E1,3E0,9E0,1.1E1],"tree_param":{"num_deleted":"0","num_feature":"60","num_nodes":"25","size_leaf_vector":"1"}},{"base_weights":[-3.9174498E-5,-2.1146043E-1,2.6157123E-1,-2.7905735E-1,-1.5140276E-1,1.7261921E-1,3.0164176E-1,-3.195031E-2,-2.3030285E-2,-1.6848387E-1,-6.649481E-2,1.2696333E-1,1.9398044E-1,2.6242742E-2,3.252566E-2,-1.9070078E-2,-1.4542891E-1,-1.3053494E-2,-9.2713416E-2,4.8399647E-3,1.3006984E-2,1.9716986E-2,9.126521E-3,-3.8085133E-3,-1.461657E-2,1.4368022E-3,-2.5458902E-3,-5.570756E-3,-9.887159E-3],"categories":[],"categories_nodes":[],"categories_segments":[],"categories_sizes":[],"default_left":[0,0,0,0,0,0,0,0,0,0,0,0,0,0,0,0,0,0,0,0,0,0,0,0,0,0,0,0,0],"id":2,"left_children":[1,3,5,7,9,11,13,-1,-1,15,17,19,21,-1,-1,-1,23,25,27,-1,-1,-1,-1,-1,-1,-1,-1,-1,-1],"loss_changes":[4.1703743E1,1.6506519E0,1.1491165E0,3.109417E-1,3.1221867E-1,7.9725266E-2,1.2855911E-1,0E0,0E0,6.702566E-2,5.343488E-2,2.7347803E-3,5.2649975E-3,0E0,0E0,0E0,1.9466877E-3,5.128246E-3,4.171878E-4,0E0,0E0,0E0,0E0,0E0,0E0,0E0,0E0,0E0,0E0],"parents":[2147483647,0,0,1,1,2,2,3,3,4,4,5,5,6,6,9,9,10,10,11,11,12,12,16,16,17,17,18,18],"right_children":[2,4,6,8,10,12,14,-1,-1,16,18,20,22,-1,-1,-1,24,26,28,-1,-1,-1,-1,-1,-1,-1,-1,-1,-1],"split_conditions":[5.193133E-1,2.4701956E-1,7.99237E-1,1.7501192E-1,3.7052932E-1,7.014783E-1,8.640916E-1,-3.195031E-2,-2.3030285E-2,2.9899856E-1,2.479733E-1,1.63567E-1,9.6375775E-1,2.6242742E-2,3.252566E-2,-1.9070078E-2,1.5975203E-1,2.2317597E-1,1.8311875E-1,4.8399647E-3,1.3006984E-2,1.9716986E-2,9.126521E-3,-3.8085133E-3,-1.461657E-2,1.4368022E-3,-2.5458902E-3,-5.570756E-3,-9.887159E-3],"split_indices":[56,59,59,59,59,59,59,0,0,59,20,26,4,0,0,0,33,16,34,0,0,0,0,0,0,0,0,0,0],"split_type":[0,0,0,0,0,0,0,0,0,0,0,0,0,0,0,0,0,0,0,0,0,0,0,0,0,0,0,0,0],"sum_hessian":[7.52E2,4.16E2,3.36E2,1.94E2,2.22E2,1.06E2,2.3E2,1.03E2,9.1E1,1.84E2,3.8E1,3.6E1,7E1,9.1E1,1.39E2,9E1,9.4E1,1.3E1,2.5E1,2E0,3.4E1,6.7E1,3E0,1E0,9.3E1,4E0,9E0,5E0,2E1],"tree_param":{"num_deleted":"0","num_feature":"60","num_nodes":"29","size_leaf_vector":"1"}},{"base_weights":[-4.0012765E-5,-1.9057587E-1,2.3572703E-1,-2.7480265E-1,-1.5103562E-1,1.5733188E-1,2.7251536E-1,-3.1521257E-2,-2.4631841E-2,-1.7825393E-1,-1.0094626E-1,1.2031235E-1,1.8018866E-1,2.4296632E-2,2.9800203E-1,-1.94898E-2,-1.570212E-2,-1.1736978E-1,-3.12273E-2,5.5034296E-3,1.2366473E-2,1.816192E-2,4.3601873E-3,2.990668E-2,8.671201E-3,-1.2805509E-2,-9.8204035E-3,-6.345573E-4,-5.7962644E-3],"categories":[],"categories_nodes":[],"categories_segments":[],"categories_sizes":[],"default_left":[0,0,0,0,0,0,0,0,0,0,0,0,0,0,0,0,0,0,0,0,0,0,0,0,0,0,0,0,0],"id":3,"left_children":[1,3,5,7,9,11,13,-1,-1,15,17,19,21,-1,23,-1,-1,25,27,-1,-1,-1,-1,-1,-1,-1,-1,-1,-1],"loss_changes":[3.387125E1,1.3472509E0,9.290409E-1,7.4296E-2,3.7192345E-1,7.1397305E-2,9.930611E-2,0E0,0E0,3.4422398E-2,1.1427283E-1,3.041923E-3,4.976988E-3,0E0,6.132126E-4,0E0,0E0,4.422307E-3,1.3601849E-2,0E0,0E0,0E0,0E0,0E0,0E0,0E0,0E0,0E0,0E0],"parents":[2147483647,0,0,1,1,2,2,3,3,4,4,5,5,6,6,9,9,10,10,11,11,12,12,14,14,17,17,18,18],"right_children":[2,4,6,8,10,12,14,-1,-1,16,18,20,22,-1,24,-1,-1,26,28,-1,-1,-1,-1,-1,-1,-1,-1,-1,-1],"split_conditions":[5.193133E-1,2.1220791E-1,8.078207E-1,1.21125415E-1,3.1950405E-1,7.167382E-1,8.88412E-1,-3.1521257E-2,-2.4631841E-2,2.6847878E-1,4.0772533E-1,6.2660944E-1,1E0,2.4296632E-2,1E0,-1.94898E-2,-1.570212E-2,3.6146876E-1,2.4654268E-1,5.5034296E-3,1.2366473E-2,1.816192E-2,4.3601873E-3,2.990668E-2,8.671201E-3,-1.2805509E-2,-9.8204035E-3,-6.345573E-4,-5.7962644E-3],"split_indices":[56,59,59,59,59,59,59,0,0,59,59,59,1,0,6,0,0,59,19,0,0,0,0,0,0,0,0,0,0],"split_type":[0,0,0,0,0,0,0,0,0,0,0,0,0,0,0,0,0,0,0,0,0,0,0,0,0,0,0,0,0],"sum_hessian":[7.52E2,4.16E2,3.36E2,1.31E2,2.85E2,1.09E2,2.27E2,5E1,8.1E1,1.83E2,1.02E2,4.4E1,6.5E1,1.1E2,1.17E2,9.8E1,8.5E1,8.2E1,2E1,3E0,4.1E1,6.4E1,1E0,1.16E2,1E0,4.9E1,3.3E1,1.1E1,9E0],"tree_param":{"num_deleted":"0","num_feature":"60","num_nodes":"29","size_leaf_vector":"1"}},{"base_weights":[-5.876808E-5,-1.7320023E-1,2.107666E-1,-2.500148E-1,-1.3872574E-1,1.3723198E-1,2.4487068E-1,-2.9523704E-2,-2.2888033E-2,-1.6653845E-1,-1.021558E-1,9.706226E-2,1.5792996E-1,2.1572715E-2,2.6663674E-2,-1.7740993E-2,-1.4758547E-2,-1.1196174E-1,-3.6555294E-2,2.2485614E-2,1.0472395E-2,1.6052986E-2,7.4249296E-3,-1.2079126E-2,-8.867247E-3,-1.4503907E-3,-5.2746017E-3,3.6313236E-4,2.6291355E-3],"categories":[],"categories_nodes":[],"categories_segments":[],"categories_sizes":[],"default_left":[0,0,0,0,0,0,0,0,0,0,0,0,0,0,0,0,0,0,0,0,0,0,0,0,0,0,0,0,0],"id":4,"left_children":[1,3,5,7,9,11,13,-1,-1,15,17,19,21,-1,-1,-1,-1,23,25,27,-1,-1,-1,-1,-1,-1,-1,-1,-1],"loss_changes":[2.7522974E1,1.0616474E0,8.1905746E-1,5.3805828E-2,2.759142E-1,7.6128244E-2,8.901024E-2,0E0,0E0,7.196903E-3,7.76031E-2,2.050054E-2,3.5276413E-3,0E0,0E0,0E0,0E0,1.190877E-2,5.6614783E-3,2.6330026E-4,0E0,0E0,0E0,0E0,0E0,0E0,0E0,0E0,0E0],"parents":[2147483647,0,0,1,1,2,2,3,3,4,4,5,5,6,6,9,9,10,10,11,11,12,12,17,17,18,18,19,19],"right_children":[2,4,6,8,10,12,14,-1,-1,16,18,20,22,-1,-1,-1,-1,24,26,28,-1,-1,-1,-1,-1,-1,-1,-1,-1],"split_conditions":[5.193133E-1,2.0267048E-1,7.99237E-1,1.0634239E-1,2.999523E-1,7.014783E-1,8.7982833E-1,-2.9523704E-2,-2.2888033E-2,2.6371005E-1,4.0772533E-1,1.6881259E-1,9.6375775E-1,2.1572715E-2,2.6663674E-2,-1.7740993E-2,-1.4758547E-2,3.6146876E-1,2.4654268E-1,2.6943251E-1,1.0472395E-2,1.6052986E-2,7.4249296E-3,-1.2079126E-2,-8.867247E-3,-1.4503907E-3,-5.2746017E-3,3.6313236E-4,2.6291355E-3],"split_indices":[59,59,59,59,59,59,59,0,0,59,59,27,4,0,0,0,0,59,19,3,0,0,0,0,0,0,0,0,0],"split_type":[0,0,0,0,0,0,0,0,0,0,0,0,0,0,0,0,0,0,0,0,0,0,0,0,0,0,0,0,0],"sum_hessian":[7.52E2,4.13E2,3.39E2,1.26E2,2.87E2,1.09E2,2.3E2,3.6E1,9E1,1.61E2,1.26E2,3.9E1,7E1,1.03E2,1.27E2,9.7E1,6.4E1,1.09E2,1.7E1,4E0,3.5E1,6.7E1,3E0,7.6E1,3.3E1,8E0,9E0,1E0,3E0],"tree_param":{"num_deleted":"0","num_feature":"60","num_nodes":"29","size_leaf_vector":"1"}},{"base_weights":[-8.928002E-5,-1.5615214E-1,1.8994047E-1,-2.3324466E-1,-1.2783632E-1,1.2513533E-1,2.2122574E-1,-2.7863098E-2,-2.173388E-2,-1.5296201E-1,-9.283664E-2,9.089755E-2,1.4565076E-1,2.0131405E-2,2.4796514E-1,-1.6382536E-2,-1.3577436E-2,-1.0150303E-1,-3.327337E-2,2.0835495E-2,9.722469E-2,1.481088E-2,6.8680583E-3,2.4915945E-2,6.9044563E-3,-1.097167E-2,-8.088722E-3,-1.639458E-3,-5.2322536E-3,3.4497678E-4,2.4319484E-3,2.8266818E-3,9.824197E-3],"categories":[],"categories_nodes":[],"categories_segments":[],"categories_sizes":[],"default_left":[0,0,0,0,0,0,0,0,0,0,0,0,0,0,0,0,0,0,0,0,0,0,0,0,0,0,0,0,0,0,0,0,0],"id":5,"left_children":[1,3,5,7,9,11,13,-1,-1,15,17,19,21,-1,23,-1,-1,25,27,29,31,-1,-1,-1,-1,-1,-1,-1,-1,-1,-1,-1,-1],"loss_changes":[2.236107E1,8.7391853E-1,6.6164875E-1,1.8852234E-2,2.5401402E-1,6.613219E-2,7.1474075E-2,0E0,0E0,1.0618687E-2,6.372833E-2,1.7922431E-2,2.8823614E-3,0E0,2.6698112E-3,0E0,0E0,1.0259867E-2,4.9296785E-3,2.1896185E-4,9.9122524E-5,0E0,0E0,0E0,0E0,0E0,0E0,0E0,0E0,0E0,0E0,0E0,0E0],"parents":[2147483647,0,0,1,1,2,2,3,3,4,4,5,5,6,6,9,9,10,10,11,11,12,12,14,14,17,17,18,18,19,19,20,20],"right_children":[2,4,6,8,10,12,14,-1,-1,16,18,20,22,-1,24,-1,-1,26,28,30,32,-1,-1,-1,-1,-1,-1,-1,-1,-1,-1,-1,-1],"split_conditions":[5.193133E-1,1.8311875E-1,8.078207E-1,7.200763E-2,2.9899856E-1,7.1244633E-1,8.993801E-1,-2.7863098E-2,-2.173388E-2,2.56557E-1,4.0772533E-1,1.6881259E-1,9.6375775E-1,2.0131405E-2,9.4325227E-1,-1.6382536E-2,-1.3577436E-2,3.6003816E-1,2.4940391E-1,2.6943251E-1,1.4020029E-1,1.481088E-2,6.8680583E-3,2.4915945E-2,6.9044563E-3,-1.097167E-2,-8.088722E-3,-1.639458E-3,-5.2322536E-3,3.4497678E-4,2.4319484E-3,2.8266818E-3,9.824197E-3],"split_indices":[59,59,59,59,59,59,59,0,0,59,59,27,4,0,6,0,0,59,19,3,16,0,0,0,0,0,0,0,0,0,0,0,0],"split_type":[0,0,0,0,0,0,0,0,0,0,0,0,0,0,0,0,0,0,0,0,0,0,0,0,0,0,0,0,0,0,0,0,0],"sum_hessian":[7.52E2,4.13E2,3.39E2,1.09E2,3.04E2,1.12E2,2.27E2,2.4E1,8.5E1,1.75E2,1.29E2,4.4E1,6.8E1,1.35E2,9.2E1,1.02E2,7.3E1,1.12E2,1.7E1,4E0,4E1,6.5E1,3E0,9.1E1,1E0,7.7E1,3.5E1,1E1,7E0,1E0,3E0,1E0,3.9E1],"tree_param":{"num_deleted":"0","num_feature":"60","num_nodes":"33","size_leaf_vector":"1"}},{"base_weights":[-1.021716E-4,-1.4079174E-1,1.7120837E-1,-2.1037108E-1,-1.1523594E-1,1.0514067E-1,1.9602634E-1,-2.5188241E-2,-1.9585764E-2,-1.3737938E-1,-8.311852E-2,6.405748E-2,1.1593377E-1,1.6902417E-1,2.1526353E-2,-1.4760186E-2,-1.2192101E-2,-9.494069E-2,-4.6566248E-2,1.2634516E-2,7.1511925E-3,7.2060055E-3,1.20159976E-1,1.6974105E-2,4.6517435E-3,-2.2792711E-3,-9.546575E-3,-1.5112641E-3,-5.958466E-3,3.277272E-4,1.4661173E-3,1.2095397E-2,3.4275264E-3],"categories":[],"categories_nodes":[],"categories_segments":[],"categories_sizes":[],"default_left":[0,0,0,0,0,0,0,0,0,0,0,0,0,0,0,0,0,0,0,0,0,0,0,0,0,0,0,0,0,0,0,0,0],"id":6,"left_children":[1,3,5,7,9,11,13,-1,-1,15,17,19,21,23,-1,-1,-1,25,27,29,-1,-1,31,-1,-1,-1,-1,-1,-1,-1,-1,-1,-1],"loss_changes":[1.8172615E1,7.1191406E-1,5.368767E-1,1.6939163E-2,2.0549393E-1,3.469801E-2,9.139824E-2,0E0,0E0,1.0290146E-2,5.0459087E-2,7.529728E-3,5.062282E-3,1.5010834E-3,0E0,0E0,0E0,1.4228821E-3,1.2612231E-2,2.780708E-5,0E0,0E0,3.5494566E-4,0E0,0E0,0E0,0E0,0E0,0E0,0E0,0E0,0E0,0E0],"parents":[2147483647,0,0,1,1,2,2,3,3,4,4,5,5,6,6,9,9,10,10,11,11,12,12,13,13,17,17,18,18,19,19,22,22],"right_children":[2,4,6,8,10,12,14,-1,-1,16,18,20,22,24,-1,-1,-1,26,28,30,-1,-1,32,-1,-1,-1,-1,-1,-1,-1,-1,-1,-1],"split_conditions":[5.193133E-1,1.8311875E-1,7.820696E-1,7.200763E-2,2.999523E-1,6.442537E-1,8.640916E-1,-2.5188241E-2,-1.9585764E-2,2.56557E-1,3.7339056E-1,1.6881259E-1,6.609442E-1,9.4659036E-1,2.1526353E-2,-1.4760186E-2,-1.2192101E-2,1.5975203E-1,2.479733E-1,2.6943251E-1,7.1511925E-3,7.2060055E-3,1E0,1.6974105E-2,4.6517435E-3,-2.2792711E-3,-9.546575E-3,-1.5112641E-3,-5.958466E-3,3.277272E-4,1.4661173E-3,1.2095397E-2,3.4275264E-3],"split_indices":[59,59,59,59,59,47,59,0,0,59,59,28,59,5,0,0,0,33,20,3,0,0,1,0,0,0,0,0,0,0,0,0,0],"split_type":[0,0,0,0,0,0,0,0,0,0,0,0,0,0,0,0,0,0,0,0,0,0,0,0,0,0,0,0,0,0,0,0,0],"sum_hessian":[7.52E2,4.13E2,3.39E2,1.09E2,3.04E2,9.4E1,2.45E2,2.4E1,8.5E1,1.78E2,1.26E2,2.1E1,7.3E1,1.06E2,1.39E2,1.02E2,7.6E1,9.4E1,3.2E1,3E0,1.8E1,8E0,6.5E1,1.05E2,1E0,1E0,9.3E1,1E1,2.2E1,1E0,2E0,6.4E1,1E0],"tree_param":{"num_deleted":"0","num_feature":"60","num_nodes":"33","size_leaf_vector":"1"}},{"base_weights":[-1.1345612E-4,-1.2693243E-1,1.5430762E-1,-1.89741E-1,-1.0386398E-1,1.140354E-1,1.878317E-1,-2.1468498E-2,-1.698589E-2,-1.20409146E-1,-6.8742275E-2,8.416772E-2,1.3590994E-2,1.7392991E-2,2.0848061E-1,-1.2989669E-2,-1.0173006E-1,-7.692951E-2,-2.7171016E-2,2.6248906E-2,8.926714E-2,2.0993387E-2,5.4829153E-3,-1.0245184E-2,-2.4520427E-3,-8.139044E-3,-5.7619507E-3,-1.312598E-3,-4.3086563E-3,8.0432295E-4,3.1922532E-3,9.266419E-3,5.4329424E-3],"categories":[],"categories_nodes":[],"categories_segments":[],"categories_sizes":[],"default_left":[0,0,0,0,0,0,0,0,0,0,0,0,0,0,0,0,0,0,0,0,0,0,0,0,0,0,0,0,0,0,0,0,0],"id":7,"left_children":[1,3,5,7,9,11,13,-1,-1,15,17,19,-1,-1,21,-1,23,25,27,29,31,-1,-1,-1,-1,-1,-1,-1,-1,-1,-1,-1,-1],"loss_changes":[1.4765978E1,5.801363E-1,4.3761063E-1,1.8087149E-2,1.6895652E-1,9.11355E-2,1.6557693E-2,0E0,0E0,2.3292542E-2,3.194508E-2,1.8036127E-2,0E0,0E0,3.8969517E-3,0E0,1.6117096E-3,2.460003E-3,3.458065E-3,4.6628527E-4,2.4427772E-3,0E0,0E0,0E0,0E0,0E0,0E0,0E0,0E0,0E0,0E0,0E0,0E0],"parents":[2147483647,0,0,1,1,2,2,3,3,4,4,5,5,6,6,9,9,10,10,11,11,14,14,16,16,17,17,18,18,19,19,20,20],"right_children":[2,4,6,8,10,12,14,-1,-1,16,18,20,-1,-1,22,-1,24,26,28,30,32,-1,-1,-1,-1,-1,-1,-1,-1,-1,-1,-1,-1],"split_conditions":[5.193133E-1,1.8311875E-1,8.3929425E-1,1.1397234E-1,3.1950405E-1,7.4773484E-1,9.155937E-1,-2.1468498E-2,-1.698589E-2,2.7372438E-1,4.0772533E-1,6.2660944E-1,1.3590994E-2,1.7392991E-2,9.4325227E-1,-1.2989669E-2,3.624225E-1,3.7052932E-1,2.4940391E-1,2.8612304E-1,8.993801E-1,2.0993387E-2,5.4829153E-3,-1.0245184E-2,-2.4520427E-3,-8.139044E-3,-5.7619507E-3,-1.312598E-3,-4.3086563E-3,8.0432295E-4,3.1922532E-3,9.266419E-3,5.4329424E-3],"split_indices":[59,59,59,58,59,59,59,0,0,59,59,59,0,0,6,0,57,59,19,3,40,0,0,0,0,0,0,0,0,0,0,0,0],"split_type":[0,0,0,0,0,0,0,0,0,0,0,0,0,0,0,0,0,0,0,0,0,0,0,0,0,0,0,0,0,0,0,0,0],"sum_hessian":[7.52E2,4.13E2,3.39E2,1.09E2,3.04E2,1.56E2,1.83E2,4.4E1,6.5E1,2.05E2,9.9E1,6.8E1,8.8E1,1.15E2,6.8E1,1.32E2,7.3E1,8.2E1,1.7E1,6E0,6.2E1,6.7E1,1E0,7.2E1,1E0,6.4E1,1.8E1,1E1,7E0,2E0,4E0,5.5E1,7E0],"tree_param":{"num_deleted":"0","num_feature":"60","num_nodes":"33","size_leaf_vector":"1"}},{"base_weights":[-1.120843E-4,-1.1444127E-1,1.3910083E-1,-1.5838751E-1,-8.752986E-2,9.056068E-2,1.6161303E-1,-1.7888775E-1,-1.3132541E-1,-9.9870756E-2,-5.532801E-2,6.35435E-2,1.04506135E-1,1.4644607E-2,1.8254416E-1,-2.0727126E-2,-1.6455753E-2,-1.3219449E-2,-3.5245016E-3,-1.0930383E-2,-8.600564E-2,-6.400844E-2,-2.4766203E-2,2.3648987E-2,6.988815E-2,1.0608188E-2,5.1591876E-3,1.83396E-2,5.2087693E-3,-8.760339E-3,-3.3747652E-3,-3.2009103E-3,-6.581954E-3,-5.3198636E-4,-3.404605E-3,2.7112663E-4,2.668673E-3,2.8090558E-3,7.162267E-3],"categories":[],"categories_nodes":[],"categories_segments":[],"categories_sizes":[],"default_left":[0,0,0,0,0,0,0,0,0,0,0,0,0,0,0,0,0,0,0,0,0,0,0,0,0,0,0,0,0,0,0,0,0,0,0,0,0,0,0],"id":8,"left_children":[1,3,5,7,9,11,13,15,17,19,21,23,25,-1,27,-1,-1,-1,-1,-1,29,31,33,35,37,-1,-1,-1,-1,-1,-1,-1,-1,-1,-1,-1,-1,-1,-1],"loss_changes":[1.2000742E1,4.757557E-1,3.568983E-1,6.305313E-2,9.740102E-2,3.480363E-2,4.660082E-2,8.716583E-4,1.2693405E-3,1.4926195E-2,1.80462E-2,8.471876E-3,4.4697523E-4,0E0,7.8225136E-4,0E0,0E0,0E0,0E0,0E0,3.7232041E-3,1.1965483E-3,3.0671433E-3,3.7286896E-4,4.530549E-4,0E0,0E0,0E0,0E0,0E0,0E0,0E0,0E0,0E0,0E0,0E0,0E0,0E0,0E0],"parents":[2147483647,0,0,1,1,2,2,3,3,4,4,5,5,6,6,7,7,8,8,9,9,10,10,11,11,12,12,14,14,20,20,21,21,22,22,23,23,24,24],"right_children":[2,4,6,8,10,12,14,16,18,20,22,24,26,-1,28,-1,-1,-1,-1,-1,30,32,34,36,38,-1,-1,-1,-1,-1,-1,-1,-1,-1,-1,-1,-1,-1,-1],"split_conditions":[5.193133E-1,2.3080592E-1,7.99237E-1,1.6309012E-1,3.352408E-1,7.014783E-1,8.993801E-1,7.200763E-2,4.082022E-1,2.865999E-1,4.0772533E-1,2.7134E-1,9.6375775E-1,1.4644607E-2,9.4325227E-1,-2.0727126E-2,-1.6455753E-2,-1.3219449E-2,-3.5245016E-3,-1.0930383E-2,3.8197425E-1,2.360515E-1,2.3986648E-1,2.6943251E-1,1.4401525E-1,1.0608188E-2,5.1591876E-3,1.83396E-2,5.2087693E-3,-8.760339E-3,-3.3747652E-3,-3.2009103E-3,-6.581954E-3,-5.3198636E-4,-3.404605E-3,2.7112663E-4,2.668673E-3,2.8090558E-3,7.162267E-3],"split_indices":[59,59,59,59,59,59,59,59,37,59,59,36,4,0,6,0,0,0,0,0,36,23,18,3,13,0,0,0,0,0,0,0,0,0,0,0,0,0,0],"split_type":[0,0,0,0,0,0,0,0,0,0,0,0,0,0,0,0,0,0,0,0,0,0,0,0,0,0,0,0,0,0,0,0,0,0,0,0,0,0,0],"sum_hessian":[7.52E2,4.13E2,3.39E2,1.55E2,2.58E2,1.09E2,2.3E2,8.5E1,7E1,1.85E2,7.3E1,3.9E1,7E1,1.38E2,9.2E1,2.4E1,6.1E1,6.9E1,1E0,1.06E2,7.9E1,5.6E1,1.7E1,6E0,3.3E1,6.7E1,3E0,9.1E1,1E0,7.6E1,3E0,4E0,5.2E1,6E0,1.1E1,1E0,5E0,2E0,3.1E1],"tree_param":{"num_deleted":"0","num_feature":"60","num_nodes":"39","size_leaf_vector":"1"}},{"base_weights":[-1.3253743E-4,-1.0321625E-1,1.2538743E-1,-1.3813731E-1,-7.549587E-2,9.2291094E-2,1.5294579E-1,-1.6143134E-1,-1.1606077E-1,-8.621201E-2,-4.822565E-2,6.1559826E-2,1.06076166E-1,1.443009E-2,1.771727E-2,-1.8737322E-2,-1.4836718E-2,-1.1657218E-2,-3.348276E-3,-9.490655E-2,-7.702049E-2,-5.3375825E-2,-8.532746E-3,2.4445422E-2,6.6908814E-2,8.711598E-3,1.1335415E-1,-9.547772E-3,-2.460684E-3,-7.863179E-3,-3.5191E-3,-3.8192146E-3,-6.0012857E-3,-1.131289E-3,6.8542064E-4,3.1738915E-3,9.217203E-4,7.0171207E-3,3.9640255E-3,1.1402771E-2,3.2091977E-3],"categories":[],"categories_nodes":[],"categories_segments":[],"categories_sizes":[],"default_left":[0,0,0,0,0,0,0,0,0,0,0,0,0,0,0,0,0,0,0,0,0,0,0,0,0,0,0,0,0,0,0,0,0,0,0,0,0,0,0,0,0],"id":9,"left_children":[1,3,5,7,9,11,13,15,17,19,21,23,25,-1,-1,-1,-1,-1,-1,27,29,31,33,35,37,-1,39,-1,-1,-1,-1,-1,-1,-1,-1,-1,-1,-1,-1,-1,-1],"loss_changes":[9.756058E0,3.9033365E-1,2.959919E-1,7.485795E-2,6.393218E-2,5.9980273E-2,1.2970448E-2,1.3461113E-3,1.9335747E-4,5.9564114E-3,1.3445482E-2,8.489117E-3,4.8902035E-3,0E0,0E0,0E0,0E0,0E0,0E0,9.0295076E-4,3.0292273E-3,3.7544519E-3,4.6254258E-4,5.9599103E-4,1.1326969E-3,0E0,3.9100647E-4,0E0,0E0,0E0,0E0,0E0,0E0,0E0,0E0,0E0,0E0,0E0,0E0,0E0,0E0],"parents":[2147483647,0,0,1,1,2,2,3,3,4,4,5,5,6,6,7,7,8,8,9,9,10,10,11,11,12,12,19,19,20,20,21,21,22,22,23,23,24,24,26,26],"right_children":[2,4,6,8,10,12,14,16,18,20,22,24,26,-1,-1,-1,-1,-1,-1,28,30,32,34,36,38,-1,40,-1,-1,-1,-1,-1,-1,-1,-1,-1,-1,-1,-1,-1,-1],"split_conditions":[5.193133E-1,2.4225083E-1,8.3929425E-1,1.6309012E-1,3.4287077E-1,7.24845E-1,9.29423E-1,7.200763E-2,4.082022E-1,2.865999E-1,4.635193E-1,1.82165E-1,7.639485E-1,1.443009E-2,1.771727E-2,-1.8737322E-2,-1.4836718E-2,-1.1657218E-2,-3.348276E-3,3.8197425E-1,3.8197425E-1,2.7372438E-1,2.8612304E-1,2.7706248E-1,8.993801E-1,8.711598E-3,9.4659036E-1,-9.547772E-3,-2.460684E-3,-7.863179E-3,-3.5191E-3,-3.8192146E-3,-6.0012857E-3,-1.131289E-3,6.8542064E-4,3.1738915E-3,9.217203E-4,7.0171207E-3,3.9640255E-3,1.1402771E-2,3.2091977E-3],"split_indices":[59,59,59,59,59,59,59,59,37,59,59,25,59,0,0,0,0,0,0,1,36,41,6,8,40,0,5,0,0,0,0,0,0,0,0,0,0,0,0,0,0],"split_type":[0,0,0,0,0,0,0,0,0,0,0,0,0,0,0,0,0,0,0,0,0,0,0,0,0,0,0,0,0,0,0,0,0,0,0,0,0,0,0,0,0],"sum_hessian":[7.52E2,4.13E2,3.39E2,1.81E2,2.32E2,1.56E2,1.83E2,8.5E1,9.6E1,1.65E2,6.7E1,5E1,1.06E2,1.4E2,4.3E1,2.4E1,6.1E1,9.5E1,1E0,8E1,8.5E1,5.9E1,8E0,7E0,4.3E1,3.3E1,7.3E1,7.9E1,1E0,8.1E1,4E0,2E1,3.9E1,7E0,1E0,4E0,3E0,3.7E1,6E0,7.2E1,1E0],"tree_param":{"num_deleted":"0","num_feature":"60","num_nodes":"41","size_leaf_vector":"1"}},{"base_weights":[-1.3481123E-4,-9.309327E-2,1.13056175E-1,-1.3972534E-1,-7.596992E-2,8.166594E-2,1.3654166E-1,-1.6302022E-1,-1.2618971E-2,-8.8026516E-2,-5.0373632E-2,5.5699456E-2,9.4345786E-2,1.2588779E-2,1.5386328E-1,-4.7780024E-3,-1.6489413E-2,-9.509203E-2,-7.413815E-2,-5.6337386E-2,-2.0075569E-2,1.9739952E-2,6.0055394E-2,9.596788E-3,4.498117E-3,1.5488279E-2,4.2268247E-3,-9.547309E-3,-2.2395893E-3,-7.4765086E-3,-1.4185756E-3,-2.5988396E-3,-5.7949647E-3,-9.052494E-4,-3.2722855E-3,5.912602E-4,2.4088372E-3,6.1801574E-3,2.670668E-3],"categories":[],"categories_nodes":[],"categories_segments":[],"categories_sizes":[],"default_left":[0,0,0,0,0,0,0,0,0,0,0,0,0,0,0,0,0,0,0,0,0,0,0,0,0,0,0,0,0,0,0,0,0,0,0,0,0,0,0],"id":10,"left_children":[1,3,5,7,9,11,13,15,-1,17,19,21,23,-1,25,-1,-1,27,29,31,33,35,37,-1,-1,-1,-1,-1,-1,-1,-1,-1,-1,-1,-1,-1,-1,-1,-1],"loss_changes":[7.933636E0,3.1996274E-1,2.3950195E-1,1.4112949E-2,8.969009E-2,4.347402E-2,1.6247034E-2,1.1134148E-4,0E0,1.316452E-2,1.6938E-2,6.803006E-3,3.530562E-3,0E0,1.3036728E-3,0E0,0E0,1.5461445E-3,1.7208159E-3,2.5552213E-3,2.2131922E-3,2.7846522E-4,9.699762E-4,0E0,0E0,0E0,0E0,0E0,0E0,0E0,0E0,0E0,0E0,0E0,0E0,0E0,0E0,0E0,0E0],"parents":[2147483647,0,0,1,1,2,2,3,3,4,4,5,5,6,6,7,7,9,9,10,10,11,11,12,12,14,14,17,17,18,18,19,19,20,20,21,21,22,22],"right_children":[2,4,6,8,10,12,14,16,-1,18,20,22,24,-1,26,-1,-1,28,30,32,34,36,38,-1,-1,-1,-1,-1,-1,-1,-1,-1,-1,-1,-1,-1,-1,-1,-1],"split_conditions":[5.193133E-1,1.8311875E-1,8.330949E-1,1.0634239E-1,3.1950405E-1,7.24845E-1,9.155937E-1,1.09680496E-1,-1.2618971E-2,2.732475E-1,4.0772533E-1,6.2660944E-1,9.4659036E-1,1.2588779E-2,9.4325227E-1,-4.7780024E-3,-1.6489413E-2,4.0772533E-1,4.434907E-1,1.8311875E-1,2.4940391E-1,2.8612304E-1,9.237005E-1,9.596788E-3,4.498117E-3,1.5488279E-2,4.2268247E-3,-9.547309E-3,-2.2395893E-3,-7.4765086E-3,-1.4185756E-3,-2.5988396E-3,-5.7949647E-3,-9.052494E-4,-3.2722855E-3,5.912602E-4,2.4088372E-3,6.1801574E-3,2.670668E-3],"split_indices":[59,59,59,53,59,59,59,10,0,58,59,59,5,0,6,0,0,36,20,44,19,3,38,0,0,0,0,0,0,0,0,0,0,0,0,0,0,0,0],"split_type":[0,0,0,0,0,0,0,0,0,0,0,0,0,0,0,0,0,0,0,0,0,0,0,0,0,0,0,0,0,0,0,0,0,0,0,0,0,0,0],"sum_hessian":[7.52E2,4.13E2,3.39E2,1.09E2,3.04E2,1.47E2,1.92E2,3.6E1,7.3E1,2.05E2,9.9E1,5E1,9.7E1,1.24E2,6.8E1,1E0,3.5E1,1.32E2,7.3E1,8.2E1,1.7E1,6E0,4.4E1,9.3E1,4E0,6.7E1,1E0,1.31E2,1E0,7.2E1,1E0,5E0,7.7E1,1E1,7E0,2E0,4E0,4.1E1,3E0],"tree_param":{"num_deleted":"0","num_feature":"60","num_nodes":"39","size_leaf_vector":"1"}},{"base_weights":[-1.3313345E-4,-8.394611E-2,1.0192188E-1,-1.1658227E-1,-6.3964695E-2,7.505174E-2,1.242952E-1,-1.3878584E-2,-1.01646215E-1,-7.1455486E-2,-3.5534583E-2,5.737821E-2,9.134528E-2,1.1703939E-2,1.4472188E-1,-1.04736656E-1,-6.7963093E-3,-7.96158E-2,-6.1816614E-2,-4.01587E-2,-6.9243377E-3,3.613142E-2,6.457209E-2,9.793216E-3,7.293687E-3,4.042429E-3,1.4620731E-2,-1.053258E-2,-2.703497E-3,-7.994176E-3,-2.253248E-3,-2.5516152E-3,-6.3089873E-3,-1.6508744E-3,-4.2524775E-3,-1.1848952E-3,2.193667E-4,7.6280534E-4,4.0230476E-3,6.732382E-3,3.5299216E-3],"categories":[],"categories_nodes":[],"categories_segments":[],"categories_sizes":[],"default_left":[0,0,0,0,0,0,0,0,0,0,0,0,0,0,0,0,0,0,0,0,0,0,0,0,0,0,0,0,0,0,0,0,0,0,0,0,0,0,0,0,0],"id":11,"left_children":[1,3,5,7,9,11,13,-1,15,17,19,21,23,-1,25,27,-1,29,31,33,35,37,39,-1,-1,-1,-1,-1,-1,-1,-1,-1,-1,-1,-1,-1,-1,-1,-1,-1,-1],"loss_changes":[6.4493675E0,2.6251936E-1,1.950705E-1,3.7627697E-2,5.2618504E-2,3.9969146E-2,1.0332584E-2,0E0,2.9791594E-3,1.1124253E-2,7.1305633E-3,9.588987E-3,2.5574565E-3,0E0,9.0646744E-4,1.1352897E-3,0E0,1.8960238E-4,2.9197037E-3,1.9839257E-3,4.3011652E-4,2.263531E-3,2.2149235E-3,0E0,0E0,0E0,0E0,0E0,0E0,0E0,0E0,0E0,0E0,0E0,0E0,0E0,0E0,0E0,0E0,0E0,0E0],"parents":[2147483647,0,0,1,1,2,2,3,3,4,4,5,5,6,6,8,8,9,9,10,10,11,11,12,12,14,14,15,15,17,17,18,18,19,19,20,20,21,21,22,22],"right_children":[2,4,6,8,10,12,14,-1,16,18,20,22,24,-1,26,28,-1,30,32,34,36,38,40,-1,-1,-1,-1,-1,-1,-1,-1,-1,-1,-1,-1,-1,-1,-1,-1,-1,-1],"split_conditions":[5.193133E-1,2.3080592E-1,8.3929425E-1,1.3733906E-1,3.524082E-1,7.558417E-1,9.29423E-1,-1.3878584E-2,3.2999524E-1,2.865999E-1,4.635193E-1,6.442537E-1,8.445398E-1,1.1703939E-2,7.367668E-1,4.082022E-1,-6.7963093E-3,4.0772533E-1,1.8311875E-1,2.360515E-1,2.6990938E-1,1.6881259E-1,8.993801E-1,9.793216E-3,7.293687E-3,4.042429E-3,1.4620731E-2,-1.053258E-2,-2.703497E-3,-7.994176E-3,-2.253248E-3,-2.5516152E-3,-6.3089873E-3,-1.6508744E-3,-4.2524775E-3,-1.1848952E-3,2.193667E-4,7.6280534E-4,4.0230476E-3,6.732382E-3,3.5299216E-3],"split_indices":[59,59,59,59,59,59,59,0,7,59,59,47,32,0,31,37,0,6,42,23,7,28,40,0,0,0,0,0,0,0,0,0,0,0,0,0,0,0,0,0,0],"split_type":[0,0,0,0,0,0,0,0,0,0,0,0,0,0,0,0,0,0,0,0,0,0,0,0,0,0,0,0,0,0,0,0,0,0,0,0,0,0,0,0,0],"sum_hessian":[7.52E2,4.13E2,3.39E2,1.55E2,2.58E2,1.56E2,1.83E2,5.9E1,9.6E1,2.03E2,5.5E1,7.7E1,7.9E1,1.4E2,4.3E1,8.6E1,1E1,1.06E2,9.7E1,4.7E1,8E0,2.1E1,5.6E1,5.5E1,2.4E1,1E0,4.2E1,8.5E1,1E0,1.05E2,1E0,4E0,9.3E1,5E0,4.2E1,5E0,3E0,3E0,1.8E1,5E1,6E0],"tree_param":{"num_deleted":"0","num_feature":"60","num_nodes":"41","size_leaf_vector":"1"}},{"base_weights":[-1.1635813E-4,-7.569616E-2,9.191351E-2,-1.016177E-1,-5.5123553E-2,5.6078363E-2,1.0537865E-1,-1.19016744E-1,-8.514415E-2,-6.0856987E-2,-2.6789982E-2,3.273579E-2,6.2260233E-2,8.9834906E-2,1.165058E-1,-1.4038692E-2,-1.0848011E-2,-8.553931E-3,-2.3604461E-3,-6.7514315E-2,-5.2487884E-2,-3.1555653E-2,-6.3391924E-3,7.0559382E-3,3.6419142E-2,2.2840127E-3,6.3604176E-2,9.060044E-3,3.3096296E-3,1.0945844E-1,1.3254194E-1,-6.821287E-3,-2.125885E-3,-3.0774742E-3,-5.452052E-3,-5.5933994E-4,-3.3050203E-3,-1.0861551E-3,2.0291434E-4,1.4377832E-4,8.4493955E-4,4.182312E-3,2.3760782E-3,6.5821544E-3,3.392808E-3,6.011336E-3,1.1084497E-2,3.8403065E-3,1.3404831E-2],"categories":[],"categories_nodes":[],"categories_segments":[],"categories_sizes":[],"default_left":[0,0,0,0,0,0,0,0,0,0,0,0,0,0,0,0,0,0,0,0,0,0,0,0,0,0,0,0,0,0,0,0,0,0,0,0,0,0,0,0,0,0,0,0,0,0,0,0,0],"id":12,"left_children":[1,3,5,7,9,11,13,15,17,19,21,23,25,27,29,-1,-1,-1,-1,31,33,35,37,39,41,-1,43,-1,-1,45,47,-1,-1,-1,-1,-1,-1,-1,-1,-1,-1,-1,-1,-1,-1,-1,-1,-1,-1],"loss_changes":[5.2445235E0,2.1517372E-1,1.5814924E-1,4.2032123E-2,3.6220133E-2,1.1670411E-2,3.2081366E-2,4.1353703E-3,3.3968687E-4,7.20948E-3,3.7958939E-3,1.8239636E-3,2.467692E-3,1.6490221E-3,1.3139248E-3,0E0,0E0,0E0,0E0,1.9102693E-3,2.294287E-3,1.0956004E-3,3.6264112E-4,1.916624E-5,3.0595437E-4,0E0,2.4388134E-3,0E0,0E0,3.838539E-4,2.4086237E-4,0E0,0E0,0E0,0E0,0E0,0E0,0E0,0E0,0E0,0E0,0E0,0E0,0E0,0E0,0E0,0E0,0E0,0E0],"parents":[2147483647,0,0,1,1,2,2,3,3,4,4,5,5,6,6,7,7,8,8,9,9,10,10,11,11,12,12,13,13,14,14,19,19,20,20,21,21,22,22,23,23,24,24,26,26,29,29,30,30],"right_children":[2,4,6,8,10,12,14,16,18,20,22,24,26,28,30,-1,-1,-1,-1,32,34,36,38,40,42,-1,44,-1,-1,46,48,-1,-1,-1,-1,-1,-1,-1,-1,-1,-1,-1,-1,-1,-1,-1,-1,-1,-1],"split_conditions":[5.193133E-1,2.4225083E-1,7.820696E-1,1.6309012E-1,3.662375E-1,6.442537E-1,8.640916E-1,7.200763E-2,3.8578922E-1,2.9899856E-1,4.635193E-1,1.6881259E-1,6.442537E-1,9.618503E-1,9.3514544E-1,-1.4038692E-2,-1.0848011E-2,-8.553931E-3,-2.3604461E-3,3.9055794E-1,2.2317597E-1,2.2174536E-1,2.6990938E-1,2.6943251E-1,2.3986648E-1,2.2840127E-3,9.055794E-1,9.060044E-3,3.3096296E-3,8.330949E-1,7.367668E-1,-6.821287E-3,-2.125885E-3,-3.0774742E-3,-5.452052E-3,-5.5933994E-4,-3.3050203E-3,-1.0861551E-3,2.0291434E-4,1.4377832E-4,8.4493955E-4,4.182312E-3,2.3760782E-3,6.5821544E-3,3.392808E-3,6.011336E-3,1.1084497E-2,3.8403065E-3,1.3404831E-2],"split_indices":[59,59,59,59,59,47,59,59,26,59,59,28,50,10,59,0,0,0,0,38,43,46,7,3,8,0,49,0,0,53,31,0,0,0,0,0,0,0,0,0,0,0,0,0,0,0,0,0,0],"split_type":[0,0,0,0,0,0,0,0,0,0,0,0,0,0,0,0,0,0,0,0,0,0,0,0,0,0,0,0,0,0,0,0,0,0,0,0,0,0,0,0,0,0,0,0,0,0,0,0,0],"sum_hessian":[7.52E2,4.13E2,3.39E2,1.81E2,2.32E2,9.4E1,2.45E2,8.5E1,9.6E1,1.92E2,4E1,2.1E1,7.3E1,1.06E2,1.39E2,2.4E1,6.1E1,9.5E1,1E0,1.03E2,8.9E1,3.2E1,8E0,3E0,1.8E1,3E0,7E1,1.04E2,2E0,1.02E2,3.7E1,1.01E2,2E0,9E0,8E1,2E0,3E1,5E0,3E0,1E0,2E0,1.1E1,7E0,6.4E1,6E0,4E0,9.8E1,1E0,3.6E1],"tree_param":{"num_deleted":"0","num_feature":"60","num_nodes":"49","size_leaf_vector":"1"}},{"base_weights":[-9.344356E-5,-6.8266705E-2,8.29178E-2,-1.00143574E-1,-5.444884E-2,6.0979523E-2,1.0118623E-1,-1.2143215E-1,-9.00547E-2,-6.338217E-2,-3.675235E-2,4.614953E-2,7.364543E-2,9.296886E-2,1.1353449E-1,-3.4700723E-3,-1.2287745E-2,-9.111057E-3,-2.9768208E-3,-6.973157E-2,-5.5250484E-2,-4.369347E-2,-2.1335728E-2,2.0256432E-2,4.9821448E-2,7.643557E-2,4.8433922E-2,2.6759536E-3,9.33119E-3,1.1435821E-1,2.8760612E-3,-7.0344643E-3,-2.564329E-3,-5.083892E-3,-7.0944238E-3,-4.473844E-3,-6.1397353E-4,-6.061229E-4,-2.7713284E-3,2.5935266E-3,8.254779E-4,5.2535394E-3,2.9641206E-3,3.6514744E-3,7.762483E-3,1.1069119E-3,5.106349E-3,1.1513526E-2,3.1148226E-3],"categories":[],"categories_nodes":[],"categories_segments":[],"categories_sizes":[],"default_left":[0,0,0,0,0,0,0,0,0,0,0,0,0,0,0,0,0,0,0,0,0,0,0,0,0,0,0,0,0,0,0,0,0,0,0,0,0,0,0,0,0,0,0,0,0,0,0,0,0],"id":13,"left_children":[1,3,5,7,9,11,13,15,17,19,21,23,25,27,29,-1,-1,-1,-1,31,33,35,37,39,41,43,45,-1,-1,47,-1,-1,-1,-1,-1,-1,-1,-1,-1,-1,-1,-1,-1,-1,-1,-1,-1,-1,-1],"loss_changes":[4.2669983E0,1.7690206E-1,1.3009429E-1,1.5696883E-2,4.367435E-2,2.6091456E-2,8.115292E-3,3.7407875E-4,2.8893948E-3,6.0605407E-3,9.768635E-3,6.121576E-3,2.136469E-3,1.3780594E-4,1.5292764E-3,0E0,0E0,0E0,0E0,1.0071397E-3,2.5550723E-3,2.3937821E-3,3.046683E-3,5.35619E-4,2.002716E-3,6.313026E-4,5.155597E-4,0E0,0E0,8.1044436E-4,0E0,0E0,0E0,0E0,0E0,0E0,0E0,0E0,0E0,0E0,0E0,0E0,0E0,0E0,0E0,0E0,0E0,0E0,0E0],"parents":[2147483647,0,0,1,1,2,2,3,3,4,4,5,5,6,6,7,7,8,8,9,9,10,10,11,11,12,12,13,13,14,14,19,19,20,20,21,21,22,22,23,23,24,24,25,25,26,26,29,29],"right_children":[2,4,6,8,10,12,14,16,18,20,22,24,26,28,30,-1,-1,-1,-1,32,34,36,38,40,42,44,46,-1,-1,48,-1,-1,-1,-1,-1,-1,-1,-1,-1,-1,-1,-1,-1,-1,-1,-1,-1,-1,-1],"split_conditions":[5.193133E-1,1.9742489E-1,8.3929425E-1,1.0634239E-1,3.1950405E-1,7.5441104E-1,9.155937E-1,1.09680496E-1,3.8578922E-1,2.680019E-1,3.7339056E-1,3.4668574E-1,8.7267524E-1,3.4620887E-1,9.4325227E-1,-3.4700723E-3,-1.2287745E-2,-9.111057E-3,-2.9768208E-3,4.0200287E-1,3.6433E-1,4.2107773E-1,2.479733E-1,1.82165E-1,8.993801E-1,7.2389126E-1,8.082976E-1,2.6759536E-3,9.33119E-3,9.694802E-1,2.8760612E-3,-7.0344643E-3,-2.564329E-3,-5.083892E-3,-7.0944238E-3,-4.473844E-3,-6.1397353E-4,-6.061229E-4,-2.7713284E-3,2.5935266E-3,8.254779E-4,5.2535394E-3,2.9641206E-3,3.6514744E-3,7.762483E-3,1.1069119E-3,5.106349E-3,1.1513526E-2,3.1148226E-3],"split_indices":[59,59,59,53,59,59,59,10,23,57,59,37,41,1,6,0,0,0,0,37,41,0,20,21,39,55,0,0,0,29,0,0,0,0,0,0,0,0,0,0,0,0,0,0,0,0,0,0,0],"split_type":[0,0,0,0,0,0,0,0,0,0,0,0,0,0,0,0,0,0,0,0,0,0,0,0,0,0,0,0,0,0,0,0,0,0,0,0,0,0,0,0,0,0,0,0,0,0,0,0,0],"sum_hessian":[7.52E2,4.13E2,3.39E2,1.23E2,2.9E2,1.56E2,1.83E2,3.6E1,8.7E1,1.91E2,9.9E1,7.4E1,8.2E1,1.15E2,6.8E1,1E0,3.5E1,8.5E1,2E0,1.03E2,8.8E1,6.7E1,3.2E1,1E1,6.4E1,7.2E1,1E1,1E0,1.14E2,6.7E1,1E0,1.01E2,2E0,7.2E1,1.6E1,6.5E1,2E0,1E1,2.2E1,6E0,4E0,5.5E1,9E0,3E0,6.9E1,1E0,9E0,6.6E1,1E0],"tree_param":{"num_deleted":"0","num_feature":"60","num_nodes":"49","size_leaf_vector":"1"}},{"base_weights":[-8.3188024E-5,-6.1580345E-2,7.479889E-2,-9.293059E-2,-5.00718E-2,4.4133116E-2,8.5332446E-2,-1.0989203E-1,-8.319406E-3,-5.803748E-2,-3.3161778E-2,2.6529193E-2,4.9179483E-2,7.2726555E-2,9.489768E-2,-1.112914E-2,-2.9757507E-3,-6.4807594E-2,-5.0774403E-2,-3.9878454E-2,-2.0113284E-2,8.464957E-3,3.0073192E-2,5.1211268E-2,2.7539693E-3,7.355245E-2,3.183271E-3,8.894657E-2,1.08531E-1,-6.559048E-3,-2.9033625E-3,-5.2441E-3,-2.986431E-3,-2.7445694E-3,-4.4794222E-3,-5.5102113E-4,-2.551792E-3,9.531677E-5,1.0104611E-3,1.0525127E-3,3.185888E-3,1.4792323E-3,5.2195094E-3,4.3364316E-3,7.457699E-3,4.783938E-3,9.012424E-3,1.1005136E-2,2.6138783E-3],"categories":[],"categories_nodes":[],"categories_segments":[],"categories_sizes":[],"default_left":[0,0,0,0,0,0,0,0,0,0,0,0,0,0,0,0,0,0,0,0,0,0,0,0,0,0,0,0,0,0,0,0,0,0,0,0,0,0,0,0,0,0,0,0,0,0,0,0,0],"id":14,"left_children":[1,3,5,7,9,11,13,15,-1,17,19,21,23,25,27,-1,-1,29,31,33,35,37,39,41,-1,43,-1,45,47,-1,-1,-1,-1,-1,-1,-1,-1,-1,-1,-1,-1,-1,-1,-1,-1,-1,-1,-1,-1],"loss_changes":[3.4721975E0,1.4471638E-1,1.0606074E-1,9.023547E-3,3.915882E-2,6.6016912E-3,2.348423E-2,8.3735585E-4,0E0,6.838858E-3,7.962167E-3,1.153864E-3,1.5794635E-3,1.4751554E-3,1.7051697E-3,0E0,0E0,9.803474E-4,2.0581186E-3,2.7431622E-3,2.700666E-3,5.1952346E-5,2.930034E-4,1.4135242E-3,0E0,1.681447E-4,0E0,6.747842E-4,1.8835068E-3,0E0,0E0,0E0,0E0,0E0,0E0,0E0,0E0,0E0,0E0,0E0,0E0,0E0,0E0,0E0,0E0,0E0,0E0,0E0,0E0],"parents":[2147483647,0,0,1,1,2,2,3,3,4,4,5,5,6,6,7,7,9,9,10,10,11,11,12,12,13,13,14,14,17,17,18,18,19,19,20,20,21,21,22,22,23,23,25,25,27,27,28,28],"right_children":[2,4,6,8,10,12,14,16,-1,18,20,22,24,26,28,-1,-1,30,32,34,36,38,40,42,-1,44,-1,46,48,-1,-1,-1,-1,-1,-1,-1,-1,-1,-1,-1,-1,-1,-1,-1,-1,-1,-1,-1,-1],"split_conditions":[5.193133E-1,1.8311875E-1,7.6585597E-1,1.0634239E-1,3.1950405E-1,6.442537E-1,8.640916E-1,2.4225083E-1,-8.319406E-3,2.56557E-1,3.7052932E-1,1.6881259E-1,8.993801E-1,9.618503E-1,9.3514544E-1,-1.112914E-2,-2.9757507E-3,2.7896994E-1,3.5145447E-1,2.9804483E-1,2.479733E-1,2.6943251E-1,1.4401525E-1,1.4401525E-1,2.7539693E-3,7.334287E-1,3.183271E-3,8.330949E-1,9.694802E-1,-6.559048E-3,-2.9033625E-3,-5.2441E-3,-2.986431E-3,-2.7445694E-3,-4.4794222E-3,-5.5102113E-4,-2.551792E-3,9.531677E-5,1.0104611E-3,1.0525127E-3,3.185888E-3,1.4792323E-3,5.2195094E-3,4.3364316E-3,7.457699E-3,4.783938E-3,9.012424E-3,1.1005136E-2,2.6138783E-3],"split_indices":[59,59,58,59,59,47,59,5,0,59,59,27,39,10,59,0,0,58,32,54,20,3,13,6,0,53,0,53,32,0,0,0,0,0,0,0,0,0,0,0,0,0,0,0,0,0,0,0,0],"split_type":[0,0,0,0,0,0,0,0,0,0,0,0,0,0,0,0,0,0,0,0,0,0,0,0,0,0,0,0,0,0,0,0,0,0,0,0,0,0,0,0,0,0,0,0,0,0,0,0,0],"sum_hessian":[7.52E2,4.13E2,3.39E2,1.09E2,3.04E2,8.8E1,2.51E2,3.6E1,7.3E1,2.05E2,9.9E1,2.1E1,6.7E1,1.12E2,1.39E2,3.5E1,1E0,1.02E2,1.03E2,6.4E1,3.5E1,4E0,1.7E1,6E1,7E0,1.09E2,3E0,1.02E2,3.7E1,9.9E1,3E0,9.4E1,9E0,2E1,4.4E1,1E1,2.5E1,1E0,3E0,2E0,1.5E1,2E0,5.8E1,5E0,1.04E2,4E0,9.8E1,3.6E1,1E0],"tree_param":{"num_deleted":"0","num_feature":"60","num_nodes":"49","size_leaf_vector":"1"}},{"base_weights":[-6.5906344E-5,-5.554416E-2,6.748722E-2,-7.875648E-2,-4.2872563E-2,4.9611393E-2,8.237318E-2,-9.956991E-2,-7.096884E-2,-4.8537757E-2,-2.5329808E-2,3.797503E-2,6.033671E-2,7.730138E-2,9.675388E-2,-7.3750834E-3,-1.0901304E-2,-7.267226E-2,-4.0379036E-2,-5.461935E-2,-4.245725E-2,-1.4385817E-2,-3.2630954E-2,2.1366017E-2,4.191661E-2,6.5427693E-3,4.651943E-3,5.298439E-3,7.89514E-2,9.865038E-2,3.795153E-3,-7.305824E-3,-1.6844571E-3,-4.281376E-3,-1.1667982E-3,-2.5435556E-3,-5.559062E-3,-5.245703E-3,-3.7819748E-3,-7.1511866E-4,-2.2739887E-3,-3.420893E-3,-9.876945E-4,2.4387492E-3,5.4493546E-4,4.4095265E-3,2.169879E-3,2.7667105E-3,7.953658E-3,9.984518E-3,2.4831833E-3],"categories":[],"categories_nodes":[],"categories_segments":[],"categories_sizes":[],"default_left":[0,0,0,0,0,0,0,0,0,0,0,0,0,0,0,0,0,0,0,0,0,0,0,0,0,0,0,0,0,0,0,0,0,0,0,0,0,0,0,0,0,0,0,0,0,0,0,0,0,0,0],"id":15,"left_children":[1,3,5,7,9,11,13,15,17,19,21,23,25,27,29,-1,-1,31,33,35,37,39,41,43,45,-1,-1,-1,47,49,-1,-1,-1,-1,-1,-1,-1,-1,-1,-1,-1,-1,-1,-1,-1,-1,-1,-1,-1,-1,-1],"loss_changes":[2.8257885E0,1.183964E-1,8.638692E-2,1.6436338E-2,2.560398E-2,1.73029E-2,5.9410334E-3,9.812713E-4,2.7453303E-3,5.1878095E-3,4.9640276E-3,4.210748E-3,2.5838017E-3,1.4741421E-3,1.1629164E-3,0E0,0E0,9.672642E-4,5.967822E-5,1.3638735E-3,2.931729E-3,1.590102E-3,1.0983311E-3,6.8466365E-4,1.7741472E-3,0E0,0E0,0E0,1.7007589E-3,1.2249947E-3,0E0,0E0,0E0,0E0,0E0,0E0,0E0,0E0,0E0,0E0,0E0,0E0,0E0,0E0,0E0,0E0,0E0,0E0,0E0,0E0,0E0],"parents":[2147483647,0,0,1,1,2,2,3,3,4,4,5,5,6,6,7,7,8,8,9,9,10,10,11,11,12,12,13,13,14,14,17,17,18,18,19,19,20,20,21,21,22,22,23,23,24,24,28,28,29,29],"right_children":[2,4,6,8,10,12,14,16,18,20,22,24,26,28,30,-1,-1,32,34,36,38,40,42,44,46,-1,-1,-1,48,50,-1,-1,-1,-1,-1,-1,-1,-1,-1,-1,-1,-1,-1,-1,-1,-1,-1,-1,-1,-1,-1],"split_conditions":[5.193133E-1,2.2699094E-1,8.3929425E-1,1.0634239E-1,3.4287077E-1,7.558417E-1,9.29423E-1,1.3733906E-1,3.2999524E-1,2.732475E-1,2.7372438E-1,3.6433E-1,8.445398E-1,6.494993E-1,9.446829E-1,-7.3750834E-3,-1.0901304E-2,4.082022E-1,3.2999524E-1,3.2904148E-2,2.4225083E-1,2.6847878E-1,3.0615166E-1,2.7706248E-1,9.065331E-1,6.5427693E-3,4.651943E-3,5.298439E-3,6.4043874E-1,9.694802E-1,3.795153E-3,-7.305824E-3,-1.6844571E-3,-4.281376E-3,-1.1667982E-3,-2.5435556E-3,-5.559062E-3,-5.245703E-3,-3.7819748E-3,-7.1511866E-4,-2.2739887E-3,-3.420893E-3,-9.876945E-4,2.4387492E-3,5.4493546E-4,4.4095265E-3,2.169879E-3,2.7667105E-3,7.953658E-3,9.984518E-3,2.4831833E-3],"split_indices":[59,59,59,53,59,59,59,20,7,58,41,35,32,2,28,0,0,37,1,20,29,20,6,8,40,0,0,0,5,32,0,0,0,0,0,0,0,0,0,0,0,0,0,0,0,0,0,0,0,0,0],"split_type":[0,0,0,0,0,0,0,0,0,0,0,0,0,0,0,0,0,0,0,0,0,0,0,0,0,0,0,0,0,0,0,0,0,0,0,0,0,0,0,0,0,0,0,0,0,0,0,0,0,0,0],"sum_hessian":[7.52E2,4.13E2,3.39E2,1.44E2,2.69E2,1.56E2,1.83E2,3.6E1,1.08E2,2.02E2,6.7E1,7.7E1,7.9E1,1.4E2,4.3E1,1.2E1,2.4E1,1.01E2,7E0,9.7E1,1.05E2,2.8E1,3.9E1,1.6E1,6.1E1,5.5E1,2.4E1,1.1E1,1.29E2,4.1E1,2E0,1E2,1E0,6E0,1E0,4E0,9.3E1,3E1,7.5E1,1.6E1,1.2E1,3.6E1,3E0,1.3E1,3E0,5.4E1,7E0,2E0,1.27E2,4E1,1E0],"tree_param":{"num_deleted":"0","num_feature":"60","num_nodes":"51","size_leaf_vector":"1"}},{"base_weights":[-6.4894564E-5,-5.012801E-2,6.08945E-2,-7.583745E-2,-4.0691398E-2,3.5888284E-2,6.948442E-2,-8.95715E-2,-6.7344874E-2,-4.8676092E-2,-2.956834E-2,2.009767E-2,3.9608475E-2,5.916283E-2,7.73191E-2,-9.135508E-3,-3.7716867E-3,-6.8872394E-3,-3.90635E-3,-5.039901E-2,-3.355939E-2,-3.4335993E-2,-1.6165696E-2,5.0406456E-3,2.2605823E-3,1.2086526E-3,4.0644936E-2,6.1834253E-2,4.6020977E-2,8.969619E-2,7.200212E-2,-3.7325833E-3,-5.296716E-3,-1.553011E-3,-3.6888036E-3,-2.3880515E-3,-3.772894E-3,-6.9681875E-4,-2.2403526E-3,6.3303116E-5,6.29884E-4,4.275284E-3,2.2076156E-3,2.0903826E-3,6.2519163E-3,4.4608416E-4,4.770731E-3,5.8682314E-3,1.0175328E-2,4.190394E-3,7.3431865E-3],"categories":[],"categories_nodes":[],"categories_segments":[],"categories_sizes":[],"default_left":[0,0,0,0,0,0,0,0,0,0,0,0,0,0,0,0,0,0,0,0,0,0,0,0,0,0,0,0,0,0,0,0,0,0,0,0,0,0,0,0,0,0,0,0,0,0,0,0,0,0,0],"id":16,"left_children":[1,3,5,7,9,11,13,15,17,19,21,23,25,27,29,-1,-1,-1,-1,31,33,35,37,39,-1,-1,41,43,45,47,49,-1,-1,-1,-1,-1,-1,-1,-1,-1,-1,-1,-1,-1,-1,-1,-1,-1,-1,-1,-1],"loss_changes":[2.301071E0,9.735453E-2,7.053876E-2,6.7979693E-3,2.564907E-2,4.4321865E-3,1.5803933E-2,1.6137958E-4,4.2003393E-4,2.892524E-3,7.75183E-3,6.0359295E-4,1.5340447E-3,1.1214912E-3,2.754867E-3,0E0,0E0,0E0,0E0,3.2604933E-3,6.873999E-4,2.4691224E-3,1.909297E-3,1.8195184E-5,0E0,0E0,1.7177835E-3,1.2441576E-3,1.3991185E-3,8.238494E-3,1.35535E-3,0E0,0E0,0E0,0E0,0E0,0E0,0E0,0E0,0E0,0E0,0E0,0E0,0E0,0E0,0E0,0E0,0E0,0E0,0E0,0E0],"parents":[2147483647,0,0,1,1,2,2,3,3,4,4,5,5,6,6,7,7,8,8,9,9,10,10,11,11,12,12,13,13,14,14,19,19,20,20,21,21,22,22,23,23,26,26,27,27,28,28,29,29,30,30],"right_children":[2,4,6,8,10,12,14,16,18,20,22,24,26,28,30,-1,-1,-1,-1,32,34,36,38,40,-1,-1,42,44,46,48,50,-1,-1,-1,-1,-1,-1,-1,-1,-1,-1,-1,-1,-1,-1,-1,-1,-1,-1,-1,-1],"split_conditions":[5.193133E-1,1.8311875E-1,7.6585597E-1,1.09680496E-1,2.9899856E-1,6.571292E-1,8.640916E-1,2.4558894E-1,3.8197425E-1,3.0996662E-1,3.7052932E-1,1.6881259E-1,1.5975203E-1,8.531235E-1,7.9303765E-1,-9.135508E-3,-3.7716867E-3,-6.8872394E-3,-3.90635E-3,1.3352408E-1,3.0090606E-1,2.5703385E-1,2.56557E-1,2.6943251E-1,2.2605823E-3,1.2086526E-3,8.993801E-1,7.334287E-1,8.3595616E-1,7.3104435E-1,8.311874E-1,-3.7325833E-3,-5.296716E-3,-1.553011E-3,-3.6888036E-3,-2.3880515E-3,-3.772894E-3,-6.9681875E-4,-2.2403526E-3,6.3303116E-5,6.29884E-4,4.275284E-3,2.2076156E-3,2.0903826E-3,6.2519163E-3,4.4608416E-4,4.770731E-3,5.8682314E-3,1.0175328E-2,4.190394E-3,7.3431865E-3],"split_indices":[59,59,58,54,59,56,59,5,25,56,59,28,13,31,33,0,0,0,0,1,53,37,20,3,0,0,40,53,30,33,34,0,0,0,0,0,0,0,0,0,0,0,0,0,0,0,0,0,0,0,0],"split_type":[0,0,0,0,0,0,0,0,0,0,0,0,0,0,0,0,0,0,0,0,0,0,0,0,0,0,0,0,0,0,0,0,0,0,0,0,0,0,0,0,0,0,0,0,0,0,0,0,0,0,0],"sum_hessian":[7.52E2,4.13E2,3.39E2,1.09E2,3.04E2,8.8E1,2.51E2,3.8E1,7.1E1,1.75E2,1.29E2,1.8E1,7E1,1.12E2,1.39E2,3.6E1,2E0,6.6E1,5E0,1.55E2,2E1,9.4E1,3.5E1,3E0,1.5E1,3E0,6.7E1,9E1,2.2E1,3.7E1,1.02E2,2.8E1,1.27E2,4E0,1.6E1,2.5E1,6.9E1,1.5E1,2E1,1E0,2E0,5.9E1,8E0,2E0,8.8E1,1E0,2.1E1,1.2E1,2.5E1,6E0,9.6E1],"tree_param":{"num_deleted":"0","num_feature":"60","num_nodes":"51","size_leaf_vector":"1"}},{"base_weights":[-5.2148996E-5,-4.5228906E-2,5.495735E-2,-6.218061E-2,-3.351589E-2,4.0348947E-2,6.712345E-2,-7.962111E-2,-5.534994E-2,-3.743297E-2,-1.7728042E-2,2.617078E-2,4.6168976E-2,6.451235E-2,8.897884E-2,-4.755439E-3,-8.333511E-2,-5.7157177E-2,-3.7067577E-2,-3.0707672E-2,-4.0512033E-2,-2.045861E-2,-2.7122034E-3,1.0290563E-2,2.8631048E-2,5.025347E-2,3.360187E-2,4.181618E-2,6.5684155E-2,9.52357E-3,2.8034947E-3,-8.433177E-3,-2.2730872E-3,-2.8162545E-3,-5.7977885E-3,-8.436233E-4,-3.8621046E-3,-3.7190833E-3,-1.5044193E-3,-4.1389787E-3,-9.93914E-4,-3.2441516E-3,-1.7227449E-3,4.065223E-4,-6.778454E-4,6.0138107E-5,1.158882E-3,1.9603968E-4,2.9248805E-3,5.0775697E-3,4.237801E-4,1.0748208E-3,3.4850407E-3,1.1874617E-3,4.3622875E-3,2.1290919E-3,6.611682E-3],"categories":[],"categories_nodes":[],"categories_segments":[],"categories_sizes":[],"default_left":[0,0,0,0,0,0,0,0,0,0,0,0,0,0,0,0,0,0,0,0,0,0,0,0,0,0,0,0,0,0,0,0,0,0,0,0,0,0,0,0,0,0,0,0,0,0,0,0,0,0,0,0,0,0,0,0,0],"id":17,"left_children":[1,3,5,7,9,11,13,15,17,19,21,23,25,27,29,-1,31,33,35,37,39,41,43,45,47,49,51,53,55,-1,-1,-1,-1,-1,-1,-1,-1,-1,-1,-1,-1,-1,-1,-1,-1,-1,-1,-1,-1,-1,-1,-1,-1,-1,-1,-1,-1],"loss_changes":[1.8738042E0,8.011794E-2,5.7718873E-2,1.560694E-2,1.4611423E-2,1.1746943E-2,4.760027E-3,1.396358E-3,1.9783676E-3,2.8353631E-3,2.035603E-3,1.5807077E-3,3.9577186E-3,1.7213821E-3,3.812462E-3,0E0,4.387796E-4,1.0085702E-3,2.9687583E-4,6.142717E-3,3.1309128E-3,1.1060201E-3,2.7558432E-4,9.366311E-5,6.181747E-4,1.7312914E-3,4.8143417E-4,7.704459E-5,1.6270876E-3,0E0,0E0,0E0,0E0,0E0,0E0,0E0,0E0,0E0,0E0,0E0,0E0,0E0,0E0,0E0,0E0,0E0,0E0,0E0,0E0,0E0,0E0,0E0,0E0,0E0,0E0,0E0,0E0],"parents":[2147483647,0,0,1,1,2,2,3,3,4,4,5,5,6,6,7,7,8,8,9,9,10,10,11,11,12,12,13,13,14,14,16,16,17,17,18,18,19,19,20,20,21,21,22,22,23,23,24,24,25,25,26,26,27,27,28,28],"right_children":[2,4,6,8,10,12,14,16,18,20,22,24,26,28,30,-1,32,34,36,38,40,42,44,46,48,50,52,54,56,-1,-1,-1,-1,-1,-1,-1,-1,-1,-1,-1,-1,-1,-1,-1,-1,-1,-1,-1,-1,-1,-1,-1,-1,-1,-1,-1,-1],"split_conditions":[5.193133E-1,2.3748212E-1,8.3929425E-1,1.1397234E-1,3.6146876E-1,7.1387696E-1,9.623271E-1,9.203624E-2,3.319027E-1,1.9790177E-1,4.635193E-1,1.82165E-1,8.545541E-1,6.4043874E-1,8.607535E-1,-4.755439E-3,2.4558894E-1,1.09680496E-1,2.885074E-1,2.5894135E-1,4.2060086E-1,2.2794469E-1,2.3557463E-1,2.6943251E-1,1.4020029E-1,8.7601334E-1,6.571292E-1,6.442537E-1,6.4043874E-1,9.52357E-3,2.8034947E-3,-8.433177E-3,-2.2730872E-3,-2.8162545E-3,-5.7977885E-3,-8.436233E-4,-3.8621046E-3,-3.7190833E-3,-1.5044193E-3,-4.1389787E-3,-9.93914E-4,-3.2441516E-3,-1.7227449E-3,4.065223E-4,-6.778454E-4,6.0138107E-5,1.158882E-3,1.9603968E-4,2.9248805E-3,5.0775697E-3,4.237801E-4,1.0748208E-3,3.4850407E-3,1.1874617E-3,4.3622875E-3,2.1290919E-3,6.611682E-3],"split_indices":[59,59,59,58,59,58,59,25,7,0,59,25,35,2,2,0,5,2,5,29,35,7,17,3,6,40,59,21,5,0,0,0,0,0,0,0,0,0,0,0,0,0,0,0,0,0,0,0,0,0,0,0,0,0,0,0,0],"split_type":[0,0,0,0,0,0,0,0,0,0,0,0,0,0,0,0,0,0,0,0,0,0,0,0,0,0,0,0,0,0,0,0,0,0,0,0,0,0,0,0,0,0,0,0,0,0,0,0,0,0,0,0,0,0,0,0,0],"sum_hessian":[7.52E2,4.13E2,3.39E2,1.67E2,2.46E2,1.56E2,1.83E2,4.4E1,1.23E2,1.96E2,5E1,4.7E1,1.09E2,1.67E2,1.6E1,6E0,3.8E1,1.1E2,1.3E1,6.5E1,1.31E2,4.2E1,8E0,7E0,4E1,8E1,2.9E1,1E1,1.57E2,1.4E1,2E0,3.7E1,1E0,4E0,1.06E2,1E0,1.2E1,4.5E1,2E1,1.27E2,4E0,7E0,3.5E1,3E0,5E0,1E0,6E0,1E0,3.9E1,7.9E1,1E0,2E0,2.7E1,1E0,9E0,2E0,1.55E2],"tree_param":{"num_deleted":"0","num_feature":"60","num_nodes":"57","size_leaf_vector":"1"}},{"base_weights":[-5.1392246E-5,-4.0813204E-2,4.9582258E-2,-6.439559E-2,-3.3780314E-2,2.9021973E-2,5.6646872E-2,-8.1462175E-2,-5.9281636E-2,-4.2283557E-2,-2.6261447E-2,1.6180905E-2,3.2049555E-2,5.1739212E-2,6.8913005E-2,-2.398404E-3,-8.332296E-3,-6.019191E-3,-2.7848787E-3,-2.8123168E-2,-4.36588E-2,-2.9480085E-2,-1.3193857E-2,5.600798E-3,1.8628879E-2,8.986384E-4,3.2934897E-2,4.3528475E-2,5.4238304E-2,7.5877324E-2,5.1685352E-2,-2.889647E-3,-8.2618295E-4,-4.420591E-3,-1.482622E-3,-7.254278E-4,-3.02611E-3,-5.360311E-4,-1.8533993E-3,5.7131052E-5,6.715343E-4,1.9208773E-3,5.2551925E-4,3.4665465E-3,1.7738335E-3,4.435779E-3,2.2754073E-4,4.5815893E-3,5.735813E-3,9.039614E-3,6.279684E-3,2.3029507E-3,5.4832255E-3],"categories":[],"categories_nodes":[],"categories_segments":[],"categories_sizes":[],"default_left":[0,0,0,0,0,0,0,0,0,0,0,0,0,0,0,0,0,0,0,0,0,0,0,0,0,0,0,0,0,0,0,0,0,0,0,0,0,0,0,0,0,0,0,0,0,0,0,0,0,0,0,0,0],"id":18,"left_children":[1,3,5,7,9,11,13,15,17,19,21,23,25,27,29,-1,-1,-1,-1,31,33,35,37,39,41,-1,43,45,47,49,51,-1,-1,-1,-1,-1,-1,-1,-1,-1,-1,-1,-1,-1,-1,-1,-1,-1,-1,-1,-1,-1,-1],"loss_changes":[1.5254611E0,6.648761E-2,4.7741234E-2,3.3748746E-3,1.9412637E-2,2.9414892E-3,1.1604369E-2,3.3721328E-5,4.9829483E-4,1.6737878E-3,6.887391E-3,3.8776034E-4,1.1537671E-3,1.4146566E-3,4.3568015E-3,0E0,0E0,0E0,0E0,7.0026144E-6,1.4583766E-3,2.1759793E-3,1.4066114E-3,2.419138E-5,1.5383586E-5,0E0,1.1734143E-3,1.5412346E-3,9.7194314E-4,3.2493174E-3,8.113161E-4,0E0,0E0,0E0,0E0,0E0,0E0,0E0,0E0,0E0,0E0,0E0,0E0,0E0,0E0,0E0,0E0,0E0,0E0,0E0,0E0,0E0,0E0],"parents":[2147483647,0,0,1,1,2,2,3,3,4,4,5,5,6,6,7,7,8,8,9,9,10,10,11,11,12,12,13,13,14,14,19,19,20,20,21,21,22,22,23,23,24,24,26,26,27,27,28,28,29,29,30,30],"right_children":[2,4,6,8,10,12,14,16,18,20,22,24,26,28,30,-1,-1,-1,-1,32,34,36,38,40,42,-1,44,46,48,50,52,-1,-1,-1,-1,-1,-1,-1,-1,-1,-1,-1,-1,-1,-1,-1,-1,-1,-1,-1,-1,-1,-1],"split_conditions":[5.193133E-1,1.6785884E-1,7.6585597E-1,6.2470194E-2,2.732475E-1,6.571292E-1,9.155937E-1,1.3590844E-1,3.7529805E-1,9.966619E-2,3.7052932E-1,1.6881259E-1,1.5975203E-1,7.0243204E-1,8.607535E-1,-2.398404E-3,-8.332296E-3,-6.019191E-3,-2.7848787E-3,1.9456366E-1,3.8578922E-1,1.8168813E-1,2.56557E-1,2.6943251E-1,8.9747256E-1,8.986384E-4,8.993801E-1,7.639485E-1,8.3929425E-1,7.9303765E-1,7.3104435E-1,-2.889647E-3,-8.2618295E-4,-4.420591E-3,-1.482622E-3,-7.254278E-4,-3.02611E-3,-5.360311E-4,-1.8533993E-3,5.7131052E-5,6.715343E-4,1.9208773E-3,5.2551925E-4,3.4665465E-3,1.7738335E-3,4.435779E-3,2.2754073E-4,4.5815893E-3,5.735813E-3,9.039614E-3,6.279684E-3,2.3029507E-3,5.4832255E-3],"split_indices":[59,59,58,59,58,56,59,20,25,6,59,27,13,6,8,0,0,0,0,37,8,43,20,3,19,0,40,15,59,33,22,0,0,0,0,0,0,0,0,0,0,0,0,0,0,0,0,0,0,0,0,0,0],"split_type":[0,0,0,0,0,0,0,0,0,0,0,0,0,0,0,0,0,0,0,0,0,0,0,0,0,0,0,0,0,0,0,0,0,0,0,0,0,0,0,0,0,0,0,0,0,0,0,0,0,0,0,0,0],"sum_hessian":[7.52E2,4.13E2,3.39E2,9.3E1,3.2E2,8.8E1,2.51E2,1.8E1,7.5E1,1.48E2,1.72E2,1.8E1,7E1,1.83E2,6.8E1,1E0,1.7E1,7.2E1,3E0,1.5E1,1.33E2,1.37E2,3.5E1,4E0,1.4E1,3E0,6.7E1,4.7E1,1.36E2,4.6E1,2.2E1,1.4E1,1E0,1.3E2,3E0,5E0,1.32E2,1.5E1,2E1,1E0,3E0,1.3E1,1E0,5.9E1,8E0,4.6E1,1E0,4.1E1,9.5E1,1.9E1,2.7E1,3E0,1.9E1],"tree_param":{"num_deleted":"0","num_feature":"60","num_nodes":"53","size_leaf_vector":"1"}},{"base_weights":[-3.0180812E-5,-3.6817145E-2,4.4763446E-2,-5.816385E-2,-3.0451387E-2,2.6224429E-2,5.113332E-2,-7.3880726E-3,-5.3469315E-2,-3.6347795E-2,-2.1508602E-2,1.6852394E-2,2.9824754E-2,4.664671E-2,6.2356554E-2,-5.4255173E-2,-2.5760129E-3,-3.7662588E-2,-2.3848178E-2,-1.3052708E-2,-2.56831E-2,1.9724797E-2,5.8276993E-3,3.1905636E-2,1.5605515E-2,4.439885E-2,5.6308754E-2,6.861551E-2,4.685536E-2,-2.2202665E-3,-5.4845344E-3,-2.7275726E-3,-3.949284E-3,-9.475231E-4,-2.667268E-3,-2.1016567E-3,-9.160622E-4,-2.0436454E-3,-3.5290772E-3,2.1531873E-3,6.661758E-4,4.4788918E-5,7.8900455E-4,3.448013E-3,1.8707145E-3,7.319495E-4,1.8111024E-3,4.0618917E-3,5.0288406E-3,5.8743455E-3,1.4003695E-3,8.180848E-3,5.6741405E-3,4.815601E-3,9.120524E-4],"categories":[],"categories_nodes":[],"categories_segments":[],"categories_sizes":[],"default_left":[0,0,0,0,0,0,0,0,0,0,0,0,0,0,0,0,0,0,0,0,0,0,0,0,0,0,0,0,0,0,0,0,0,0,0,0,0,0,0,0,0,0,0,0,0,0,0,0,0,0,0,0,0,0,0],"id":19,"left_children":[1,3,5,7,9,11,13,-1,15,17,19,21,23,25,27,29,-1,31,33,35,37,39,41,43,45,47,49,51,53,-1,-1,-1,-1,-1,-1,-1,-1,-1,-1,-1,-1,-1,-1,-1,-1,-1,-1,-1,-1,-1,-1,-1,-1,-1,-1],"loss_changes":[1.2424576E0,5.4486394E-2,3.8810015E-2,2.9852688E-3,1.6144633E-2,2.500452E-3,9.780645E-3,0E0,2.5732815E-4,2.2572577E-3,4.2536445E-3,7.4006896E-4,1.3661757E-3,1.4962256E-3,3.479451E-3,1.6321242E-4,0E0,2.1926016E-3,5.9979595E-4,1.202296E-3,3.6138743E-3,3.5228394E-4,7.4131356E-5,1.1898652E-3,7.5043645E-5,1.3857186E-3,2.3703873E-3,2.7208626E-3,6.8962574E-4,0E0,0E0,0E0,0E0,0E0,0E0,0E0,0E0,0E0,0E0,0E0,0E0,0E0,0E0,0E0,0E0,0E0,0E0,0E0,0E0,0E0,0E0,0E0,0E0,0E0,0E0],"parents":[2147483647,0,0,1,1,2,2,3,3,4,4,5,5,6,6,8,8,9,9,10,10,11,11,12,12,13,13,14,14,15,15,17,17,18,18,19,19,20,20,21,21,22,22,23,23,24,24,25,25,26,26,27,27,28,28],"right_children":[2,4,6,8,10,12,14,-1,16,18,20,22,24,26,28,30,-1,32,34,36,38,40,42,44,46,48,50,52,54,-1,-1,-1,-1,-1,-1,-1,-1,-1,-1,-1,-1,-1,-1,-1,-1,-1,-1,-1,-1,-1,-1,-1,-1,-1,-1],"split_conditions":[5.193133E-1,1.6785884E-1,7.6585597E-1,6.2470194E-2,2.9899856E-1,2.6418695E-1,9.155937E-1,-7.3880726E-3,3.7529805E-1,3.0996662E-1,2.5703385E-1,2.4177396E-1,8.993801E-1,9.208393E-1,8.607535E-1,5.05484E-2,-2.5760129E-3,1.3352408E-1,3.0090606E-1,2.680019E-1,2.8278494E-1,7.0052457E-1,2.6943251E-1,7.8350025E-1,8.8936573E-1,8.464473E-1,9.3848354E-1,7.9303765E-1,9.4325227E-1,-2.2202665E-3,-5.4845344E-3,-2.7275726E-3,-3.949284E-3,-9.475231E-4,-2.667268E-3,-2.1016567E-3,-9.160622E-4,-2.0436454E-3,-3.5290772E-3,2.1531873E-3,6.661758E-4,4.4788918E-5,7.8900455E-4,3.448013E-3,1.8707145E-3,7.319495E-4,1.8111024E-3,4.0618917E-3,5.0288406E-3,5.8743455E-3,1.4003695E-3,8.180848E-3,5.6741405E-3,4.815601E-3,9.120524E-4],"split_indices":[59,59,58,59,59,15,59,0,25,56,37,10,39,52,8,24,0,1,53,51,13,58,3,50,8,12,10,33,6,0,0,0,0,0,0,0,0,0,0,0,0,0,0,0,0,0,0,0,0,0,0,0,0,0,0],"split_type":[0,0,0,0,0,0,0,0,0,0,0,0,0,0,0,0,0,0,0,0,0,0,0,0,0,0,0,0,0,0,0,0,0,0,0,0,0,0,0,0,0,0,0,0,0,0,0,0,0,0,0,0,0,0,0],"sum_hessian":[7.52E2,4.13E2,3.39E2,9.3E1,3.2E2,8.8E1,2.51E2,1.8E1,7.5E1,1.91E2,1.29E2,2.6E1,6.2E1,1.83E2,6.8E1,7.2E1,3E0,1.71E2,2E1,4.4E1,8.5E1,2E1,6E0,5.3E1,9E0,1.53E2,3E1,4.6E1,2.2E1,2E0,7E1,2.8E1,1.43E2,4E0,1.6E1,1.3E1,3.1E1,5.7E1,2.8E1,1.7E1,3E0,2E0,4E0,4.3E1,1E1,3E0,6E0,9.8E1,5.5E1,2.8E1,2E0,1.9E1,2.7E1,2.1E1,1E0],"tree_param":{"num_deleted":"0","num_feature":"60","num_nodes":"55","size_leaf_vector":"1"}},{"base_weights":[-1.266755E-5,-3.3407386E-2,4.021726E-2,-4.6712138E-2,-2.520136E-2,2.2623755E-2,4.59481E-2,-5.9365954E-2,-4.1210942E-2,-2.805997E-2,-1.393547E-2,9.889239E-3,2.496256E-2,4.1186012E-2,5.4779924E-2,-5.1122545E-3,-7.5724907E-3,-4.2750746E-2,-2.31863E-2,-2.8493965E-2,-5.088228E-3,-5.8966856E-3,-1.7165044E-2,-2.285431E-3,1.1938067E-2,2.2714827E-2,3.5362277E-2,3.881646E-2,5.408215E-2,5.7965025E-2,3.7023224E-2,-3.29181E-3,-4.5515657E-3,-2.6180053E-3,-6.4762833E-4,-2.6735677E-3,-3.8340036E-3,3.0011238E-4,-1.1481504E-3,-1.9739703E-3,-1.5203463E-4,-1.8968998E-3,-4.3824664E-4,-3.9484949E-4,5.2034855E-5,4.1326485E-4,1.298154E-3,2.4490247E-3,1.2256954E-3,3.9603948E-3,1.8038362E-3,4.357841E-3,3.4105666E-3,1.0191947E-3,5.5547296E-3,7.8267755E-4,5.8560963E-3,4.0413416E-3,1.6749308E-3],"categories":[],"categories_nodes":[],"categories_segments":[],"categories_sizes":[],"default_left":[0,0,0,0,0,0,0,0,0,0,0,0,0,0,0,0,0,0,0,0,0,0,0,0,0,0,0,0,0,0,0,0,0,0,0,0,0,0,0,0,0,0,0,0,0,0,0,0,0,0,0,0,0,0,0,0,0,0,0],"id":20,"left_children":[1,3,5,7,9,11,13,15,17,19,21,23,25,27,29,-1,-1,31,33,35,37,39,41,43,45,47,49,51,53,55,57,-1,-1,-1,-1,-1,-1,-1,-1,-1,-1,-1,-1,-1,-1,-1,-1,-1,-1,-1,-1,-1,-1,-1,-1,-1,-1,-1,-1],"loss_changes":[1.0129744E0,4.3804586E-2,3.3442736E-2,8.412808E-3,7.88562E-3,2.3145266E-3,8.55279E-3,2.1971613E-3,2.1172464E-3,1.8888116E-3,1.3007233E-3,4.014409E-4,8.7980926E-4,3.1261444E-3,2.7743876E-3,0E0,0E0,1.2747347E-3,3.8073258E-4,2.4373978E-3,2.9304466E-4,9.998784E-4,7.931171E-4,1.6053164E-5,5.223346E-5,8.5098296E-4,9.39155E-5,1.8337518E-3,9.771958E-4,1.6929507E-3,4.2282045E-4,0E0,0E0,0E0,0E0,0E0,0E0,0E0,0E0,0E0,0E0,0E0,0E0,0E0,0E0,0E0,0E0,0E0,0E0,0E0,0E0,0E0,0E0,0E0,0E0,0E0,0E0,0E0,0E0],"parents":[2147483647,0,0,1,1,2,2,3,3,4,4,5,5,6,6,7,7,8,8,9,9,10,10,11,11,12,12,13,13,14,14,17,17,18,18,19,19,20,20,21,21,22,22,23,23,24,24,25,25,26,26,27,27,28,28,29,29,30,30],"right_children":[2,4,6,8,10,12,14,16,18,20,22,24,26,28,30,-1,-1,32,34,36,38,40,42,44,46,48,50,52,54,56,58,-1,-1,-1,-1,-1,-1,-1,-1,-1,-1,-1,-1,-1,-1,-1,-1,-1,-1,-1,-1,-1,-1,-1,-1,-1,-1,-1,-1],"split_conditions":[4.9546972E-1,2.3080592E-1,7.639485E-1,1.1397234E-1,3.524082E-1,6.494993E-1,9.055794E-1,1.483071E-1,3.2999524E-1,4.2060086E-1,2.56557E-1,2.2365284E-1,8.9747256E-1,9.208393E-1,9.337148E-1,-5.1122545E-3,-7.5724907E-3,2.0791607E-1,3.319027E-1,3.524082E-1,2.141154E-1,2.2794469E-1,3.6862183E-1,2.3986648E-1,2.3128279E-1,8.483548E-1,9.6375775E-1,8.1878877E-1,6.871722E-1,6.2660944E-1,9.241774E-1,-3.29181E-3,-4.5515657E-3,-2.6180053E-3,-6.4762833E-4,-2.6735677E-3,-3.8340036E-3,3.0011238E-4,-1.1481504E-3,-1.9739703E-3,-1.5203463E-4,-1.8968998E-3,-4.3824664E-4,-3.9484949E-4,5.2034855E-5,4.1326485E-4,1.298154E-3,2.4490247E-3,1.2256954E-3,3.9603948E-3,1.8038362E-3,4.357841E-3,3.4105666E-3,1.0191947E-3,5.5547296E-3,7.8267755E-4,5.8560963E-3,4.0413416E-3,1.6749308E-3],"split_indices":[59,59,59,58,59,58,59,32,7,35,20,35,19,52,28,0,0,8,1,41,15,12,0,0,35,42,5,33,2,18,53,0,0,0,0,0,0,0,0,0,0,0,0,0,0,0,0,0,0,0,0,0,0,0,0,0,0,0,0],"split_type":[0,0,0,0,0,0,0,0,0,0,0,0,0,0,0,0,0,0,0,0,0,0,0,0,0,0,0,0,0,0,0,0,0,0,0,0,0,0,0,0,0,0,0,0,0,0,0,0,0,0,0,0,0,0,0,0,0,0,0],"sum_hessian":[7.52E2,4.11E2,3.41E2,1.55E2,2.56E2,8.5E1,2.56E2,4.4E1,1.11E2,2.03E2,5.3E1,1.4E1,7.1E1,1.7E2,8.6E1,3.2E1,1.2E1,1.01E2,1E1,1.99E2,4E0,1.6E1,3.7E1,2E0,1.2E1,6.1E1,1E1,1.47E2,2.3E1,7.1E1,1.5E1,2.5E1,7.6E1,8E0,2E0,1.72E2,2.7E1,2E0,2E0,3E0,1.3E1,3.2E1,5E0,1E0,1E0,2E0,1E1,5.1E1,1E1,7E0,3E0,6.9E1,7.8E1,1E0,2.2E1,1E0,7E1,1.2E1,3E0],"tree_param":{"num_deleted":"0","num_feature":"60","num_nodes":"59","size_leaf_vector":"1"}},{"base_weights":[-8.885016E-6,-3.0153083E-2,3.6305204E-2,-4.078054E-2,-2.1649402E-2,2.6351316E-2,4.470935E-2,-5.1447775E-2,-3.524546E-2,-2.4128186E-2,-1.1950075E-2,1.6653672E-2,3.0519778E-2,4.280282E-2,6.092038E-2,-2.9056012E-3,-5.3397674E-2,-3.5862602E-2,-1.3508412E-2,-2.7902858E-2,-2.0337932E-2,-2.1597914E-2,-9.540792E-3,1.0115982E-3,1.7991861E-2,3.391269E-2,2.0341592E-2,2.653841E-2,4.366425E-2,6.586221E-3,1.5904427E-3,-5.6632664E-3,-3.3500453E-3,-3.6276549E-3,-7.7644194E-4,-1.7992407E-4,-1.5985895E-3,-2.4897628E-3,-3.7026026E-3,-6.741506E-4,-2.59194E-3,-3.823072E-4,-2.613029E-3,-2.7738145E-4,-1.224527E-3,-3.7510693E-4,3.1400323E-4,1.5530147E-3,2.6386671E-3,3.4386625E-3,-2.0011068E-4,8.919448E-4,2.2269243E-3,3.682437E-3,1.5400095E-3,1.2125691E-3,4.3990863E-3],"categories":[],"categories_nodes":[],"categories_segments":[],"categories_sizes":[],"default_left":[0,0,0,0,0,0,0,0,0,0,0,0,0,0,0,0,0,0,0,0,0,0,0,0,0,0,0,0,0,0,0,0,0,0,0,0,0,0,0,0,0,0,0,0,0,0,0,0,0,0,0,0,0,0,0,0,0],"id":21,"left_children":[1,3,5,7,9,11,13,15,17,19,21,23,25,27,29,-1,31,33,35,37,39,41,43,45,47,49,51,53,55,-1,-1,-1,-1,-1,-1,-1,-1,-1,-1,-1,-1,-1,-1,-1,-1,-1,-1,-1,-1,-1,-1,-1,-1,-1,-1,-1,-1],"loss_changes":[8.25373E-1,3.6350608E-2,2.7431518E-2,8.93271E-3,5.265504E-3,5.9191883E-3,3.0792654E-3,1.0681748E-3,1.1655837E-3,2.050683E-3,9.329142E-4,1.0284018E-3,3.108874E-3,1.1950433E-3,2.7343407E-3,0E0,1.5785992E-3,1.1024326E-3,1.1628389E-4,1.5182719E-3,7.0346296E-3,6.251619E-4,7.1638054E-4,6.2463594E-5,5.408302E-4,1.4474988E-3,4.6190806E-4,6.931522E-4,1.0941029E-3,0E0,0E0,0E0,0E0,0E0,0E0,0E0,0E0,0E0,0E0,0E0,0E0,0E0,0E0,0E0,0E0,0E0,0E0,0E0,0E0,0E0,0E0,0E0,0E0,0E0,0E0,0E0,0E0],"parents":[2147483647,0,0,1,1,2,2,3,3,4,4,5,5,6,6,7,7,8,8,9,9,10,10,11,11,12,12,13,13,14,14,16,16,17,17,18,18,19,19,20,20,21,21,22,22,23,23,24,24,25,25,26,26,27,27,28,28],"right_children":[2,4,6,8,10,12,14,16,18,20,22,24,26,28,30,-1,32,34,36,38,40,42,44,46,48,50,52,54,56,-1,-1,-1,-1,-1,-1,-1,-1,-1,-1,-1,-1,-1,-1,-1,-1,-1,-1,-1,-1,-1,-1,-1,-1,-1,-1,-1,-1],"split_conditions":[4.9546972E-1,2.4225083E-1,8.3929425E-1,1.3733906E-1,3.6146876E-1,7.1244633E-1,9.623271E-1,4.8640914E-2,3.8578922E-1,2.5369576E-1,2.2794469E-1,2.3128279E-1,8.545541E-1,6.4043874E-1,8.607535E-1,-2.9056012E-3,2.4272771E-1,3.8578922E-1,2.5417262E-1,3.0233666E-1,2.8278494E-1,2.598951E-1,2.5703385E-1,2.3986648E-1,8.998569E-1,8.7601334E-1,7.3152125E-1,6.72866E-1,6.4043874E-1,6.586221E-3,1.5904427E-3,-5.6632664E-3,-3.3500453E-3,-3.6276549E-3,-7.7644194E-4,-1.7992407E-4,-1.5985895E-3,-2.4897628E-3,-3.7026026E-3,-6.741506E-4,-2.59194E-3,-3.823072E-4,-2.613029E-3,-2.7738145E-4,-1.224527E-3,-3.7510693E-4,3.1400323E-4,1.5530147E-3,2.6386671E-3,3.4386625E-3,-2.0011068E-4,8.919448E-4,2.2269243E-3,3.682437E-3,1.5400095E-3,1.2125691E-3,4.3990863E-3],"split_indices":[59,59,59,59,59,56,59,34,23,28,7,35,35,2,2,0,5,17,5,56,25,48,21,0,34,40,49,18,5,0,0,0,0,0,0,0,0,0,0,0,0,0,0,0,0,0,0,0,0,0,0,0,0,0,0,0,0],"split_type":[0,0,0,0,0,0,0,0,0,0,0,0,0,0,0,0,0,0,0,0,0,0,0,0,0,0,0,0,0,0,0,0,0,0,0,0,0,0,0,0,0,0,0,0,0,0,0,0,0,0,0,0,0,0,0,0,0],"sum_hessian":[7.52E2,4.11E2,3.41E2,1.81E2,2.3E2,1.58E2,1.83E2,5.9E1,1.22E2,1.82E2,4.8E1,4.9E1,1.09E2,1.67E2,1.6E1,6E0,5.3E1,1.18E2,4E0,8.8E1,9.4E1,8E0,4E1,4E0,4.5E1,8E1,2.9E1,1E1,1.57E2,1.4E1,2E0,4.4E1,9E0,1.16E2,2E0,1E0,3E0,6.9E1,1.9E1,2.8E1,6.6E1,2E0,6E0,1.2E1,2.8E1,1E0,3E0,3.7E1,8E0,7.9E1,1E0,5E0,2.4E1,4E0,6E0,2E0,1.55E2],"tree_param":{"num_deleted":"0","num_feature":"60","num_nodes":"57","size_leaf_vector":"1"}},{"base_weights":[-1.1385481E-5,-2.721558E-2,3.276095E-2,-4.3026734E-2,-2.2471178E-2,1.8836515E-2,3.7659217E-2,-5.5666737E-2,-3.9300594E-2,-2.8534139E-2,-1.7508192E-2,9.572936E-3,2.1311143E-2,3.4189034E-2,4.6367258E-2,-1.3703041E-3,-5.7236772E-2,-3.9942365E-2,-1.7763112E-3,-2.8945776E-2,1.8694997E-4,-1.9587023E-2,-9.596793E-3,-2.150784E-3,1.0920211E-2,1.31354965E-2,2.364171E-2,1.1265146E-3,3.4635868E-2,5.162486E-2,3.3607498E-2,-2.3047216E-3,-6.0070017E-3,-4.041809E-3,-1.5369471E-3,-2.9319602E-3,-2.1012127E-4,-2.161935E-4,2.44236E-4,-1.6239891E-3,-2.4317724E-3,-2.0293181E-3,-7.7945436E-4,-3.5635085E-4,3.373325E-5,1.4259637E-3,7.7839097E-4,-9.7395976E-5,1.4960051E-3,2.6179606E-3,1.4520608E-3,4.2746305E-3,3.2238439E-3,6.734067E-3,4.3635266E-3,2.0512044E-3,3.922427E-3],"categories":[],"categories_nodes":[],"categories_segments":[],"categories_sizes":[],"default_left":[0,0,0,0,0,0,0,0,0,0,0,0,0,0,0,0,0,0,0,0,0,0,0,0,0,0,0,0,0,0,0,0,0,0,0,0,0,0,0,0,0,0,0,0,0,0,0,0,0,0,0,0,0,0,0,0,0],"id":22,"left_children":[1,3,5,7,9,11,13,15,17,19,21,23,25,27,29,-1,31,33,-1,35,37,39,41,43,45,47,49,-1,51,53,55,-1,-1,-1,-1,-1,-1,-1,-1,-1,-1,-1,-1,-1,-1,-1,-1,-1,-1,-1,-1,-1,-1,-1,-1,-1,-1],"loss_changes":[6.72225E-1,2.9939085E-2,2.2616953E-2,2.2395253E-3,9.099245E-3,1.8820651E-3,6.0298145E-3,4.6749413E-4,3.4099072E-4,1.6842261E-3,2.7394965E-3,3.5518373E-4,1.0422803E-3,1.4945865E-3,2.8939396E-3,0E0,3.591627E-4,2.3214519E-4,0E0,1.3433173E-3,2.117332E-5,1.821883E-3,5.9364876E-4,1.1747156E-5,8.7999506E-5,4.7795312E-4,8.698702E-4,0E0,2.1218657E-3,2.9630214E-3,8.87176E-4,0E0,0E0,0E0,0E0,0E0,0E0,0E0,0E0,0E0,0E0,0E0,0E0,0E0,0E0,0E0,0E0,0E0,0E0,0E0,0E0,0E0,0E0,0E0,0E0,0E0,0E0],"parents":[2147483647,0,0,1,1,2,2,3,3,4,4,5,5,6,6,7,7,8,8,9,9,10,10,11,11,12,12,13,13,14,14,16,16,17,17,19,19,20,20,21,21,22,22,23,23,24,24,25,25,26,26,28,28,29,29,30,30],"right_children":[2,4,6,8,10,12,14,16,18,20,22,24,26,28,30,-1,32,34,-1,36,38,40,42,44,46,48,50,-1,52,54,56,-1,-1,-1,-1,-1,-1,-1,-1,-1,-1,-1,-1,-1,-1,-1,-1,-1,-1,-1,-1,-1,-1,-1,-1,-1,-1],"split_conditions":[4.9546972E-1,1.6785884E-1,7.6585597E-1,6.2470194E-2,2.7038628E-1,6.571292E-1,9.155937E-1,1.3590844E-1,3.7529805E-1,3.9151168E-1,3.662375E-1,2.2365284E-1,2.3223653E-1,3.6337626E-1,8.607535E-1,-1.3703041E-3,1.4592275E-1,1.7501192E-1,-1.7763112E-3,3.8483548E-1,2.7706248E-1,2.9136863E-1,2.2794469E-1,2.3986648E-1,2.6943251E-1,6.442537E-1,7.7348596E-1,1.1265146E-3,7.5774914E-1,7.9303765E-1,8.931807E-1,-2.3047216E-3,-6.0070017E-3,-4.041809E-3,-1.5369471E-3,-2.9319602E-3,-2.1012127E-4,-2.161935E-4,2.44236E-4,-1.6239891E-3,-2.4317724E-3,-2.0293181E-3,-7.7945436E-4,-3.5635085E-4,3.373325E-5,1.4259637E-3,7.7839097E-4,-9.7395976E-5,1.4960051E-3,2.6179606E-3,1.4520608E-3,4.2746305E-3,3.2238439E-3,6.734067E-3,4.3635266E-3,2.0512044E-3,3.922427E-3],"split_indices":[59,59,58,59,59,56,59,20,25,13,59,35,1,7,8,0,9,57,0,1,0,12,7,0,5,50,50,0,38,36,40,0,0,0,0,0,0,0,0,0,0,0,0,0,0,0,0,0,0,0,0,0,0,0,0,0,0],"split_type":[0,0,0,0,0,0,0,0,0,0,0,0,0,0,0,0,0,0,0,0,0,0,0,0,0,0,0,0,0,0,0,0,0,0,0,0,0,0,0,0,0,0,0,0,0,0,0,0,0,0,0,0,0,0,0,0,0],"sum_hessian":[7.52E2,4.11E2,3.41E2,9.3E1,3.18E2,9E1,2.51E2,1.8E1,7.5E1,1.41E2,1.77E2,2E1,7E1,1.83E2,6.8E1,1E0,1.7E1,7.2E1,3E0,1.39E2,2E0,1.39E2,3.8E1,2E0,1.8E1,1.7E1,5.3E1,4E0,1.79E2,4.6E1,2.2E1,2E0,1.5E1,7E1,2E0,1.37E2,2E0,1E0,1E0,8.4E1,5.5E1,4E0,3.4E1,1E0,1E0,7E0,1.1E1,2E0,1.5E1,4E1,1.3E1,3.7E1,1.42E2,1.3E1,3.3E1,8E0,1.4E1],"tree_param":{"num_deleted":"0","num_feature":"60","num_nodes":"57","size_leaf_vector":"1"}},{"base_weights":[-2.2364209E-6,-2.4559595E-2,2.9581489E-2,-3.890531E-2,-2.0255342E-2,2.13252E-2,3.655523E-2,-4.3695737E-2,-3.134584E-2,-2.5496382E-2,-1.5570136E-2,1.0607304E-2,2.3735508E-2,3.301452E-2,4.1977942E-2,-3.6208905E-2,-5.5975583E-3,-1.8435494E-4,-3.205504E-2,-2.390138E-2,-3.8151633E-2,-2.4200367E-2,-1.3855747E-2,6.513953E-4,1.2058128E-2,2.9576737E-2,1.927285E-2,2.9584996E-2,4.0415578E-2,4.6698485E-2,3.0506486E-2,-1.3048833E-3,-3.7159515E-3,-1.1620902E-3,-3.343508E-3,-2.4674982E-3,-3.1564487E-4,-2.2702406E-3,-4.5928634E-3,-2.691235E-3,-1.8783883E-4,-9.951642E-4,-1.9708546E-3,-3.3853351E-4,2.5069117E-4,1.2730957E-4,1.3353211E-3,2.1282954E-3,3.4613626E-3,-4.90585E-4,1.9660646E-3,3.9454116E-3,2.6038631E-3,1.7776237E-3,4.2033056E-3,5.9122196E-3,3.8379082E-3,1.0431334E-3,3.2996193E-3],"categories":[],"categories_nodes":[],"categories_segments":[],"categories_sizes":[],"default_left":[0,0,0,0,0,0,0,0,0,0,0,0,0,0,0,0,0,0,0,0,0,0,0,0,0,0,0,0,0,0,0,0,0,0,0,0,0,0,0,0,0,0,0,0,0,0,0,0,0,0,0,0,0,0,0,0,0,0,0],"id":23,"left_children":[1,3,5,7,9,11,13,15,17,19,21,23,25,27,29,31,-1,-1,33,35,37,39,41,43,45,47,49,51,53,55,57,-1,-1,-1,-1,-1,-1,-1,-1,-1,-1,-1,-1,-1,-1,-1,-1,-1,-1,-1,-1,-1,-1,-1,-1,-1,-1,-1,-1],"loss_changes":[5.477796E-1,2.4652004E-2,1.8911868E-2,2.0343512E-3,7.436171E-3,3.855735E-3,2.1469593E-3,3.029719E-3,7.77822E-4,2.0957068E-3,2.194725E-3,4.3991767E-4,2.7926713E-3,1.7486364E-3,2.3118407E-3,3.2971054E-4,0E0,0E0,7.112548E-4,2.0886362E-3,7.5953826E-4,1.5839413E-3,3.1171087E-3,4.593784E-5,3.6012288E-4,1.5191585E-3,8.090548E-4,1.8776208E-3,4.9784407E-4,2.5887713E-3,8.0537423E-4,0E0,0E0,0E0,0E0,0E0,0E0,0E0,0E0,0E0,0E0,0E0,0E0,0E0,0E0,0E0,0E0,0E0,0E0,0E0,0E0,0E0,0E0,0E0,0E0,0E0,0E0,0E0,0E0],"parents":[2147483647,0,0,1,1,2,2,3,3,4,4,5,5,6,6,7,7,8,8,9,9,10,10,11,11,12,12,13,13,14,14,15,15,18,18,19,19,20,20,21,21,22,22,23,23,24,24,25,25,26,26,27,27,28,28,29,29,30,30],"right_children":[2,4,6,8,10,12,14,16,18,20,22,24,26,28,30,32,-1,-1,34,36,38,40,42,44,46,48,50,52,54,56,58,-1,-1,-1,-1,-1,-1,-1,-1,-1,-1,-1,-1,-1,-1,-1,-1,-1,-1,-1,-1,-1,-1,-1,-1,-1,-1,-1,-1],"split_conditions":[4.9546972E-1,1.6785884E-1,8.3929425E-1,2.3032904E-1,2.732475E-1,3.6385313E-1,9.155937E-1,1.483071E-1,2.3032904E-1,3.285646E-1,1.9408679E-1,2.3128279E-1,8.2021934E-1,9.074869E-1,8.607535E-1,5.05484E-2,-5.5975583E-3,-1.8435494E-4,2.3223653E-1,2.8373867E-1,1.9742489E-1,2.6084882E-1,2.9375297E-1,2.3986648E-1,1.6881259E-1,6.804959E-1,6.609442E-1,7.606104E-1,8.531235E-1,7.982833E-1,7.3104435E-1,-1.3048833E-3,-3.7159515E-3,-1.1620902E-3,-3.343508E-3,-2.4674982E-3,-3.1564487E-4,-2.2702406E-3,-4.5928634E-3,-2.691235E-3,-1.8783883E-4,-9.951642E-4,-1.9708546E-3,-3.3853351E-4,2.5069117E-4,1.2730957E-4,1.3353211E-3,2.1282954E-3,3.4613626E-3,-4.90585E-4,1.9660646E-3,3.9454116E-3,2.6038631E-3,1.7776237E-3,4.2033056E-3,5.9122196E-3,3.8379082E-3,1.0431334E-3,3.2996193E-3],"split_indices":[59,59,59,19,58,22,59,32,6,31,24,35,30,36,8,24,0,0,18,59,55,17,16,0,2,26,6,40,28,35,22,0,0,0,0,0,0,0,0,0,0,0,0,0,0,0,0,0,0,0,0,0,0,0,0,0,0,0,0],"split_type":[0,0,0,0,0,0,0,0,0,0,0,0,0,0,0,0,0,0,0,0,0,0,0,0,0,0,0,0,0,0,0,0,0,0,0,0,0,0,0,0,0,0,0,0,0,0,0,0,0,0,0,0,0,0,0,0,0,0,0],"sum_hessian":[7.52E2,4.11E2,3.41E2,9.3E1,3.18E2,1.58E2,1.83E2,5.4E1,3.9E1,1.48E2,1.7E2,3E1,1.28E2,1.15E2,6.8E1,3.6E1,1.8E1,1E0,3.8E1,1.34E2,1.4E1,2.6E1,1.44E2,4E0,2.6E1,5.3E1,7.5E1,8.2E1,3.3E1,4.6E1,2.2E1,2E0,3.4E1,3E0,3.5E1,1.29E2,5E0,6E0,8E0,2.3E1,3E0,8.8E1,5.6E1,1E0,3E0,3E0,2.3E1,2.2E1,3.1E1,1E0,7.4E1,1.9E1,6.3E1,3E0,3E1,1.6E1,3E1,3E0,1.9E1],"tree_param":{"num_deleted":"0","num_feature":"60","num_nodes":"59","size_leaf_vector":"1"}},{"base_weights":[3.6467277E-6,-2.2178393E-2,2.672586E-2,-3.5177633E-2,-1.8278372E-2,1.9245764E-2,3.304439E-2,-5.148252E-2,-3.2845557E-2,-2.2834893E-2,-1.3887226E-2,1.3673122E-2,2.3155479E-2,2.982107E-2,3.7984405E-2,-1.4632728E-3,-5.3951084E-3,-3.336804E-2,-1.392325E-3,-2.328431E-2,-4.8339367E-5,-1.1983731E-2,-2.3602689E-2,5.809627E-3,1.560422E-2,2.6853224E-2,1.7441796E-2,2.7984245E-2,4.34082E-2,4.1278407E-2,2.4493113E-2,-2.3429804E-3,-3.4737028E-3,-2.1340952E-3,-3.230293E-3,1.5139481E-4,-2.3676008E-4,-2.0040015E-3,-1.0474017E-3,-9.1310655E-4,-3.207676E-3,-2.0139714E-4,7.1681786E-4,2.0620972E-4,1.6360382E-3,1.0558203E-3,2.90555E-3,7.6977717E-4,2.0536364E-3,4.6282937E-3,2.660648E-3,1.7311374E-3,4.6896427E-3,4.258365E-3,4.894773E-4,7.6874945E-4,2.7779988E-3],"categories":[],"categories_nodes":[],"categories_segments":[],"categories_sizes":[],"default_left":[0,0,0,0,0,0,0,0,0,0,0,0,0,0,0,0,0,0,0,0,0,0,0,0,0,0,0,0,0,0,0,0,0,0,0,0,0,0,0,0,0,0,0,0,0,0,0,0,0,0,0,0,0,0,0,0,0],"id":24,"left_children":[1,3,5,7,9,11,13,15,17,19,21,23,25,27,29,-1,-1,31,-1,33,35,37,39,41,43,45,47,49,51,53,55,-1,-1,-1,-1,-1,-1,-1,-1,-1,-1,-1,-1,-1,-1,-1,-1,-1,-1,-1,-1,-1,-1,-1,-1,-1,-1],"loss_changes":[4.4693595E-1,2.0244315E-2,1.5528053E-2,1.8833056E-3,6.0655475E-3,3.1475946E-3,1.7971247E-3,1.2020953E-4,3.7577003E-4,1.5861765E-3,2.76855E-3,9.419378E-4,1.4753826E-3,1.6802922E-3,2.055347E-3,0E0,0E0,3.0175596E-4,0E0,1.9746423E-3,1.8077837E-5,1.4928766E-3,2.8955787E-3,1.7386791E-4,5.192254E-4,1.6310774E-3,1.017903E-3,1.4157593E-3,2.805367E-4,2.3559928E-3,6.7024864E-4,0E0,0E0,0E0,0E0,0E0,0E0,0E0,0E0,0E0,0E0,0E0,0E0,0E0,0E0,0E0,0E0,0E0,0E0,0E0,0E0,0E0,0E0,0E0,0E0,0E0,0E0],"parents":[2147483647,0,0,1,1,2,2,3,3,4,4,5,5,6,6,7,7,8,8,9,9,10,10,11,11,12,12,13,13,14,14,17,17,19,19,20,20,21,21,22,22,23,23,24,24,25,25,26,26,27,27,28,28,29,29,30,30],"right_children":[2,4,6,8,10,12,14,16,18,20,22,24,26,28,30,-1,-1,32,-1,34,36,38,40,42,44,46,48,50,52,54,56,-1,-1,-1,-1,-1,-1,-1,-1,-1,-1,-1,-1,-1,-1,-1,-1,-1,-1,-1,-1,-1,-1,-1,-1,-1,-1],"split_conditions":[4.9546972E-1,1.6785884E-1,8.3929425E-1,4.2918455E-2,2.7706248E-1,7.405818E-1,9.155937E-1,1.483071E-1,3.7529805E-1,4.082022E-1,3.6433E-1,6.494993E-1,8.3547926E-1,9.098712E-1,9.0462565E-1,-1.4632728E-3,-5.3951084E-3,1.1206485E-1,-1.392325E-3,2.8040057E-1,2.3986648E-1,1.8979494E-1,2.7706248E-1,2.2365284E-1,1.5975203E-1,3.6337626E-1,8.226037E-1,7.639485E-1,7.6299477E-1,9.723414E-1,9.03195E-1,-2.3429804E-3,-3.4737028E-3,-2.1340952E-3,-3.230293E-3,1.5139481E-4,-2.3676008E-4,-2.0040015E-3,-1.0474017E-3,-9.1310655E-4,-3.207676E-3,-2.0139714E-4,7.1681786E-4,2.0620972E-4,1.6360382E-3,1.0558203E-3,2.90555E-3,7.6977717E-4,2.0536364E-3,4.6282937E-3,2.660648E-3,1.7311374E-3,4.6896427E-3,4.258365E-3,4.894773E-4,7.6874945E-4,2.7779988E-3],"split_indices":[59,59,59,59,57,57,59,8,25,37,41,58,34,8,8,0,0,25,0,46,0,20,15,35,13,7,22,51,0,33,33,0,0,0,0,0,0,0,0,0,0,0,0,0,0,0,0,0,0,0,0,0,0,0,0,0,0],"split_type":[0,0,0,0,0,0,0,0,0,0,0,0,0,0,0,0,0,0,0,0,0,0,0,0,0,0,0,0,0,0,0,0,0,0,0,0,0,0,0,0,0,0,0,0,0,0,0,0,0,0,0,0,0,0,0,0,0],"sum_hessian":[7.52E2,4.11E2,3.41E2,9.3E1,3.18E2,1.58E2,1.83E2,9E0,8.4E1,1.54E2,1.64E2,6.7E1,9.1E1,1.15E2,6.8E1,1E0,8E0,8.1E1,3E0,1.51E2,3E0,1.39E2,2.5E1,1.4E1,5.3E1,5.3E1,3.8E1,1.04E2,1.1E1,5.3E1,1.5E1,1.2E1,6.9E1,1.27E2,2.4E1,2E0,1E0,2E1,1.19E2,1E1,1.5E1,2E0,1.2E1,3E0,5E1,7E0,4.6E1,1E1,2.8E1,5E0,9.9E1,2E0,9E0,5.1E1,2E0,3E0,1.2E1],"tree_param":{"num_deleted":"0","num_feature":"60","num_nodes":"57","size_leaf_vector":"1"}},{"base_weights":[9.20211E-6,-2.0025337E-2,2.414435E-2,-2.9375624E-2,-1.5561765E-2,1.7117813E-2,2.9675486E-2,-3.821997E-2,-2.566087E-2,-1.7287282E-2,-7.988072E-3,8.501796E-3,1.9150162E-2,1.7564315E-2,3.0613218E-2,-2.7564725E-2,-4.79358E-2,-2.6424037E-2,-6.486422E-3,-1.1602035E-2,-1.9114515E-2,-1.9631714E-3,-6.399298E-3,3.6252142E-4,9.694188E-3,2.4144456E-2,1.5398665E-2,1.5119314E-3,2.1152409E-2,4.123987E-2,2.8395925E-2,-2.8241647E-3,-7.3516223E-4,-4.9360795E-3,-1.1855447E-3,-8.834484E-4,-2.7123173E-3,7.875413E-5,-1.1598244E-3,-1.5779835E-3,5.727852E-4,-2.0127648E-3,-8.041815E-4,1.102997E-4,-9.7415753E-4,-3.115371E-4,2.0108372E-4,-4.941225E-6,1.0914196E-3,1.23103E-3,2.6059875E-3,1.4124808E-3,2.7269274E-3,2.4735133E-4,-6.864071E-5,2.7185434E-3,9.582977E-4,5.5924365E-3,2.6731223E-3,6.0995E-4,2.9459582E-3],"categories":[],"categories_nodes":[],"categories_segments":[],"categories_sizes":[],"default_left":[0,0,0,0,0,0,0,0,0,0,0,0,0,0,0,0,0,0,0,0,0,0,0,0,0,0,0,0,0,0,0,0,0,0,0,0,0,0,0,0,0,0,0,0,0,0,0,0,0,0,0,0,0,0,0,0,0,0,0,0,0],"id":25,"left_children":[1,3,5,7,9,11,13,15,17,19,21,23,25,27,29,31,33,35,37,39,41,-1,43,45,47,49,51,53,55,57,59,-1,-1,-1,-1,-1,-1,-1,-1,-1,-1,-1,-1,-1,-1,-1,-1,-1,-1,-1,-1,-1,-1,-1,-1,-1,-1,-1,-1,-1,-1],"loss_changes":[3.6458653E-1,1.6737953E-2,1.2783751E-2,3.356047E-3,3.534168E-3,2.516333E-3,1.6201437E-3,2.5090687E-3,1.2333989E-3,2.1467581E-3,8.7332283E-4,2.9734708E-4,1.9327439E-3,8.8957837E-4,2.952367E-3,6.60317E-5,3.402643E-4,8.917451E-4,1.9505015E-4,4.2896317E-3,1.7564334E-3,0E0,1.2394078E-3,3.4927823E-5,3.214958E-4,8.3523244E-4,7.186942E-4,1.0153366E-5,6.4686546E-4,4.4705346E-3,3.3302307E-3,0E0,0E0,0E0,0E0,0E0,0E0,0E0,0E0,0E0,0E0,0E0,0E0,0E0,0E0,0E0,0E0,0E0,0E0,0E0,0E0,0E0,0E0,0E0,0E0,0E0,0E0,0E0,0E0,0E0,0E0],"parents":[2147483647,0,0,1,1,2,2,3,3,4,4,5,5,6,6,7,7,8,8,9,9,10,10,11,11,12,12,13,13,14,14,15,15,16,16,17,17,18,18,19,19,20,20,22,22,23,23,24,24,25,25,26,26,27,27,28,28,29,29,30,30],"right_children":[2,4,6,8,10,12,14,16,18,20,22,24,26,28,30,32,34,36,38,40,42,-1,44,46,48,50,52,54,56,58,60,-1,-1,-1,-1,-1,-1,-1,-1,-1,-1,-1,-1,-1,-1,-1,-1,-1,-1,-1,-1,-1,-1,-1,-1,-1,-1,-1,-1,-1,-1],"split_conditions":[4.9546972E-1,2.1220791E-1,8.3500236E-1,1.0634239E-1,3.524082E-1,3.6385313E-1,6.494993E-1,1.09680496E-1,3.8578922E-1,1.82165E-1,1.9408679E-1,2.3128279E-1,8.2212687E-1,6.814497E-1,7.6299477E-1,1.6785884E-1,2.4558894E-1,9.966619E-2,2.9804483E-1,2.6847878E-1,3.8197425E-1,-1.9631714E-3,2.598951E-1,2.3986648E-1,1.6881259E-1,2.3509777E-1,9.237005E-1,3.6576062E-1,6.72866E-1,8.903195E-1,8.1545067E-1,-2.8241647E-3,-7.3516223E-4,-4.9360795E-3,-1.1855447E-3,-8.834484E-4,-2.7123173E-3,7.875413E-5,-1.1598244E-3,-1.5779835E-3,5.727852E-4,-2.0127648E-3,-8.041815E-4,1.102997E-4,-9.7415753E-4,-3.115371E-4,2.0108372E-4,-4.941225E-6,1.0914196E-3,1.23103E-3,2.6059875E-3,1.4124808E-3,2.7269274E-3,2.4735133E-4,-6.864071E-5,2.7185434E-3,9.582977E-4,5.5924365E-3,2.6731223E-3,6.0995E-4,2.9459582E-3],"split_indices":[59,55,59,53,59,22,2,34,23,0,12,35,30,31,38,1,5,6,0,29,1,0,16,0,2,1,33,0,6,9,41,0,0,0,0,0,0,0,0,0,0,0,0,0,0,0,0,0,0,0,0,0,0,0,0,0,0,0,0,0,0],"split_type":[0,0,0,0,0,0,0,0,0,0,0,0,0,0,0,0,0,0,0,0,0,0,0,0,0,0,0,0,0,0,0,0,0,0,0,0,0,0,0,0,0,0,0,0,0,0,0,0,0,0,0,0,0,0,0,0,0,0,0,0,0],"sum_hessian":[7.52E2,4.11E2,3.41E2,1.31E2,2.8E2,1.52E2,1.89E2,3.6E1,9.5E1,2.27E2,5.3E1,3E1,1.22E2,1.5E1,1.74E2,1.9E1,1.7E1,9.1E1,4E0,5.7E1,1.7E2,5E0,4.8E1,4E0,2.6E1,5E1,7.2E1,3E0,1.2E1,2.7E1,1.47E2,1.8E1,1E0,1.6E1,1E0,4E0,8.7E1,2E0,2E0,4.6E1,1.1E1,1.55E2,1.5E1,1.5E1,3.3E1,1E0,3E0,3E0,2.3E1,8E0,4.2E1,6.7E1,5E0,2E0,1E0,7E0,5E0,1.2E1,1.5E1,7E0,1.4E2],"tree_param":{"num_deleted":"0","num_feature":"60","num_nodes":"61","size_leaf_vector":"1"}},{"base_weights":[1.3093288E-5,-1.7977348E-2,2.1919062E-2,-2.4657203E-2,-1.2682449E-2,1.5644353E-2,2.6790442E-2,-3.465962E-2,-2.195346E-2,-1.4155971E-2,-5.4367883E-3,1.20964805E-2,1.9471582E-2,2.4074785E-2,3.120377E-2,-2.498622E-2,-4.348231E-2,-2.0512981E-2,-3.2375287E-2,-1.0673687E-2,-1.6185412E-2,-9.0529565E-3,-1.5617254E-3,1.047481E-2,2.054818E-2,2.2017563E-2,1.0089194E-2,2.211034E-2,3.490752E-2,5.1913084E-3,2.8774712E-2,-1.0342859E-3,-2.603866E-3,-4.4715074E-3,-1.126267E-3,-2.2426848E-3,-1.2310424E-3,1.4498532E-4,-3.4726951E-3,-1.4093852E-3,-2.477068E-4,-1.7492365E-3,-5.040452E-4,-2.2518386E-4,-1.6309003E-3,1.7910142E-4,-8.523064E-4,1.1694779E-3,3.6037315E-4,2.6319257E-3,7.2048185E-4,7.3682464E-4,2.3335132E-3,-8.2341285E-4,1.4603772E-3,1.1046281E-3,2.3405259E-3,3.931596E-3,1.2294849E-4,2.2248484E-3,3.7457335E-3],"categories":[],"categories_nodes":[],"categories_segments":[],"categories_sizes":[],"default_left":[0,0,0,0,0,0,0,0,0,0,0,0,0,0,0,0,0,0,0,0,0,0,0,0,0,0,0,0,0,0,0,0,0,0,0,0,0,0,0,0,0,0,0,0,0,0,0,0,0,0,0,0,0,0,0,0,0,0,0,0,0],"id":26,"left_children":[1,3,5,7,9,11,13,15,17,19,21,23,25,27,29,31,33,35,37,39,41,43,45,47,49,51,53,55,57,-1,59,-1,-1,-1,-1,-1,-1,-1,-1,-1,-1,-1,-1,-1,-1,-1,-1,-1,-1,-1,-1,-1,-1,-1,-1,-1,-1,-1,-1,-1,-1],"loss_changes":[2.9714987E-1,1.4330134E-2,9.973481E-3,4.1611046E-3,2.4106912E-3,1.8148161E-3,1.5259385E-3,2.071321E-3,1.5276968E-3,1.1911876E-3,5.603897E-4,8.9493673E-4,1.4738645E-3,1.8243864E-3,1.9771978E-3,3.8910657E-5,2.11332E-4,1.7804354E-3,1.323076E-3,2.039589E-3,1.6597472E-3,9.996083E-4,5.053956E-4,5.4463E-4,7.3444145E-4,8.896403E-4,1.5265247E-3,1.2601279E-3,2.47561E-3,0E0,2.793178E-3,0E0,0E0,0E0,0E0,0E0,0E0,0E0,0E0,0E0,0E0,0E0,0E0,0E0,0E0,0E0,0E0,0E0,0E0,0E0,0E0,0E0,0E0,0E0,0E0,0E0,0E0,0E0,0E0,0E0,0E0],"parents":[2147483647,0,0,1,1,2,2,3,3,4,4,5,5,6,6,7,7,8,8,9,9,10,10,11,11,12,12,13,13,14,14,15,15,16,16,17,17,18,18,19,19,20,20,21,21,22,22,23,23,24,24,25,25,26,26,27,27,28,28,30,30],"right_children":[2,4,6,8,10,12,14,16,18,20,22,24,26,28,30,32,34,36,38,40,42,44,46,48,50,52,54,56,58,-1,60,-1,-1,-1,-1,-1,-1,-1,-1,-1,-1,-1,-1,-1,-1,-1,-1,-1,-1,-1,-1,-1,-1,-1,-1,-1,-1,-1,-1,-1,-1],"split_conditions":[5.193133E-1,2.4225083E-1,8.3500236E-1,1.0634239E-1,3.662375E-1,7.5822604E-1,9.155937E-1,1.09680496E-1,3.0996662E-1,2.2794469E-1,2.532189E-1,8.9747256E-1,8.5598475E-1,9.132093E-1,8.712446E-1,8.583691E-2,2.4558894E-1,3.118741E-1,2.6084882E-1,2.6847878E-1,3.7005246E-1,2.7706248E-1,2.8040057E-1,8.483548E-1,8.9747256E-1,7.257988E-1,8.292799E-1,7.558417E-1,9.3514544E-1,5.1913084E-3,9.3991417E-1,-1.0342859E-3,-2.603866E-3,-4.4715074E-3,-1.126267E-3,-2.2426848E-3,-1.2310424E-3,1.4498532E-4,-3.4726951E-3,-1.4093852E-3,-2.477068E-4,-1.7492365E-3,-5.040452E-4,-2.2518386E-4,-1.6309003E-3,1.7910142E-4,-8.523064E-4,1.1694779E-3,3.6037315E-4,2.6319257E-3,7.2048185E-4,7.3682464E-4,2.3335132E-3,-8.2341285E-4,1.4603772E-3,1.1046281E-3,2.3405259E-3,3.931596E-3,1.2294849E-4,2.2248484E-3,3.7457335E-3],"split_indices":[59,59,59,53,59,59,59,34,42,1,12,19,53,11,57,22,5,20,12,29,37,41,10,42,25,55,54,46,42,0,58,0,0,0,0,0,0,0,0,0,0,0,0,0,0,0,0,0,0,0,0,0,0,0,0,0,0,0,0,0,0],"split_type":[0,0,0,0,0,0,0,0,0,0,0,0,0,0,0,0,0,0,0,0,0,0,0,0,0,0,0,0,0,0,0,0,0,0,0,0,0,0,0,0,0,0,0,0,0,0,0,0,0,0,0,0,0,0,0,0,0,0,0,0,0],"sum_hessian":[7.52E2,4.13E2,3.39E2,1.81E2,2.32E2,1.5E2,1.89E2,3.6E1,1.45E2,1.92E2,4E1,8E1,7E1,1.21E2,6.8E1,1.9E1,1.7E1,1.3E2,1.5E1,7.3E1,1.19E2,2E1,2E1,6.9E1,1.1E1,5.4E1,1.6E1,1.05E2,1.6E1,5E0,6.3E1,2E0,1.7E1,1.6E1,1E0,1.04E2,2.6E1,1E0,1.4E1,5.1E1,2.2E1,1.06E2,1.3E1,1.1E1,9E0,1.4E1,6E0,5.8E1,1.1E1,7E0,4E0,5E0,4.9E1,3E0,1.3E1,1.2E1,9.3E1,1.4E1,2E0,3.8E1,2.5E1],"tree_param":{"num_deleted":"0","num_feature":"60","num_nodes":"61","size_leaf_vector":"1"}},{"base_weights":[1.8118886E-5,-1.6194653E-2,1.986556E-2,-2.1494886E-2,-1.0607182E-2,1.4230675E-2,2.4209598E-2,-3.144328E-2,-1.9281333E-2,-1.1286225E-2,1.1980186E-3,7.6731443E-3,1.5874458E-2,1.0208374E-2,2.484939E-2,-2.2124412E-2,-3.9107233E-2,-8.875198E-3,-2.0266477E-2,-1.7028652E-2,-9.673638E-3,-2.6661635E-3,3.46338E-3,-1.7661453E-4,8.361301E-3,2.0135654E-2,1.1897874E-2,5.0632283E-4,2.0525972E-3,4.2592015E-2,2.3997689E-2,-2.3094476E-3,-9.252578E-4,-1.5006781E-3,-4.105983E-3,-1.6746725E-3,-1.7537012E-6,-2.108028E-3,-8.4729E-4,-1.123661E-3,-2.454468E-3,-6.843464E-4,-1.3019887E-3,-3.137961E-4,-3.8948656E-5,5.572148E-4,1.08369E-4,-3.309548E-4,8.877867E-4,1.7473808E-3,3.063277E-3,2.037758E-3,9.33682E-4,5.028702E-3,1.5569668E-3,8.400326E-4,2.4992633E-3],"categories":[],"categories_nodes":[],"categories_segments":[],"categories_sizes":[],"default_left":[0,0,0,0,0,0,0,0,0,0,0,0,0,0,0,0,0,0,0,0,0,0,0,0,0,0,0,0,0,0,0,0,0,0,0,0,0,0,0,0,0,0,0,0,0,0,0,0,0,0,0,0,0,0,0,0,0],"id":27,"left_children":[1,3,5,7,9,11,13,15,17,19,21,23,25,27,29,31,33,35,37,39,41,43,45,-1,47,49,51,-1,-1,53,55,-1,-1,-1,-1,-1,-1,-1,-1,-1,-1,-1,-1,-1,-1,-1,-1,-1,-1,-1,-1,-1,-1,-1,-1,-1,-1],"loss_changes":[2.4262358E-1,1.2062192E-2,7.953584E-3,4.0622354E-3,1.648834E-3,1.4950689E-3,1.4483184E-3,1.777295E-3,1.6244054E-3,1.6224831E-3,1.1427915E-4,2.226301E-4,1.7768852E-3,4.269278E-4,1.7130747E-3,2.3560598E-5,2.779346E-4,1.1850027E-3,1.3570115E-3,1.5090602E-3,1.3598809E-3,4.14846E-6,3.4107223E-5,0E0,2.1024444E-4,1.0294635E-3,1.1996254E-3,0E0,0E0,6.7260675E-4,2.5057793E-3,0E0,0E0,0E0,0E0,0E0,0E0,0E0,0E0,0E0,0E0,0E0,0E0,0E0,0E0,0E0,0E0,0E0,0E0,0E0,0E0,0E0,0E0,0E0,0E0,0E0,0E0],"parents":[2147483647,0,0,1,1,2,2,3,3,4,4,5,5,6,6,7,7,8,8,9,9,10,10,11,11,12,12,13,13,14,14,15,15,16,16,17,17,18,18,19,19,20,20,21,21,22,22,24,24,25,25,26,26,29,29,30,30],"right_children":[2,4,6,8,10,12,14,16,18,20,22,24,26,28,30,32,34,36,38,40,42,44,46,-1,48,50,52,-1,-1,54,56,-1,-1,-1,-1,-1,-1,-1,-1,-1,-1,-1,-1,-1,-1,-1,-1,-1,-1,-1,-1,-1,-1,-1,-1,-1,-1],"split_conditions":[4.9356222E-1,2.56557E-1,8.3500236E-1,1.0634239E-1,4.635193E-1,6.5808296E-1,6.700048E-1,1.0634239E-1,1.3352408E-1,1.9408679E-1,2.2365284E-1,1.4401525E-1,8.2212687E-1,7.978064E-1,7.558417E-1,1.702432E-1,1.3352408E-1,1.8311875E-1,3.6146876E-1,2.0648545E-1,2.970911E-1,2.918455E-1,2.2317597E-1,-1.7661453E-4,1.4020029E-1,8.531235E-1,8.2498807E-1,5.0632283E-4,2.0525972E-3,8.869814E-1,7.606104E-1,-2.3094476E-3,-9.252578E-4,-1.5006781E-3,-4.105983E-3,-1.6746725E-3,-1.7537012E-6,-2.108028E-3,-8.4729E-4,-1.123661E-3,-2.454468E-3,-6.843464E-4,-1.3019887E-3,-3.137961E-4,-3.8948656E-5,5.572148E-4,1.08369E-4,-3.309548E-4,8.877867E-4,1.7473808E-3,3.063277E-3,2.037758E-3,9.33682E-4,5.028702E-3,1.5569668E-3,8.400326E-4,2.4992633E-3],"split_indices":[55,58,59,53,59,39,20,35,6,23,35,13,36,13,51,11,23,50,4,31,22,5,37,0,6,1,25,0,0,0,46,0,0,0,0,0,0,0,0,0,0,0,0,0,0,0,0,0,0,0,0,0,0,0,0,0,0],"split_type":[0,0,0,0,0,0,0,0,0,0,0,0,0,0,0,0,0,0,0,0,0,0,0,0,0,0,0,0,0,0,0,0,0,0,0,0,0,0,0,0,0,0,0,0,0,0,0,0,0,0,0,0,0,0,0,0,0],"sum_hessian":[7.52E2,4.14E2,3.38E2,2.11E2,2.03E2,1.49E2,1.89E2,3.6E1,1.75E2,1.92E2,1.1E1,3.1E1,1.18E2,9E0,1.8E2,1.8E1,1.8E1,1.6E1,1.59E2,4E1,1.52E2,4E0,7E0,2E0,2.9E1,5.5E1,6.3E1,7E0,2E0,6E0,1.74E2,1.6E1,2E0,2E0,1.6E1,8E0,8E0,1.48E2,1.1E1,2.4E1,1.6E1,8.4E1,6.8E1,3E0,1E0,3E0,4E0,1E0,2.8E1,4.6E1,9E0,1.3E1,5E1,4E0,2E0,1.1E1,1.63E2],"tree_param":{"num_deleted":"0","num_feature":"60","num_nodes":"57","size_leaf_vector":"1"}},{"base_weights":[1.8851784E-5,-1.4507357E-2,1.8090092E-2,-1.9533103E-2,-9.388152E-3,1.3605167E-2,2.2441436E-2,-2.8537905E-2,-1.750603E-2,-7.549013E-3,-1.8632278E-2,1.0575887E-2,1.6508544E-2,2.160639E-2,3.6545947E-2,-1.9181138E-2,-3.4753483E-2,-1.6572366E-2,-3.4808002E-3,8.345777E-3,-7.9671815E-3,-6.850206E-3,-2.4747489E-2,9.071361E-3,1.8210847E-2,1.9274356E-2,6.0321093E-3,2.8371308E-2,1.9918013E-2,4.1621476E-3,1.4212907E-3,-5.312175E-4,-1.9715938E-3,-1.2009226E-3,-3.651555E-3,-1.9094379E-3,-1.297951E-3,1.1405901E-3,-1.9473583E-4,-8.655364E-4,1.1156133E-4,8.7431073E-4,-1.4752024E-3,-1.0552969E-3,-2.9410874E-3,1.0454123E-3,3.027741E-4,2.100447E-3,1.8972755E-4,1.6010136E-3,3.2629177E-3,-2.2479892E-4,1.5481996E-3,3.2828785E-3,1.200965E-3,6.039716E-4,2.124446E-3],"categories":[],"categories_nodes":[],"categories_segments":[],"categories_sizes":[],"default_left":[0,0,0,0,0,0,0,0,0,0,0,0,0,0,0,0,0,0,0,0,0,0,0,0,0,0,0,0,0,0,0,0,0,0,0,0,0,0,0,0,0,0,0,0,0,0,0,0,0,0,0,0,0,0,0,0,0],"id":28,"left_children":[1,3,5,7,9,11,13,15,17,19,21,23,25,27,29,31,33,35,-1,37,39,41,43,45,47,49,51,53,55,-1,-1,-1,-1,-1,-1,-1,-1,-1,-1,-1,-1,-1,-1,-1,-1,-1,-1,-1,-1,-1,-1,-1,-1,-1,-1,-1,-1],"loss_changes":[1.9792989E-1,1.0570854E-2,6.251879E-3,3.3336356E-3,3.4126006E-3,1.3029892E-3,1.2008399E-3,1.4852248E-3,2.2339858E-3,1.2363112E-3,2.2801692E-3,8.1119686E-4,2.3177098E-3,1.2852177E-3,3.1525455E-4,2.1356624E-5,4.0309317E-4,1.265388E-3,0E0,1.7970268E-4,1.0847626E-3,1.7307805E-3,1.1459077E-3,5.784007E-4,5.526105E-4,2.3547448E-3,1.521477E-3,1.7936882E-3,2.3200586E-3,0E0,0E0,0E0,0E0,0E0,0E0,0E0,0E0,0E0,0E0,0E0,0E0,0E0,0E0,0E0,0E0,0E0,0E0,0E0,0E0,0E0,0E0,0E0,0E0,0E0,0E0,0E0,0E0],"parents":[2147483647,0,0,1,1,2,2,3,3,4,4,5,5,6,6,7,7,8,8,9,9,10,10,11,11,12,12,13,13,14,14,15,15,16,16,17,17,19,19,20,20,21,21,22,22,23,23,24,24,25,25,26,26,27,27,28,28],"right_children":[2,4,6,8,10,12,14,16,18,20,22,24,26,28,30,32,34,36,-1,38,40,42,44,46,48,50,52,54,56,-1,-1,-1,-1,-1,-1,-1,-1,-1,-1,-1,-1,-1,-1,-1,-1,-1,-1,-1,-1,-1,-1,-1,-1,-1,-1,-1,-1],"split_conditions":[5.193133E-1,2.5417262E-1,8.497854E-1,1.0634239E-1,3.6433E-1,7.6585597E-1,9.723414E-1,1.4020029E-1,2.7038628E-1,1.7310444E-1,2.7706248E-1,8.9747256E-1,8.5598475E-1,7.6299477E-1,9.6423465E-1,1.09680496E-1,2.7181689E-2,2.1220791E-1,-3.4808002E-3,3.0805913E-1,4.635193E-1,2.8755364E-1,2.918455E-1,8.4883165E-1,7.386743E-1,8.531235E-1,8.545541E-1,8.955651E-1,8.497854E-1,4.1621476E-3,1.4212907E-3,-5.312175E-4,-1.9715938E-3,-1.2009226E-3,-3.651555E-3,-1.9094379E-3,-1.297951E-3,1.1405901E-3,-1.9473583E-4,-8.655364E-4,1.1156133E-4,8.7431073E-4,-1.4752024E-3,-1.0552969E-3,-2.9410874E-3,1.0454123E-3,3.027741E-4,2.100447E-3,1.8972755E-4,1.6010136E-3,3.2629177E-3,-2.2479892E-4,1.5481996E-3,3.2828785E-3,1.200965E-3,6.039716E-4,2.124446E-3],"split_indices":[55,55,59,53,41,58,52,22,53,45,15,19,53,38,49,10,53,55,0,0,59,55,50,40,58,14,56,2,54,0,0,0,0,0,0,0,0,0,0,0,0,0,0,0,0,0,0,0,0,0,0,0,0,0,0,0,0],"split_type":[0,0,0,0,0,0,0,0,0,0,0,0,0,0,0,0,0,0,0,0,0,0,0,0,0,0,0,0,0,0,0,0,0,0,0,0,0,0,0,0,0,0,0,0,0,0,0,0,0,0,0,0,0,0,0,0,0],"sum_hessian":[7.52E2,4.17E2,3.35E2,2.09E2,2.08E2,1.67E2,1.68E2,3.6E1,1.73E2,1.75E2,3.3E1,8.4E1,8.3E1,1.61E2,7E0,1.6E1,2E1,1.66E2,7E0,4E0,1.71E2,1.2E1,2.1E1,7.2E1,1.2E1,6.5E1,1.8E1,2.9E1,1.32E2,5E0,2E0,1E0,1.5E1,2E0,1.8E1,9.5E1,7.1E1,3E0,1E0,1.59E2,1.2E1,4E0,8E0,6E0,1.5E1,5.8E1,1.4E1,1E1,2E0,5.4E1,1.1E1,1E1,8E0,2.2E1,7E0,1.2E1,1.2E2],"tree_param":{"num_deleted":"0","num_feature":"60","num_nodes":"57","size_leaf_vector":"1"}},{"base_weights":[2.2510198E-5,-1.320744E-2,1.6218401E-2,-2.2101296E-2,-1.0849625E-2,1.2116364E-2,2.0273015E-2,-2.4876539E-2,-1.6640685E-2,-1.3808443E-2,-7.914286E-3,8.281824E-3,1.4332521E-2,2.109779E-2,1.0398809E-2,-1.9643866E-2,-3.3757184E-2,-4.10802E-3,-1.9374836E-2,-1.2981027E-2,-2.4061732E-2,-5.28162E-3,-1.2004793E-2,7.416784E-3,1.9619495E-3,1.1936459E-2,2.0084532E-2,2.1534937E-2,3.6763786E-3,2.0274758E-2,-7.7699125E-4,-1.2055669E-3,-2.1652372E-3,-9.5869583E-4,-3.4567367E-3,-5.6125724E-4,2.4596453E-4,1.1383295E-4,-2.1131698E-3,-1.1658644E-3,-1.872035E-3,-3.2692198E-3,-7.1667373E-4,-7.0993084E-4,2.7076364E-4,-1.4014307E-3,4.4896307E-5,3.3998734E-4,9.3913026E-4,1.3079807E-3,-3.9636888E-4,3.771823E-3,1.4104516E-3,1.8106884E-3,2.4679636E-3,-1.9612313E-4,8.088529E-4,6.4310635E-4,2.381748E-3,2.1015746E-4,-1.0463477E-3],"categories":[],"categories_nodes":[],"categories_segments":[],"categories_sizes":[],"default_left":[0,0,0,0,0,0,0,0,0,0,0,0,0,0,0,0,0,0,0,0,0,0,0,0,0,0,0,0,0,0,0,0,0,0,0,0,0,0,0,0,0,0,0,0,0,0,0,0,0,0,0,0,0,0,0,0,0,0,0,0,0],"id":29,"left_children":[1,3,5,7,9,11,13,15,17,19,21,23,25,27,29,31,33,35,37,39,41,43,45,47,-1,49,51,53,55,57,59,-1,-1,-1,-1,-1,-1,-1,-1,-1,-1,-1,-1,-1,-1,-1,-1,-1,-1,-1,-1,-1,-1,-1,-1,-1,-1,-1,-1,-1,-1],"loss_changes":[1.6156013E-1,8.462787E-3,5.3926706E-3,8.8932365E-4,2.756808E-3,1.3344493E-3,1.156941E-3,1.8927008E-3,1.016927E-3,1.0705031E-3,1.7457763E-3,4.9197674E-4,1.2349524E-3,1.1012703E-3,1.6713279E-3,3.0288007E-4,4.066713E-5,8.297469E-5,9.6106343E-4,9.429548E-4,1.3696318E-3,1.5295078E-3,1.632981E-3,4.598212E-4,0E0,1.4698375E-3,2.6314957E-3,1.1809394E-3,1.402334E-4,2.391832E-4,2.4505524E-4,0E0,0E0,0E0,0E0,0E0,0E0,0E0,0E0,0E0,0E0,0E0,0E0,0E0,0E0,0E0,0E0,0E0,0E0,0E0,0E0,0E0,0E0,0E0,0E0,0E0,0E0,0E0,0E0,0E0,0E0],"parents":[2147483647,0,0,1,1,2,2,3,3,4,4,5,5,6,6,7,7,8,8,9,9,10,10,11,11,12,12,13,13,14,14,15,15,16,16,17,17,18,18,19,19,20,20,21,21,22,22,23,23,25,25,26,26,27,27,28,28,29,29,30,30],"right_children":[2,4,6,8,10,12,14,16,18,20,22,24,26,28,30,32,34,36,38,40,42,44,46,48,-1,50,52,54,56,58,60,-1,-1,-1,-1,-1,-1,-1,-1,-1,-1,-1,-1,-1,-1,-1,-1,-1,-1,-1,-1,-1,-1,-1,-1,-1,-1,-1,-1,-1,-1],"split_conditions":[4.9356222E-1,1.6309012E-1,8.497854E-1,2.3032904E-1,2.7706248E-1,7.405818E-1,9.2179304E-1,1.483071E-1,2.4320458E-1,3.4334764E-1,3.204578E-1,9.237005E-1,8.464473E-1,9.847401E-1,9.093944E-1,5.05484E-2,1.3590844E-1,2.4988078E-1,1.1778732E-1,2.7038628E-1,3.8197425E-1,3.6146876E-1,3.6862183E-1,6.7525035E-1,1.9619495E-3,8.397711E-1,7.3485935E-1,9.03195E-1,7.439199E-1,8.927039E-1,9.370529E-1,-1.2055669E-3,-2.1652372E-3,-9.5869583E-4,-3.4567367E-3,-5.6125724E-4,2.4596453E-4,1.1383295E-4,-2.1131698E-3,-1.1658644E-3,-1.872035E-3,-3.2692198E-3,-7.1667373E-4,-7.0993084E-4,2.7076364E-4,-1.4014307E-3,4.4896307E-5,3.3998734E-4,9.3913026E-4,1.3079807E-3,-3.9636888E-4,3.771823E-3,1.4104516E-3,1.8106884E-3,2.4679636E-3,-1.9612313E-4,8.088529E-4,6.4310635E-4,2.381748E-3,2.1015746E-4,-1.0463477E-3],"split_indices":[55,59,59,19,57,57,0,32,11,28,41,33,4,33,53,34,22,0,59,53,28,0,32,57,0,4,36,58,10,45,1,0,0,0,0,0,0,0,0,0,0,0,0,0,0,0,0,0,0,0,0,0,0,0,0,0,0,0,0,0,0],"split_type":[0,0,0,0,0,0,0,0,0,0,0,0,0,0,0,0,0,0,0,0,0,0,0,0,0,0,0,0,0,0,0,0,0,0,0,0,0,0,0,0,0,0,0,0,0,0,0,0,0,0,0,0,0,0,0,0,0,0,0,0,0],"sum_hessian":[7.52E2,4.14E2,3.38E2,8.5E1,3.29E2,1.7E2,1.68E2,5.4E1,3.1E1,1.62E2,1.67E2,6.4E1,1.06E2,1.54E2,1.4E1,3.6E1,1.8E1,6E0,2.5E1,1.52E2,1E1,1.03E2,6.4E1,6.1E1,3E0,7.7E1,2.9E1,1.5E2,4E0,7E0,7E0,9E0,2.7E1,1E0,1.7E1,5E0,1E0,2E0,2.3E1,1.26E2,2.6E1,6E0,4E0,8.4E1,1.9E1,5.5E1,9E0,2.1E1,4E1,7.2E1,5E0,6E0,2.3E1,7.5E1,7.5E1,2E0,2E0,2E0,5E0,6E0,1E0],"tree_param":{"num_deleted":"0","num_feature":"60","num_nodes":"61","size_leaf_vector":"1"}},{"base_weights":[1.6932518E-5,-1.213379E-2,1.4421653E-2,-2.000862E-2,-1.0006107E-2,7.931897E-3,1.6785206E-2,-3.0022014E-2,-1.8448329E-2,-1.3203888E-2,-7.957463E-3,6.6544195E-3,1.5379691E-2,1.4994721E-2,2.131657E-2,-1.2421494E-3,-3.2869459E-3,-1.8904429E-2,-5.3983706E-4,-1.20984055E-2,-3.0110835E-3,-6.350117E-3,-1.5618327E-2,7.4915504E-3,5.7006965E-4,4.7730682E-3,1.9563403E-2,1.3769975E-2,2.2585945E-2,4.028087E-3,1.9205594E-2,-1.1671892E-3,-2.0116018E-3,-1.3180866E-3,-2.7234853E-5,-7.415873E-4,1.412562E-4,-1.793376E-3,6.230861E-4,4.1419477E-4,1.1324659E-3,-8.856039E-4,3.6487644E-4,-1.8261075E-4,6.8793894E-4,-2.8153957E-4,2.2712678E-3,2.3540338E-3,1.2604935E-3,8.225832E-4,2.925189E-3,1.3648153E-3,2.680308E-3],"categories":[],"categories_nodes":[],"categories_segments":[],"categories_sizes":[],"default_left":[0,0,0,0,0,0,0,0,0,0,0,0,0,0,0,0,0,0,0,0,0,0,0,0,0,0,0,0,0,0,0,0,0,0,0,0,0,0,0,0,0,0,0,0,0,0,0,0,0,0,0,0,0],"id":30,"left_children":[1,3,5,7,9,11,13,15,17,19,21,23,25,27,29,-1,-1,31,-1,33,-1,35,37,39,41,43,45,47,49,-1,51,-1,-1,-1,-1,-1,-1,-1,-1,-1,-1,-1,-1,-1,-1,-1,-1,-1,-1,-1,-1,-1,-1],"loss_changes":[1.3197091E-1,6.6526458E-3,5.1587746E-3,7.8979135E-4,2.0174906E-3,7.9200976E-4,1.7249212E-3,9.2877075E-5,3.5625882E-4,1.9719992E-3,2.3635542E-3,4.13388E-4,4.8349868E-4,1.3996996E-3,1.988668E-3,0E0,0E0,4.1365996E-4,0E0,1.5197564E-3,0E0,1.392087E-3,1.8318137E-3,8.7752985E-4,3.5153484E-4,8.2062405E-5,6.9823815E-4,1.5359148E-3,2.0567477E-3,0E0,2.3364332E-3,0E0,0E0,0E0,0E0,0E0,0E0,0E0,0E0,0E0,0E0,0E0,0E0,0E0,0E0,0E0,0E0,0E0,0E0,0E0,0E0,0E0,0E0],"parents":[2147483647,0,0,1,1,2,2,3,3,4,4,5,5,6,6,7,7,8,8,9,9,10,10,11,11,12,12,13,13,14,14,17,17,19,19,21,21,22,22,23,23,24,24,25,25,26,26,27,27,28,28,30,30],"right_children":[2,4,6,8,10,12,14,16,18,20,22,24,26,28,30,-1,-1,32,-1,34,-1,36,38,40,42,44,46,48,50,-1,52,-1,-1,-1,-1,-1,-1,-1,-1,-1,-1,-1,-1,-1,-1,-1,-1,-1,-1,-1,-1,-1,-1],"split_conditions":[4.7973296E-1,1.6309012E-1,7.6585597E-1,4.2918455E-2,2.5417262E-1,8.9747256E-1,9.155937E-1,1.3733906E-1,3.7529805E-1,2.7038628E-1,3.6433E-1,7.8350025E-1,8.931807E-1,8.955651E-1,8.712446E-1,-1.2421494E-3,-3.2869459E-3,1.1206485E-1,-5.3983706E-4,2.9899856E-1,-3.0110835E-3,3.6385313E-1,4.2918456E-1,6.7906535E-1,8.412017E-1,9.341917E-1,8.836433E-1,7.529805E-1,8.836433E-1,4.028087E-3,9.3991417E-1,-1.1671892E-3,-2.0116018E-3,-1.3180866E-3,-2.7234853E-5,-7.415873E-4,1.412562E-4,-1.793376E-3,6.230861E-4,4.1419477E-4,1.1324659E-3,-8.856039E-4,3.6487644E-4,-1.8261075E-4,6.8793894E-4,-2.8153957E-4,2.2712678E-3,2.3540338E-3,1.2604935E-3,8.225832E-4,2.925189E-3,1.3648153E-3,2.680308E-3],"split_indices":[59,59,58,59,55,19,59,22,25,53,41,50,20,1,57,0,0,25,0,41,0,13,39,48,1,2,2,49,11,0,58,0,0,0,0,0,0,0,0,0,0,0,0,0,0,0,0,0,0,0,0,0,0],"split_type":[0,0,0,0,0,0,0,0,0,0,0,0,0,0,0,0,0,0,0,0,0,0,0,0,0,0,0,0,0,0,0,0,0,0,0,0,0,0,0,0,0,0,0,0,0,0,0,0,0,0,0,0,0],"sum_hessian":[7.52E2,4.08E2,3.44E2,8.5E1,3.23E2,9.3E1,2.51E2,9E0,7.6E1,1.24E2,1.99E2,8.1E1,1.2E1,1.83E2,6.8E1,2E0,7E0,7.3E1,3E0,1.18E2,6E0,1.66E2,3.3E1,7.1E1,1E1,4E0,8E0,1.6E2,2.3E1,5E0,6.3E1,1.2E1,6.1E1,1.08E2,1E1,1.46E2,2E1,3E1,3E0,3.9E1,3.2E1,2E0,8E0,1E0,3E0,1E0,7E0,1.5E1,1.45E2,8E0,1.5E1,3.8E1,2.5E1],"tree_param":{"num_deleted":"0","num_feature":"60","num_nodes":"53","size_leaf_vector":"1"}},{"base_weights":[2.1319232E-5,-1.1049172E-2,1.2936831E-2,-1.8613143E-2,-9.250764E-3,6.7570284E-3,1.5098719E-2,-1.9330531E-2,-4.4166445E-4,-1.1759018E-2,-7.0161764E-3,6.080592E-3,2.0118475E-2,1.3652795E-2,2.0044753E-2,-1.2391254E-2,-2.1215824E-2,-1.0014354E-2,-1.6821297E-2,1.0435903E-3,-7.935166E-3,6.7605423E-3,-4.452139E-3,2.5330207E-3,2.2416413E-4,1.2265837E-2,2.1503754E-2,2.5545869E-2,1.22015355E-2,-1.3148126E-3,-4.2241937E-4,-2.5511435E-3,-1.5278141E-3,-1.143662E-3,-3.215177E-5,-1.1330559E-3,-2.171569E-3,-3.9903144E-4,1.0243186E-3,-6.9016847E-4,-1.6740554E-3,2.4813338E-4,8.636027E-4,-5.584085E-4,6.0379505E-5,1.9573977E-3,1.0849718E-3,2.4792578E-3,4.7645072E-4,3.1455387E-3,1.767039E-3,-3.3107997E-4,1.4467345E-3],"categories":[],"categories_nodes":[],"categories_segments":[],"categories_sizes":[],"default_left":[0,0,0,0,0,0,0,0,0,0,0,0,0,0,0,0,0,0,0,0,0,0,0,0,0,0,0,0,0,0,0,0,0,0,0,0,0,0,0,0,0,0,0,0,0,0,0,0,0,0,0,0,0],"id":31,"left_children":[1,3,5,7,9,11,13,15,-1,17,19,21,23,25,27,29,31,33,35,37,39,41,43,-1,-1,45,47,49,51,-1,-1,-1,-1,-1,-1,-1,-1,-1,-1,-1,-1,-1,-1,-1,-1,-1,-1,-1,-1,-1,-1,-1,-1],"loss_changes":[1.0780769E-1,5.3506754E-3,4.5472644E-3,6.988235E-4,1.7671175E-3,7.0917886E-4,1.5642941E-3,6.9213845E-4,0E0,1.1916682E-3,1.319292E-3,6.674933E-4,3.1589577E-4,1.9358024E-3,2.1045022E-3,5.572522E-5,1.0385662E-3,1.6092593E-3,7.751547E-4,9.207614E-4,1.3313955E-3,6.527207E-4,3.77099E-5,0E0,0E0,1.5883893E-3,1.4783954E-3,9.334609E-4,9.265982E-4,0E0,0E0,0E0,0E0,0E0,0E0,0E0,0E0,0E0,0E0,0E0,0E0,0E0,0E0,0E0,0E0,0E0,0E0,0E0,0E0,0E0,0E0,0E0,0E0],"parents":[2147483647,0,0,1,1,2,2,3,3,4,4,5,5,6,6,7,7,9,9,10,10,11,11,12,12,13,13,14,14,15,15,16,16,17,17,18,18,19,19,20,20,21,21,22,22,25,25,26,26,27,27,28,28],"right_children":[2,4,6,8,10,12,14,16,-1,18,20,22,24,26,28,30,32,34,36,38,40,42,44,-1,-1,46,48,50,52,-1,-1,-1,-1,-1,-1,-1,-1,-1,-1,-1,-1,-1,-1,-1,-1,-1,-1,-1,-1,-1,-1,-1,-1],"split_conditions":[4.635193E-1,1.535527E-1,7.639485E-1,1.6452074E-1,2.680019E-1,8.078207E-1,9.198856E-1,1.4020029E-1,-4.4166445E-4,2.8755364E-1,2.3080592E-1,7.639485E-1,1E0,9.241774E-1,9.155937E-1,1.1397234E-1,2.3223653E-1,2.9566047E-1,2.2317597E-1,2.4940391E-1,3.662375E-1,6.571292E-1,8.397711E-1,2.5330207E-3,2.2416413E-4,7.558417E-1,8.850739E-1,9.0701E-1,7.257988E-1,-1.3148126E-3,-4.2241937E-4,-2.5511435E-3,-1.5278141E-3,-1.143662E-3,-3.215177E-5,-1.1330559E-3,-2.171569E-3,-3.9903144E-4,1.0243186E-3,-6.9016847E-4,-1.6740554E-3,2.4813338E-4,8.636027E-4,-5.584085E-4,6.0379505E-5,1.9573977E-3,1.0849718E-3,2.4792578E-3,4.7645072E-4,3.1455387E-3,1.767039E-3,-3.3107997E-4,1.4467345E-3],"split_indices":[59,59,59,57,57,56,50,20,0,31,48,57,4,58,43,55,8,20,57,28,36,56,0,0,0,49,23,35,7,0,0,0,0,0,0,0,0,0,0,0,0,0,0,0,0,0,0,0,0,0,0,0,0],"split_type":[0,0,0,0,0,0,0,0,0,0,0,0,0,0,0,0,0,0,0,0,0,0,0,0,0,0,0,0,0,0,0,0,0,0,0,0,0,0,0,0,0,0,0,0,0,0,0,0,0,0,0,0,0],"sum_hessian":[7.52E2,4.05E2,3.47E2,7.6E1,3.29E2,9.1E1,2.56E2,7.2E1,4E0,1.53E2,1.76E2,8.8E1,3E0,2.01E2,5.5E1,1.7E1,5.5E1,1.16E2,3.7E1,1.8E1,1.58E2,8.3E1,5E0,2E0,1E0,1.73E2,2.8E1,3.1E1,2.4E1,1.5E1,2E0,3E1,2.5E1,1.01E2,1.5E1,1.9E1,1.8E1,1.2E1,6E0,1.43E2,1.5E1,2.6E1,5.7E1,4E0,1E0,2.6E1,1.47E2,2.3E1,5E0,1.6E1,1.5E1,3E0,2.1E1],"tree_param":{"num_deleted":"0","num_feature":"60","num_nodes":"53","size_leaf_vector":"1"}},{"base_weights":[2.3061799E-5,-9.741659E-3,1.1976856E-2,-1.317218E-2,-6.1972365E-3,9.349098E-3,1.5645245E-2,-1.958262E-2,-1.1733338E-2,-4.840189E-3,-1.2919939E-2,4.2823628E-3,1.02887E-2,-7.2171295E-4,1.6028883E-2,-1.5420314E-2,-2.9278815E-2,-1.0951239E-2,-2.6593E-2,-3.3615064E-3,-9.834599E-3,-3.0764295E-3,-1.8149288E-2,1.1513949E-3,3.1754056E-3,1.5004326E-2,8.277414E-3,2.5720298E-2,1.4265376E-2,-5.341433E-4,-1.6416124E-3,-1.4314273E-3,-3.3647295E-3,-1.1294655E-3,5.8666023E-4,-7.567689E-4,-2.8229803E-3,-7.8355253E-4,-2.8209222E-5,-1.3987415E-3,6.748537E-5,9.97892E-4,-9.987577E-4,-7.8037445E-4,-2.3503618E-3,6.5049826E-5,7.477473E-4,1.0214307E-3,2.3419992E-3,9.8798424E-5,9.995651E-4,1.4909208E-3,3.1685259E-3,-8.963272E-5,1.5220986E-3],"categories":[],"categories_nodes":[],"categories_segments":[],"categories_sizes":[],"default_left":[0,0,0,0,0,0,0,0,0,0,0,0,0,0,0,0,0,0,0,0,0,0,0,0,0,0,0,0,0,0,0,0,0,0,0,0,0,0,0,0,0,0,0,0,0,0,0,0,0,0,0,0,0,0,0],"id":32,"left_children":[1,3,5,7,9,11,13,15,17,19,21,23,25,-1,27,29,31,33,35,37,39,41,43,-1,45,47,49,51,53,-1,-1,-1,-1,-1,-1,-1,-1,-1,-1,-1,-1,-1,-1,-1,-1,-1,-1,-1,-1,-1,-1,-1,-1,-1,-1],"loss_changes":[8.801095E-2,4.964445E-3,3.1215623E-3,1.7071888E-3,1.8168073E-3,9.080861E-4,1.3436005E-3,1.0417765E-3,1.730958E-3,1.244572E-3,1.6943198E-3,2.2760528E-4,1.469193E-3,0E0,1.9916333E-3,1.933407E-4,1.7208606E-4,1.0307711E-3,3.549084E-5,1.857733E-3,1.7115478E-3,1.2726218E-3,1.03524E-3,0E0,3.2100565E-4,1.736029E-3,1.4931196E-3,8.1735104E-4,1.7377939E-3,0E0,0E0,0E0,0E0,0E0,0E0,0E0,0E0,0E0,0E0,0E0,0E0,0E0,0E0,0E0,0E0,0E0,0E0,0E0,0E0,0E0,0E0,0E0,0E0,0E0,0E0],"parents":[2147483647,0,0,1,1,2,2,3,3,4,4,5,5,6,6,7,7,8,8,9,9,10,10,11,11,12,12,14,14,15,15,16,16,17,17,18,18,19,19,20,20,21,21,22,22,24,24,25,25,26,26,27,27,28,28],"right_children":[2,4,6,8,10,12,14,16,18,20,22,24,26,-1,28,30,32,34,36,38,40,42,44,-1,46,48,50,52,54,-1,-1,-1,-1,-1,-1,-1,-1,-1,-1,-1,-1,-1,-1,-1,-1,-1,-1,-1,-1,-1,-1,-1,-1,-1,-1],"split_conditions":[4.9356222E-1,2.5417262E-1,8.640916E-1,1.0634239E-1,3.6433E-1,6.5808296E-1,7.0386267E-1,1.535527E-1,2.7038628E-1,3.6337626E-1,2.7706248E-1,1.5975203E-1,7.5774914E-1,-7.2171295E-4,7.701478E-1,2.7181689E-2,1.4401525E-1,3.8292798E-1,4.8640914E-2,2.2889842E-1,2.6990938E-1,2.8755364E-1,2.9375297E-1,1.1513949E-3,6.776347E-1,8.483548E-1,8.097282E-1,7.1244633E-1,8.264187E-1,-5.341433E-4,-1.6416124E-3,-1.4314273E-3,-3.3647295E-3,-1.1294655E-3,5.8666023E-4,-7.567689E-4,-2.8229803E-3,-7.8355253E-4,-2.8209222E-5,-1.3987415E-3,6.748537E-5,9.97892E-4,-9.987577E-4,-7.8037445E-4,-2.3503618E-3,6.5049826E-5,7.477473E-4,1.0214307E-3,2.3419992E-3,9.8798424E-5,9.995651E-4,1.4909208E-3,3.1685259E-3,-8.963272E-5,1.5220986E-3],"split_indices":[55,55,59,53,41,39,42,32,53,53,15,18,38,0,38,40,13,3,1,20,1,55,51,0,53,4,41,23,42,0,0,0,0,0,0,0,0,0,0,0,0,0,0,0,0,0,0,0,0,0,0,0,0,0,0],"split_type":[0,0,0,0,0,0,0,0,0,0,0,0,0,0,0,0,0,0,0,0,0,0,0,0,0,0,0,0,0,0,0,0,0,0,0,0,0,0,0,0,0,0,0,0,0,0,0,0,0,0,0,0,0,0,0],"sum_hessian":[7.52E2,4.14E2,3.38E2,2.09E2,2.05E2,1.99E2,1.39E2,3.6E1,1.73E2,1.72E2,3.3E1,3.2E1,1.67E2,2E0,1.37E2,2.7E1,9E0,1.66E2,7E0,1.34E2,3.8E1,1.2E1,2.1E1,3E0,2.9E1,4.8E1,1.19E2,1.9E1,1.18E2,3E0,2.4E1,3E0,6E0,1.63E2,3E0,1E0,6E0,5.4E1,8E1,2.7E1,1.1E1,4E0,8E0,8E0,1.3E1,1.9E1,1E1,3.2E1,1.6E1,2.3E1,9.6E1,8E0,1.1E1,7E0,1.11E2],"tree_param":{"num_deleted":"0","num_feature":"60","num_nodes":"55","size_leaf_vector":"1"}},{"base_weights":[1.4680286E-5,-9.034498E-3,1.05720125E-2,-1.3470424E-2,-6.8724E-3,5.6525394E-3,1.2423667E-2,-1.452398E-2,-4.9243933E-3,-7.6023834E-3,-6.574581E-4,4.6311864E-3,1.1895807E-2,1.1932748E-2,2.5905095E-2,-7.911879E-3,-1.6057666E-2,1.1180863E-3,-9.748331E-3,-6.184503E-3,-1.1894739E-2,-3.2348656E-3,1.28765525E-2,5.4559964E-3,-8.410762E-4,1.7075727E-2,5.0164885E-3,1.6576983E-2,1.059556E-2,3.0896277E-3,7.287701E-4,-1.0553378E-3,7.933963E-4,-1.4977587E-3,-2.7341861E-3,5.876459E-4,-2.9122294E-4,-3.9412855E-4,-1.3605711E-3,-4.951358E-4,-1.2230285E-3,-1.5322751E-3,-5.713905E-4,1.1086935E-3,-6.342781E-4,1.6731361E-3,4.7295593E-4,2.8203352E-4,8.827167E-4,4.5809624E-4,-4.124716E-4,1.8656234E-3,3.7963392E-4,-3.7294228E-4,9.260738E-4,9.666974E-4,2.5169735E-3,8.3131465E-4,1.5066159E-3],"categories":[],"categories_nodes":[],"categories_segments":[],"categories_sizes":[],"default_left":[0,0,0,0,0,0,0,0,0,0,0,0,0,0,0,0,0,0,0,0,0,0,0,0,0,0,0,0,0,0,0,0,0,0,0,0,0,0,0,0,0,0,0,0,0,0,0,0,0,0,0,0,0,0,0,0,0,0,0],"id":33,"left_children":[1,3,5,7,9,11,13,15,17,19,21,23,25,27,29,31,33,35,37,39,41,43,45,47,49,51,53,55,57,-1,-1,-1,-1,-1,-1,-1,-1,-1,-1,-1,-1,-1,-1,-1,-1,-1,-1,-1,-1,-1,-1,-1,-1,-1,-1,-1,-1,-1,-1],"loss_changes":[7.20335E-2,3.8013346E-3,3.099762E-3,1.1169687E-3,1.2426227E-3,5.634369E-4,1.3586879E-3,1.059439E-3,4.7727622E-4,1.4236048E-3,1.0881338E-3,3.8824312E-4,3.7758576E-4,1.345858E-3,5.182191E-4,1.0882928E-3,7.361416E-4,1.7053555E-4,1.4797592E-4,1.3335897E-3,1.1837259E-3,1.2276063E-3,7.789361E-5,6.326139E-4,2.3254343E-4,7.609208E-5,2.9437605E-4,2.9036123E-3,1.8440764E-3,0E0,0E0,0E0,0E0,0E0,0E0,0E0,0E0,0E0,0E0,0E0,0E0,0E0,0E0,0E0,0E0,0E0,0E0,0E0,0E0,0E0,0E0,0E0,0E0,0E0,0E0,0E0,0E0,0E0,0E0],"parents":[2147483647,0,0,1,1,2,2,3,3,4,4,5,5,6,6,7,7,8,8,9,9,10,10,11,11,12,12,13,13,14,14,15,15,16,16,17,17,18,18,19,19,20,20,21,21,22,22,23,23,24,24,25,25,26,26,27,27,28,28],"right_children":[2,4,6,8,10,12,14,16,18,20,22,24,26,28,30,32,34,36,38,40,42,44,46,48,50,52,54,56,58,-1,-1,-1,-1,-1,-1,-1,-1,-1,-1,-1,-1,