{"learner":{"attributes":{"scikit_learn":"{\"_estimator_type\": \"regressor\"}"},"feature_names":[],"feature_types":[],"gradient_booster":{"model":{"gbtree_model_param":{"num_parallel_tree":"1","num_trees":"100"},"iteration_indptr":[0,1,2,3,4,5,6,7,8,9,10,11,12,13,14,15,16,17,18,19,20,21,22,23,24,25,26,27,28,29,30,31,32,33,34,35,36,37,38,39,40,41,42,43,44,45,46,47,48,49,50,51,52,53,54,55,56,57,58,59,60,61,62,63,64,65,66,67,68,69,70,71,72,73,74,75,76,77,78,79,80,81,82,83,84,85,86,87,88,89,90,91,92,93,94,95,96,97,98,99,100],"tree_info":[0,0,0,0,0,0,0,0,0,0,0,0,0,0,0,0,0,0,0,0,0,0,0,0,0,0,0,0,0,0,0,0,0,0,0,0,0,0,0,0,0,0,0,0,0,0,0,0,0,0,0,0,0,0,0,0,0,0,0,0,0,0,0,0,0,0,0,0,0,0,0,0,0,0,0,0,0,0,0,0,0,0,0,0,0,0,0,0,0,0,0,0,0,0,0,0,0,0,0,0],"trees":[{"base_weights":[1.85907E-8,-1.327689E-1,2.6553786E-1,-1.9414614E-1,-3.449113E-2,1.4273933E-1,2.861461E-1,-2.5295845E-1,-1.4941981E-1,3.73762E-2,-5.2804038E-2,7.117665E-3,1.5209037E-2,2.8833812E-1,1.3514916E-2,-2.8104985E-2,-2.1656422E-2,-1.6524382E-2,-1.24331884E-1,3.8150589E-3,7.066484E-2,-7.244095E-2,-2.5776535E-2,2.130471E-2,2.9413918E-2,-1.2730166E-2,-3.3391577E-3,-1.1228198E-3,2.8251312E-3,2.1086752E-3,7.717062E-3,-1.5293699E-3,-7.4090967E-3,-5.4768254E-3,-1.9333778E-3],"categories":[],"categories_nodes":[],"categories_segments":[],"categories_sizes":[],"default_left":[0,0,0,0,0,0,0,0,0,0,0,0,0,0,0,0,0,0,0,0,0,0,0,0,0,0,0,0,0,0,0,0,0,0,0],"id":0,"left_children":[1,3,5,7,9,11,13,15,17,19,21,-1,-1,23,-1,-1,-1,-1,25,27,29,31,33,-1,-1,-1,-1,-1,-1,-1,-1,-1,-1,-1,-1],"loss_changes":[1.84032E1,2.0924468E0,3.994913E-1,5.2512074E-1,1.7964712E-1,7.242739E-3,1.0016441E-2,3.2170296E-2,2.8681993E-2,3.1012136E-2,5.5452287E-2,0E0,0E0,6.656647E-4,0E0,0E0,0E0,0E0,9.793043E-3,5.8312234E-3,2.8883368E-3,4.7130883E-3,7.720094E-3,0E0,0E0,0E0,0E0,0E0,0E0,0E0,0E0,0E0,0E0,0E0,0E0],"parents":[2147483647,0,0,1,1,2,2,3,3,4,4,5,5,6,6,7,7,8,8,9,9,10,10,13,13,18,18,19,19,20,20,21,21,22,22],"right_children":[2,4,6,8,10,12,14,16,18,20,22,-1,-1,24,-1,-1,-1,-1,26,28,30,32,34,-1,-1,-1,-1,-1,-1,-1,-1,-1,-1,-1,-1],"split_conditions":[7.047091E-1,5.030471E-1,8.1495845E-1,4.0831023E-1,6.0166204E-1,1.4792244E-1,9.301939E-1,3.6731303E-1,4.6648198E-1,1.0581718E-1,5.65097E-1,7.117665E-3,1.5209037E-2,8.4210527E-1,1.3514916E-2,-2.8104985E-2,-2.1656422E-2,-1.6524382E-2,9.157895E-1,9.584487E-2,7.6454294E-1,3.734072E-1,7.944598E-1,2.130471E-2,2.9413918E-2,-1.2730166E-2,-3.3391577E-3,-1.1228198E-3,2.8251312E-3,2.1086752E-3,7.717062E-3,-1.5293699E-3,-7.4090967E-3,-5.4768254E-3,-1.9333778E-3],"split_indices":[349,349,349,349,1,90,286,349,349,84,349,0,0,349,0,0,0,0,186,86,211,254,66,0,0,0,0,0,0,0,0,0,0,0,0],"split_type":[0,0,0,0,0,0,0,0,0,0,0,0,0,0,0,0,0,0,0,0,0,0,0,0,0,0,0,0,0,0,0,0,0,0,0],"sum_hessian":[5.2E2,3.47E2,1.73E2,2.13E2,1.34E2,2.6E1,1.47E2,9E1,1.23E2,2.7E1,1.07E2,4E0,2.2E1,1.44E2,3E0,4.7E1,4.3E1,7.2E1,5.1E1,1.4E1,1.3E1,6.1E1,4.6E1,1.3E1,1.31E2,4.9E1,2E0,9E0,5E0,2E0,1.1E1,2E0,5.9E1,7E0,3.9E1],"tree_param":{"num_deleted":"0","num_feature":"350","num_nodes":"35","size_leaf_vector":"1"}},{"base_weights":[-1.1729302E-6,-1.1974252E-1,2.3948152E-1,-1.7511638E-1,-3.1077722E-2,1.2929231E-1,2.579655E-1,-2.2820945E-1,-1.3474068E-1,3.4050293E-2,-4.7675006E-2,6.5482496E-3,1.375426E-1,2.2800779E-2,2.7473816E-1,-2.6170507E-2,-2.0152677E-2,-1.4894581E-2,-1.122077E-1,3.5470447E-3,6.430018E-2,-6.5341026E-2,-2.3356529E-2,1.4026547E-2,3.881997E-3,2.7626142E-2,6.958389E-3,-1.139692E-2,-1.1185736E-3,2.0824298E-3,-1.417359E-3,1.9680958E-3,7.0096636E-3,-7.176643E-3,-4.4111055E-3,-3.6380035E-4,-3.0788966E-3],"categories":[],"categories_nodes":[],"categories_segments":[],"categories_sizes":[],"default_left":[0,0,0,0,0,0,0,0,0,0,0,0,0,0,0,0,0,0,0,0,0,0,0,0,0,0,0,0,0,0,0,0,0,0,0,0,0],"id":1,"left_children":[1,3,5,7,9,11,13,15,17,19,21,-1,23,-1,25,-1,-1,-1,27,29,31,33,35,-1,-1,-1,-1,-1,-1,-1,-1,-1,-1,-1,-1,-1,-1],"loss_changes":[1.4968863E1,1.7031379E0,3.2103825E-1,4.2799568E-1,1.4755134E-1,5.207479E-3,1.1723518E-2,2.8591156E-2,2.2977352E-2,2.5608078E-2,4.4871807E-2,0E0,7.3748827E-4,0E0,8.902073E-3,0E0,0E0,0E0,7.978559E-3,4.887614E-3,2.2413023E-3,5.2918196E-3,6.776154E-3,0E0,0E0,0E0,0E0,0E0,0E0,0E0,0E0,0E0,0E0,0E0,0E0,0E0,0E0],"parents":[2147483647,0,0,1,1,2,2,3,3,4,4,5,5,6,6,7,7,8,8,9,9,10,10,12,12,14,14,18,18,19,19,20,20,21,21,22,22],"right_children":[2,4,6,8,10,12,14,16,18,20,22,-1,24,-1,26,-1,-1,-1,28,30,32,34,36,-1,-1,-1,-1,-1,-1,-1,-1,-1,-1,-1,-1,-1,-1],"split_conditions":[7.047091E-1,5.030471E-1,8.1495845E-1,4.0831023E-1,6.0166204E-1,1.4792244E-1,8.831025E-1,5.0526315E-1,4.6648198E-1,1.0581718E-1,5.65097E-1,6.5482496E-3,4.6149585E-1,2.2800779E-2,3.2797784E-1,-2.6170507E-2,-2.0152677E-2,-1.4894581E-2,9.67313E-1,9.645429E-1,7.6454294E-1,9.036011E-1,4.2770082E-1,1.4026547E-2,3.881997E-3,2.7626142E-2,6.958389E-3,-1.139692E-2,-1.1185736E-3,2.0824298E-3,-1.417359E-3,1.9680958E-3,7.0096636E-3,-7.176643E-3,-4.4111055E-3,-3.6380035E-4,-3.0788966E-3],"split_indices":[349,349,349,349,1,90,349,75,349,84,349,0,0,0,1,0,0,0,69,281,211,47,323,0,0,0,0,0,0,0,0,0,0,0,0,0,0],"split_type":[0,0,0,0,0,0,0,0,0,0,0,0,0,0,0,0,0,0,0,0,0,0,0,0,0,0,0,0,0,0,0,0,0,0,0,0,0],"sum_hessian":[5.2E2,3.47E2,1.73E2,2.13E2,1.34E2,2.6E1,1.47E2,9E1,1.23E2,2.7E1,1.07E2,4E0,2.2E1,5.8E1,8.9E1,3.6E1,5.4E1,7.2E1,5.1E1,1.4E1,1.3E1,6.1E1,4.6E1,2.1E1,1E0,8.8E1,1E0,5E1,1E0,7E0,7E0,2E0,1.1E1,4.5E1,1.6E1,1.3E1,3.3E1],"tree_param":{"num_deleted":"0","num_feature":"350","num_nodes":"37","size_leaf_vector":"1"}},{"base_weights":[4.1676917E-6,-1.0799562E-1,2.1600372E-1,-1.6138169E-1,-3.3027336E-2,1.1726891E-1,2.3255667E-1,-2.0589755E-1,-1.2410449E-1,-6.31647E-2,-3.024495E-4,8.935306E-3,1.4045882E-2,2.1202758E-2,2.5484997E-1,-2.3116648E-2,-1.7615259E-2,-5.924584E-2,-1.2655863E-1,-6.821798E-2,-3.5913195E-2,-1.9768776E-2,3.414961E-2,2.5673673E-2,6.6104713E-3,-1.0626436E-3,-6.6844434E-3,-1.3509114E-2,-1.0653432E-2,-7.3637473E-3,-3.9048668E-3,-9.489675E-4,-3.9526313E-3,-1.5050079E-3,-6.5552588E-3,-8.884286E-4,4.750399E-3],"categories":[],"categories_nodes":[],"categories_segments":[],"categories_sizes":[],"default_left":[0,0,0,0,0,0,0,0,0,0,0,0,0,0,0,0,0,0,0,0,0,0,0,0,0,0,0,0,0,0,0,0,0,0,0,0,0],"id":2,"left_children":[1,3,5,7,9,11,13,15,17,19,21,-1,-1,-1,23,-1,-1,25,27,29,31,33,35,-1,-1,-1,-1,-1,-1,-1,-1,-1,-1,-1,-1,-1,-1],"loss_changes":[1.2177166E1,1.3874574E0,2.5710583E-1,3.113103E-1,1.4397222E-1,4.92844E-3,1.3697624E-2,2.7677298E-2,1.0488391E-2,8.01599E-3,4.8291605E-2,0E0,0E0,0E0,6.532192E-3,0E0,0E0,1.5063155E-3,4.0607452E-3,7.0837736E-3,9.6150674E-4,8.951267E-3,1.5364004E-2,0E0,0E0,0E0,0E0,0E0,0E0,0E0,0E0,0E0,0E0,0E0,0E0,0E0,0E0],"parents":[2147483647,0,0,1,1,2,2,3,3,4,4,5,5,6,6,7,7,8,8,9,9,10,10,14,14,17,17,18,18,19,19,20,20,21,21,22,22],"right_children":[2,4,6,8,10,12,14,16,18,20,22,-1,-1,-1,24,-1,-1,26,28,30,32,34,36,-1,-1,-1,-1,-1,-1,-1,-1,-1,-1,-1,-1,-1,-1],"split_conditions":[7.047091E-1,4.903047E-1,8.1495845E-1,4.0831023E-1,5.689751E-1,7.6509696E-1,9.0193903E-1,3.567867E-1,6.814405E-1,8.969529E-1,8.67036E-1,8.935306E-3,1.4045882E-2,2.1202758E-2,3.2797784E-1,-2.3116648E-2,-1.7615259E-2,7.944598E-1,4.6648198E-1,9.1191137E-1,3.734072E-1,9.357341E-1,6.371191E-2,2.5673673E-2,6.6104713E-3,-1.0626436E-3,-6.6844434E-3,-1.3509114E-2,-1.0653432E-2,-7.3637473E-3,-3.9048668E-3,-9.489675E-4,-3.9526313E-3,-1.5050079E-3,-6.5552588E-3,-8.884286E-4,4.750399E-3],"split_indices":[349,349,349,349,349,349,349,349,47,40,311,0,0,0,1,0,0,0,349,47,254,146,85,0,0,0,0,0,0,0,0,0,0,0,0,0,0],"split_type":[0,0,0,0,0,0,0,0,0,0,0,0,0,0,0,0,0,0,0,0,0,0,0,0,0,0,0,0,0,0,0,0,0,0,0,0,0],"sum_hessian":[5.2E2,3.47E2,1.73E2,2.02E2,1.45E2,2.6E1,1.47E2,9E1,1.12E2,7.5E1,7E1,1.4E1,1.2E1,8.2E1,6.5E1,4.5E1,4.5E1,5E0,1.07E2,6.2E1,1.3E1,4.5E1,2.5E1,6.4E1,1E0,1E0,4E0,7.1E1,3.6E1,5.1E1,1.1E1,2E0,1.1E1,4.2E1,3E0,6E0,1.9E1],"tree_param":{"num_deleted":"0","num_feature":"350","num_nodes":"37","size_leaf_vector":"1"}},{"base_weights":[-2.800177E-5,-9.958324E-2,1.9074002E-1,-1.5790518E-1,-4.6511095E-2,9.7263366E-2,2.0966241E-1,-2.039656E-2,-1.3255991E-1,-7.4513495E-2,-9.412893E-3,7.275069E-2,1.27493385E-2,1.5648564E-2,2.158216E-1,-1.4034154E-1,-1.0401718E-2,-9.188835E-2,-5.5705685E-2,-2.2068197E-2,2.659072E-2,2.147218E-2,8.422831E-3,6.0584755E-3,2.1655534E-1,-5.0346255E-3,-1.419621E-2,-9.41128E-3,-2.4184824E-3,-5.7393536E-3,-9.006322E-4,-4.212069E-4,-2.9804741E-3,4.7488717E-4,5.5185533E-3,-2.7994812E-4,2.8239966E-3,2.1726593E-2,6.2799486E-3],"categories":[],"categories_nodes":[],"categories_segments":[],"categories_sizes":[],"default_left":[0,0,0,0,0,0,0,0,0,0,0,0,0,0,0,0,0,0,0,0,0,0,0,0,0,0,0,0,0,0,0,0,0,0,0,0,0,0,0],"id":3,"left_children":[1,3,5,7,9,11,13,-1,15,17,19,21,-1,-1,23,25,-1,27,29,31,33,35,-1,-1,37,-1,-1,-1,-1,-1,-1,-1,-1,-1,-1,-1,-1,-1,-1],"loss_changes":[9.913804E0,1.0543334E0,2.9622316E-1,1.6325045E-1,1.873284E-1,1.4437377E-2,1.470089E-2,0E0,9.389877E-3,2.8539956E-2,3.658211E-2,9.962536E-3,0E0,0E0,1.6870499E-3,4.811883E-3,0E0,5.5552423E-3,3.581807E-3,8.024996E-3,1.2853764E-2,9.003843E-4,0E0,0E0,4.5013428E-4,0E0,0E0,0E0,0E0,0E0,0E0,0E0,0E0,0E0,0E0,0E0,0E0,0E0,0E0],"parents":[2147483647,0,0,1,1,2,2,3,3,4,4,5,5,6,6,8,8,9,9,10,10,11,11,14,14,15,15,17,17,18,18,19,19,20,20,21,21,24,24],"right_children":[2,4,6,8,10,12,14,-1,16,18,20,22,-1,-1,24,26,-1,28,30,32,34,36,-1,-1,38,-1,-1,-1,-1,-1,-1,-1,-1,-1,-1,-1,-1,-1,-1],"split_conditions":[6.941828E-1,4.6648198E-1,8.1495845E-1,3.7783933E-1,5.5401665E-1,7.6509696E-1,7.257618E-1,-2.039656E-2,9.0193903E-1,5.030471E-1,8.709141E-1,8.5096955E-1,1.27493385E-2,1.5648564E-2,1.0581718E-1,3.9390582E-1,-1.0401718E-2,9.157895E-1,9.551247E-1,6.060942E-1,1.0581718E-1,1.7617728E-1,8.422831E-3,6.0584755E-3,3.2797784E-1,-5.0346255E-3,-1.419621E-2,-9.41128E-3,-2.4184824E-3,-5.7393536E-3,-9.006322E-4,-4.212069E-4,-2.9804741E-3,4.7488717E-4,5.5185533E-3,-2.7994812E-4,2.8239966E-3,2.1726593E-2,6.2799486E-3],"split_indices":[349,349,349,349,349,349,239,0,130,349,324,274,0,0,80,111,0,186,207,97,84,0,0,0,1,0,0,0,0,0,0,0,0,0,0,0,0,0,0],"split_type":[0,0,0,0,0,0,0,0,0,0,0,0,0,0,0,0,0,0,0,0,0,0,0,0,0,0,0,0,0,0,0,0,0,0,0,0,0,0,0],"sum_hessian":[5.2E2,3.42E2,1.78E2,1.62E2,1.8E2,3.1E1,1.47E2,5.5E1,1.07E2,1.02E2,7.8E1,1.9E1,1.2E1,1.8E1,1.29E2,8.1E1,2.6E1,5.1E1,5.1E1,5.8E1,2E1,4E0,1.5E1,1E0,1.28E2,2E0,7.9E1,4.9E1,2E0,4.9E1,2E0,1.8E1,4E1,1.2E1,8E0,1E0,3E0,1.27E2,1E0],"tree_param":{"num_deleted":"0","num_feature":"350","num_nodes":"39","size_leaf_vector":"1"}},{"base_weights":[-1.076802E-5,-8.981707E-2,1.7207623E-1,-1.4242159E-1,-4.1947715E-2,8.827816E-2,1.8903205E-1,-1.8393329E-1,-1.1957829E-1,-6.453796E-2,-4.344165E-3,6.6023946E-2,1.1572479E-2,1.7112236E-2,2.0869073E-1,-1.8849129E-2,-9.974342E-3,-1.3857208E-2,-1.0857342E-1,-8.292702E-2,-4.807394E-2,-1.2445791E-2,3.9504934E-2,1.9833768E-2,7.6331883E-3,2.1006567E-2,5.9659514E-3,-4.199322E-3,-1.0985747E-2,-8.4889745E-3,-2.2572519E-3,-3.7751955E-3,-5.9259497E-3,5.123234E-4,-2.091916E-3,-7.544955E-5,4.853531E-3,-2.6594996E-4,2.612196E-3],"categories":[],"categories_nodes":[],"categories_segments":[],"categories_sizes":[],"default_left":[0,0,0,0,0,0,0,0,0,0,0,0,0,0,0,0,0,0,0,0,0,0,0,0,0,0,0,0,0,0,0,0,0,0,0,0,0,0,0],"id":4,"left_children":[1,3,5,7,9,11,13,15,17,19,21,23,-1,-1,25,-1,-1,-1,27,29,31,33,35,37,-1,-1,-1,-1,-1,-1,-1,-1,-1,-1,-1,-1,-1,-1,-1],"loss_changes":[8.067248E0,8.577492E-1,2.3764753E-1,1.3257289E-1,1.534743E-1,1.1905089E-2,1.6396046E-2,2.688527E-3,7.5292587E-3,3.0224979E-2,2.500385E-2,8.008562E-3,0E0,0E0,9.918213E-4,0E0,0E0,0E0,1.627624E-3,4.2437315E-3,4.921183E-3,8.890434E-3,4.0357523E-3,7.7668135E-4,0E0,0E0,0E0,0E0,0E0,0E0,0E0,0E0,0E0,0E0,0E0,0E0,0E0,0E0,0E0],"parents":[2147483647,0,0,1,1,2,2,3,3,4,4,5,5,6,6,7,7,8,8,9,9,10,10,11,11,14,14,18,18,19,19,20,20,21,21,22,22,23,23],"right_children":[2,4,6,8,10,12,14,16,18,20,22,24,-1,-1,26,-1,-1,-1,28,30,32,34,36,38,-1,-1,-1,-1,-1,-1,-1,-1,-1,-1,-1,-1,-1,-1,-1],"split_conditions":[6.941828E-1,4.6648198E-1,8.1495845E-1,3.7783933E-1,5.65097E-1,7.6509696E-1,9.0193903E-1,6.166205E-1,4.0831023E-1,5.030471E-1,8.8088644E-1,8.5096955E-1,1.1572479E-2,1.7112236E-2,3.2797784E-1,-1.8849129E-2,-9.974342E-3,-1.3857208E-2,6.8753463E-1,9.157895E-1,5.473684E-1,4.2825484E-1,1.4792244E-1,1.7617728E-1,7.6331883E-3,2.1006567E-2,5.9659514E-3,-4.199322E-3,-1.0985747E-2,-8.4889745E-3,-2.2572519E-3,-3.7751955E-3,-5.9259497E-3,5.123234E-4,-2.091916E-3,-7.544955E-5,4.853531E-3,-2.6594996E-4,2.612196E-3],"split_indices":[349,349,349,349,349,349,349,157,349,349,323,274,0,0,1,0,0,0,33,186,293,102,11,0,0,0,0,0,0,0,0,0,0,0,0,0,0,0,0],"split_type":[0,0,0,0,0,0,0,0,0,0,0,0,0,0,0,0,0,0,0,0,0,0,0,0,0,0,0,0,0,0,0,0,0,0,0,0,0,0,0],"sum_hessian":[5.2E2,3.42E2,1.78E2,1.62E2,1.8E2,3.1E1,1.47E2,5.5E1,1.07E2,1.12E2,6.8E1,1.9E1,1.2E1,8.2E1,6.5E1,5.1E1,4E0,3.5E1,7.2E1,5.1E1,6.1E1,5.8E1,1E1,4E0,1.5E1,6.4E1,1E0,2E0,7E1,4.9E1,2E0,3.4E1,2.7E1,1.9E1,3.9E1,2E0,8E0,1E0,3E0],"tree_param":{"num_deleted":"0","num_feature":"350","num_nodes":"39","size_leaf_vector":"1"}},{"base_weights":[-2.78916E-5,-8.3135635E-2,1.5136312E-1,-1.2853444E-1,-4.0374827E-2,6.396692E-2,1.685405E-1,-1.6605465E-1,-1.07889384E-1,-6.135771E-2,-1.1579544E-2,2.6899636E-2,8.2102185E-3,1.212222E-1,1.7469828E-1,-1.846475E-2,-1.3749956E-2,-1.1449954E-1,-8.38182E-3,-7.484099E-2,-4.610794E-2,-1.80778E-2,2.4042785E-2,-1.4796237E-2,3.6718436E-2,1.2394345E-2,3.339848E-3,2.1336954E-2,1.668582E-2,-1.16529325E-2,-4.5786323E-3,-7.7631357E-3,-3.3085325E-3,-5.0963E-3,-2.4261551E-3,-1.4031685E-3,-4.464665E-3,3.422554E-3,2.941823E-4,-2.526522E-4,-1.9667835E-3,1.3359566E-3,4.0888204E-3],"categories":[],"categories_nodes":[],"categories_segments":[],"categories_sizes":[],"default_left":[0,0,0,0,0,0,0,0,0,0,0,0,0,0,0,0,0,0,0,0,0,0,0,0,0,0,0,0,0,0,0,0,0,0,0,0,0,0,0,0,0,0,0],"id":5,"left_children":[1,3,5,7,9,11,13,15,17,19,21,23,-1,25,27,-1,-1,29,-1,31,33,35,37,39,41,-1,-1,-1,-1,-1,-1,-1,-1,-1,-1,-1,-1,-1,-1,-1,-1,-1,-1],"loss_changes":[6.567683E0,6.4902496E-1,2.6694822E-1,1.0834551E-1,1.0502592E-1,1.9302681E-2,2.3694515E-2,4.342556E-3,7.5873137E-3,1.731655E-2,1.7795868E-2,5.4561356E-3,0E0,8.792877E-4,5.024433E-3,0E0,0E0,6.1012506E-3,0E0,3.4902394E-3,4.0668324E-3,6.2535703E-3,2.477706E-3,1.2962811E-4,4.2776298E-4,0E0,0E0,0E0,0E0,0E0,0E0,0E0,0E0,0E0,0E0,0E0,0E0,0E0,0E0,0E0,0E0,0E0,0E0],"parents":[2147483647,0,0,1,1,2,2,3,3,4,4,5,5,6,6,7,7,8,8,9,9,10,10,11,11,13,13,14,14,17,17,19,19,20,20,21,21,22,22,23,23,24,24],"right_children":[2,4,6,8,10,12,14,16,18,20,22,24,-1,26,28,-1,-1,30,-1,32,34,36,38,40,42,-1,-1,-1,-1,-1,-1,-1,-1,-1,-1,-1,-1,-1,-1,-1,-1,-1,-1],"split_conditions":[6.703601E-1,4.6648198E-1,7.8836566E-1,3.7783933E-1,5.5180055E-1,8.6481994E-1,8.4210527E-1,5.163435E-1,9.0193903E-1,5.030471E-1,8.7534624E-1,2.1163435E-1,8.2102185E-3,3.767313E-1,2.565097E-1,-1.846475E-2,-1.3749956E-2,9.5789474E-1,-8.38182E-3,9.1135734E-1,8.7534624E-1,9.268698E-1,9.67313E-1,1.7617728E-1,8.731302E-1,1.2394345E-2,3.339848E-3,2.1336954E-2,1.668582E-2,-1.16529325E-2,-4.5786323E-3,-7.7631357E-3,-3.3085325E-3,-5.0963E-3,-2.4261551E-3,-1.4031685E-3,-4.464665E-3,3.422554E-3,2.941823E-4,-2.526522E-4,-1.9667835E-3,1.3359566E-3,4.0888204E-3],"split_indices":[349,349,349,349,349,274,349,240,130,349,324,10,0,0,158,0,0,144,0,185,38,144,289,0,323,0,0,0,0,0,0,0,0,0,0,0,0,0,0,0,0,0,0],"split_type":[0,0,0,0,0,0,0,0,0,0,0,0,0,0,0,0,0,0,0,0,0,0,0,0,0,0,0,0,0,0,0,0,0,0,0,0,0,0,0,0,0,0,0],"sum_hessian":[5.2E2,3.36E2,1.84E2,1.62E2,1.74E2,3.1E1,1.53E2,5.5E1,1.07E2,1E2,7.4E1,1.1E1,2E1,2E1,1.33E2,3E1,2.5E1,8.1E1,2.6E1,5.1E1,4.9E1,6.3E1,1.1E1,2E0,9E0,1.9E1,1E0,1.8E1,1.15E2,7.8E1,3E0,4.7E1,4E0,3.9E1,1E1,5.6E1,7E0,7E0,4E0,1E0,1E0,2E0,7E0],"tree_param":{"num_deleted":"0","num_feature":"350","num_nodes":"43","size_leaf_vector":"1"}},{"base_weights":[-4.8908816E-5,-7.3182255E-2,1.4008957E-1,-1.1602963E-1,-3.4191627E-2,8.629131E-2,1.5751217E-1,-1.4379223E-1,-9.304118E-2,-5.2742288E-2,-3.316034E-3,5.3917997E-2,1.0707558E-1,1.9315556E-2,1.5031618E-1,-1.6093983E-1,-1.1989375E-2,-9.538543E-2,-5.094884E-3,-6.75698E-2,-3.9455626E-2,-9.915961E-3,3.238503E-2,1.6467463E-2,6.225141E-3,1.1025018E-2,4.4928747E-3,1.5138357E-2,5.9649986E-3,-1.6545126E-2,-8.010189E-3,-2.8744421E-3,-9.662992E-3,-6.9775484E-3,-2.365771E-3,-3.2663743E-3,-5.4243347E-3,-7.159756E-4,-5.897853E-3,-1.3773242E-4,4.0040812E-3,-2.4001897E-4,2.1784424E-3],"categories":[],"categories_nodes":[],"categories_segments":[],"categories_sizes":[],"default_left":[0,0,0,0,0,0,0,0,0,0,0,0,0,0,0,0,0,0,0,0,0,0,0,0,0,0,0,0,0,0,0,0,0,0,0,0,0,0,0,0,0,0,0],"id":6,"left_children":[1,3,5,7,9,11,13,15,17,19,21,23,25,-1,27,29,-1,31,-1,33,35,37,39,41,-1,-1,-1,-1,-1,-1,-1,-1,-1,-1,-1,-1,-1,-1,-1,-1,-1,-1,-1],"loss_changes":[5.3498745E0,5.6906426E-1,1.5418601E-1,9.0651035E-2,1.03495136E-1,2.5178045E-2,5.335331E-3,1.0210156E-2,4.21834E-3,1.9595921E-2,1.657921E-2,5.216699E-3,3.734529E-4,0E0,2.1960735E-3,9.701252E-4,0E0,4.354775E-3,0E0,3.3857971E-3,4.4552684E-3,7.556089E-3,2.8983988E-3,5.5387965E-4,0E0,0E0,0E0,0E0,0E0,0E0,0E0,0E0,0E0,0E0,0E0,0E0,0E0,0E0,0E0,0E0,0E0,0E0,0E0],"parents":[2147483647,0,0,1,1,2,2,3,3,4,4,5,5,6,6,7,7,8,8,9,9,10,10,11,11,12,12,14,14,15,15,17,17,19,19,20,20,21,21,22,22,23,23],"right_children":[2,4,6,8,10,12,14,16,18,20,22,24,26,-1,28,30,-1,32,-1,34,36,38,40,42,-1,-1,-1,-1,-1,-1,-1,-1,-1,-1,-1,-1,-1,-1,-1,-1,-1,-1,-1],"split_conditions":[6.941828E-1,4.6648198E-1,8.4210527E-1,3.9058173E-1,5.65097E-1,7.6509696E-1,2.565097E-1,7.894737E-1,8.9916897E-1,5.030471E-1,8.8088644E-1,8.5096955E-1,6.531856E-1,1.9315556E-2,9.301939E-1,9.268698E-1,-1.1989375E-2,3.9168975E-1,-5.094884E-3,9.34072E-1,5.689751E-1,9.1135734E-1,1.4792244E-1,1.7617728E-1,6.225141E-3,1.1025018E-2,4.4928747E-3,1.5138357E-2,5.9649986E-3,-1.6545126E-2,-8.010189E-3,-2.8744421E-3,-9.662992E-3,-6.9775484E-3,-2.365771E-3,-3.2663743E-3,-5.4243347E-3,-7.159756E-4,-5.897853E-3,-1.3773242E-4,4.0040812E-3,-2.4001897E-4,2.1784424E-3],"split_indices":[349,349,349,349,349,349,158,45,174,349,323,274,27,0,286,73,0,137,0,83,284,312,11,0,0,0,0,0,0,0,0,0,0,0,0,0,0,0,0,0,0,0,0],"split_type":[0,0,0,0,0,0,0,0,0,0,0,0,0,0,0,0,0,0,0,0,0,0,0,0,0,0,0,0,0,0,0,0,0,0,0,0,0,0,0,0,0,0,0],"sum_hessian":[5.2E2,3.42E2,1.78E2,1.62E2,1.8E2,4.5E1,1.33E2,7.1E1,9.1E1,1.12E2,6.8E1,1.9E1,2.6E1,1.8E1,1.15E2,3.8E1,3.3E1,8.5E1,6E0,5.1E1,6.1E1,5.8E1,1E1,4E0,1.5E1,2.4E1,2E0,1.13E2,2E0,3.5E1,3E0,2E0,8.3E1,4.8E1,3E0,4.4E1,1.7E1,5.6E1,2E0,2E0,8E0,1E0,3E0],"tree_param":{"num_deleted":"0","num_feature":"350","num_nodes":"43","size_leaf_vector":"1"}},{"base_weights":[-6.485174E-5,-6.7812264E-2,1.2334565E-1,-1.0475904E-1,-3.3011485E-2,5.2802794E-2,1.3720296E-1,-1.3985933E-1,-8.933169E-2,-5.165944E-2,-1.1231978E-2,2.2673031E-2,6.750538E-2,1.1634296E-1,1.4928016E-1,-1.7156163E-2,-1.245263E-2,-1.0465402E-2,-7.887259E-2,-6.099249E-2,-3.9171576E-2,5.415922E-3,-2.1457486E-2,-1.2010455E-2,3.0810773E-2,1.7662048E-3,6.911445E-3,1.1866904E-2,5.3529157E-3,1.6798856E-2,1.3477171E-2,-8.004439E-3,-2.4849058E-3,-6.312062E-3,-1.9674792E-3,-4.5824493E-3,-2.211736E-3,3.0015826E-3,8.296562E-5,-2.4289594E-3,1.7892182E-3,-2.2801757E-4,-1.5735507E-3,1.1981428E-3,3.4020431E-3],"categories":[],"categories_nodes":[],"categories_segments":[],"categories_sizes":[],"default_left":[0,0,0,0,0,0,0,0,0,0,0,0,0,0,0,0,0,0,0,0,0,0,0,0,0,0,0,0,0,0,0,0,0,0,0,0,0,0,0,0,0,0,0,0,0],"id":7,"left_children":[1,3,5,7,9,11,13,15,17,19,21,23,25,27,29,-1,-1,-1,31,33,35,37,39,41,43,-1,-1,-1,-1,-1,-1,-1,-1,-1,-1,-1,-1,-1,-1,-1,-1,-1,-1,-1,-1],"loss_changes":[4.364311E0,4.2984855E-1,1.73599E-1,7.577133E-2,7.04948E-2,1.2644991E-2,2.14293E-2,1.9685626E-3,1.0335565E-2,8.566529E-3,1.4075336E-2,3.7569944E-3,4.6351552E-4,2.5603771E-3,2.8746128E-3,0E0,0E0,0E0,2.6322305E-3,3.3304542E-3,3.8652718E-3,3.5853917E-3,6.1181616E-3,7.2857685E-5,1.9674469E-4,0E0,0E0,0E0,0E0,0E0,0E0,0E0,0E0,0E0,0E0,0E0,0E0,0E0,0E0,0E0,0E0,0E0,0E0,0E0,0E0],"parents":[2147483647,0,0,1,1,2,2,3,3,4,4,5,5,6,6,7,7,8,8,9,9,10,10,11,11,12,12,13,13,14,14,18,18,19,19,20,20,21,21,22,22,23,23,24,24],"right_children":[2,4,6,8,10,12,14,16,18,20,22,24,26,28,30,-1,-1,-1,32,34,36,38,40,42,44,-1,-1,-1,-1,-1,-1,-1,-1,-1,-1,-1,-1,-1,-1,-1,-1,-1,-1,-1,-1],"split_conditions":[6.703601E-1,4.6648198E-1,7.8836566E-1,5.296399E-1,5.490305E-1,8.6481994E-1,8.7867033E-1,8.731302E-1,4.0831023E-1,5.030471E-1,6.060942E-1,2.1163435E-1,1.900277E-1,8.3490306E-1,1.4459834E-1,-1.7156163E-2,-1.245263E-2,-1.0465402E-2,9.5789474E-1,9.5623267E-1,8.9916897E-1,1.9778393E-1,9.2908585E-1,1.7617728E-1,8.731302E-1,1.7662048E-3,6.911445E-3,1.1866904E-2,5.3529157E-3,1.6798856E-2,1.3477171E-2,-8.004439E-3,-2.4849058E-3,-6.312062E-3,-1.9674792E-3,-4.5824493E-3,-2.211736E-3,3.0015826E-3,8.296562E-5,-2.4289594E-3,1.7892182E-3,-2.2801757E-4,-1.5735507E-3,1.1981428E-3,3.4020431E-3],"split_indices":[349,349,349,81,349,274,349,11,349,349,97,10,14,104,28,0,0,0,45,140,171,25,212,0,323,0,0,0,0,0,0,0,0,0,0,0,0,0,0,0,0,0,0,0,0],"split_type":[0,0,0,0,0,0,0,0,0,0,0,0,0,0,0,0,0,0,0,0,0,0,0,0,0,0,0,0,0,0,0,0,0,0,0,0,0,0,0,0,0,0,0,0,0],"sum_hessian":[5.2E2,3.36E2,1.84E2,1.62E2,1.74E2,3.1E1,1.53E2,4.7E1,1.15E2,9.3E1,8.1E1,1.1E1,2E1,6E1,9.3E1,1.2E1,3.5E1,4.3E1,7.2E1,5.1E1,4.2E1,3.1E1,5E1,2E0,9E0,1E0,1.9E1,5.7E1,3E0,3.6E1,5.7E1,7E1,2E0,4.8E1,3E0,2.9E1,1.3E1,4E0,2.7E1,4.7E1,3E0,1E0,1E0,2E0,7E0],"tree_param":{"num_deleted":"0","num_feature":"350","num_nodes":"45","size_leaf_vector":"1"}},{"base_weights":[-6.646713E-5,-6.1218552E-2,1.1132985E-1,-9.4593346E-2,-2.9782496E-2,4.7881134E-2,1.2379108E-1,-1.2330807E-1,-7.8828365E-2,-4.665384E-2,-1.0078973E-2,2.0638933E-2,6.1168052E-2,1.09902024E-1,1.39308E-1,-1.2760659E-1,-6.621937E-3,-8.642689E-2,-6.37502E-2,-4.9907044E-2,-2.0264706E-2,-1.4919133E-2,1.9398555E-2,-1.1409938E-2,2.81897E-2,6.6569373E-3,3.6569852E-3,1.1410389E-1,7.4481852E-3,5.610027E-3,1.409545E-1,-4.963584E-3,-1.2977608E-2,-8.895443E-3,-3.6283515E-3,-7.036775E-3,-4.2445282E-3,1.7228523E-4,-5.120313E-3,-2.65764E-3,-9.9721554E-5,-1.2651769E-3,-6.2095476E-3,2.7089796E-3,3.2128574E-4,-2.1661818E-4,-1.4948726E-3,3.3991993E-3,1.5589012E-3,3.1356246E-3,1.1479837E-2,4.055172E-3,1.4186134E-2],"categories":[],"categories_nodes":[],"categories_segments":[],"categories_sizes":[],"default_left":[0,0,0,0,0,0,0,0,0,0,0,0,0,0,0,0,0,0,0,0,0,0,0,0,0,0,0,0,0,0,0,0,0,0,0,0,0,0,0,0,0,0,0,0,0,0,0,0,0,0,0,0,0],"id":8,"left_children":[1,3,5,7,9,11,13,15,17,19,21,23,25,27,29,31,-1,33,35,37,39,41,43,45,47,-1,-1,49,-1,-1,51,-1,-1,-1,-1,-1,-1,-1,-1,-1,-1,-1,-1,-1,-1,-1,-1,-1,-1,-1,-1,-1,-1],"loss_changes":[3.5559287E0,3.5075366E-1,1.4034271E-1,6.406772E-2,5.770415E-2,1.03204325E-2,1.787901E-2,5.292177E-3,6.8640113E-3,7.0584714E-3,1.1988839E-2,3.2255664E-3,3.5569072E-4,4.3008327E-3,1.5455484E-3,2.185464E-3,0E0,5.5173635E-3,2.65266E-3,5.64231E-3,1.4328235E-3,6.8089645E-3,1.4068214E-3,6.575338E-5,2.0122714E-4,0E0,0E0,7.1030855E-4,0E0,0E0,3.4749508E-4,0E0,0E0,0E0,0E0,0E0,0E0,0E0,0E0,0E0,0E0,0E0,0E0,0E0,0E0,0E0,0E0,0E0,0E0,0E0,0E0,0E0,0E0],"parents":[2147483647,0,0,1,1,2,2,3,3,4,4,5,5,6,6,7,7,8,8,9,9,10,10,11,11,12,12,13,13,14,14,15,15,17,17,18,18,19,19,20,20,21,21,22,22,23,23,24,24,27,27,30,30],"right_children":[2,4,6,8,10,12,14,16,18,20,22,24,26,28,30,32,-1,34,36,38,40,42,44,46,48,-1,-1,50,-1,-1,52,-1,-1,-1,-1,-1,-1,-1,-1,-1,-1,-1,-1,-1,-1,-1,-1,-1,-1,-1,-1,-1,-1],"split_conditions":[6.703601E-1,4.6648198E-1,7.8836566E-1,3.7783933E-1,5.490305E-1,8.6481994E-1,8.9916897E-1,6E-1,8.5761774E-1,9.235457E-1,8.7534624E-1,2.1163435E-1,8.67036E-1,8.476454E-1,1.368421E-1,4.631579E-1,-6.621937E-3,9.373961E-1,8.7811637E-1,4.398892E-1,7.65651E-1,8.626039E-1,9.67313E-1,1.7617728E-1,7.8448755E-1,6.6569373E-3,3.6569852E-3,9.584487E-2,7.4481852E-3,5.610027E-3,2.7146814E-2,-4.963584E-3,-1.2977608E-2,-8.895443E-3,-3.6283515E-3,-7.036775E-3,-4.2445282E-3,1.7228523E-4,-5.120313E-3,-2.65764E-3,-9.9721554E-5,-1.2651769E-3,-6.2095476E-3,2.7089796E-3,3.2128574E-4,-2.1661818E-4,-1.4948726E-3,3.3991993E-3,1.5589012E-3,3.1356246E-3,1.1479837E-2,4.055172E-3,1.4186134E-2],"split_indices":[349,349,349,349,349,274,349,331,143,179,324,10,261,171,88,203,0,45,161,196,8,250,289,0,245,0,0,81,0,0,53,0,0,0,0,0,0,0,0,0,0,0,0,0,0,0,0,0,0,0,0,0,0],"split_type":[0,0,0,0,0,0,0,0,0,0,0,0,0,0,0,0,0,0,0,0,0,0,0,0,0,0,0,0,0,0,0,0,0,0,0,0,0,0,0,0,0,0,0,0,0,0,0,0,0,0,0,0,0],"sum_hessian":[5.2E2,3.36E2,1.84E2,1.62E2,1.74E2,3.1E1,1.53E2,5.5E1,1.07E2,9.3E1,8.1E1,1.1E1,2E1,8.5E1,6.8E1,5E1,5E0,6.8E1,3.9E1,8.2E1,1.1E1,7E1,1.1E1,2E0,9E0,1.5E1,5E0,7.4E1,1.1E1,2E0,6.6E1,2E0,4.8E1,6.4E1,4E0,2.8E1,1.1E1,2E0,8E1,8E0,3E0,6.8E1,2E0,7E0,4E0,1E0,1E0,5E0,4E0,1E0,7.3E1,1E0,6.5E1],"tree_param":{"num_deleted":"0","num_feature":"350","num_nodes":"53","size_leaf_vector":"1"}},{"base_weights":[-6.182329E-5,-5.527627E-2,1.00518346E-1,-8.543075E-2,-2.6873665E-2,4.3516785E-2,1.1171011E-1,-1.1511573E-1,-7.241084E-2,-4.2070407E-2,-9.125282E-3,1.8845594E-2,5.554238E-2,1.0298422E-1,1.332477E-1,-1.4405987E-2,-1.0146603E-2,-8.723643E-2,-6.436294E-2,-5.0030585E-2,-3.1465765E-2,3.720401E-3,-1.9259304E-2,-1.0839443E-2,2.5866544E-2,2.2399644E-3,5.785216E-3,7.1515227E-3,1.0667472E-1,5.2641034E-3,1.3603161E-2,-9.071134E-3,-3.502185E-3,-2.3065885E-3,-6.625791E-3,-5.2109133E-3,-1.2060732E-3,-3.6109486E-3,-1.2530548E-3,-2.879998E-4,1.7711231E-3,-2.8890197E-3,-6.418231E-4,-2.0578802E-4,-1.4201284E-3,3.1159332E-3,1.4341892E-3,7.508301E-3,1.0973569E-2],"categories":[],"categories_nodes":[],"categories_segments":[],"categories_sizes":[],"default_left":[0,0,0,0,0,0,0,0,0,0,0,0,0,0,0,0,0,0,0,0,0,0,0,0,0,0,0,0,0,0,0,0,0,0,0,0,0,0,0,0,0,0,0,0,0,0,0,0,0],"id":9,"left_children":[1,3,5,7,9,11,13,15,17,19,21,23,25,27,29,-1,-1,31,33,35,37,39,41,43,45,-1,-1,-1,47,-1,-1,-1,-1,-1,-1,-1,-1,-1,-1,-1,-1,-1,-1,-1,-1,-1,-1,-1,-1],"loss_changes":[2.8989186E0,2.8633308E-1,1.1315918E-1,5.466318E-2,4.6816677E-2,8.447215E-3,1.5219569E-2,4.346609E-3,8.225739E-3,6.3607395E-3,1.07462825E-2,2.7813846E-3,3.117323E-4,5.6107044E-3,2.0396113E-3,0E0,0E0,3.7178695E-3,4.6539605E-3,3.4754872E-3,3.328506E-3,3.4677756E-3,5.503442E-3,5.93421E-5,1.6309181E-4,0E0,0E0,0E0,1.4308691E-3,0E0,0E0,0E0,0E0,0E0,0E0,0E0,0E0,0E0,0E0,0E0,0E0,0E0,0E0,0E0,0E0,0E0,0E0,0E0,0E0],"parents":[2147483647,0,0,1,1,2,2,3,3,4,4,5,5,6,6,7,7,8,8,9,9,10,10,11,11,12,12,13,13,14,14,17,17,18,18,19,19,20,20,21,21,22,22,23,23,24,24,28,28],"right_children":[2,4,6,8,10,12,14,16,18,20,22,24,26,28,30,-1,-1,32,34,36,38,40,42,44,46,-1,-1,-1,48,-1,-1,-1,-1,-1,-1,-1,-1,-1,-1,-1,-1,-1,-1,-1,-1,-1,-1,-1,-1],"split_conditions":[6.703601E-1,4.6648198E-1,7.8836566E-1,5.296399E-1,5.490305E-1,8.6481994E-1,9.180055E-1,8.731302E-1,4.875346E-1,5.030471E-1,8.2936287E-1,2.1163435E-1,7.933518E-1,7.130194E-1,1.501385E-1,-1.4405987E-2,-1.0146603E-2,9.373961E-1,3.8171744E-1,9.373961E-1,8.7534624E-1,8.7534624E-1,9.1135734E-1,1.7617728E-1,7.8448755E-1,2.2399644E-3,5.785216E-3,7.1515227E-3,5.9279777E-2,5.2641034E-3,1.3603161E-2,-9.071134E-3,-3.502185E-3,-2.3065885E-3,-6.625791E-3,-5.2109133E-3,-1.2060732E-3,-3.6109486E-3,-1.2530548E-3,-2.879998E-4,1.7711231E-3,-2.8890197E-3,-6.418231E-4,-2.0578802E-4,-1.4201284E-3,3.1159332E-3,1.4341892E-3,7.508301E-3,1.0973569E-2],"split_indices":[349,349,349,81,349,274,349,11,195,349,155,10,193,238,122,0,0,92,315,216,38,324,41,0,245,0,0,0,41,0,0,0,0,0,0,0,0,0,0,0,0,0,0,0,0,0,0,0,0],"split_type":[0,0,0,0,0,0,0,0,0,0,0,0,0,0,0,0,0,0,0,0,0,0,0,0,0,0,0,0,0,0,0,0,0,0,0,0,0,0,0,0,0,0,0,0,0,0,0,0,0],"sum_hessian":[5.2E2,3.36E2,1.84E2,1.62E2,1.74E2,3.1E1,1.53E2,4.7E1,1.15E2,9.3E1,8.1E1,1.1E1,2E1,1.13E2,4E1,1.2E1,3.5E1,3.7E1,7.8E1,5.1E1,4.2E1,3.6E1,4.5E1,2E0,9E0,2E0,1.8E1,1.4E1,9.9E1,2E0,3.8E1,3.4E1,3E0,4E0,7.4E1,4.8E1,3E0,3.3E1,9E0,2.5E1,1.1E1,2.5E1,2E1,1E0,1E0,5E0,4E0,1.1E1,8.8E1],"tree_param":{"num_deleted":"0","num_feature":"350","num_nodes":"49","size_leaf_vector":"1"}},{"base_weights":[-6.3193336E-5,-4.992486E-2,9.0766236E-2,-7.8197345E-2,-2.5125386E-2,3.5110544E-2,1.000548E-1,-1.0411567E-1,-6.617664E-2,-3.741011E-2,-6.438258E-3,4.0142648E-2,-5.117744E-3,7.003871E-2,1.04908146E-1,-9.029883E-3,-1.2849281E-2,-8.093328E-2,-5.82111E-2,-4.5682993E-2,-2.7463244E-2,8.699251E-3,-1.31387375E-2,4.521766E-3,2.0632956E-3,2.1704833E-3,-1.3491213E-3,7.236842E-3,2.8831402E-3,7.0706867E-3,1.07998304E-1,-3.9617973E-3,-8.485964E-3,-6.527473E-3,-4.4023055E-3,-4.920471E-3,-2.3858293E-3,-3.0346017E-3,-4.5959867E-4,-3.5416783E-4,1.4276013E-3,-2.653324E-3,-5.6610967E-4,-1.9549728E-4,5.210698E-4,1.2469332E-2,1.0004057E-2],"categories":[],"categories_nodes":[],"categories_segments":[],"categories_sizes":[],"default_left":[0,0,0,0,0,0,0,0,0,0,0,0,0,0,0,0,0,0,0,0,0,0,0,0,0,0,0,0,0,0,0,0,0,0,0,0,0,0,0,0,0,0,0,0,0,0,0],"id":10,"left_children":[1,3,5,7,9,11,13,15,17,19,21,23,25,27,29,-1,-1,31,33,35,37,39,41,-1,-1,43,-1,-1,-1,-1,45,-1,-1,-1,-1,-1,-1,-1,-1,-1,-1,-1,-1,-1,-1,-1,-1],"loss_changes":[2.3640919E0,2.3432034E-1,9.212494E-2,4.2024434E-2,4.131064E-2,5.8735646E-3,1.5669465E-2,4.564345E-3,8.218706E-3,7.714927E-3,7.518583E-3,1.5423186E-3,2.7339344E-4,3.1353533E-4,6.5259933E-3,0E0,0E0,2.4778843E-3,4.642844E-3,3.2839552E-3,3.2884255E-3,1.6206502E-3,4.957917E-3,0E0,0E0,4.7813584E-5,0E0,0E0,0E0,0E0,3.600955E-3,0E0,0E0,0E0,0E0,0E0,0E0,0E0,0E0,0E0,0E0,0E0,0E0,0E0,0E0,0E0,0E0],"parents":[2147483647,0,0,1,1,2,2,3,3,4,4,5,5,6,6,7,7,8,8,9,9,10,10,11,11,12,12,13,13,14,14,17,17,18,18,19,19,20,20,21,21,22,22,25,25,30,30],"right_children":[2,4,6,8,10,12,14,16,18,20,22,24,26,28,30,-1,-1,32,34,36,38,40,42,-1,-1,44,-1,-1,-1,-1,46,-1,-1,-1,-1,-1,-1,-1,-1,-1,-1,-1,-1,-1,-1,-1,-1],"split_conditions":[6.703601E-1,4.631579E-1,7.67867E-1,5.296399E-1,5.5401665E-1,9.645429E-1,7.257618E-1,4.6149585E-1,7.8116345E-1,5.030471E-1,4.2825484E-1,7.66759E-1,3.9556786E-1,6.531856E-1,6.426593E-2,-9.029883E-3,-1.2849281E-2,3.9390582E-1,6.8753463E-1,8.7756234E-1,9.1468143E-1,9.584487E-2,7.2742385E-1,4.521766E-3,2.0632956E-3,1.7617728E-1,-1.3491213E-3,7.236842E-3,2.8831402E-3,7.0706867E-3,7.257618E-1,-3.9617973E-3,-8.485964E-3,-6.527473E-3,-4.4023055E-3,-4.920471E-3,-2.3858293E-3,-3.0346017E-3,-4.5959867E-4,-3.5416783E-4,1.4276013E-3,-2.653324E-3,-5.6610967E-4,-1.9549728E-4,5.210698E-4,1.2469332E-2,1.0004057E-2],"split_indices":[349,349,349,81,349,294,239,287,24,349,102,246,0,27,42,0,0,220,159,189,80,86,210,0,0,0,0,0,0,0,209,0,0,0,0,0,0,0,0,0,0,0,0,0,0,0,0],"split_type":[0,0,0,0,0,0,0,0,0,0,0,0,0,0,0,0,0,0,0,0,0,0,0,0,0,0,0,0,0,0,0,0,0,0,0,0,0,0,0,0,0,0,0,0,0,0,0],"sum_hessian":[5.2E2,3.36E2,1.84E2,1.56E2,1.8E2,2.7E1,1.57E2,4.7E1,1.09E2,1.08E2,7.2E1,2.4E1,3E0,2.4E1,1.33E2,3.3E1,1.4E1,3.5E1,7.4E1,5.7E1,5.1E1,2.2E1,5E1,1.8E1,6E0,2E0,1E0,2.2E1,2E0,1.3E1,1.2E2,4E0,3.1E1,4.7E1,2.7E1,4.8E1,9E0,4.5E1,6E0,7E0,1.5E1,1.7E1,3.3E1,1E0,1E0,3.4E1,8.6E1],"tree_param":{"num_deleted":"0","num_feature":"350","num_nodes":"47","size_leaf_vector":"1"}},{"base_weights":[-8.177866E-5,-4.5866907E-2,8.058769E-2,-7.470578E-2,-2.6556278E-2,3.0112976E-2,9.030037E-2,-1.00477E-1,-6.447649E-2,-3.9640877E-2,-1.1240391E-2,8.840358E-3,3.805268E-2,8.293346E-2,1.09300226E-1,-1.10321855E-2,-5.8684456E-3,-6.7991175E-2,-4.049585E-2,-2.5309924E-2,-4.5081783E-2,5.9276735E-3,-1.5960513E-2,1.745872E-2,-8.451864E-3,4.0122993E-2,1.0876278E-3,8.5475385E-2,5.0436985E-3,4.246227E-3,1.1163904E-2,-5.767698E-3,-8.0141295E-3,-4.5870263E-3,-2.0572972E-3,-4.5843126E-4,-2.8978211E-3,-4.862305E-3,-2.1848008E-3,2.087362E-3,2.2770364E-4,-1.1928327E-3,-4.7734994E-3,4.950166E-4,1.8718451E-3,-1.2816668E-3,-2.7247073E-4,1.6602576E-3,4.1725007E-3,8.804707E-3,5.9909527E-3],"categories":[],"categories_nodes":[],"categories_segments":[],"categories_sizes":[],"default_left":[0,0,0,0,0,0,0,0,0,0,0,0,0,0,0,0,0,0,0,0,0,0,0,0,0,0,0,0,0,0,0,0,0,0,0,0,0,0,0,0,0,0,0,0,0,0,0,0,0,0,0],"id":11,"left_children":[1,3,5,7,9,11,13,15,17,19,21,23,25,27,29,-1,-1,31,33,35,37,39,41,43,45,47,-1,49,-1,-1,-1,-1,-1,-1,-1,-1,-1,-1,-1,-1,-1,-1,-1,-1,-1,-1,-1,-1,-1,-1,-1],"loss_changes":[1.9279901E0,1.8346274E-1,8.993709E-2,2.8583169E-2,3.983526E-2,5.068345E-3,1.3050556E-2,8.337706E-3,5.5064857E-3,7.2801113E-3,7.711931E-3,1.6378651E-3,8.5766986E-4,5.4361224E-3,1.6687214E-3,0E0,0E0,5.9044957E-3,6.6241995E-4,2.3000352E-3,5.2729994E-3,1.0982768E-3,8.911526E-3,1.764251E-5,6.5069995E-5,9.8537654E-5,0E0,1.8258095E-3,0E0,0E0,0E0,0E0,0E0,0E0,0E0,0E0,0E0,0E0,0E0,0E0,0E0,0E0,0E0,0E0,0E0,0E0,0E0,0E0,0E0,0E0,0E0],"parents":[2147483647,0,0,1,1,2,2,3,3,4,4,5,5,6,6,7,7,8,8,9,9,10,10,11,11,12,12,13,13,14,14,17,17,18,18,19,19,20,20,21,21,22,22,23,23,24,24,25,25,27,27],"right_children":[2,4,6,8,10,12,14,16,18,20,22,24,26,28,30,-1,-1,32,34,36,38,40,42,44,46,48,-1,50,-1,-1,-1,-1,-1,-1,-1,-1,-1,-1,-1,-1,-1,-1,-1,-1,-1,-1,-1,-1,-1,-1,-1],"split_conditions":[6.459834E-1,4.4210526E-1,7.67867E-1,4.8421052E-1,5.3074795E-1,8.5096955E-1,9.180055E-1,5.490305E-1,9.0193903E-1,4.8421052E-1,4.2825484E-1,9.1468143E-1,9.268698E-1,8.1163436E-1,1.501385E-1,-1.10321855E-2,-5.8684456E-3,4.8421052E-1,9.036011E-1,4.2216066E-1,8.9916897E-1,1.9224377E-1,5.689751E-1,1.0581718E-1,2.2493075E-1,9.7506925E-2,1.0876278E-3,9.091413E-1,5.0436985E-3,4.246227E-3,1.1163904E-2,-5.767698E-3,-8.0141295E-3,-4.5870263E-3,-2.0572972E-3,-4.5843126E-4,-2.8978211E-3,-4.862305E-3,-2.1848008E-3,2.087362E-3,2.2770364E-4,-1.1928327E-3,-4.7734994E-3,4.950166E-4,1.8718451E-3,-1.2816668E-3,-2.7247073E-4,1.6602576E-3,4.1725007E-3,8.804707E-3,5.9909527E-3],"split_indices":[349,349,349,94,349,274,349,310,247,249,102,291,265,67,122,0,0,322,240,244,185,19,284,18,9,84,0,285,0,0,0,0,0,0,0,0,0,0,0,0,0,0,0,0,0,0,0,0,0,0,0],"split_type":[0,0,0,0,0,0,0,0,0,0,0,0,0,0,0,0,0,0,0,0,0,0,0,0,0,0,0,0,0,0,0,0,0,0,0,0,0,0,0,0,0,0,0,0,0,0,0,0,0,0,0],"sum_hessian":[5.2E2,3.32E2,1.88E2,1.32E2,2E2,3.1E1,1.57E2,3.5E1,9.7E1,1.07E2,9.3E1,9E0,2.2E1,1.17E2,4E1,2.7E1,8E0,8.3E1,1.4E1,3.1E1,7.6E1,2E1,7.3E1,6E0,3E0,2E1,2E0,1.07E2,1E1,2E0,3.8E1,4.8E1,3.5E1,1E1,4E0,5E0,2.6E1,6.5E1,1.1E1,3E0,1.7E1,6.6E1,7E0,1E0,5E0,1E0,2E0,2E0,1.8E1,9.5E1,1.2E1],"tree_param":{"num_deleted":"0","num_feature":"350","num_nodes":"51","size_leaf_vector":"1"}},{"base_weights":[-8.971723E-5,-4.1785106E-2,7.216821E-2,-7.190784E-2,-2.687406E-2,2.4944415E-2,8.1161916E-2,-1.0525105E-2,-6.5467425E-2,-4.062821E-2,-1.3366774E-2,-7.668808E-3,2.8582638E-2,6.844295E-2,9.0293966E-2,-6.756216E-2,-2.978116E-3,-4.2075187E-2,-8.534725E-3,-1.7738156E-3,-1.9371461E-2,-1.2175828E-3,-2.1078587E-4,3.4374315E-2,1.4141023E-2,6.975227E-2,2.9073686E-3,1.1982623E-2,8.421431E-2,-5.8117546E-3,-7.845988E-3,-1.1434804E-3,-4.3492857E-3,-1.5405946E-3,3.4718117E-4,-2.9773884E-3,1.3011598E-4,-1.6235373E-3,-5.2730585E-3,1.5235738E-3,3.685549E-3,1.6177496E-3,-2.0936131E-4,1.6192734E-3,7.0309984E-3,8.478268E-3,2.0225167E-3],"categories":[],"categories_nodes":[],"categories_segments":[],"categories_sizes":[],"default_left":[0,0,0,0,0,0,0,0,0,0,0,0,0,0,0,0,0,0,0,0,0,0,0,0,0,0,0,0,0,0,0,0,0,0,0,0,0,0,0,0,0,0,0,0,0,0,0],"id":12,"left_children":[1,3,5,7,9,11,13,-1,15,17,19,21,23,25,27,29,-1,31,33,35,37,-1,-1,39,41,43,-1,-1,45,-1,-1,-1,-1,-1,-1,-1,-1,-1,-1,-1,-1,-1,-1,-1,-1,-1,-1],"loss_changes":[1.5726959E0,1.4674002E-1,7.9096496E-2,1.6516626E-2,4.088615E-2,4.0161293E-3,1.2404084E-2,0E0,5.014688E-3,4.749149E-3,7.901417E-3,7.4588315E-5,1.9395072E-3,1.631856E-3,6.068051E-3,4.4974983E-3,0E0,4.063651E-3,5.484839E-4,3.4827215E-3,6.990187E-3,0E0,0E0,3.8820133E-4,3.6448333E-4,8.9269876E-4,0E0,0E0,1.1220574E-3,0E0,0E0,0E0,0E0,0E0,0E0,0E0,0E0,0E0,0E0,0E0,0E0,0E0,0E0,0E0,0E0,0E0,0E0],"parents":[2147483647,0,0,1,1,2,2,3,3,4,4,5,5,6,6,8,8,9,9,10,10,11,11,12,12,13,13,14,14,15,15,17,17,18,18,19,19,20,20,23,23,24,24,25,25,28,28],"right_children":[2,4,6,8,10,12,14,-1,16,18,20,22,24,26,28,30,-1,32,34,36,38,-1,-1,40,42,44,-1,-1,46,-1,-1,-1,-1,-1,-1,-1,-1,-1,-1,-1,-1,-1,-1,-1,-1,-1,-1],"split_conditions":[6.3102496E-1,4.2548478E-1,7.6509696E-1,6.65928E-1,5.069252E-1,8.7534624E-1,8.831025E-1,-1.0525105E-2,8.836565E-1,9.5789474E-1,6.65928E-1,2.2493075E-1,7.66759E-1,9.301939E-1,6.531856E-1,4.875346E-1,-2.978116E-3,4.6759003E-1,8.0941826E-1,4.4210526E-1,6E-1,-1.2175828E-3,-2.1078587E-4,9.7506925E-2,6.0166204E-1,6.0387813E-2,2.9073686E-3,1.1982623E-2,6.531856E-1,-5.8117546E-3,-7.845988E-3,-1.1434804E-3,-4.3492857E-3,-1.5405946E-3,3.4718117E-4,-2.9773884E-3,1.3011598E-4,-1.6235373E-3,-5.2730585E-3,1.5235738E-3,3.685549E-3,1.6177496E-3,-2.0936131E-4,1.6192734E-3,7.0309984E-3,8.478268E-3,2.0225167E-3],"split_indices":[349,349,349,42,349,309,349,0,130,83,98,9,246,285,202,322,0,107,3,264,335,0,0,84,1,30,0,0,44,0,0,0,0,0,0,0,0,0,0,0,0,0,0,0,0,0,0],"split_type":[0,0,0,0,0,0,0,0,0,0,0,0,0,0,0,0,0,0,0,0,0,0,0,0,0,0,0,0,0,0,0,0,0,0,0,0,0,0,0,0,0,0,0,0,0,0,0],"sum_hessian":[5.2E2,3.3E2,1.9E2,1.08E2,2.22E2,3.1E1,1.59E2,1.5E1,9.3E1,1.09E2,1.13E2,3E0,2.8E1,7E1,8.9E1,8.7E1,6E0,1.04E2,5E0,3.9E1,7.4E1,1E0,2E0,1.9E1,9E0,6.7E1,3E0,1.2E1,7.7E1,5E1,3.7E1,5E0,9.9E1,3E0,2E0,3E0,3.6E1,6.9E1,5E0,3E0,1.6E1,8E0,1E0,1E0,6.6E1,7.6E1,1E0],"tree_param":{"num_deleted":"0","num_feature":"350","num_nodes":"47","size_leaf_vector":"1"}},{"base_weights":[-8.912284E-5,-3.7738293E-2,6.5156765E-2,-6.108725E-2,-2.1943575E-2,2.4102014E-2,7.357895E-2,-8.290691E-2,-5.2448522E-2,-3.2225724E-2,-9.634708E-3,-7.259026E-3,2.7371114E-2,5.1448755E-2,7.754816E-2,-9.114159E-3,-4.807604E-3,-5.535524E-2,-3.267435E-2,-2.000817E-2,-3.6884632E-2,-8.047382E-3,-5.4042893E-3,-1.1567026E-3,-1.9673507E-4,3.4311708E-2,1.5121698E-2,5.2343807E-3,1.408869E-3,5.357339E-2,8.0863714E-2,-4.6635526E-3,-6.517121E-3,-1.57839E-3,-3.7381432E-3,-2.4867414E-3,-6.831092E-4,-3.8997051E-3,-1.0189473E-3,-1.3802967E-3,1.8383721E-4,1.8152321E-3,3.7410725E-3,1.7524756E-3,1.2699167E-4,1.4581115E-3,5.492957E-3,9.737768E-3,7.4083917E-3],"categories":[],"categories_nodes":[],"categories_segments":[],"categories_sizes":[],"default_left":[0,0,0,0,0,0,0,0,0,0,0,0,0,0,0,0,0,0,0,0,0,0,0,0,0,0,0,0,0,0,0,0,0,0,0,0,0,0,0,0,0,0,0,0,0,0,0,0,0],"id":13,"left_children":[1,3,5,7,9,11,13,15,17,19,21,23,25,27,29,-1,-1,31,33,35,37,39,-1,-1,-1,41,43,-1,-1,45,47,-1,-1,-1,-1,-1,-1,-1,-1,-1,-1,-1,-1,-1,-1,-1,-1,-1,-1],"loss_changes":[1.2822713E0,1.2072915E-1,6.426877E-2,2.0721346E-2,2.4875276E-2,3.68445E-3,9.888947E-3,5.943805E-3,3.8241446E-3,5.4094195E-3,6.0501983E-3,6.842977E-5,2.1167137E-3,1.6540289E-4,6.160438E-3,0E0,0E0,4.15048E-3,6.025471E-4,1.8791091E-3,3.944762E-3,5.1462213E-3,0E0,0E0,0E0,2.7239323E-4,4.1047134E-4,0E0,0E0,2.0379573E-4,5.5494905E-3,0E0,0E0,0E0,0E0,0E0,0E0,0E0,0E0,0E0,0E0,0E0,0E0,0E0,0E0,0E0,0E0,0E0,0E0],"parents":[2147483647,0,0,1,1,2,2,3,3,4,4,5,5,6,6,7,7,8,8,9,9,10,10,11,11,12,12,13,13,14,14,17,17,18,18,19,19,20,20,21,21,25,25,26,26,29,29,30,30],"right_children":[2,4,6,8,10,12,14,16,18,20,22,24,26,28,30,-1,-1,32,34,36,38,40,-1,-1,-1,42,44,-1,-1,46,48,-1,-1,-1,-1,-1,-1,-1,-1,-1,-1,-1,-1,-1,-1,-1,-1,-1,-1],"split_conditions":[6.3102496E-1,4.4210526E-1,7.67867E-1,4.8421052E-1,5.3074795E-1,8.7534624E-1,7.495845E-1,5.490305E-1,9.0193903E-1,4.8421052E-1,9.6121883E-1,2.2493075E-1,7.268698E-1,4.1385043E-1,9.584487E-2,-9.114159E-3,-4.807604E-3,4.836565E-1,4.437673E-1,8.925208E-1,9.5789474E-1,5.8559555E-1,-5.4042893E-3,-1.1567026E-3,-1.9673507E-4,5.905817E-1,8.0110806E-1,5.2343807E-3,1.408869E-3,5.9279777E-2,7.157895E-1,-4.6635526E-3,-6.517121E-3,-1.57839E-3,-3.7381432E-3,-2.4867414E-3,-6.831092E-4,-3.8997051E-3,-1.0189473E-3,-1.3802967E-3,1.8383721E-4,1.8152321E-3,3.7410725E-3,1.7524756E-3,1.2699167E-4,1.4581115E-3,5.492957E-3,9.737768E-3,7.4083917E-3],"split_indices":[349,349,349,94,349,309,241,310,247,249,146,9,246,0,43,0,0,322,339,38,140,349,0,0,0,342,241,0,0,0,203,0,0,0,0,0,0,0,0,0,0,0,0,0,0,0,0,0,0],"split_type":[0,0,0,0,0,0,0,0,0,0,0,0,0,0,0,0,0,0,0,0,0,0,0,0,0,0,0,0,0,0,0,0,0,0,0,0,0,0,0,0,0,0,0,0,0,0,0,0,0],"sum_hessian":[5.2E2,3.3E2,1.9E2,1.32E2,1.98E2,3.3E1,1.57E2,3.5E1,9.7E1,1.07E2,9.1E1,3E0,3E1,2.6E1,1.31E2,2.7E1,8E0,8.3E1,1.4E1,3.1E1,7.6E1,8.9E1,2E0,1E0,2E0,1.8E1,1.2E1,2.5E1,1E0,1.8E1,1.13E2,4.7E1,3.6E1,4E0,1E1,2.2E1,9E0,7E1,6E0,5.6E1,3.3E1,4E0,1.4E1,1E1,2E0,1E0,1.7E1,2.9E1,8.4E1],"tree_param":{"num_deleted":"0","num_feature":"350","num_nodes":"49","size_leaf_vector":"1"}},{"base_weights":[-9.6111515E-5,-3.410074E-2,5.883388E-2,-5.231216E-2,-1.7567633E-2,2.0475185E-2,6.61379E-2,-7.7158235E-2,-4.6080172E-2,-2.5546681E-2,-6.837733E-3,-6.871477E-3,2.3541097E-2,4.638779E-2,6.99759E-2,-7.992008E-3,-2.5661597E-3,-4.8077594E-2,-2.0464204E-2,-2.7749525E-2,-5.200982E-3,-4.82058E-3,-4.194134E-3,-1.0988683E-3,-1.8361807E-4,2.8326776E-2,1.1615628E-2,3.032136E-3,5.0121594E-2,4.858187E-2,7.292775E-2,-1.2779519E-3,-4.952636E-3,-8.6627854E-4,-2.8854923E-3,-4.878824E-3,-2.4809565E-3,-1.1056261E-3,4.0366055E-4,-1.337038E-4,-2.2417167E-3,9.773275E-4,2.984532E-3,1.3362349E-3,-2.0524264E-4,1.4247418E-3,5.115144E-3,1.2636603E-3,4.9876794E-3,9.315962E-3,6.790075E-3],"categories":[],"categories_nodes":[],"categories_segments":[],"categories_sizes":[],"default_left":[0,0,0,0,0,0,0,0,0,0,0,0,0,0,0,0,0,0,0,0,0,0,0,0,0,0,0,0,0,0,0,0,0,0,0,0,0,0,0,0,0,0,0,0,0,0,0,0,0,0,0],"id":14,"left_children":[1,3,5,7,9,11,13,15,17,19,21,23,25,27,29,-1,-1,31,33,35,37,39,-1,-1,-1,41,43,-1,45,47,49,-1,-1,-1,-1,-1,-1,-1,-1,-1,-1,-1,-1,-1,-1,-1,-1,-1,-1,-1,-1],"loss_changes":[1.0460342E0,9.874228E-2,5.2158833E-2,2.0754457E-2,1.4807835E-2,2.844721E-3,8.882105E-3,2.215892E-3,5.565375E-3,4.337512E-3,5.179328E-3,6.274819E-5,1.3260394E-3,2.1992251E-4,4.7931075E-3,0E0,0E0,5.4014623E-3,8.392823E-4,4.3563545E-3,6.39605E-4,4.444815E-3,0E0,0E0,0E0,2.7179904E-4,2.661678E-4,0E0,8.401275E-5,2.5411323E-4,5.268812E-3,0E0,0E0,0E0,0E0,0E0,0E0,0E0,0E0,0E0,0E0,0E0,0E0,0E0,0E0,0E0,0E0,0E0,0E0,0E0,0E0],"parents":[2147483647,0,0,1,1,2,2,3,3,4,4,5,5,6,6,7,7,8,8,9,9,10,10,11,11,12,12,13,13,14,14,17,17,18,18,19,19,20,20,21,21,25,25,26,26,28,28,29,29,30,30],"right_children":[2,4,6,8,10,12,14,16,18,20,22,24,26,28,30,-1,-1,32,34,36,38,40,-1,-1,-1,42,44,-1,46,48,50,-1,-1,-1,-1,-1,-1,-1,-1,-1,-1,-1,-1,-1,-1,-1,-1,-1,-1,-1,-1],"split_conditions":[6.3102496E-1,4.631579E-1,7.6509696E-1,3.2963988E-1,5.490305E-1,8.7534624E-1,7.495845E-1,8.5096955E-1,9.229917E-1,9.157895E-1,8.476454E-1,2.2493075E-1,7.66759E-1,7.1468145E-1,9.584487E-2,-7.992008E-3,-2.5661597E-3,4.0055403E-1,8.088643E-1,4.204986E-1,7.1135736E-1,8.9529085E-1,-4.194134E-3,-1.0988683E-3,-1.8361807E-4,1.8171746E-1,6.0166204E-1,3.032136E-3,1.8448754E-1,6.0387813E-2,7.096953E-1,-1.2779519E-3,-4.952636E-3,-8.6627854E-4,-2.8854923E-3,-4.878824E-3,-2.4809565E-3,-1.1056261E-3,4.0366055E-4,-1.337038E-4,-2.2417167E-3,9.773275E-4,2.984532E-3,1.3362349E-3,-2.0524264E-4,1.4247418E-3,5.115144E-3,1.2636603E-3,4.9876794E-3,9.315962E-3,6.790075E-3],"split_indices":[349,349,349,349,349,309,241,73,251,171,250,9,246,141,43,0,0,202,24,329,99,12,0,0,0,31,1,0,11,30,210,0,0,0,0,0,0,0,0,0,0,0,0,0,0,0,0,0,0,0,0],"split_type":[0,0,0,0,0,0,0,0,0,0,0,0,0,0,0,0,0,0,0,0,0,0,0,0,0,0,0,0,0,0,0,0,0,0,0,0,0,0,0,0,0,0,0,0,0,0,0,0,0,0,0],"sum_hessian":[5.2E2,3.3E2,1.9E2,1.56E2,1.74E2,3.1E1,1.59E2,2.9E1,1.27E2,9.9E1,7.5E1,3E0,2.8E1,2.8E1,1.31E2,2.7E1,2E0,1.17E2,1E1,8.9E1,1E1,7.2E1,3E0,1E0,2E0,1.9E1,9E0,7E0,2.1E1,1.8E1,1.13E2,5E0,1.12E2,5E0,5E0,9E0,8E1,6E0,4E0,6.1E1,1.1E1,2E0,1.7E1,8E0,1E0,1E0,2E1,1E0,1.7E1,1.9E1,9.4E1],"tree_param":{"num_deleted":"0","num_feature":"350","num_nodes":"51","size_leaf_vector":"1"}},{"base_weights":[-8.541151E-5,-3.079692E-2,5.3137597E-2,-5.2662518E-2,-1.9374046E-2,2.766803E-2,6.221817E-2,-8.1391074E-2,-4.777776E-2,-2.9909909E-2,-1.010259E-2,1.3189822E-2,3.5604276E-2,8.29759E-3,5.8272943E-2,-2.971088E-3,-8.705641E-3,-4.933703E-2,-1.5386288E-2,-3.1320155E-2,-2.1259238E-3,1.9575497E-3,-1.4422381E-2,-6.504938E-3,1.7048012E-2,4.055773E-2,2.2010296E-3,1.9013643E-3,5.9109926E-2,-2.1551342E-3,-5.098661E-3,-3.9228352E-4,-1.6894412E-3,-2.8339273E-3,-4.84013E-3,-8.8094844E-4,7.4941316E-4,6.5276964E-4,-2.4026781E-3,-2.1281927E-3,-5.0171284E-4,-1.0439247E-3,-1.7137527E-4,2.7308761E-4,1.9920906E-3,8.5814E-4,4.1621136E-3,4.6249996E-3,6.2596905E-3],"categories":[],"categories_nodes":[],"categories_segments":[],"categories_sizes":[],"default_left":[0,0,0,0,0,0,0,0,0,0,0,0,0,0,0,0,0,0,0,0,0,0,0,0,0,0,0,0,0,0,0,0,0,0,0,0,0,0,0,0,0,0,0,0,0,0,0,0,0],"id":15,"left_children":[1,3,5,7,9,11,13,15,17,19,21,23,25,-1,27,-1,-1,29,31,33,35,37,39,41,43,45,-1,-1,47,-1,-1,-1,-1,-1,-1,-1,-1,-1,-1,-1,-1,-1,-1,-1,-1,-1,-1,-1,-1],"loss_changes":[8.532417E-1,8.165294E-2,4.2452693E-2,1.1968821E-2,2.1090366E-2,5.5053234E-3,6.6298842E-3,1.8052682E-3,4.241064E-3,3.93001E-3,6.1757127E-3,1.6306182E-3,1.3294406E-3,0E0,2.852112E-3,0E0,0E0,3.2096356E-3,3.745593E-5,3.5672858E-3,4.5179678E-4,3.95691E-3,5.5060964E-3,5.7509722E-5,6.448361E-4,4.249178E-4,0E0,0E0,2.3962855E-3,0E0,0E0,0E0,0E0,0E0,0E0,0E0,0E0,0E0,0E0,0E0,0E0,0E0,0E0,0E0,0E0,0E0,0E0,0E0,0E0],"parents":[2147483647,0,0,1,1,2,2,3,3,4,4,5,5,6,6,7,7,8,8,9,9,10,10,11,11,12,12,14,14,17,17,18,18,19,19,20,20,21,21,22,22,23,23,24,24,25,25,28,28],"right_children":[2,4,6,8,10,12,14,16,18,20,22,24,26,-1,28,-1,-1,30,32,34,36,38,40,42,44,46,-1,-1,48,-1,-1,-1,-1,-1,-1,-1,-1,-1,-1,-1,-1,-1,-1,-1,-1,-1,-1,-1,-1],"split_conditions":[6.3102496E-1,4.2880887E-1,8.3102494E-1,6.65928E-1,5.030471E-1,7.2188365E-1,1.3351801E-1,5.8781165E-1,8.725762E-1,9.5789474E-1,7.32964E-1,8.7534624E-1,9.2520773E-1,8.29759E-3,6.814405E-1,-2.971088E-3,-8.705641E-3,4.2548478E-1,6.2880886E-1,9.2908585E-1,8.0941826E-1,9.2576176E-1,8.725762E-1,2.2493075E-1,7.6454294E-1,1.3351801E-1,2.2010296E-3,1.9013643E-3,7.9556787E-1,-2.1551342E-3,-5.098661E-3,-3.9228352E-4,-1.6894412E-3,-2.8339273E-3,-4.84013E-3,-8.8094844E-4,7.4941316E-4,6.5276964E-4,-2.4026781E-3,-2.1281927E-3,-5.0171284E-4,-1.0439247E-3,-1.7137527E-4,2.7308761E-4,1.9920906E-3,8.5814E-4,4.1621136E-3,4.6249996E-3,6.2596905E-3],"split_indices":[349,349,349,37,349,349,148,24,168,83,151,309,300,0,201,0,0,181,3,88,3,32,40,9,211,26,0,0,243,0,0,0,0,0,0,0,0,0,0,0,0,0,0,0,0,0,0,0,0],"split_type":[0,0,0,0,0,0,0,0,0,0,0,0,0,0,0,0,0,0,0,0,0,0,0,0,0,0,0,0,0,0,0,0,0,0,0,0,0,0,0,0,0,0,0,0,0,0,0,0,0],"sum_hessian":[5.2E2,3.3E2,1.9E2,1.12E2,2.18E2,5.1E1,1.39E2,1.4E1,9.8E1,1.01E2,1.17E2,1.9E1,3.2E1,1.9E1,1.2E2,2E0,1.2E1,9.3E1,5E0,9.6E1,5E0,3.1E1,8.6E1,3E0,1.6E1,2.2E1,1E1,3E0,1.17E2,6E0,8.7E1,1E0,4E0,8.4E1,1.2E1,3E0,2E0,2.7E1,4E0,4.9E1,3.7E1,1E0,2E0,3E0,1.3E1,1E0,2.1E1,2.8E1,8.9E1],"tree_param":{"num_deleted":"0","num_feature":"350","num_nodes":"49","size_leaf_vector":"1"}},{"base_weights":[-8.424819E-5,-2.7817527E-2,4.797753E-2,-5.0948974E-2,-1.896782E-2,1.6726628E-2,5.392785E-2,-8.103572E-3,-4.623412E-2,-2.8177163E-2,-9.129464E-3,-6.1582774E-3,1.9306386E-2,4.910969E-2,6.671447E-2,-1.4781606E-3,-4.767605E-2,-2.9408298E-2,-3.3984098E-3,-6.983617E-3,-3.1606242E-2,-9.91729E-4,-1.5995106E-4,2.458165E-2,1.09228585E-2,5.020136E-2,2.0001044E-3,7.2241165E-2,4.2357612E-3,-5.637419E-3,-4.0237946E-3,-3.033853E-3,-2.3174168E-4,-8.9544896E-4,6.9945253E-4,-1.0210067E-3,5.524415E-4,-1.1585578E-3,-3.8531446E-3,1.330526E-3,2.7027826E-3,1.2180825E-3,-2.0863712E-4,3.4688425E-3,5.2722436E-3,7.406828E-3,2.9889622E-3],"categories":[],"categories_nodes":[],"categories_segments":[],"categories_sizes":[],"default_left":[0,0,0,0,0,0,0,0,0,0,0,0,0,0,0,0,0,0,0,0,0,0,0,0,0,0,0,0,0,0,0,0,0,0,0,0,0,0,0,0,0,0,0,0,0,0,0],"id":16,"left_children":[1,3,5,7,9,11,13,-1,15,17,19,21,23,25,27,-1,29,31,33,35,37,-1,-1,39,41,43,-1,45,-1,-1,-1,-1,-1,-1,-1,-1,-1,-1,-1,-1,-1,-1,-1,-1,-1,-1,-1],"loss_changes":[6.957811E-1,6.6791475E-2,3.461498E-2,9.162143E-3,2.157852E-2,2.0080954E-3,6.580949E-3,0E0,2.968803E-3,3.6827996E-3,5.4706167E-3,5.2683026E-5,1.0140315E-3,2.809137E-3,2.4591535E-3,0E0,2.7133375E-3,2.9033795E-3,4.6684023E-4,4.455267E-3,9.400621E-4,0E0,0E0,1.0931678E-4,2.3816107E-4,2.6687384E-3,0E0,2.6232004E-4,0E0,0E0,0E0,0E0,0E0,0E0,0E0,0E0,0E0,0E0,0E0,0E0,0E0,0E0,0E0,0E0,0E0,0E0,0E0],"parents":[2147483647,0,0,1,1,2,2,3,3,4,4,5,5,6,6,8,8,9,9,10,10,11,11,12,12,13,13,14,14,16,16,17,17,18,18,19,19,20,20,23,23,24,24,25,25,27,27],"right_children":[2,4,6,8,10,12,14,-1,16,18,20,22,24,26,28,-1,30,32,34,36,38,-1,-1,40,42,44,-1,46,-1,-1,-1,-1,-1,-1,-1,-1,-1,-1,-1,-1,-1,-1,-1,-1,-1,-1,-1],"split_conditions":[6.3102496E-1,4.0831023E-1,7.6509696E-1,6.027701E-1,5.030471E-1,8.7534624E-1,9.180055E-1,-8.103572E-3,4.2216066E-1,9.5789474E-1,8.5096955E-1,2.2493075E-1,7.268698E-1,8.260388E-1,2.1052632E-1,-1.4781606E-3,5.069252E-1,9.229917E-1,8.0941826E-1,5.8781165E-1,8.5595566E-1,-9.91729E-4,-1.5995106E-4,5.905817E-1,6.0166204E-1,1.7617728E-1,2.0001044E-3,8.3102494E-1,4.2357612E-3,-5.637419E-3,-4.0237946E-3,-3.033853E-3,-2.3174168E-4,-8.9544896E-4,6.9945253E-4,-1.0210067E-3,5.524415E-4,-1.1585578E-3,-3.8531446E-3,1.330526E-3,2.7027826E-3,1.2180825E-3,-2.0863712E-4,3.4688425E-3,5.2722436E-3,7.406828E-3,2.9889622E-3],"split_indices":[349,349,349,39,349,309,349,0,202,83,250,9,246,98,33,0,216,291,3,270,290,0,0,342,1,78,0,145,0,0,0,0,0,0,0,0,0,0,0,0,0,0,0,0,0,0,0],"split_type":[0,0,0,0,0,0,0,0,0,0,0,0,0,0,0,0,0,0,0,0,0,0,0,0,0,0,0,0,0,0,0,0,0,0,0,0,0,0,0,0,0,0,0,0,0,0,0],"sum_hessian":[5.2E2,3.3E2,1.9E2,9E1,2.4E2,3.1E1,1.59E2,1E1,8E1,1.23E2,1.17E2,3E0,2.8E1,1.19E2,4E1,4E0,7.6E1,1.17E2,6E0,1.08E2,9E0,1E0,2E0,1.6E1,1.2E1,1.14E2,5E0,3.1E1,9E0,3.2E1,4.4E1,1.13E2,4E0,4E0,2E0,8.6E1,2.2E1,3E0,6E0,4E0,1.2E1,1.1E1,1E0,1.8E1,9.6E1,2.9E1,2E0],"tree_param":{"num_deleted":"0","num_feature":"350","num_nodes":"47","size_leaf_vector":"1"}},{"base_weights":[-7.3754796E-5,-2.512092E-2,4.3332975E-2,-4.0893048E-2,-1.4453514E-2,2.258532E-2,5.0729726E-2,-5.4205425E-2,-3.3469614E-2,-2.1232672E-2,-6.338268E-3,1.0703352E-2,2.9102108E-2,6.9747865E-2,4.753415E-2,-6.4054145E-3,-3.68386E-3,-4.3195248E-2,-2.8694421E-2,9.926483E-4,-2.278287E-2,-4.9734022E-3,-4.5171482E-3,-5.8303624E-3,1.3964029E-2,3.439999E-2,1.9454982E-2,8.6731015E-4,7.283032E-3,4.8413616E-2,1.7096031E-3,-2.274851E-3,-5.0607114E-3,-1.3352174E-3,-3.1741727E-3,-1.0163676E-3,6.4053683E-4,-2.5324274E-3,-1.1223969E-3,-2.5020659E-3,-2.7124424E-4,-9.421438E-4,-1.492858E-4,1.9251121E-3,7.125378E-4,1.3296813E-3,3.7341916E-3,1.0752844E-3,2.186055E-3,4.4111637E-3,5.6422795E-3],"categories":[],"categories_nodes":[],"categories_segments":[],"categories_sizes":[],"default_left":[0,0,0,0,0,0,0,0,0,0,0,0,0,0,0,0,0,0,0,0,0,0,0,0,0,0,0,0,0,0,0,0,0,0,0,0,0,0,0,0,0,0,0,0,0,0,0,0,0,0,0],"id":17,"left_children":[1,3,5,7,9,11,13,15,17,19,21,23,25,27,29,-1,-1,31,33,35,37,39,-1,41,43,45,47,-1,-1,49,-1,-1,-1,-1,-1,-1,-1,-1,-1,-1,-1,-1,-1,-1,-1,-1,-1,-1,-1,-1,-1],"loss_changes":[5.6752783E-1,5.5098936E-2,2.8166115E-2,1.1329308E-2,1.0813318E-2,3.7149861E-3,5.1929653E-3,5.5082142E-3,2.8474107E-3,3.7436076E-3,4.651538E-3,1.1596372E-3,1.0173563E-3,2.7570128E-3,2.4649203E-3,0E0,0E0,2.9405728E-3,2.474837E-3,5.4819044E-4,2.6827157E-3,4.0114773E-3,0E0,4.824037E-5,4.7749025E-4,7.4514933E-4,5.8007427E-5,0E0,0E0,1.6112924E-3,0E0,0E0,0E0,0E0,0E0,0E0,0E0,0E0,0E0,0E0,0E0,0E0,0E0,0E0,0E0,0E0,0E0,0E0,0E0,0E0,0E0],"parents":[2147483647,0,0,1,1,2,2,3,3,4,4,5,5,6,6,7,7,8,8,9,9,10,10,11,11,12,12,13,13,14,14,17,17,18,18,19,19,20,20,21,21,23,23,24,24,25,25,26,26,29,29],"right_children":[2,4,6,8,10,12,14,16,18,20,22,24,26,28,30,-1,-1,32,34,36,38,40,-1,42,44,46,48,-1,-1,50,-1,-1,-1,-1,-1,-1,-1,-1,-1,-1,-1,-1,-1,-1,-1,-1,-1,-1,-1,-1,-1],"split_conditions":[6.3102496E-1,4.4210526E-1,8.3102494E-1,5.1966757E-1,5.3074795E-1,7.2188365E-1,5.972299E-1,4.836565E-1,7.911357E-1,4.2216066E-1,9.6121883E-1,8.7534624E-1,9.091413E-1,5.9279777E-2,9.1135734E-1,-6.4054145E-3,-3.68386E-3,6.65928E-1,3.8060942E-1,8.7036014E-1,8.9529085E-1,4.9695292E-1,-4.5171482E-3,2.2493075E-1,2.4598338E-1,1.4792244E-1,8.947368E-1,8.6731015E-4,7.283032E-3,8.7590027E-1,1.7096031E-3,-2.274851E-3,-5.0607114E-3,-1.3352174E-3,-3.1741727E-3,-1.0163676E-3,6.4053683E-4,-2.5324274E-3,-1.1223969E-3,-2.5020659E-3,-2.7124424E-4,-9.421438E-4,-1.492858E-4,1.9251121E-3,7.125378E-4,1.3296813E-3,3.7341916E-3,1.0752844E-3,2.186055E-3,4.4111637E-3,5.6422795E-3],"split_indices":[349,349,349,96,349,349,181,307,41,244,146,309,301,0,285,0,0,151,343,6,174,184,0,9,11,87,327,0,0,228,0,0,0,0,0,0,0,0,0,0,0,0,0,0,0,0,0,0,0,0,0],"split_type":[0,0,0,0,0,0,0,0,0,0,0,0,0,0,0,0,0,0,0,0,0,0,0,0,0,0,0,0,0,0,0,0,0,0,0,0,0,0,0,0,0,0,0,0,0,0,0,0,0,0,0],"sum_hessian":[5.2E2,3.3E2,1.9E2,1.32E2,1.98E2,5.1E1,1.39E2,4.5E1,8.7E1,1.07E2,9.1E1,1.9E1,3.2E1,1.7E1,1.22E2,2.7E1,1.8E1,2.6E1,6.1E1,7E0,1E2,8.9E1,2E0,3E0,1.6E1,1.9E1,1.3E1,1E0,1.6E1,1.18E2,4E0,8E0,1.8E1,1.1E1,5E1,2E0,5E0,8.1E1,1.9E1,8E0,8.1E1,1E0,2E0,8E0,8E0,3E0,1.6E1,4E0,9E0,8.1E1,3.7E1],"tree_param":{"num_deleted":"0","num_feature":"350","num_nodes":"51","size_leaf_vector":"1"}},{"base_weights":[-7.303662E-5,-2.2709293E-2,3.915562E-2,-3.9439376E-2,-1.4429973E-2,2.0516636E-2,4.579899E-2,-6.7967973E-3,-3.587115E-2,-2.2041047E-2,-7.470618E-3,9.710342E-3,2.6444187E-2,7.0306333E-3,4.357859E-2,-3.738565E-2,-1.0625537E-3,-2.3089321E-2,3.7519573E-3,-6.391691E-3,-4.669893E-3,1.3268679E-2,-3.6184073E-3,3.197007E-2,1.8574812E-2,4.433192E-2,1.5728365E-3,-3.8367629E-3,-5.944677E-4,-2.6027052E-4,-2.4342625E-3,6.443322E-4,-1.9005935E-5,-1.0066758E-3,2.7677856E-4,1.7539911E-3,6.804958E-4,-7.525782E-4,1.495103E-4,1.2299567E-3,3.5084195E-3,2.19236E-3,1.2485571E-3,2.4158682E-3,4.5485087E-3],"categories":[],"categories_nodes":[],"categories_segments":[],"categories_sizes":[],"default_left":[0,0,0,0,0,0,0,0,0,0,0,0,0,0,0,0,0,0,0,0,0,0,0,0,0,0,0,0,0,0,0,0,0,0,0,0,0,0,0,0,0,0,0,0,0],"id":18,"left_children":[1,3,5,7,9,11,13,-1,15,17,19,21,23,-1,25,27,-1,29,31,33,-1,35,37,39,41,43,-1,-1,-1,-1,-1,-1,-1,-1,-1,-1,-1,-1,-1,-1,-1,-1,-1,-1,-1],"loss_changes":[4.6353194E-1,4.527892E-2,2.2711068E-2,8.657709E-3,1.1647239E-2,3.0740704E-3,4.554391E-3,0E0,3.3879578E-3,2.9526725E-3,4.695805E-3,9.96575E-4,8.411724E-4,0E0,2.0511597E-3,2.6432425E-3,0E0,2.5555901E-3,5.4271637E-5,3.932618E-3,0E0,3.2237056E-4,1.1115382E-4,6.71098E-4,5.2536838E-5,1.8555373E-3,0E0,0E0,0E0,0E0,0E0,0E0,0E0,0E0,0E0,0E0,0E0,0E0,0E0,0E0,0E0,0E0,0E0,0E0,0E0],"parents":[2147483647,0,0,1,1,2,2,3,3,4,4,5,5,6,6,8,8,9,9,10,10,11,11,12,12,14,14,15,15,17,17,18,18,19,19,21,21,22,22,23,23,24,24,25,25],"right_children":[2,4,6,8,10,12,14,-1,16,18,20,22,24,-1,26,28,-1,30,32,34,-1,36,38,40,42,44,-1,-1,-1,-1,-1,-1,-1,-1,-1,-1,-1,-1,-1,-1,-1,-1,-1,-1,-1],"split_conditions":[6.3102496E-1,4.2548478E-1,8.3102494E-1,6.027701E-1,5.030471E-1,7.2188365E-1,6.481995E-2,-6.7967973E-3,8.836565E-1,9.373961E-1,9.6121883E-1,8.01662E-1,8.9141273E-1,7.0306333E-3,9.1135734E-1,9.301939E-1,-1.0625537E-3,4.1108033E-1,7.927978E-1,5.8559555E-1,-4.669893E-3,2.4598338E-1,5.955679E-1,1.4792244E-1,2.603878E-1,6.371191E-2,1.5728365E-3,-3.8367629E-3,-5.944677E-4,-2.6027052E-4,-2.4342625E-3,6.443322E-4,-1.9005935E-5,-1.0066758E-3,2.7677856E-4,1.7539911E-3,6.804958E-4,-7.525782E-4,1.495103E-4,1.2299567E-3,3.5084195E-3,2.19236E-3,1.2485571E-3,2.4158682E-3,4.5485087E-3],"split_indices":[349,349,349,39,349,349,152,0,130,216,156,242,312,0,285,59,0,138,1,349,0,11,0,87,2,43,0,0,0,0,0,0,0,0,0,0,0,0,0,0,0,0,0,0,0],"split_type":[0,0,0,0,0,0,0,0,0,0,0,0,0,0,0,0,0,0,0,0,0,0,0,0,0,0,0,0,0,0,0,0,0,0,0,0,0,0,0,0,0,0,0,0,0],"sum_hessian":[5.2E2,3.3E2,1.9E2,1.08E2,2.22E2,5.1E1,1.39E2,1E1,9.8E1,1.05E2,1.17E2,1.9E1,3.2E1,9E0,1.3E2,9.2E1,6E0,1.01E2,4E0,1.15E2,2E0,1.5E1,4E0,1.7E1,1.5E1,1.26E2,4E0,8.9E1,3E0,6E0,9.5E1,2E0,2E0,8.2E1,3.3E1,8E0,7E0,2E0,2E0,3E0,1.4E1,8E0,7E0,8E0,1.18E2],"tree_param":{"num_deleted":"0","num_feature":"350","num_nodes":"45","size_leaf_vector":"1"}},{"base_weights":[-5.4567823E-5,-2.049807E-2,3.537399E-2,-3.775488E-2,-1.3896961E-2,1.2584342E-2,3.971083E-2,-5.5086493E-2,-3.272672E-2,-2.0567631E-2,-6.769333E-3,-5.5395216E-3,1.4650242E-2,6.3978783E-3,3.7840694E-2,-6.3791834E-3,-3.1049938E-3,-4.3251313E-2,-2.7338637E-2,-2.1512192E-2,1.5941014E-3,-5.7588303E-3,-4.358566E-3,-8.574069E-4,-1.669983E-4,1.9393336E-2,8.930464E-3,2.8399972E-2,4.1706156E-2,-6.798268E-4,-4.459926E-3,-3.0195436E-3,-1.2606218E-3,-1.4354634E-3,-2.5372987E-3,-2.119176E-4,6.013771E-4,-1.0505505E-3,8.165949E-6,1.1750341E-3,2.3183075E-3,-1.6131004E-5,1.0341608E-3,2.9635832E-3,1.2091589E-3,1.3960468E-3,4.266677E-3],"categories":[],"categories_nodes":[],"categories_segments":[],"categories_sizes":[],"default_left":[0,0,0,0,0,0,0,0,0,0,0,0,0,0,0,0,0,0,0,0,0,0,0,0,0,0,0,0,0,0,0,0,0,0,0,0,0,0,0,0,0,0,0,0,0,0,0],"id":19,"left_children":[1,3,5,7,9,11,13,15,17,19,21,23,25,-1,27,-1,-1,29,31,33,35,37,-1,-1,-1,39,41,43,45,-1,-1,-1,-1,-1,-1,-1,-1,-1,-1,-1,-1,-1,-1,-1,-1,-1,-1],"loss_changes":[3.7807697E-1,3.7180886E-2,1.837778E-2,6.1275065E-3,1.1319373E-2,1.2793024E-3,4.840493E-3,1.9949488E-3,2.95721E-3,2.6299953E-3,4.1389507E-3,3.265064E-5,6.135623E-4,0E0,4.325941E-3,0E0,0E0,8.2694367E-4,1.7658137E-3,2.9242113E-3,1.11213E-4,3.2167146E-3,0E0,0E0,0E0,1.620655E-4,1.941151E-4,5.8893487E-4,2.202928E-3,0E0,0E0,0E0,0E0,0E0,0E0,0E0,0E0,0E0,0E0,0E0,0E0,0E0,0E0,0E0,0E0,0E0,0E0],"parents":[2147483647,0,0,1,1,2,2,3,3,4,4,5,5,6,6,7,7,8,8,9,9,10,10,11,11,12,12,14,14,17,17,18,18,19,19,20,20,21,21,25,25,26,26,27,27,28,28],"right_children":[2,4,6,8,10,12,14,16,18,20,22,24,26,-1,28,-1,-1,30,32,34,36,38,-1,-1,-1,40,42,44,46,-1,-1,-1,-1,-1,-1,-1,-1,-1,-1,-1,-1,-1,-1,-1,-1,-1,-1],"split_conditions":[6.3102496E-1,4.0831023E-1,7.6509696E-1,6.8753463E-1,5.030471E-1,8.7534624E-1,6.481995E-2,5.3074795E-1,4.8421052E-1,9.373961E-1,9.6121883E-1,2.2493075E-1,7.130194E-1,6.3978783E-3,7.9556787E-1,-6.3791834E-3,-3.1049938E-3,6.32687E-1,9.0803325E-1,5.473684E-1,8.2216066E-1,5.689751E-1,-4.358566E-3,-8.574069E-4,-1.669983E-4,8.770083E-1,7.6454294E-1,9.34072E-1,6.8753463E-1,-6.798268E-4,-4.459926E-3,-3.0195436E-3,-1.2606218E-3,-1.4354634E-3,-2.5372987E-3,-2.119176E-4,6.013771E-4,-1.0505505E-3,8.165949E-6,1.1750341E-3,2.3183075E-3,-1.6131004E-5,1.0341608E-3,2.9635832E-3,1.2091589E-3,1.3960468E-3,4.266677E-3],"split_indices":[349,349,349,39,349,309,152,301,216,216,156,9,247,0,243,0,0,3,86,242,12,349,0,0,0,317,210,319,222,0,0,0,0,0,0,0,0,0,0,0,0,0,0,0,0,0,0],"split_type":[0,0,0,0,0,0,0,0,0,0,0,0,0,0,0,0,0,0,0,0,0,0,0,0,0,0,0,0,0,0,0,0,0,0,0,0,0,0,0,0,0,0,0,0,0,0,0],"sum_hessian":[5.2E2,3.3E2,1.9E2,9E1,2.4E2,3.1E1,1.59E2,1.8E1,7.2E1,1.23E2,1.17E2,3E0,2.8E1,9E0,1.5E2,1.2E1,6E0,2.2E1,5E1,1.18E2,5E0,1.15E2,2E0,1E0,2E0,1.4E1,1.4E1,4.6E1,1.04E2,1E0,2.1E1,4.1E1,9E0,4.3E1,7.5E1,3E0,2E0,6.3E1,5.2E1,6E0,8E0,2E0,1.2E1,4.2E1,4E0,4E0,1E2],"tree_param":{"num_deleted":"0","num_feature":"350","num_nodes":"47","size_leaf_vector":"1"}},{"base_weights":[-6.4792366E-5,-1.8532522E-2,3.193983E-2,-2.8322794E-2,-8.980173E-3,1.6790297E-2,3.733866E-2,-5.660848E-2,-2.590338E-2,-6.816712E-3,-2.9242221E-2,7.961449E-3,2.1632316E-2,5.2944116E-2,3.4751367E-2,-1.6725094E-3,-5.871378E-3,-2.9405631E-2,-1.6030679E-2,-1.8896444E-2,-4.329195E-3,-3.53272E-2,-8.789825E-3,-5.2416623E-3,1.0599743E-2,2.6450051E-2,1.4860343E-2,1.4861305E-3,5.6775636E-3,3.0991586E-2,4.2054705E-2,-1.9289184E-3,-3.4407494E-3,-9.3210087E-4,-2.445907E-3,8.533001E-4,-2.2845198E-3,-1.7439834E-4,-1.5013915E-3,-3.8955968E-3,-1.1455576E-3,-1.2578823E-3,3.183082E-4,-8.1453624E-4,-1.5586415E-4,1.2950365E-3,2.3681759E-4,1.0048688E-3,2.9060412E-3,1.7682633E-3,9.827726E-4,3.2652614E-3,1.5268606E-3,4.5843883E-3,2.6481708E-3],"categories":[],"categories_nodes":[],"categories_segments":[],"categories_sizes":[],"default_left":[0,0,0,0,0,0,0,0,0,0,0,0,0,0,0,0,0,0,0,0,0,0,0,0,0,0,0,0,0,0,0,0,0,0,0,0,0,0,0,0,0,0,0,0,0,0,0,0,0,0,0,0,0,0,0],"id":20,"left_children":[1,3,5,7,9,11,13,15,17,19,21,23,25,27,29,-1,-1,31,33,35,37,39,41,43,45,47,49,-1,-1,51,53,-1,-1,-1,-1,-1,-1,-1,-1,-1,-1,-1,-1,-1,-1,-1,-1,-1,-1,-1,-1,-1,-1,-1,-1],"loss_changes":[3.085304E-1,3.0700795E-2,1.4994919E-2,9.688526E-3,7.2089722E-3,2.0507462E-3,3.8127452E-3,2.560392E-5,4.7842637E-3,4.54567E-3,1.6807187E-3,7.52234E-4,6.83588E-4,1.7827116E-3,2.0741075E-3,0E0,0E0,4.953027E-3,2.1471893E-3,3.0110525E-3,3.537087E-3,5.93232E-4,2.66866E-4,3.008185E-5,2.9826933E-4,4.7862343E-4,5.3476077E-5,0E0,0E0,1.7213225E-3,1.0873154E-3,0E0,0E0,0E0,0E0,0E0,0E0,0E0,0E0,0E0,0E0,0E0,0E0,0E0,0E0,0E0,0E0,0E0,0E0,0E0,0E0,0E0,0E0,0E0,0E0],"parents":[2147483647,0,0,1,1,2,2,3,3,4,4,5,5,6,6,7,7,8,8,9,9,10,10,11,11,12,12,13,13,14,14,17,17,18,18,19,19,20,20,21,21,22,22,23,23,24,24,25,25,26,26,29,29,30,30],"right_children":[2,4,6,8,10,12,14,16,18,20,22,24,26,28,30,-1,-1,32,34,36,38,40,42,44,46,48,50,-1,-1,52,54,-1,-1,-1,-1,-1,-1,-1,-1,-1,-1,-1,-1,-1,-1,-1,-1,-1,-1,-1,-1,-1,-1,-1,-1],"split_conditions":[6.3102496E-1,4.6648198E-1,8.3102494E-1,3.8171744E-1,8.9861494E-1,7.2188365E-1,5.972299E-1,8.5207754E-1,6.803324E-1,5.423823E-1,7.9833794E-1,8.7534624E-1,8.9141273E-1,9.861496E-2,8.7590027E-1,-1.6725094E-3,-5.871378E-3,4.836565E-1,4.5096952E-1,6.060942E-1,8.836565E-1,9.67313E-1,8.376731E-1,2.2493075E-1,6.238227E-1,1.4792244E-1,2.603878E-1,1.4861305E-3,5.6775636E-3,8.1163436E-1,9.301939E-1,-1.9289184E-3,-3.4407494E-3,-9.3210087E-4,-2.445907E-3,8.533001E-4,-2.2845198E-3,-1.7439834E-4,-1.5013915E-3,-3.8955968E-3,-1.1455576E-3,-1.2578823E-3,3.183082E-4,-8.1453624E-4,-1.5586415E-4,1.2950365E-3,2.3681759E-4,1.0048688E-3,2.9060412E-3,1.7682633E-3,9.827726E-4,3.2652614E-3,1.5268606E-3,4.5843883E-3,2.6481708E-3],"split_indices":[349,349,349,231,251,349,181,3,159,183,43,309,312,4,228,0,0,161,348,34,105,132,0,9,20,87,2,0,0,122,343,0,0,0,0,0,0,0,0,0,0,0,0,0,0,0,0,0,0,0,0,0,0,0,0],"split_type":[0,0,0,0,0,0,0,0,0,0,0,0,0,0,0,0,0,0,0,0,0,0,0,0,0,0,0,0,0,0,0,0,0,0,0,0,0,0,0,0,0,0,0,0,0,0,0,0,0,0,0,0,0,0,0],"sum_hessian":[5.2E2,3.3E2,1.9E2,1.62E2,1.68E2,5.1E1,1.39E2,1.1E1,1.51E2,1.53E2,1.5E1,1.9E1,3.2E1,1.7E1,1.22E2,1E0,1E1,1.1E2,4.1E1,2.5E1,1.28E2,1.1E1,4E0,3E0,1.6E1,1.7E1,1.5E1,2E0,1.5E1,8.4E1,3.8E1,3.8E1,7.2E1,2.4E1,1.7E1,3E0,2.2E1,1.04E2,2.4E1,9E0,2E0,3E0,1E0,1E0,2E0,1.2E1,4E0,3E0,1.4E1,8E0,7E0,7.5E1,9E0,2.9E1,9E0],"tree_param":{"num_deleted":"0","num_feature":"350","num_nodes":"55","size_leaf_vector":"1"}},{"base_weights":[-5.6330337E-5,-1.6344834E-2,2.9615464E-2,-2.6794728E-2,-8.597759E-3,1.8319376E-2,3.4502633E-2,-5.0713364E-3,-2.461503E-2,-1.2191159E-2,-3.094231E-4,1.2074498E-2,2.414789E-2,5.4252534E-3,3.1991847E-2,-2.5675673E-2,2.1145244E-3,-1.3705239E-2,3.188617E-3,1.8831119E-3,-2.480393E-2,1.4010284E-2,-4.0106773E-3,1.0925032E-3,2.7858572E-2,2.1222066E-2,3.4286667E-2,-2.1302388E-3,-3.3268572E-3,7.788341E-6,3.113374E-4,-1.6967396E-3,-5.25976E-4,-4.039113E-4,9.96083E-4,-6.965608E-4,6.615309E-4,-6.907384E-4,-3.4432502E-3,1.8256521E-3,8.033065E-4,-1.8884739E-5,-7.738084E-4,3.0227134E-3,1.3760043E-3,2.75538E-3,1.1809826E-3,3.6651467E-3,2.1419546E-3],"categories":[],"categories_nodes":[],"categories_segments":[],"categories_sizes":[],"default_left":[0,0,0,0,0,0,0,0,0,0,0,0,0,0,0,0,0,0,0,0,0,0,0,0,0,0,0,0,0,0,0,0,0,0,0,0,0,0,0,0,0,0,0,0,0,0,0,0,0],"id":21,"left_children":[1,3,5,7,9,11,13,-1,15,17,19,21,23,-1,25,27,29,31,33,35,37,39,41,-1,43,45,47,-1,-1,-1,-1,-1,-1,-1,-1,-1,-1,-1,-1,-1,-1,-1,-1,-1,-1,-1,-1,-1,-1],"loss_changes":[2.5228813E-1,2.7051829E-2,9.581044E-3,6.2070563E-3,5.8039725E-3,1.8195324E-3,4.6115965E-3,0E0,3.824912E-3,3.2106265E-3,3.2690123E-3,9.903144E-4,1.1185519E-3,0E0,2.1392703E-3,3.5416484E-3,1.1963306E-5,3.3270158E-3,6.7655335E-4,2.3910168E-3,6.237526E-4,5.3862296E-4,5.5520737E-5,0E0,3.1872466E-4,1.0452978E-3,2.0751879E-3,0E0,0E0,0E0,0E0,0E0,0E0,0E0,0E0,0E0,0E0,0E0,0E0,0E0,0E0,0E0,0E0,0E0,0E0,0E0,0E0,0E0,0E0],"parents":[2147483647,0,0,1,1,2,2,3,3,4,4,5,5,6,6,8,8,9,9,10,10,11,11,12,12,14,14,15,15,16,16,17,17,18,18,19,19,20,20,21,21,22,22,24,24,25,25,26,26],"right_children":[2,4,6,8,10,12,14,-1,16,18,20,22,24,-1,26,28,30,32,34,36,38,40,42,-1,44,46,48,-1,-1,-1,-1,-1,-1,-1,-1,-1,-1,-1,-1,-1,-1,-1,-1,-1,-1,-1,-1,-1,-1],"split_conditions":[6.703601E-1,4.498615E-1,8.5096955E-1,3.8171744E-1,5.689751E-1,8.903047E-1,6.6759E-1,-5.0713364E-3,9.1468143E-1,9.1855955E-1,9.357341E-1,9.645429E-1,6.903047E-1,5.4252534E-3,7.9556787E-1,4.875346E-1,8.138504E-1,9.1191137E-1,4.5595568E-1,4.398892E-1,7.850416E-1,9.1135734E-1,3.9556786E-1,1.0925032E-3,9.67313E-1,8.227147E-1,9.373961E-1,-2.1302388E-3,-3.3268572E-3,7.788341E-6,3.113374E-4,-1.6967396E-3,-5.25976E-4,-4.039113E-4,9.96083E-4,-6.965608E-4,6.615309E-4,-6.907384E-4,-3.4432502E-3,1.8256521E-3,8.033065E-4,-1.8884739E-5,-7.738084E-4,3.0227134E-3,1.3760043E-3,2.75538E-3,1.1809826E-3,3.6651467E-3,2.1419546E-3],"split_indices":[349,349,349,231,349,274,207,0,280,171,146,294,139,0,243,322,31,123,289,298,47,284,0,0,272,268,317,0,0,0,0,0,0,0,0,0,0,0,0,0,0,0,0,0,0,0,0,0,0],"split_type":[0,0,0,0,0,0,0,0,0,0,0,0,0,0,0,0,0,0,0,0,0,0,0,0,0,0,0,0,0,0,0,0,0,0,0,0,0,0,0,0,0,0,0,0,0,0,0,0,0],"sum_hessian":[5.2E2,3.36E2,1.84E2,1.42E2,1.94E2,5.7E1,1.27E2,1E1,1.32E2,1.35E2,5.9E1,2.9E1,2.8E1,1.2E1,1.15E2,1.27E2,5E0,1.23E2,1.2E1,5.5E1,4E0,2.6E1,3E0,7E0,2.1E1,2.2E1,9.3E1,8.3E1,4.4E1,2E0,3E0,8.8E1,3.5E1,6E0,6E0,1.9E1,3.6E1,2E0,2E0,1.4E1,1.2E1,2E0,1E0,1.7E1,4E0,1.2E1,1E1,7.7E1,1.6E1],"tree_param":{"num_deleted":"0","num_feature":"350","num_nodes":"49","size_leaf_vector":"1"}},{"base_weights":[-3.8247075E-5,-1.5388781E-2,2.5703613E-2,-2.8175203E-2,-1.0414295E-2,9.009615E-3,2.9299116E-2,-4.2241517E-2,-2.4128146E-2,-7.947201E-3,-2.0485332E-2,-2.5031492E-3,1.1874873E-2,3.3480257E-2,2.3149919E-2,-4.9387417E-3,-2.293606E-2,-3.316207E-2,-1.9580925E-2,-1.803406E-2,-3.6611848E-3,-2.3114381E-2,5.695754E-4,-7.1964064E-4,2.60671E-4,1.4912442E-2,5.548629E-3,2.878713E-2,4.388616E-2,2.6617493E-2,1.5208252E-2,-5.694464E-4,-2.4860583E-3,-1.1467346E-3,-3.584291E-3,-2.2064047E-3,-7.193717E-4,-2.2164176E-3,-2.3502708E-4,-7.9761754E-5,-1.3334635E-3,-1.4371811E-3,-3.1172582E-3,1.303196E-4,-1.2162527E-4,9.307987E-4,1.8142229E-3,1.8924475E-4,8.280039E-4,3.8762284E-3,2.3049004E-3,4.8869774E-3,1.8298546E-3,2.8336893E-3,1.0432015E-3,1.7664069E-3,2.834499E-4],"categories":[],"categories_nodes":[],"categories_segments":[],"categories_sizes":[],"default_left":[0,0,0,0,0,0,0,0,0,0,0,0,0,0,0,0,0,0,0,0,0,0,0,0,0,0,0,0,0,0,0,0,0,0,0,0,0,0,0,0,0,0,0,0,0,0,0,0,0,0,0,0,0,0,0,0,0],"id":22,"left_children":[1,3,5,7,9,11,13,15,17,19,21,23,25,27,29,-1,31,33,35,37,39,41,-1,-1,43,45,47,49,51,53,55,-1,-1,-1,-1,-1,-1,-1,-1,-1,-1,-1,-1,-1,-1,-1,-1,-1,-1,-1,-1,-1,-1,-1,-1,-1,-1],"loss_changes":[2.0626938E-1,2.0505697E-2,1.1440575E-2,4.1611716E-3,5.725745E-3,1.2172582E-3,3.338635E-3,1.4883876E-3,2.34944E-3,8.234604E-3,3.297899E-3,1.0564645E-4,4.7453213E-4,3.2784194E-3,1.4677979E-3,0E0,9.0705E-5,9.2666224E-4,1.4099833E-3,3.6401302E-3,3.7566426E-3,2.510868E-3,0E0,0E0,1.08233935E-5,1.7505465E-4,9.4182295E-5,2.9415563E-3,2.5487617E-3,9.845383E-4,6.488473E-4,0E0,0E0,0E0,0E0,0E0,0E0,0E0,0E0,0E0,0E0,0E0,0E0,0E0,0E0,0E0,0E0,0E0,0E0,0E0,0E0,0E0,0E0,0E0,0E0,0E0,0E0],"parents":[2147483647,0,0,1,1,2,2,3,3,4,4,5,5,6,6,7,7,8,8,9,9,10,10,11,11,12,12,13,13,14,14,16,16,17,17,18,18,19,19,20,20,21,21,24,24,25,25,26,26,27,27,28,28,29,29,30,30],"right_children":[2,4,6,8,10,12,14,16,18,20,22,24,26,28,30,-1,32,34,36,38,40,42,-1,-1,44,46,48,50,52,54,56,-1,-1,-1,-1,-1,-1,-1,-1,-1,-1,-1,-1,-1,-1,-1,-1,-1,-1,-1,-1,-1,-1,-1,-1,-1,-1],"split_conditions":[6.221607E-1,4.0831023E-1,7.6509696E-1,6.8753463E-1,8.836565E-1,8.770083E-1,1.8836565E-1,5.3074795E-1,4.8421052E-1,5.423823E-1,8.354571E-1,4.6481994E-1,3.7839335E-1,8.3213294E-1,8.3102494E-1,-4.9387417E-3,8.770083E-1,6.963989E-1,9.0803325E-1,7.468144E-1,8.836565E-1,4.7423822E-1,5.695754E-4,-7.1964064E-4,2.2493075E-1,8.770083E-1,9.036011E-1,1.3905817E-1,8.8088644E-1,9.1135734E-1,8.875346E-1,-5.694464E-4,-2.4860583E-3,-1.1467346E-3,-3.584291E-3,-2.2064047E-3,-7.193717E-4,-2.2164176E-3,-2.3502708E-4,-7.9761754E-5,-1.3334635E-3,-1.4371811E-3,-3.1172582E-3,1.303196E-4,-1.2162527E-4,9.307987E-4,1.8142229E-3,1.8924475E-4,8.280039E-4,3.8762284E-3,2.3049004E-3,4.8869774E-3,1.8298546E-3,2.8336893E-3,1.0432015E-3,1.7664069E-3,2.834499E-4],"split_indices":[349,349,349,39,250,309,8,301,216,183,48,128,3,285,181,0,0,27,86,158,105,325,0,0,9,317,312,29,230,284,348,0,0,0,0,0,0,0,0,0,0,0,0,0,0,0,0,0,0,0,0,0,0,0,0,0,0],"split_type":[0,0,0,0,0,0,0,0,0,0,0,0,0,0,0,0,0,0,0,0,0,0,0,0,0,0,0,0,0,0,0,0,0,0,0,0,0,0,0,0,0,0,0,0,0,0,0,0,0,0,0,0,0,0,0,0,0],"sum_hessian":[5.2E2,3.26E2,1.94E2,9E1,2.36E2,3.5E1,1.59E2,1.8E1,7.2E1,1.91E2,4.5E1,7E0,2.8E1,9.2E1,6.7E1,1.2E1,6E0,2.2E1,5E1,5.6E1,1.35E2,4.1E1,4E0,2E0,5E0,1.8E1,1E1,6.6E1,2.6E1,4.5E1,2.2E1,1E0,5E0,3E0,1.9E1,4.1E1,9E0,4.4E1,1.2E1,1.05E2,3E1,2.1E1,2E1,3E0,2E0,8E0,1E1,5E0,5E0,2.2E1,4.4E1,2.1E1,5E0,4E1,5E0,1.8E1,4E0],"tree_param":{"num_deleted":"0","num_feature":"350","num_nodes":"57","size_leaf_vector":"1"}},{"base_weights":[-3.753817E-5,-1.3921769E-2,2.3245443E-2,-2.5529668E-2,-9.405987E-3,8.19341E-3,2.6486866E-2,-3.843811E-2,-2.1820214E-2,-7.172612E-3,-1.8523421E-2,-2.3416802E-3,1.0817111E-2,2.9704276E-2,1.9804459E-2,-4.482857E-3,-2.1078961E-2,-3.0051554E-2,-1.7680192E-2,-1.6273659E-2,-3.3054634E-3,-3.028053E-2,-1.243342E-2,-6.716629E-4,2.3607413E-4,5.6329644E-3,1.4145157E-2,3.827671E-2,2.5480026E-2,3.2653682E-2,1.7564682E-2,-8.6639926E-4,-2.431215E-3,-1.0607295E-3,-3.2437828E-3,-8.062124E-5,-1.9099122E-3,-2.2432497E-3,-6.870568E-4,-7.186189E-5,-1.2044174E-3,-3.8693603E-3,-1.1211986E-3,-6.607084E-4,-2.2955781E-3,1.2054742E-4,-1.1351506E-4,6.807349E-4,-5.5076678E-5,1.612898E-3,6.1581854E-4,2.5564986E-3,4.526108E-3,2.1299848E-3,3.6459495E-3,3.6176832E-3,5.7573913E-4,1.9180808E-3,6.8844337E-4],"categories":[],"categories_nodes":[],"categories_segments":[],"categories_sizes":[],"default_left":[0,0,0,0,0,0,0,0,0,0,0,0,0,0,0,0,0,0,0,0,0,0,0,0,0,0,0,0,0,0,0,0,0,0,0,0,0,0,0,0,0,0,0,0,0,0,0,0,0,0,0,0,0,0,0,0,0,0,0],"id":23,"left_children":[1,3,5,7,9,11,13,15,17,19,21,23,25,27,29,-1,31,33,35,37,39,41,43,-1,45,47,49,51,53,55,57,-1,-1,-1,-1,-1,-1,-1,-1,-1,-1,-1,-1,-1,-1,-1,-1,-1,-1,-1,-1,-1,-1,-1,-1,-1,-1,-1,-1],"loss_changes":[1.6874535E-1,1.6900793E-2,9.297028E-3,3.5186522E-3,4.6930853E-3,1.0204033E-3,2.8517395E-3,1.162786E-3,1.9563735E-3,6.7036673E-3,2.9171463E-3,9.1805974E-5,4.2065978E-4,2.8631762E-3,1.0093115E-3,0E0,7.0339534E-5,7.231068E-4,1.2056958E-3,3.1468673E-3,3.0657188E-3,1.972544E-3,1.8101474E-3,0E0,9.343986E-6,9.815622E-5,1.7003552E-4,1.7727539E-3,2.619736E-3,4.5503397E-4,7.137228E-4,0E0,0E0,0E0,0E0,0E0,0E0,0E0,0E0,0E0,0E0,0E0,0E0,0E0,0E0,0E0,0E0,0E0,0E0,0E0,0E0,0E0,0E0,0E0,0E0,0E0,0E0,0E0,0E0],"parents":[2147483647,0,0,1,1,2,2,3,3,4,4,5,5,6,6,7,7,8,8,9,9,10,10,11,11,12,12,13,13,14,14,16,16,17,17,18,18,19,19,20,20,21,21,22,22,24,24,25,25,26,26,27,27,28,28,29,29,30,30],"right_children":[2,4,6,8,10,12,14,16,18,20,22,24,26,28,30,-1,32,34,36,38,40,42,44,-1,46,48,50,52,54,56,58,-1,-1,-1,-1,-1,-1,-1,-1,-1,-1,-1,-1,-1,-1,-1,-1,-1,-1,-1,-1,-1,-1,-1,-1,-1,-1,-1,-1],"split_conditions":[6.221607E-1,4.0831023E-1,7.6509696E-1,6.8753463E-1,8.836565E-1,8.770083E-1,2.0443213E-1,5.3074795E-1,4.8421052E-1,5.423823E-1,8.725762E-1,4.6481994E-1,8.6481994E-1,1.3905817E-1,1.0581718E-1,-4.482857E-3,8.7756234E-1,6.963989E-1,4.4155124E-1,5.296399E-1,8.836565E-1,9.157895E-1,8.2548475E-1,-6.716629E-4,2.2493075E-1,8.0110806E-1,9.1135734E-1,6.963989E-1,8.875346E-1,4.1551247E-1,9.2576176E-1,-8.6639926E-4,-2.431215E-3,-1.0607295E-3,-3.2437828E-3,-8.062124E-5,-1.9099122E-3,-2.2432497E-3,-6.870568E-4,-7.186189E-5,-1.2044174E-3,-3.8693603E-3,-1.1211986E-3,-6.607084E-4,-2.2955781E-3,1.2054742E-4,-1.1351506E-4,6.807349E-4,-5.5076678E-5,1.612898E-3,6.1581854E-4,2.5564986E-3,4.526108E-3,2.1299848E-3,3.6459495E-3,3.6176832E-3,5.7573913E-4,1.9180808E-3,6.8844337E-4],"split_indices":[349,349,349,39,250,309,9,301,216,183,242,128,274,29,95,0,2,27,160,299,105,281,29,0,9,241,322,293,296,9,301,0,0,0,0,0,0,0,0,0,0,0,0,0,0,0,0,0,0,0,0,0,0,0,0,0,0,0,0],"split_type":[0,0,0,0,0,0,0,0,0,0,0,0,0,0,0,0,0,0,0,0,0,0,0,0,0,0,0,0,0,0,0,0,0,0,0,0,0,0,0,0,0,0,0,0,0,0,0,0,0,0,0,0,0,0,0,0,0,0,0],"sum_hessian":[5.2E2,3.26E2,1.94E2,9E1,2.36E2,3.5E1,1.59E2,1.8E1,7.2E1,1.91E2,4.5E1,7E0,2.8E1,1.05E2,5.4E1,1.2E1,6E0,2.2E1,5E1,5.6E1,1.35E2,1.4E1,3.1E1,2E0,5E0,1.2E1,1.6E1,3.2E1,7.3E1,6E0,4.8E1,2E0,4E0,3E0,1.9E1,4E0,4.6E1,3.3E1,2.3E1,1.05E2,3E1,9E0,5E0,2.1E1,1E1,3E0,2E0,1E1,2E0,1.2E1,4E0,1.3E1,1.9E1,5.5E1,1.8E1,5E0,1E0,4.1E1,7E0],"tree_param":{"num_deleted":"0","num_feature":"350","num_nodes":"59","size_leaf_vector":"1"}},{"base_weights":[-4.2186304E-5,-1.2609797E-2,2.1032946E-2,-2.3131378E-2,-8.516659E-3,7.4348915E-3,2.3961052E-2,-3.5003792E-2,-1.9724429E-2,-6.477249E-3,-1.6843833E-2,-2.1905825E-3,9.833819E-3,2.611165E-2,1.5828116E-2,-4.069054E-3,-1.944215E-2,-2.4939004E-2,-1.3976761E-2,-1.46977E-2,-2.984286E-3,-1.9173678E-2,6.095636E-4,-6.268839E-4,2.1364291E-4,6.0674935E-3,1.4002566E-2,1.8261211E-2,2.8729076E-2,2.0036208E-2,7.784243E-3,-4.976541E-4,-2.1023662E-3,-2.6593166E-3,2.672543E-4,-3.3270085E-4,-1.6350802E-3,-1.8184008E-3,-1.4991165E-4,-1.0664497E-3,-2.1723798E-5,-1.1717532E-3,-2.6071852E-3,1.1150837E-4,-1.0594925E-4,4.148036E-5,7.2491553E-4,1.6225195E-3,4.9453526E-4,1.3020786E-3,2.3342893E-3,3.0340187E-3,1.0499934E-3,2.5371497E-3,6.861106E-4,8.720517E-5,1.0461914E-3],"categories":[],"categories_nodes":[],"categories_segments":[],"categories_sizes":[],"default_left":[0,0,0,0,0,0,0,0,0,0,0,0,0,0,0,0,0,0,0,0,0,0,0,0,0,0,0,0,0,0,0,0,0,0,0,0,0,0,0,0,0,0,0,0,0,0,0,0,0,0,0,0,0,0,0,0,0],"id":24,"left_children":[1,3,5,7,9,11,13,15,17,19,21,23,25,27,29,-1,31,33,35,37,39,41,-1,-1,43,45,47,49,51,53,55,-1,-1,-1,-1,-1,-1,-1,-1,-1,-1,-1,-1,-1,-1,-1,-1,-1,-1,-1,-1,-1,-1,-1,-1,-1,-1],"loss_changes":[1.382594E-1,1.3885673E-2,7.586077E-3,2.9904023E-3,3.915757E-3,8.528109E-4,2.385214E-3,8.902978E-4,1.839364E-3,5.469173E-3,2.575365E-3,7.9779675E-5,3.7036464E-4,2.0438582E-3,1.0626102E-3,0E0,5.5517536E-5,1.7610062E-3,8.810703E-4,2.5955588E-3,2.8878888E-3,1.8547196E-3,0E0,0E0,8.067359E-6,1.1054566E-4,1.8146145E-4,6.014835E-4,2.383396E-3,1.4426615E-3,2.4999678E-4,0E0,0E0,0E0,0E0,0E0,0E0,0E0,0E0,0E0,0E0,0E0,0E0,0E0,0E0,0E0,0E0,0E0,0E0,0E0,0E0,0E0,0E0,0E0,0E0,0E0,0E0],"parents":[2147483647,0,0,1,1,2,2,3,3,4,4,5,5,6,6,7,7,8,8,9,9,10,10,11,11,12,12,13,13,14,14,16,16,17,17,18,18,19,19,20,20,21,21,24,24,25,25,26,26,27,27,28,28,29,29,30,30],"right_children":[2,4,6,8,10,12,14,16,18,20,22,24,26,28,30,-1,32,34,36,38,40,42,-1,-1,44,46,48,50,52,54,56,-1,-1,-1,-1,-1,-1,-1,-1,-1,-1,-1,-1,-1,-1,-1,-1,-1,-1,-1,-1,-1,-1,-1,-1,-1,-1],"split_conditions":[6.221607E-1,4.0831023E-1,7.6509696E-1,6.8753463E-1,8.836565E-1,8.770083E-1,8.7811637E-1,5.3074795E-1,5.407202E-1,5.423823E-1,8.354571E-1,4.6481994E-1,8.903047E-1,1.6343491E-1,2.1218836E-1,-4.069054E-3,8.770083E-1,8.9529085E-1,4.2880887E-1,7.468144E-1,4.5096952E-1,4.7423822E-1,6.095636E-4,-6.268839E-4,2.2493075E-1,8.67036E-1,9.1135734E-1,7.257618E-1,8.193906E-1,9.0470916E-1,1.867036E-1,-4.976541E-4,-2.1023662E-3,-2.6593166E-3,2.672543E-4,-3.3270085E-4,-1.6350802E-3,-1.8184008E-3,-1.4991165E-4,-1.0664497E-3,-2.1723798E-5,-1.1717532E-3,-2.6071852E-3,1.1150837E-4,-1.0594925E-4,4.148036E-5,7.2491553E-4,1.6225195E-3,4.9453526E-4,1.3020786E-3,2.3342893E-3,3.0340187E-3,1.0499934E-3,2.5371497E-3,6.861106E-4,8.720517E-5,1.0461914E-3],"split_indices":[349,349,349,39,250,309,285,301,219,183,48,128,274,121,2,0,0,76,300,158,254,325,0,0,9,324,322,284,93,289,17,0,0,0,0,0,0,0,0,0,0,0,0,0,0,0,0,0,0,0,0,0,0,0,0,0,0],"split_type":[0,0,0,0,0,0,0,0,0,0,0,0,0,0,0,0,0,0,0,0,0,0,0,0,0,0,0,0,0,0,0,0,0,0,0,0,0,0,0,0,0,0,0,0,0,0,0,0,0,0,0,0,0,0,0,0,0],"sum_hessian":[5.2E2,3.26E2,1.94E2,9E1,2.36E2,3.5E1,1.59E2,1.8E1,7.2E1,1.91E2,4.5E1,7E0,2.8E1,1.24E2,3.5E1,1.2E1,6E0,3.6E1,3.6E1,5.6E1,1.35E2,4.1E1,4E0,2E0,5E0,1.6E1,1.2E1,3.3E1,9.1E1,2.2E1,1.3E1,1E0,5E0,3.4E1,2E0,7E0,2.9E1,4.4E1,1.2E1,3.5E1,1E2,2.1E1,2E1,3E0,2E0,3E0,1.3E1,9E0,3E0,1.8E1,1.5E1,8.3E1,8E0,1.5E1,7E0,4E0,9E0],"tree_param":{"num_deleted":"0","num_feature":"350","num_nodes":"57","size_leaf_vector":"1"}},{"base_weights":[-4.356293E-5,-1.140159E-2,1.90032E-2,-2.0939434E-2,-7.691272E-3,9.614294E-3,2.2623023E-2,-3.185441E-2,-1.7811708E-2,-8.561455E-3,7.961214E-3,4.7743223E-3,1.4635956E-2,3.3535667E-2,2.0842124E-2,-1.4450127E-3,-3.553221E-2,-2.6209606E-2,-1.4586768E-2,-9.0866943E-4,-1.0856461E-2,1.5285456E-3,3.0076106E-3,-1.3036013E-3,7.4412227E-3,1.7556034E-2,6.8451297E-3,6.813526E-3,3.6450088E-2,1.945277E-2,3.62792E-2,-2.2426269E-3,-4.1777696E-3,-1.694004E-3,-3.4626895E-3,-3.590749E-4,-1.6950535E-3,-2.1316675E-3,2.150154E-4,-1.193526E-3,6.116317E-4,3.3851862E-5,5.0751807E-4,-4.3562293E-4,1.4575223E-4,8.87463E-4,4.0026085E-4,1.0923356E-3,2.243311E-3,1.3928613E-4,8.203941E-4,9.431541E-5,9.277135E-4,2.186077E-3,4.1094255E-3,2.9860083E-3,1.7342725E-3,1.731025E-3,4.7992314E-3],"categories":[],"categories_nodes":[],"categories_segments":[],"categories_sizes":[],"default_left":[0,0,0,0,0,0,0,0,0,0,0,0,0,0,0,0,0,0,0,0,0,0,0,0,0,0,0,0,0,0,0,0,0,0,0,0,0,0,0,0,0,0,0,0,0,0,0,0,0,0,0,0,0,0,0,0,0,0,0],"id":25,"left_children":[1,3,5,7,9,11,13,15,17,19,21,23,25,27,29,-1,31,33,35,37,39,-1,41,43,45,47,49,51,53,55,57,-1,-1,-1,-1,-1,-1,-1,-1,-1,-1,-1,-1,-1,-1,-1,-1,-1,-1,-1,-1,-1,-1,-1,-1,-1,-1,-1,-1],"loss_changes":[1.1292649E-1,1.14109665E-2,6.4098015E-3,2.5392734E-3,3.2962235E-3,1.291187E-3,2.0218492E-3,7.027332E-4,1.5947223E-3,3.9418526E-3,4.2568537E-4,4.959769E-4,4.9407175E-4,1.1534803E-3,1.9323267E-3,0E0,2.9087812E-4,8.958867E-4,1.3686959E-3,3.3543312E-3,3.2406654E-3,0E0,4.7948757E-5,9.063613E-5,6.798585E-5,3.6956836E-4,5.525048E-5,3.4637138E-5,1.857318E-4,2.0075291E-3,1.1689104E-3,0E0,0E0,0E0,0E0,0E0,0E0,0E0,0E0,0E0,0E0,0E0,0E0,0E0,0E0,0E0,0E0,0E0,0E0,0E0,0E0,0E0,0E0,0E0,0E0,0E0,0E0,0E0,0E0],"parents":[2147483647,0,0,1,1,2,2,3,3,4,4,5,5,6,6,7,7,8,8,9,9,10,10,11,11,12,12,13,13,14,14,16,16,17,17,18,18,19,19,20,20,22,22,23,23,24,24,25,25,26,26,27,27,28,28,29,29,30,30],"right_children":[2,4,6,8,10,12,14,16,18,20,22,24,26,28,30,-1,32,34,36,38,40,-1,42,44,46,48,50,52,54,56,58,-1,-1,-1,-1,-1,-1,-1,-1,-1,-1,-1,-1,-1,-1,-1,-1,-1,-1,-1,-1,-1,-1,-1,-1,-1,-1,-1,-1],"split_conditions":[6.221607E-1,4.0831023E-1,8.3102494E-1,6.8753463E-1,9.268698E-1,8.903047E-1,5.972299E-1,4.498615E-1,4.1108033E-1,6.8753463E-1,8.67036E-1,6.941828E-1,9.0803325E-1,9.861496E-2,9.67313E-1,-1.4450127E-3,5.1080334E-1,3.6731303E-1,4.1717452E-1,5.423823E-1,9.645429E-1,1.5285456E-3,8.770083E-1,9.0193903E-1,9.1468143E-1,8.072022E-1,7.096953E-1,5.9279777E-2,7.939058E-1,6.814405E-1,7.833795E-1,-2.2426269E-3,-4.1777696E-3,-1.694004E-3,-3.4626895E-3,-3.590749E-4,-1.6950535E-3,-2.1316675E-3,2.150154E-4,-1.193526E-3,6.116317E-4,3.3851862E-5,5.0751807E-4,-4.3562293E-4,1.4575223E-4,8.87463E-4,4.0026085E-4,1.0923356E-3,2.243311E-3,1.3928613E-4,8.203941E-4,9.431541E-5,9.277135E-4,2.186077E-3,4.1094255E-3,2.9860083E-3,1.7342725E-3,1.731025E-3,4.7992314E-3],"split_indices":[349,349,349,39,201,274,181,190,279,98,188,346,322,4,201,0,57,344,281,183,2,0,98,287,311,174,147,0,255,286,82,0,0,0,0,0,0,0,0,0,0,0,0,0,0,0,0,0,0,0,0,0,0,0,0,0,0,0,0],"split_type":[0,0,0,0,0,0,0,0,0,0,0,0,0,0,0,0,0,0,0,0,0,0,0,0,0,0,0,0,0,0,0,0,0,0,0,0,0,0,0,0,0,0,0,0,0,0,0,0,0,0,0,0,0,0,0,0,0,0,0],"sum_hessian":[5.2E2,3.26E2,1.94E2,9E1,2.36E2,5.5E1,1.39E2,1.8E1,7.2E1,2.24E2,1.2E1,2.9E1,2.6E1,1.7E1,1.22E2,4E0,1.4E1,1.8E1,5.4E1,5.2E1,1.72E2,4E0,8E0,9E0,2E1,1.8E1,8E0,2E0,1.5E1,1.14E2,8E0,6E0,8E0,1E1,8E0,1E1,4.4E1,6E0,4.6E1,1.62E2,1E1,4E0,4E0,4E0,5E0,1.3E1,7E0,9E0,9E0,2E0,6E0,1E0,1E0,5E0,1E1,1.7E1,9.7E1,4E0,4E0],"tree_param":{"num_deleted":"0","num_feature":"350","num_nodes":"59","size_leaf_vector":"1"}},{"base_weights":[-2.3162182E-5,-1.0308843E-2,1.7225252E-2,-1.9011155E-2,-6.923952E-3,8.747391E-3,2.0493358E-2,-6.3288384E-3,-2.1043735E-2,-5.154497E-3,-1.4158983E-2,4.330166E-3,1.3331442E-2,3.182854E-2,1.8981287E-2,3.4044683E-3,-9.292874E-3,-2.260164E-2,-2.0133343E-3,-1.5790557E-2,-3.0873835E-3,-2.4610229E-2,-8.817493E-3,-1.2022078E-3,6.7584314E-3,6.989701E-3,1.665072E-2,6.4728656E-3,3.5231505E-2,1.7722461E-2,3.3376854E-2,8.452982E-5,3.9757587E-4,-1.2795106E-3,-4.2418294E-4,-2.3830791E-3,-1.3648272E-4,2.8368534E-4,-6.360188E-4,-2.0764582E-3,-3.2686442E-4,-8.259725E-4,2.8753793E-5,-3.2077625E-3,-8.0628647E-4,-3.1459928E-4,-1.8007829E-3,-4.798755E-4,1.0247061E-4,8.050566E-4,3.652394E-4,9.70155E-4,3.1129023E-4,1.8955125E-3,7.3291187E-4,8.960068E-5,8.813292E-4,2.0227542E-3,3.9652428E-3,2.4765271E-3,1.4928298E-3,4.7654375E-3,1.8295696E-3],"categories":[],"categories_nodes":[],"categories_segments":[],"categories_sizes":[],"default_left":[0,0,0,0,0,0,0,0,0,0,0,0,0,0,0,0,0,0,0,0,0,0,0,0,0,0,0,0,0,0,0,0,0,0,0,0,0,0,0,0,0,0,0,0,0,0,0,0,0,0,0,0,0,0,0,0,0,0,0,0,0,0,0],"id":26,"left_children":[1,3,5,7,9,11,13,15,17,19,21,23,25,27,29,31,33,35,37,39,41,43,45,47,49,51,53,55,57,59,61,-1,-1,-1,-1,-1,-1,-1,-1,-1,-1,-1,-1,-1,-1,-1,-1,-1,-1,-1,-1,-1,-1,-1,-1,-1,-1,-1,-1,-1,-1,-1,-1],"loss_changes":[9.2609055E-2,9.500604E-3,5.2235164E-3,2.2126026E-3,2.9611066E-3,1.0762042E-3,1.7953962E-3,4.355354E-4,2.267003E-3,4.1725487E-3,2.35096E-3,4.1114714E-4,4.519662E-4,1.0662163E-3,1.6917922E-3,2.487417E-6,1.4031463E-4,1.8469095E-3,1.6562431E-4,1.8629418E-3,2.8302865E-3,1.594848E-3,1.6112828E-3,8.500932E-5,5.487789E-5,8.544623E-5,2.2624852E-4,3.1259915E-5,6.023608E-5,1.9523874E-3,1.0660235E-3,0E0,0E0,0E0,0E0,0E0,0E0,0E0,0E0,0E0,0E0,0E0,0E0,0E0,0E0,0E0,0E0,0E0,0E0,0E0,0E0,0E0,0E0,0E0,0E0,0E0,0E0,0E0,0E0,0E0,0E0,0E0,0E0],"parents":[2147483647,0,0,1,1,2,2,3,3,4,4,5,5,6,6,7,7,8,8,9,9,10,10,11,11,12,12,13,13,14,14,15,15,16,16,17,17,18,18,19,19,20,20,21,21,22,22,23,23,24,24,25,25,26,26,27,27,28,28,29,29,30,30],"right_children":[2,4,6,8,10,12,14,16,18,20,22,24,26,28,30,32,34,36,38,40,42,44,46,48,50,52,54,56,58,60,62,-1,-1,-1,-1,-1,-1,-1,-1,-1,-1,-1,-1,-1,-1,-1,-1,-1,-1,-1,-1,-1,-1,-1,-1,-1,-1,-1,-1,-1,-1,-1,-1],"split_conditions":[6.221607E-1,4.0831023E-1,8.3102494E-1,4.631579E-1,8.836565E-1,8.903047E-1,6.6759E-1,4.836565E-1,8.941828E-1,4.6371192E-1,8.725762E-1,6.941828E-1,6.903047E-1,9.861496E-2,9.67313E-1,6.0166204E-1,5.1966757E-1,9.1855955E-1,8.243767E-1,5.257618E-1,4.5540166E-1,9.157895E-1,9.235457E-1,5.811634E-1,9.1468143E-1,2.4210526E-1,9.67313E-1,5.9279777E-2,7.939058E-1,1.3351801E-1,4.1551247E-2,8.452982E-5,3.9757587E-4,-1.2795106E-3,-4.2418294E-4,-2.3830791E-3,-1.3648272E-4,2.8368534E-4,-6.360188E-4,-2.0764582E-3,-3.2686442E-4,-8.259725E-4,2.8753793E-5,-3.2077625E-3,-8.0628647E-4,-3.1459928E-4,-1.8007829E-3,-4.798755E-4,1.0247061E-4,8.050566E-4,3.652394E-4,9.70155E-4,3.1129023E-4,1.8955125E-3,7.3291187E-4,8.960068E-5,8.813292E-4,2.0227542E-3,3.9652428E-3,2.4765271E-3,1.4928298E-3,4.7654375E-3,1.8295696E-3],"split_indices":[349,349,349,203,250,274,207,176,250,214,242,346,139,4,201,7,165,32,33,205,315,281,109,133,311,19,272,0,255,25,0,0,0,0,0,0,0,0,0,0,0,0,0,0,0,0,0,0,0,0,0,0,0,0,0,0,0,0,0,0,0,0,0],"split_type":[0,0,0,0,0,0,0,0,0,0,0,0,0,0,0,0,0,0,0,0,0,0,0,0,0,0,0,0,0,0,0,0,0,0,0,0,0,0,0,0,0,0,0,0,0,0,0,0,0,0,0,0,0,0,0,0,0,0,0,0,0,0,0],"sum_hessian":[5.2E2,3.26E2,1.94E2,9E1,2.36E2,5.5E1,1.39E2,1.3E1,7.7E1,1.91E2,4.5E1,2.9E1,2.6E1,1.4E1,1.25E2,3E0,1E1,7.1E1,6E0,3E1,1.61E2,1.4E1,3.1E1,9E0,2E1,1E1,1.6E1,2E0,1.2E1,1.17E2,8E0,1E0,2E0,5E0,5E0,6.7E1,4E0,3E0,3E0,2.1E1,9E0,6.3E1,9.8E1,9E0,5E0,2E1,1.1E1,3E0,6E0,1.3E1,7E0,5E0,5E0,1.2E1,4E0,1E0,1E0,4E0,8E0,3.1E1,8.6E1,3E0,5E0],"tree_param":{"num_deleted":"0","num_feature":"350","num_nodes":"63","size_leaf_vector":"1"}},{"base_weights":[-3.9502665E-6,-9.319002E-3,1.5616695E-2,-1.715502E-2,-6.270915E-3,7.956627E-3,1.8569175E-2,-2.6825273E-2,-1.4403105E-2,4.944953E-3,-7.2711282E-3,3.923567E-3,1.21431155E-2,2.6249064E-2,1.667138E-2,-3.153509E-2,-1.4246293E-2,-1.212543E-2,-2.497083E-2,-6.14615E-3,1.0137294E-2,-8.181791E-3,7.718687E-3,-1.119721E-3,6.1382963E-3,6.407212E-3,1.5140281E-2,1.3049616E-2,3.1390507E-2,1.5329544E-2,3.0771945E-2,-1.7288756E-3,-3.5945817E-3,-4.66763E-4,-1.7144233E-3,-7.686742E-4,-1.7594591E-3,-9.271167E-4,-2.917392E-3,-9.7793345E-5,-8.0178503E-4,-1.8876792E-5,1.2970654E-3,-1.095754E-3,-3.1873822E-4,1.421057E-3,3.2544535E-4,-3.8567424E-4,1.3477505E-4,8.59315E-4,4.2970735E-4,8.893083E-4,2.853473E-4,9.4419654E-4,1.9156345E-3,-5.2001076E-5,1.700094E-3,2.2535396E-3,3.7741687E-3,2.1978773E-3,1.2453499E-3,4.408029E-3,1.6771058E-3],"categories":[],"categories_nodes":[],"categories_segments":[],"categories_sizes":[],"default_left":[0,0,0,0,0,0,0,0,0,0,0,0,0,0,0,0,0,0,0,0,0,0,0,0,0,0,0,0,0,0,0,0,0,0,0,0,0,0,0,0,0,0,0,0,0,0,0,0,0,0,0,0,0,0,0,0,0,0,0,0,0,0,0],"id":27,"left_children":[1,3,5,7,9,11,13,15,17,19,21,23,25,27,29,31,33,35,37,39,41,43,45,47,49,51,53,55,57,59,61,-1,-1,-1,-1,-1,-1,-1,-1,-1,-1,-1,-1,-1,-1,-1,-1,-1,-1,-1,-1,-1,-1,-1,-1,-1,-1,-1,-1,-1,-1,-1,-1],"loss_changes":[7.595474E-2,7.7027753E-3,4.26241E-3,2.0352993E-3,2.6946822E-3,8.978797E-4,1.6028732E-3,6.7639165E-4,1.4543161E-3,1.214081E-3,3.0389968E-3,3.4195874E-4,3.6716228E-4,1.3548359E-3,1.7041564E-3,1.9541848E-4,1.1428585E-4,1.3698619E-3,5.2136835E-4,5.9872546E-5,4.120526E-4,2.8208997E-3,3.3050904E-4,7.273314E-5,5.7993107E-5,7.1799295E-5,2.0816782E-4,4.9140246E-4,1.618024E-4,1.7725006E-3,9.376835E-4,0E0,0E0,0E0,0E0,0E0,0E0,0E0,0E0,0E0,0E0,0E0,0E0,0E0,0E0,0E0,0E0,0E0,0E0,0E0,0E0,0E0,0E0,0E0,0E0,0E0,0E0,0E0,0E0,0E0,0E0,0E0,0E0],"parents":[2147483647,0,0,1,1,2,2,3,3,4,4,5,5,6,6,7,7,8,8,9,9,10,10,11,11,12,12,13,13,14,14,15,15,16,16,17,17,18,18,19,19,20,20,21,21,22,22,23,23,24,24,25,25,26,26,27,27,28,28,29,29,30,30],"right_children":[2,4,6,8,10,12,14,16,18,20,22,24,26,28,30,32,34,36,38,40,42,44,46,48,50,52,54,56,58,60,62,-1,-1,-1,-1,-1,-1,-1,-1,-1,-1,-1,-1,-1,-1,-1,-1,-1,-1,-1,-1,-1,-1,-1,-1,-1,-1,-1,-1,-1,-1,-1,-1],"split_conditions":[6.221607E-1,4.0831023E-1,8.3102494E-1,6.8753463E-1,4.465374E-1,8.903047E-1,7.096953E-1,5.3074795E-1,9.2576176E-1,2.1052632E-1,9.268698E-1,6.941828E-1,6.903047E-1,9.7506925E-2,9.67313E-1,5.1080334E-1,8.7756234E-1,5.0526315E-1,8.7811637E-1,1.3351801E-1,4.0775624E-1,8.875346E-1,8.67036E-1,9.0193903E-1,8.5096955E-1,2.4210526E-1,8.138504E-1,1.3351801E-1,8.0554014E-1,1.3351801E-1,4.1551247E-2,-1.7288756E-3,-3.5945817E-3,-4.66763E-4,-1.7144233E-3,-7.686742E-4,-1.7594591E-3,-9.271167E-4,-2.917392E-3,-9.7793345E-5,-8.0178503E-4,-1.8876792E-5,1.2970654E-3,-1.095754E-3,-3.1873822E-4,1.421057E-3,3.2544535E-4,-3.8567424E-4,1.3477505E-4,8.59315E-4,4.2970735E-4,8.893083E-4,2.853473E-4,9.4419654E-4,1.9156345E-3,-5.2001076E-5,1.700094E-3,2.2535396E-3,3.7741687E-3,2.1978773E-3,1.2453499E-3,4.408029E-3,1.6771058E-3],"split_indices":[349,349,349,39,106,274,211,301,9,33,201,346,139,42,201,57,2,321,18,0,151,123,188,287,286,19,174,5,239,25,0,0,0,0,0,0,0,0,0,0,0,0,0,0,0,0,0,0,0,0,0,0,0,0,0,0,0,0,0,0,0,0,0],"split_type":[0,0,0,0,0,0,0,0,0,0,0,0,0,0,0,0,0,0,0,0,0,0,0,0,0,0,0,0,0,0,0,0,0,0,0,0,0,0,0,0,0,0,0,0,0,0,0,0,0,0,0,0,0,0,0,0,0,0,0,0,0,0,0],"sum_hessian":[5.2E2,3.26E2,1.94E2,9E1,2.36E2,5.5E1,1.39E2,1.8E1,7.2E1,1.9E1,2.17E2,2.9E1,2.6E1,2.5E1,1.14E2,1.2E1,6E0,6.1E1,1.1E1,6E0,1.3E1,2.05E2,1.2E1,9E0,2E1,1E1,1.6E1,8E0,1.7E1,1.06E2,8E0,4E0,8E0,2E0,4E0,3.5E1,2.6E1,3E0,8E0,2E0,4E0,3E0,1E1,1.31E2,7.4E1,4E0,8E0,4E0,5E0,7E0,1.3E1,5E0,5E0,8E0,8E0,2E0,6E0,9E0,8E0,3E1,7.6E1,3E0,5E0],"tree_param":{"num_deleted":"0","num_feature":"350","num_nodes":"63","size_leaf_vector":"1"}},{"base_weights":[1.3930097E-5,-8.427364E-3,1.416926E-2,-1.559202E-2,-5.6408197E-3,5.2299406E-3,1.6229544E-2,-2.4537735E-2,-1.3050094E-2,-4.0544993E-3,-1.2139356E-2,5.9972605E-4,7.905911E-3,2.8737152E-2,1.5281184E-2,-1.4953073E-2,-3.0149026E-2,-1.0953667E-2,-2.279413E-2,-1.3052061E-3,-1.1240283E-2,-8.777918E-3,-2.7008943E-2,-2.3494437E-3,3.47393E-3,1.0607709E-2,4.803795E-3,3.5724603E-3,1.812475E-3,1.390244E-2,2.3982989E-2,-4.3564537E-4,-1.7358329E-3,-1.5057042E-3,-3.392639E-3,-7.052132E-4,-1.6084554E-3,-8.575827E-4,-2.6580696E-3,-1.1150159E-3,5.503095E-6,5.716354E-4,-1.312569E-3,2.4310025E-4,-1.2726892E-3,-6.224662E-4,-2.908889E-3,-4.005897E-4,3.0848383E-5,5.8188237E-4,1.7224948E-4,1.3130419E-3,4.4498322E-4,5.374117E-4,1.11134854E-4,1.5173381E-3,6.090045E-4,1.4135448E-3,3.3354096E-3],"categories":[],"categories_nodes":[],"categories_segments":[],"categories_sizes":[],"default_left":[0,0,0,0,0,0,0,0,0,0,0,0,0,0,0,0,0,0,0,0,0,0,0,0,0,0,0,0,0,0,0,0,0,0,0,0,0,0,0,0,0,0,0,0,0,0,0,0,0,0,0,0,0,0,0,0,0,0,0],"id":28,"left_children":[1,3,5,7,9,11,13,15,17,19,21,23,25,27,29,31,33,35,37,39,41,43,45,47,49,51,53,-1,-1,55,57,-1,-1,-1,-1,-1,-1,-1,-1,-1,-1,-1,-1,-1,-1,-1,-1,-1,-1,-1,-1,-1,-1,-1,-1,-1,-1,-1,-1],"loss_changes":[6.2373336E-2,6.440483E-3,3.5065375E-3,1.7490592E-3,2.3939572E-3,4.660905E-4,1.4350154E-3,5.7104416E-4,1.2415396E-3,3.7784474E-3,2.0621447E-3,1.3530954E-4,1.5019381E-4,9.403657E-5,1.4542155E-3,1.5376741E-4,1.16255134E-4,1.1277068E-3,4.1811122E-4,1.8754193E-3,1.7694496E-3,1.7572248E-3,1.6477285E-4,3.6457615E-5,2.2832559E-5,1.2798619E-4,2.1403976E-5,0E0,0E0,1.2083054E-3,1.2818901E-3,0E0,0E0,0E0,0E0,0E0,0E0,0E0,0E0,0E0,0E0,0E0,0E0,0E0,0E0,0E0,0E0,0E0,0E0,0E0,0E0,0E0,0E0,0E0,0E0,0E0,0E0,0E0,0E0],"parents":[2147483647,0,0,1,1,2,2,3,3,4,4,5,5,6,6,7,7,8,8,9,9,10,10,11,11,12,12,13,13,14,14,15,15,16,16,17,17,18,18,19,19,20,20,21,21,22,22,23,23,24,24,25,25,26,26,29,29,30,30],"right_children":[2,4,6,8,10,12,14,16,18,20,22,24,26,28,30,32,34,36,38,40,42,44,46,48,50,52,54,-1,-1,56,58,-1,-1,-1,-1,-1,-1,-1,-1,-1,-1,-1,-1,-1,-1,-1,-1,-1,-1,-1,-1,-1,-1,-1,-1,-1,-1,-1,-1],"split_conditions":[6.221607E-1,4.0831023E-1,7.67867E-1,6.8753463E-1,8.836565E-1,8.5096955E-1,6.481995E-2,4.731302E-1,9.2576176E-1,8.9861494E-1,9.0470916E-1,9.036011E-1,9.268698E-1,1.8393351E-1,8.260388E-1,8.7756234E-1,7.32964E-1,5.069252E-1,8.7811637E-1,4.7202215E-1,4.1385043E-1,7.191136E-1,5.8227146E-1,8.260388E-1,3.7839335E-1,7.961219E-1,7.512465E-1,3.5724603E-3,1.812475E-3,8.709141E-1,8.7811637E-1,-4.3564537E-4,-1.7358329E-3,-1.5057042E-3,-3.392639E-3,-7.052132E-4,-1.6084554E-3,-8.575827E-4,-2.6580696E-3,-1.1150159E-3,5.503095E-6,5.716354E-4,-1.312569E-3,2.4310025E-4,-1.2726892E-3,-6.224662E-4,-2.908889E-3,-4.005897E-4,3.0848383E-5,5.8188237E-4,1.7224948E-4,1.3130419E-3,4.4498322E-4,5.374117E-4,1.11134854E-4,1.5173381E-3,6.090045E-4,1.4135448E-3,3.3354096E-3],"split_indices":[349,349,349,39,250,274,152,220,9,20,203,309,284,106,131,2,19,321,18,214,145,75,4,212,3,71,145,0,0,198,234,0,0,0,0,0,0,0,0,0,0,0,0,0,0,0,0,0,0,0,0,0,0,0,0,0,0,0,0],"split_type":[0,0,0,0,0,0,0,0,0,0,0,0,0,0,0,0,0,0,0,0,0,0,0,0,0,0,0,0,0,0,0,0,0,0,0,0,0,0,0,0,0,0,0,0,0,0,0,0,0,0,0,0,0,0,0,0,0,0,0],"sum_hessian":[5.2E2,3.26E2,1.94E2,9E1,2.36E2,3.7E1,1.57E2,1.8E1,7.2E1,1.91E2,4.5E1,1.4E1,2.3E1,9E0,1.48E2,8E0,1E1,6.1E1,1.1E1,1.39E2,5.2E1,3.8E1,7E0,7E0,7E0,1.1E1,1.2E1,4E0,5E0,1.3E2,1.8E1,2E0,6E0,3E0,7E0,3.6E1,2.5E1,3E0,8E0,1.6E1,1.23E2,5E0,4.7E1,1E1,2.8E1,1E0,6E0,4E0,3E0,2E0,5E0,7E0,4E0,1E1,2E0,1.11E2,1.9E1,1E1,8E0],"tree_param":{"num_deleted":"0","num_feature":"350","num_nodes":"59","size_leaf_vector":"1"}},{"base_weights":[4.362065E-6,-7.6436773E-3,1.2829513E-2,-1.1894844E-2,-3.7435284E-3,6.5236688E-3,1.5260211E-2,-1.6164461E-2,-5.982002E-3,-2.7074497E-3,-1.7332288E-2,3.1094472E-3,1.0075631E-2,1.6030442E-2,2.2679104E-3,-1.763772E-2,-9.4538264E-4,-1.3403383E-2,-1.7980208E-3,-1.2227122E-2,-1.4986891E-3,-2.859199E-3,-2.4211432E-3,-9.5281005E-4,4.8957863E-3,1.2254646E-2,4.3559736E-3,1.3335794E-3,1.6842797E-2,-1.5735881E-3,1.0475437E-3,-2.02979E-3,-6.272444E-4,1.4501682E-4,-6.219874E-4,-4.8261392E-4,-1.9185262E-3,-1.1850506E-3,3.288156E-4,-1.7291745E-3,7.840842E-5,-2.4868858E-5,-9.7092876E-4,-6.3305895E-4,1.5652577E-4,-4.7163764E-4,5.7762863E-5,7.015519E-4,3.3348118E-4,7.074863E-4,1.6208965E-3,6.6218774E-5,5.316743E-4,-2.1409591E-4,7.83813E-4,2.2907397E-3,1.3930589E-3,-4.052058E-4,1.2982787E-4],"categories":[],"categories_nodes":[],"categories_segments":[],"categories_sizes":[],"default_left":[0,0,0,0,0,0,0,0,0,0,0,0,0,0,0,0,0,0,0,0,0,0,0,0,0,0,0,0,0,0,0,0,0,0,0,0,0,0,0,0,0,0,0,0,0,0,0,0,0,0,0,0,0,0,0,0,0,0,0],"id":29,"left_children":[1,3,5,7,9,11,13,15,17,19,21,23,25,27,29,31,33,35,37,39,41,43,-1,45,47,49,51,53,55,57,-1,-1,-1,-1,-1,-1,-1,-1,-1,-1,-1,-1,-1,-1,-1,-1,-1,-1,-1,-1,-1,-1,-1,-1,-1,-1,-1,-1,-1],"loss_changes":[5.1201526E-2,5.37719E-3,2.8893314E-3,3.8416106E-3,2.3746656E-3,6.4779306E-4,1.3646297E-3,2.0012744E-3,2.056312E-3,1.834303E-3,1.1255245E-3,2.2236185E-4,2.8312602E-4,1.5534982E-3,3.0024684E-4,2.3518447E-3,1.2273768E-4,1.0976312E-3,2.2886298E-3,1.1997016E-3,1.4754938E-3,8.6704094E-5,0E0,6.0323382E-5,4.6090398E-5,2.7449126E-4,2.8419207E-5,1.975836E-4,1.8885583E-3,5.508554E-5,0E0,0E0,0E0,0E0,0E0,0E0,0E0,0E0,0E0,0E0,0E0,0E0,0E0,0E0,0E0,0E0,0E0,0E0,0E0,0E0,0E0,0E0,0E0,0E0,0E0,0E0,0E0,0E0,0E0],"parents":[2147483647,0,0,1,1,2,2,3,3,4,4,5,5,6,6,7,7,8,8,9,9,10,10,11,11,12,12,13,13,14,14,15,15,16,16,17,17,18,18,19,19,20,20,21,21,23,23,24,24,25,25,26,26,27,27,28,28,29,29],"right_children":[2,4,6,8,10,12,14,16,18,20,22,24,26,28,30,32,34,36,38,40,42,44,-1,46,48,50,52,54,56,58,-1,-1,-1,-1,-1,-1,-1,-1,-1,-1,-1,-1,-1,-1,-1,-1,-1,-1,-1,-1,-1,-1,-1,-1,-1,-1,-1,-1,-1],"split_conditions":[6.221607E-1,6.969529E-1,8.3102494E-1,8.626039E-1,9.5789474E-1,8.903047E-1,9.091413E-1,9.036011E-1,5.3462607E-1,4.465374E-1,7.8836566E-1,6.941828E-1,9.0803325E-1,6.371191E-2,8.903047E-1,5.5180055E-1,7.362881E-1,5.3905815E-1,4.3490306E-1,9.268698E-1,9.069252E-1,6.227147E-1,-2.4211432E-3,4.6481994E-1,8.5096955E-1,8.072022E-1,7.096953E-1,7.905817E-1,7.5457066E-1,1.7783934E-1,1.0475437E-3,-2.02979E-3,-6.272444E-4,1.4501682E-4,-6.219874E-4,-4.8261392E-4,-1.9185262E-3,-1.1850506E-3,3.288156E-4,-1.7291745E-3,7.840842E-5,-2.4868858E-5,-9.7092876E-4,-6.3305895E-4,1.5652577E-4,-4.7163764E-4,5.7762863E-5,7.015519E-4,3.3348118E-4,7.074863E-4,1.6208965E-3,6.6218774E-5,5.316743E-4,-2.1409591E-4,7.83813E-4,2.2907397E-3,1.3930589E-3,-4.052058E-4,1.2982787E-4],"split_indices":[349,161,349,44,156,274,285,249,215,210,64,346,322,43,330,310,62,246,141,2,254,0,0,128,286,174,147,131,211,21,0,0,0,0,0,0,0,0,0,0,0,0,0,0,0,0,0,0,0,0,0,0,0,0,0,0,0,0,0],"split_type":[0,0,0,0,0,0,0,0,0,0,0,0,0,0,0,0,0,0,0,0,0,0,0,0,0,0,0,0,0,0,0,0,0,0,0,0,0,0,0,0,0,0,0,0,0,0,0,0,0,0,0,0,0,0,0,0,0,0,0],"sum_hessian":[5.2E2,3.26E2,1.94E2,1.55E2,1.71E2,5.5E1,1.39E2,8.9E1,6.6E1,1.6E2,1.1E1,2.9E1,2.6E1,1.31E2,8E0,8.1E1,8E0,2.3E1,4.3E1,1.7E1,1.43E2,4E0,7E0,9E0,2E1,1.8E1,8E0,7E0,1.24E2,6E0,2E0,6.5E1,1.6E1,6E0,2E0,1E1,1.3E1,1.4E1,2.9E1,1.2E1,5E0,1.25E2,1.8E1,2E0,2E0,2E0,7E0,7E0,1.3E1,9E0,9E0,2E0,6E0,5E0,2E0,3.8E1,8.6E1,3E0,3E0],"tree_param":{"num_deleted":"0","num_feature":"350","num_nodes":"59","size_leaf_vector":"1"}},{"base_weights":[-2.5355998E-6,-6.9158175E-3,1.159052E-2,-1.0746335E-2,-3.4014198E-3,4.2582625E-3,1.3280616E-2,-1.8219514E-2,-7.923553E-3,-2.2836863E-3,-1.4156591E-2,4.226923E-4,6.478066E-3,1.2477554E-2,2.5189353E-2,-2.823802E-2,-1.0277409E-2,-9.226692E-3,4.0306128E-3,-1.0084819E-2,-8.6942606E-4,1.0315239E-3,-1.9305257E-2,-2.0789057E-3,2.8714538E-3,8.7569505E-3,3.876168E-3,1.508023E-2,8.432991E-3,3.7227913E-3,1.2965421E-2,-1.2985229E-3,-3.1668444E-3,-1.9807518E-4,-1.2252537E-3,-4.689924E-4,-1.2475488E-3,1.0460296E-3,-4.1424535E-4,6.206301E-5,-1.5476333E-3,-3.5473576E-4,4.5057578E-4,-5.596891E-4,4.0878504E-4,-2.4452854E-3,-7.2080496E-4,-3.9434285E-4,-1.715064E-5,4.9632194E-4,1.3469956E-4,1.0860317E-3,3.640175E-4,5.052345E-4,2.1462527E-4,1.646952E-3,7.4667405E-5,1.8810273E-4,1.0344618E-3,1.448257E-3,2.6898386E-4],"categories":[],"categories_nodes":[],"categories_segments":[],"categories_sizes":[],"default_left":[0,0,0,0,0,0,0,0,0,0,0,0,0,0,0,0,0,0,0,0,0,0,0,0,0,0,0,0,0,0,0,0,0,0,0,0,0,0,0,0,0,0,0,0,0,0,0,0,0,0,0,0,0,0,0,0,0,0,0,0,0],"id":30,"left_children":[1,3,5,7,9,11,13,15,17,19,21,23,25,27,29,31,33,35,37,39,41,43,45,47,49,51,53,55,57,-1,59,-1,-1,-1,-1,-1,-1,-1,-1,-1,-1,-1,-1,-1,-1,-1,-1,-1,-1,-1,-1,-1,-1,-1,-1,-1,-1,-1,-1,-1,-1],"loss_changes":[4.1836258E-2,4.3655075E-3,2.3599286E-3,3.1464808E-3,2.0353545E-3,3.2080186E-4,1.1967253E-3,3.0516433E-3,1.8286523E-3,1.7233867E-3,1.2710898E-3,9.785673E-5,1.08362874E-4,1.4518313E-3,8.4175076E-4,5.306015E-4,3.8540456E-4,1.4743507E-3,6.73934E-4,1.3948509E-3,1.9448295E-3,1.2417225E-4,5.710013E-4,2.777479E-5,1.8825041E-5,8.961599E-5,1.5607307E-5,1.7799139E-3,7.4456073E-4,0E0,5.458179E-5,0E0,0E0,0E0,0E0,0E0,0E0,0E0,0E0,0E0,0E0,0E0,0E0,0E0,0E0,0E0,0E0,0E0,0E0,0E0,0E0,0E0,0E0,0E0,0E0,0E0,0E0,0E0,0E0,0E0,0E0],"parents":[2147483647,0,0,1,1,2,2,3,3,4,4,5,5,6,6,7,7,8,8,9,9,10,10,11,11,12,12,13,13,14,14,15,15,16,16,17,17,18,18,19,19,20,20,21,21,22,22,23,23,24,24,25,25,26,26,27,27,28,28,30,30],"right_children":[2,4,6,8,10,12,14,16,18,20,22,24,26,28,30,32,34,36,38,40,42,44,46,48,50,52,54,56,58,-1,60,-1,-1,-1,-1,-1,-1,-1,-1,-1,-1,-1,-1,-1,-1,-1,-1,-1,-1,-1,-1,-1,-1,-1,-1,-1,-1,-1,-1,-1,-1],"split_conditions":[6.221607E-1,6.969529E-1,7.67867E-1,7.595568E-1,9.551247E-1,8.5096955E-1,9.67313E-1,8.731302E-1,9.301939E-1,4.6371192E-1,7.911357E-1,9.036011E-1,9.268698E-1,2.0277008E-1,4.1551247E-2,3.4903046E-1,4.426593E-1,4.33241E-1,8.725762E-1,8.731302E-1,8.2548475E-1,6.227147E-1,8.3102494E-1,7.9556787E-1,3.7839335E-1,7.961219E-1,8.138504E-1,9.645429E-1,7.268698E-1,3.7227913E-3,1.4515236E-1,-1.2985229E-3,-3.1668444E-3,-1.9807518E-4,-1.2252537E-3,-4.689924E-4,-1.2475488E-3,1.0460296E-3,-4.1424535E-4,6.206301E-5,-1.5476333E-3,-3.5473576E-4,4.5057578E-4,-5.596891E-4,4.0878504E-4,-2.4452854E-3,-7.2080496E-4,-3.9434285E-4,-1.715064E-5,4.9632194E-4,1.3469956E-4,1.0860317E-3,3.640175E-4,5.052345E-4,2.1462527E-4,1.646952E-3,7.4667405E-5,1.8810273E-4,1.0344618E-3,1.448257E-3,2.6898386E-4],"split_indices":[349,161,349,42,156,274,201,11,59,214,47,309,284,23,0,311,196,299,79,33,17,0,76,211,3,71,178,241,270,0,1,0,0,0,0,0,0,0,0,0,0,0,0,0,0,0,0,0,0,0,0,0,0,0,0,0,0,0,0,0,0],"split_type":[0,0,0,0,0,0,0,0,0,0,0,0,0,0,0,0,0,0,0,0,0,0,0,0,0,0,0,0,0,0,0,0,0,0,0,0,0,0,0,0,0,0,0,0,0,0,0,0,0,0,0,0,0,0,0,0,0,0,0,0,0],"sum_hessian":[5.2E2,3.26E2,1.94E2,1.55E2,1.71E2,3.7E1,1.57E2,4.1E1,1.14E2,1.56E2,1.5E1,1.4E1,2.3E1,1.49E2,8E0,1.7E1,2.4E1,1.03E2,1.1E1,2.3E1,1.33E2,4E0,1.1E1,7E0,7E0,1.1E1,1.2E1,8.9E1,6E1,3E0,5E0,4E0,1.3E1,5E0,1.9E1,4.4E1,5.9E1,6E0,5E0,8E0,1.5E1,8.9E1,4.4E1,1E0,3E0,7E0,4E0,3E0,4E0,2E0,5E0,7E0,4E0,6E0,6E0,8.1E1,8E0,1.4E1,4.6E1,4E0,1E0],"tree_param":{"num_deleted":"0","num_feature":"350","num_nodes":"61","size_leaf_vector":"1"}},{"base_weights":[-4.018909E-6,-6.530792E-3,1.0088621E-2,-1.0019395E-2,-3.256326E-3,4.822482E-3,1.2499168E-2,-4.475122E-3,-1.3174076E-2,-2.4858913E-3,-2.0291014E-2,1.7941594E-3,8.868271E-3,2.0376673E-2,1.1244743E-2,4.36996E-3,-8.669518E-3,-1.4413818E-2,-9.46939E-4,-4.0100966E-4,-7.298826E-3,-8.202712E-4,-2.3485792E-3,2.6858614E-3,-6.679699E-3,1.4523208E-2,6.2917103E-3,8.015106E-3,2.4514575E-2,1.375011E-2,4.8081595E-3,-4.5461624E-4,1.12677E-3,-1.1243644E-3,1.1601978E-4,-8.7958755E-4,-1.7624658E-3,2.5690833E-4,-1.0007352E-3,8.48256E-4,-1.5518635E-4,-9.096642E-4,1.4751315E-3,3.7272737E-4,-6.577253E-4,-9.0420246E-5,-8.3034637E-4,1.7210961E-3,4.3066344E-4,3.6017795E-4,8.890456E-4,-5.978942E-5,9.857285E-4,2.8019634E-3,1.3302553E-3,2.460555E-3,1.1712335E-3,8.9572725E-4,-3.5598347E-5],"categories":[],"categories_nodes":[],"categories_segments":[],"categories_sizes":[],"default_left":[0,0,0,0,0,0,0,0,0,0,0,0,0,0,0,0,0,0,0,0,0,0,0,0,0,0,0,0,0,0,0,0,0,0,0,0,0,0,0,0,0,0,0,0,0,0,0,0,0,0,0,0,0,0,0,0,0,0,0],"id":31,"left_children":[1,3,5,7,9,11,13,15,17,19,21,23,25,27,29,31,33,35,37,39,41,-1,-1,43,45,47,49,51,53,55,57,-1,-1,-1,-1,-1,-1,-1,-1,-1,-1,-1,-1,-1,-1,-1,-1,-1,-1,-1,-1,-1,-1,-1,-1,-1,-1,-1,-1],"loss_changes":[3.438539E-2,3.588561E-3,2.5420506E-3,2.617076E-3,2.1150382E-3,7.927178E-4,1.1543129E-3,2.1525726E-3,1.4567263E-3,1.5925425E-3,7.7688834E-5,3.1263084E-4,3.165924E-4,7.2422996E-4,1.9173846E-3,1.2197456E-3,9.998595E-4,1.432348E-3,3.4427582E-4,1.158217E-3,2.0370085E-3,0E0,0E0,3.7179713E-4,3.0004172E-5,1.4555559E-4,1.1477788E-4,1.0109373E-4,1.3815146E-4,1.6584545E-3,7.7454664E-4,0E0,0E0,0E0,0E0,0E0,0E0,0E0,0E0,0E0,0E0,0E0,0E0,0E0,0E0,0E0,0E0,0E0,0E0,0E0,0E0,0E0,0E0,0E0,0E0,0E0,0E0,0E0,0E0],"parents":[2147483647,0,0,1,1,2,2,3,3,4,4,5,5,6,6,7,7,8,8,9,9,10,10,11,11,12,12,13,13,14,14,15,15,16,16,17,17,18,18,19,19,20,20,23,23,24,24,25,25,26,26,27,27,28,28,29,29,30,30],"right_children":[2,4,6,8,10,12,14,16,18,20,22,24,26,28,30,32,34,36,38,40,42,-1,-1,44,46,48,50,52,54,56,58,-1,-1,-1,-1,-1,-1,-1,-1,-1,-1,-1,-1,-1,-1,-1,-1,-1,-1,-1,-1,-1,-1,-1,-1,-1,-1,-1,-1],"split_conditions":[6.027701E-1,6.969529E-1,8.3102494E-1,4.836565E-1,8.9916897E-1,8.903047E-1,5.972299E-1,4.5152354E-1,8.836565E-1,9.091413E-1,6.4819944E-1,9.6121883E-1,8.941828E-1,7.911357E-1,9.1191137E-1,3.8060942E-1,9.229917E-1,4.3490306E-1,8.2936287E-1,4.3213296E-1,8.941828E-1,-8.202712E-4,-2.3485792E-3,8.9529085E-1,1.3351801E-1,7.905817E-1,7.024931E-1,5.9279777E-2,1.7728531E-1,6.814405E-1,9.036011E-1,-4.5461624E-4,1.12677E-3,-1.1243644E-3,1.1601978E-4,-8.7958755E-4,-1.7624658E-3,2.5690833E-4,-1.0007352E-3,8.48256E-4,-1.5518635E-4,-9.096642E-4,1.4751315E-3,3.7272737E-4,-6.577253E-4,-9.0420246E-5,-8.3034637E-4,1.7210961E-3,4.3066344E-4,3.6017795E-4,8.890456E-4,-5.978942E-5,9.857285E-4,2.8019634E-3,1.3302553E-3,2.460555E-3,1.1712335E-3,8.9572725E-4,-3.5598347E-5],"split_indices":[349,161,349,161,309,274,181,137,140,141,13,281,273,251,344,320,79,283,16,280,88,0,0,16,4,64,138,0,131,269,332,0,0,0,0,0,0,0,0,0,0,0,0,0,0,0,0,0,0,0,0,0,0,0,0,0,0,0,0],"split_type":[0,0,0,0,0,0,0,0,0,0,0,0,0,0,0,0,0,0,0,0,0,0,0,0,0,0,0,0,0,0,0,0,0,0,0,0,0,0,0,0,0,0,0,0,0,0,0,0,0,0,0,0,0,0,0,0,0,0,0],"sum_hessian":[5.2E2,3.16E2,