{"learner":{"attributes":{"scikit_learn":"{\"_estimator_type\": \"regressor\"}"},"feature_names":[],"feature_types":[],"gradient_booster":{"model":{"gbtree_model_param":{"num_parallel_tree":"1","num_trees":"100"},"iteration_indptr":[0,1,2,3,4,5,6,7,8,9,10,11,12,13,14,15,16,17,18,19,20,21,22,23,24,25,26,27,28,29,30,31,32,33,34,35,36,37,38,39,40,41,42,43,44,45,46,47,48,49,50,51,52,53,54,55,56,57,58,59,60,61,62,63,64,65,66,67,68,69,70,71,72,73,74,75,76,77,78,79,80,81,82,83,84,85,86,87,88,89,90,91,92,93,94,95,96,97,98,99,100],"tree_info":[0,0,0,0,0,0,0,0,0,0,0,0,0,0,0,0,0,0,0,0,0,0,0,0,0,0,0,0,0,0,0,0,0,0,0,0,0,0,0,0,0,0,0,0,0,0,0,0,0,0,0,0,0,0,0,0,0,0,0,0,0,0,0,0,0,0,0,0,0,0,0,0,0,0,0,0,0,0,0,0,0,0,0,0,0,0,0,0,0,0,0,0,0,0,0,0,0,0,0,0],"trees":[{"base_weights":[7.025116E-9,-1.7061275E-1,1.3495025E-1,-2.8836045E-1,-8.68383E-2,8.158194E-2,2.4148533E-1,-3.2983176E-2,-2.3949037E-1,-1.2454985E-1,-3.7154343E-2,3.198225E-2,1.1812503E-1,1.9351526E-1,2.7933493E-2,-2.450837E-2,-1.4177769E-2,-1.4197749E-1,-9.006635E-2,-4.5113824E-2,4.8800185E-4,1.12849595E-2,4.741666E-2,9.5565245E-2,1.3383535E-1,8.1388755E-3,1.9578295E-2,-1.4288162E-2,-3.8892478E-3,-9.358271E-3,-1.5503656E-3,-4.88388E-3,-1.402637E-3,6.4449655E-3,-8.072752E-4,1.7627971E-3,-2.028005E-4,6.192462E-3,2.9713295E-3,9.711988E-3,2.8471719E-3,2.8609724E-3,1.3466813E-2],"categories":[],"categories_nodes":[],"categories_segments":[],"categories_sizes":[],"default_left":[0,0,0,0,0,0,0,0,0,0,0,0,0,0,0,0,0,0,0,0,0,0,0,0,0,0,0,0,0,0,0,0,0,0,0,0,0,0,0,0,0,0,0],"id":0,"left_children":[1,3,5,7,9,11,13,-1,15,17,19,21,23,25,-1,-1,-1,27,29,31,33,35,37,39,41,-1,-1,-1,-1,-1,-1,-1,-1,-1,-1,-1,-1,-1,-1,-1,-1,-1,-1],"loss_changes":[1.7360271E1,3.2597542E0,2.3739347E0,2.0069408E-1,3.626095E-1,5.073545E-1,2.0013523E-1,0E0,1.8706322E-3,5.391991E-2,2.5788777E-2,3.8118415E-2,4.4626236E-2,5.92947E-4,0E0,0E0,0E0,1.1534691E-3,9.03672E-3,7.536769E-3,9.281245E-3,4.511297E-3,1.5881956E-2,4.536271E-3,4.2966604E-3,0E0,0E0,0E0,0E0,0E0,0E0,0E0,0E0,0E0,0E0,0E0,0E0,0E0,0E0,0E0,0E0,0E0,0E0],"parents":[2147483647,0,0,1,1,2,2,3,3,4,4,5,5,6,6,8,8,9,9,10,10,11,11,12,12,13,13,17,17,18,18,19,19,20,20,21,21,22,22,23,23,24,24],"right_children":[2,4,6,8,10,12,14,-1,16,18,20,22,24,26,-1,-1,-1,28,30,32,34,36,38,40,42,-1,-1,-1,-1,-1,-1,-1,-1,-1,-1,-1,-1,-1,-1,-1,-1,-1,-1],"split_conditions":[4.182058E-1,2.4098505E-1,5.9542656E-1,1.4335972E-1,3.5048372E-1,5.0615656E-1,6.596306E-1,-3.2983176E-2,3.2805628E-1,3.1442392E-1,4.8636764E-1,4.5426562E-1,5.373791E-1,4.2612138E-1,2.7933493E-2,-2.450837E-2,-1.4177769E-2,5.9718555E-1,4.6921724E-1,4.2436236E-1,4.4063324E-1,5.3078276E-1,4.0413368E-1,6.112577E-1,2.2691293E-1,8.1388755E-3,1.9578295E-2,-1.4288162E-2,-3.8892478E-3,-9.358271E-3,-1.5503656E-3,-4.88388E-3,-1.402637E-3,6.4449655E-3,-8.072752E-4,1.7627971E-3,-2.028005E-4,6.192462E-3,2.9713295E-3,9.711988E-3,2.8471719E-3,2.8609724E-3,1.3466813E-2],"split_indices":[59,59,59,59,59,59,59,0,46,59,20,59,59,27,0,0,0,10,19,57,2,5,0,52,21,0,0,0,0,0,0,0,0,0,0,0,0,0,0,0,0,0,0],"split_type":[0,0,0,0,0,0,0,0,0,0,0,0,0,0,0,0,0,0,0,0,0,0,0,0,0,0,0,0,0,0,0,0,0,0,0,0,0,0,0,0,0,0,0],"sum_hessian":[7.52E2,3.32E2,4.2E2,1.37E2,1.95E2,2.81E2,1.39E2,7.1E1,6.6E1,1.1E2,8.5E1,1.2E2,1.61E2,6.4E1,7.5E1,6.1E1,5E0,7.1E1,3.9E1,7E1,1.5E1,5.2E1,6.8E1,6.9E1,9.2E1,2E0,6.2E1,7E1,1E0,3.7E1,2E0,6.2E1,8E0,1E0,1.4E1,3.5E1,1.7E1,3.6E1,3.2E1,6.7E1,2E0,1E0,9.1E1],"tree_param":{"num_deleted":"0","num_feature":"60","num_nodes":"43","size_leaf_vector":"1"}},{"base_weights":[-8.153587E-6,-1.8592541E-1,1.0074457E-1,-2.7398577E-1,-1.1658589E-1,3.6333837E-2,1.8905477E-1,-3.1319924E-2,-2.4273606E-2,-1.5146422E-1,-8.244865E-2,-1.5392869E-3,8.1852235E-2,1.4161807E-1,2.4089997E-1,-1.7493E-2,-1.2997927E-2,-9.046579E-2,-5.0698943E-2,-2.8461063E-2,1.9587325E-2,5.5595826E-2,9.433398E-2,1.2430545E-1,1.5920904E-2,2.052596E-2,2.6037583E-1,-9.2796665E-3,-1.4470071E-3,-2.1034635E-3,-5.5229496E-3,-3.6601454E-3,7.915665E-5,8.429926E-4,3.1606623E-3,6.0040182E-3,8.921814E-4,9.501106E-3,1.8391073E-3,2.717924E-3,1.25490995E-2,1.0981998E-2,2.6373181E-2],"categories":[],"categories_nodes":[],"categories_segments":[],"categories_sizes":[],"default_left":[0,0,0,0,0,0,0,0,0,0,0,0,0,0,0,0,0,0,0,0,0,0,0,0,0,0,0,0,0,0,0,0,0,0,0,0,0,0,0,0,0,0,0],"id":1,"left_children":[1,3,5,7,9,11,13,-1,-1,15,17,19,21,23,25,-1,-1,27,29,31,33,35,37,39,-1,-1,41,-1,-1,-1,-1,-1,-1,-1,-1,-1,-1,-1,-1,-1,-1,-1,-1],"loss_changes":[1.4123678E1,1.5861645E0,2.7746243E0,6.6122055E-2,1.6610956E-1,4.8972037E-1,4.7251368E-1,0E0,0E0,1.4066577E-2,1.5267789E-2,8.9284964E-2,3.7032068E-2,1.3709307E-2,1.3885498E-2,0E0,0E0,9.462595E-3,1.2573861E-3,1.6459797E-2,1.1534717E-2,8.591518E-3,2.6746988E-3,3.4980774E-3,0E0,0E0,8.4757805E-4,0E0,0E0,0E0,0E0,0E0,0E0,0E0,0E0,0E0,0E0,0E0,0E0,0E0,0E0,0E0,0E0],"parents":[2147483647,0,0,1,1,2,2,3,3,4,4,5,5,6,6,9,9,10,10,11,11,12,12,13,13,14,14,17,17,18,18,19,19,20,20,21,21,22,22,23,23,26,26],"right_children":[2,4,6,8,10,12,14,-1,-1,16,18,20,22,24,26,-1,-1,28,30,32,34,36,38,40,-1,-1,42,-1,-1,-1,-1,-1,-1,-1,-1,-1,-1,-1,-1,-1,-1,-1,-1],"split_conditions":[3.698329E-1,2.0272647E-1,5.5364996E-1,1.14775725E-1,2.9595426E-1,4.7845206E-1,6.3456464E-1,-3.1319924E-2,-2.4273606E-2,2.5461742E-1,3.5048372E-1,4.182058E-1,5.1275283E-1,5.8927E-1,6.8601584E-1,-1.7493E-2,-1.2997927E-2,4.6921724E-1,1.16974495E-1,4.8636764E-1,4.5118734E-1,5.633245E-1,6.495163E-1,2.2691293E-1,1.5920904E-2,2.052596E-2,6.4467895E-1,-9.2796665E-3,-1.4470071E-3,-2.1034635E-3,-5.5229496E-3,-3.6601454E-3,7.915665E-5,8.429926E-4,3.1606623E-3,6.0040182E-3,8.921814E-4,9.501106E-3,1.8391073E-3,2.717924E-3,1.25490995E-2,1.0981998E-2,2.6373181E-2],"split_indices":[59,59,59,59,59,59,59,0,0,59,59,59,59,59,58,0,0,19,23,20,59,47,52,21,0,0,59,0,0,0,0,0,0,0,0,0,0,0,0,0,0,0,0],"split_type":[0,0,0,0,0,0,0,0,0,0,0,0,0,0,0,0,0,0,0,0,0,0,0,0,0,0,0,0,0,0,0,0,0,0,0,0,0,0,0,0,0,0,0],"sum_hessian":[7.52E2,2.64E2,4.88E2,1.15E2,1.49E2,2.83E2,2.05E2,4.7E1,6.8E1,7.2E1,7.7E1,1.55E2,1.28E2,1.09E2,9.6E1,3.1E1,4.1E1,6E1,1.7E1,6.8E1,8.7E1,4.3E1,8.5E1,5.9E1,5E1,3.8E1,5.8E1,5.8E1,2E0,3E0,1.4E1,5.3E1,1.5E1,4.6E1,4.1E1,3.9E1,4E0,8.4E1,1E0,1E0,5.8E1,2E0,5.6E1],"tree_param":{"num_deleted":"0","num_feature":"60","num_nodes":"43","size_leaf_vector":"1"}},{"base_weights":[-2.9671319E-6,-1.6772698E-1,9.0890415E-2,-2.4076608E-1,-9.9786736E-2,3.276616E-2,1.7058167E-1,-2.7039891E-2,-2.0202992E-2,-1.2210061E-1,-6.554396E-2,-1.3826466E-3,7.380839E-2,1.2773979E-1,2.1740669E-1,-1.4279109E-2,-1.0769485E-1,-3.209785E-2,-6.958446E-2,-2.5666857E-2,1.7674094E-2,5.0192986E-2,8.503245E-2,1.13738395E-1,1.4615691E-2,1.9235082E-2,2.4208567E-1,-1.0868943E-2,-2.7988062E-3,-3.561568E-3,-3.7365258E-4,-7.1639717E-3,-1.350541E-3,-3.3009094E-3,7.173587E-5,7.604874E-4,2.852122E-3,5.418628E-3,8.208061E-4,8.562174E-3,1.7471522E-3,2.5820285E-3,1.1467927E-2,1.0068021E-2,2.4632126E-2],"categories":[],"categories_nodes":[],"categories_segments":[],"categories_sizes":[],"default_left":[0,0,0,0,0,0,0,0,0,0,0,0,0,0,0,0,0,0,0,0,0,0,0,0,0,0,0,0,0,0,0,0,0,0,0,0,0,0,0,0,0,0,0,0,0],"id":2,"left_children":[1,3,5,7,9,11,13,-1,-1,15,17,19,21,23,25,-1,27,29,31,33,35,37,39,41,-1,-1,43,-1,-1,-1,-1,-1,-1,-1,-1,-1,-1,-1,-1,-1,-1,-1,-1,-1,-1],"loss_changes":[1.1494732E1,1.2909822E0,2.2594562E0,9.114933E-2,9.820545E-2,3.9814025E-1,3.8547993E-1,0E0,0E0,9.361267E-3,5.4694116E-3,7.2647E-2,2.992487E-2,1.1741519E-2,1.341486E-2,0E0,1.1596084E-3,6.650826E-4,4.795328E-3,1.3390299E-2,9.394642E-3,6.9321916E-3,1.9279718E-3,2.5811791E-3,0E0,0E0,2.152443E-3,0E0,0E0,0E0,0E0,0E0,0E0,0E0,0E0,0E0,0E0,0E0,0E0,0E0,0E0,0E0,0E0,0E0,0E0],"parents":[2147483647,0,0,1,1,2,2,3,3,4,4,5,5,6,6,9,9,10,10,11,11,12,12,13,13,14,14,16,16,17,17,18,18,19,19,20,20,21,21,22,22,23,23,26,26],"right_children":[2,4,6,8,10,12,14,-1,-1,16,18,20,22,24,26,-1,28,30,32,34,36,38,40,42,-1,-1,44,-1,-1,-1,-1,-1,-1,-1,-1,-1,-1,-1,-1,-1,-1,-1,-1,-1,-1],"split_conditions":[3.698329E-1,2.2251539E-1,5.5364996E-1,1.3852243E-1,3.1442392E-1,4.7845206E-1,6.3456464E-1,-2.7039891E-2,-2.0202992E-2,2.6737028E-1,9.4986804E-2,4.182058E-1,5.1275283E-1,5.9542656E-1,7.07124E-1,-1.4279109E-2,6.266491E-1,1.4687775E-1,4.6921724E-1,4.8636764E-1,4.5118734E-1,5.633245E-1,6.495163E-1,2.2691293E-1,1.4615691E-2,1.9235082E-2,4.7933158E-1,-1.0868943E-2,-2.7988062E-3,-3.561568E-3,-3.7365258E-4,-7.1639717E-3,-1.350541E-3,-3.3009094E-3,7.173587E-5,7.604874E-4,2.852122E-3,5.418628E-3,8.208061E-4,8.562174E-3,1.7471522E-3,2.5820285E-3,1.1467927E-2,1.0068021E-2,2.4632126E-2],"split_indices":[59,59,59,59,59,59,59,0,0,59,5,59,59,59,59,0,0,0,19,20,59,47,52,21,0,0,2,0,0,0,0,0,0,0,0,0,0,0,0,0,0,0,0,0,0],"split_type":[0,0,0,0,0,0,0,0,0,0,0,0,0,0,0,0,0,0,0,0,0,0,0,0,0,0,0,0,0,0,0,0,0,0,0,0,0,0,0,0,0,0,0,0,0],"sum_hessian":[7.52E2,2.64E2,4.88E2,1.26E2,1.38E2,2.83E2,2.05E2,6.8E1,5.8E1,8.2E1,5.6E1,1.55E2,1.28E2,1.09E2,9.6E1,3E1,5.2E1,7E0,4.9E1,6.8E1,8.7E1,4.3E1,8.5E1,6.6E1,4.3E1,5.2E1,4.4E1,5.1E1,1E0,6E0,1E0,4.7E1,2E0,5.3E1,1.5E1,4.6E1,4.1E1,3.9E1,4E0,8.4E1,1E0,1E0,6.5E1,2E0,4.2E1],"tree_param":{"num_deleted":"0","num_feature":"60","num_nodes":"45","size_leaf_vector":"1"}},{"base_weights":[1.3121848E-5,-1.51285E-1,8.200492E-2,-2.2483347E-1,-9.5976084E-2,2.9549161E-2,1.5392448E-1,-2.8571099E-2,-2.0783196E-1,-1.2446608E-1,-6.698615E-2,-3.9736256E-3,6.357563E-2,1.152264E-1,1.9622205E-1,-8.531551E-3,-2.096066E-2,-1.4322673E-2,-1.0586872E-1,-5.436981E-2,-8.342308E-2,-2.3146974E-2,1.3486041E-2,4.2363275E-2,7.664908E-2,1.0257425E-1,1.318734E-1,1.7347867E-2,2.1864822E-2,-2.6851029E-3,-1.0714108E-2,-6.7651207E-3,-4.104057E-3,-9.11634E-3,-3.4687785E-3,-2.9769314E-3,6.501079E-5,2.7667119E-3,5.558538E-4,4.665998E-3,1.4740516E-3,7.7160294E-3,1.6597941E-3,4.5659267E-3,1.0452871E-2,5.5605113E-3,1.341813E-2],"categories":[],"categories_nodes":[],"categories_segments":[],"categories_sizes":[],"default_left":[0,0,0,0,0,0,0,0,0,0,0,0,0,0,0,0,0,0,0,0,0,0,0,0,0,0,0,0,0,0,0,0,0,0,0,0,0,0,0,0,0,0,0,0,0,0,0],"id":3,"left_children":[1,3,5,7,9,11,13,-1,15,17,19,21,23,25,27,-1,-1,-1,29,31,33,35,37,39,41,43,45,-1,-1,-1,-1,-1,-1,-1,-1,-1,-1,-1,-1,-1,-1,-1,-1,-1,-1,-1,-1],"loss_changes":[9.353525E0,1.0564113E0,1.8402507E0,5.7575703E-2,1.1802876E-1,3.2420066E-1,3.1457806E-1,0E0,2.1204948E-3,1.1353016E-2,1.1639446E-2,4.851764E-2,3.5854757E-2,9.64129E-3,1.1543512E-2,0E0,0E0,0E0,1.3458133E-3,5.544007E-3,8.909002E-3,1.0893226E-2,8.3901705E-3,5.9586614E-3,1.3594627E-3,2.680242E-3,2.836585E-4,0E0,0E0,0E0,0E0,0E0,0E0,0E0,0E0,0E0,0E0,0E0,0E0,0E0,0E0,0E0,0E0,0E0,0E0,0E0,0E0],"parents":[2147483647,0,0,1,1,2,2,3,3,4,4,5,5,6,6,8,8,9,9,10,10,11,11,12,12,13,13,14,14,18,18,19,19,20,20,21,21,22,22,23,23,24,24,25,25,26,26],"right_children":[2,4,6,8,10,12,14,-1,16,18,20,22,24,26,28,-1,-1,-1,30,32,34,36,38,40,42,44,46,-1,-1,-1,-1,-1,-1,-1,-1,-1,-1,-1,-1,-1,-1,-1,-1,-1,-1,-1,-1],"split_conditions":[3.698329E-1,1.9613017E-1,5.5364996E-1,6.46438E-2,2.9595426E-1,4.7009674E-1,6.3456464E-1,-2.8571099E-2,1.6182938E-1,2.5461742E-1,3.7774846E-1,4.182058E-1,5.1275283E-1,5.9542656E-1,7.07124E-1,-8.531551E-3,-2.096066E-2,-1.4322673E-2,1.8029904E-2,1.4687775E-1,4.4283202E-1,4.8636764E-1,4.5074758E-1,5.5277044E-1,6.495163E-1,3.7510994E-1,4.2612138E-1,1.7347867E-2,2.1864822E-2,-2.6851029E-3,-1.0714108E-2,-6.7651207E-3,-4.104057E-3,-9.11634E-3,-3.4687785E-3,-2.9769314E-3,6.501079E-5,2.7667119E-3,5.558538E-4,4.665998E-3,1.4740516E-3,7.7160294E-3,1.6597941E-3,4.5659267E-3,1.0452871E-2,5.5605113E-3,1.341813E-2],"split_indices":[59,59,59,59,59,59,59,0,4,59,28,59,59,59,59,0,0,0,35,31,51,20,21,49,52,37,27,0,0,0,0,0,0,0,0,0,0,0,0,0,0,0,0,0,0,0,0],"split_type":[0,0,0,0,0,0,0,0,0,0,0,0,0,0,0,0,0,0,0,0,0,0,0,0,0,0,0,0,0,0,0,0,0,0,0,0,0,0,0,0,0,0,0,0,0,0,0],"sum_hessian":[7.52E2,2.64E2,4.88E2,1.12E2,1.52E2,2.83E2,2.05E2,2.1E1,9.1E1,7.5E1,7.7E1,1.43E2,1.4E2,1.09E2,9.6E1,2E0,8.9E1,3.4E1,4.1E1,4.6E1,3.1E1,6.8E1,7.5E1,5.5E1,8.5E1,6.6E1,4.3E1,5.2E1,4.4E1,1E0,4E1,2.1E1,2.5E1,2.6E1,5E0,5.3E1,1.5E1,2.6E1,4.9E1,4.7E1,8E0,8.4E1,1E0,3E0,6.3E1,2E0,4.1E1],"tree_param":{"num_deleted":"0","num_feature":"60","num_nodes":"47","size_leaf_vector":"1"}},{"base_weights":[-1.488626E-5,-1.3656873E-1,7.398671E-2,-2.0286396E-1,-8.6712964E-2,2.1252295E-2,1.323121E-1,-2.5843859E-2,-1.8736933E-1,-1.1238423E-1,-6.058823E-2,-8.881003E-3,4.7519516E-2,9.701476E-2,1.7408115E-1,-5.4004057E-3,-1.8824143E-2,-1.2931327E-2,-9.5600866E-2,-6.697176E-2,-3.5589144E-2,-2.0874482E-2,6.9007147E-3,3.1679064E-2,6.2454823E-2,8.5177936E-2,1.1026453E-1,1.4698887E-1,1.9350094E-1,-2.5508478E-3,-9.668828E-3,-6.872941E-3,-1.0080765E-3,-4.0660514E-3,-1.4271474E-3,-2.684752E-3,5.8917143E-5,9.3695935E-4,-1.8674439E-3,5.101228E-3,2.274689E-3,6.343311E-3,1.9462049E-3,2.2246302E-3,8.575097E-3,4.362427E-3,1.11894645E-2,1.5019166E-2,7.421024E-3,1.9807436E-2,1.0540786E-2],"categories":[],"categories_nodes":[],"categories_segments":[],"categories_sizes":[],"default_left":[0,0,0,0,0,0,0,0,0,0,0,0,0,0,0,0,0,0,0,0,0,0,0,0,0,0,0,0,0,0,0,0,0,0,0,0,0,0,0,0,0,0,0,0,0,0,0,0,0,0,0],"id":4,"left_children":[1,3,5,7,9,11,13,-1,15,17,19,21,23,25,27,-1,-1,-1,29,31,33,35,37,39,41,43,45,47,49,-1,-1,-1,-1,-1,-1,-1,-1,-1,-1,-1,-1,-1,-1,-1,-1,-1,-1,-1,-1,-1,-1],"loss_changes":[7.6193213E0,8.5828733E-1,1.5012331E0,4.888153E-2,9.580088E-2,2.0463368E-1,3.2515764E-1,0E0,5.347729E-4,9.23115E-3,1.0063976E-2,2.304665E-2,3.0669779E-2,1.0682821E-2,2.680087E-2,0E0,0E0,0E0,7.3486567E-4,5.406797E-3,1.3656914E-3,8.861838E-3,3.521495E-3,1.0755077E-2,1.7096102E-3,6.888509E-4,1.3107061E-3,4.2796135E-5,2.4888515E-3,0E0,0E0,0E0,0E0,0E0,0E0,0E0,0E0,0E0,0E0,0E0,0E0,0E0,0E0,0E0,0E0,0E0,0E0,0E0,0E0,0E0,0E0],"parents":[2147483647,0,0,1,1,2,2,3,3,4,4,5,5,6,6,8,8,9,9,10,10,11,11,12,12,13,13,14,14,18,18,19,19,20,20,21,21,22,22,23,23,24,24,25,25,26,26,27,27,28,28],"right_children":[2,4,6,8,10,12,14,-1,16,18,20,22,24,26,28,-1,-1,-1,30,32,34,36,38,40,42,44,46,48,50,-1,-1,-1,-1,-1,-1,-1,-1,-1,-1,-1,-1,-1,-1,-1,-1,-1,-1,-1,-1,-1,-1],"split_conditions":[3.698329E-1,1.9613017E-1,5.373791E-1,6.46438E-2,2.9595426E-1,4.5426562E-1,6.275286E-1,-2.5843859E-2,1.24010555E-1,2.5461742E-1,3.5048372E-1,4.182058E-1,5.0615656E-1,5.743184E-1,6.8601584E-1,-5.4004057E-3,-1.8824143E-2,-1.2931327E-2,1.8029904E-2,4.6921724E-1,3.4256816E-1,4.8636764E-1,6.072999E-1,3.2805628E-1,6.112577E-1,2.2691293E-1,4.4151276E-1,7.2075635E-1,7.1503955E-1,-2.5508478E-3,-9.668828E-3,-6.872941E-3,-1.0080765E-3,-4.0660514E-3,-1.4271474E-3,-2.684752E-3,5.8917143E-5,9.3695935E-4,-1.8674439E-3,5.101228E-3,2.274689E-3,6.343311E-3,1.9462049E-3,2.2246302E-3,8.575097E-3,4.362427E-3,1.11894645E-2,1.5019166E-2,7.421024E-3,1.9807436E-2,1.0540786E-2],"split_indices":[59,59,59,59,59,59,59,0,4,59,59,59,59,59,57,0,0,0,35,19,33,20,4,14,52,21,31,8,21,0,0,0,0,0,0,0,0,0,0,0,0,0,0,0,0,0,0,0,0,0,0],"split_type":[0,0,0,0,0,0,0,0,0,0,0,0,0,0,0,0,0,0,0,0,0,0,0,0,0,0,0,0,0,0,0,0,0,0,0,0,0,0,0,0,0,0,0,0,0,0,0,0,0,0,0],"sum_hessian":[7.52E2,2.64E2,4.88E2,1.12E2,1.52E2,2.57E2,2.31E2,2.1E1,9.1E1,7.5E1,7.7E1,1.2E2,1.37E2,1.27E2,1.04E2,1E0,9E1,3.4E1,4.1E1,6E1,1.7E1,6.8E1,5.2E1,6.8E1,6.9E1,7.1E1,5.6E1,4.7E1,5.7E1,1E0,4E1,5.8E1,2E0,1.3E1,4E0,5.3E1,1.5E1,4.8E1,4E0,2E1,4.8E1,6.7E1,2E0,1E0,7E1,2E0,5.4E1,4.4E1,3E0,5.3E1,4E0],"tree_param":{"num_deleted":"0","num_feature":"60","num_nodes":"51","size_leaf_vector":"1"}},{"base_weights":[-9.873335E-6,-1.2324617E-1,6.6774644E-2,-1.8505938E-1,-7.954625E-2,2.3977254E-2,1.2545271E-1,-2.3376945E-2,-1.7077892E-1,-1.02776185E-1,-5.4700863E-2,-1.1253869E-3,5.4148067E-2,9.7972974E-2,1.6581266E-1,-1.7159086E-2,-5.007074E-3,-1.178503E-2,-8.6331725E-2,-4.351055E-2,-6.942724E-2,-1.8825097E-2,1.2765584E-2,3.8451534E-2,6.328155E-2,8.3573036E-2,1.1266489E-1,9.9354535E-3,1.706907E-2,-8.811384E-3,-3.3792926E-3,-5.514338E-3,-3.19939E-3,-7.5870254E-3,-2.8862422E-3,-2.4403709E-3,1.1792835E-4,2.2761493E-3,5.067345E-4,4.208939E-3,1.0091922E-3,2.7589656E-3,6.4313835E-3,3.1092565E-3,8.470948E-3,4.443846E-3,1.1427918E-2],"categories":[],"categories_nodes":[],"categories_segments":[],"categories_sizes":[],"default_left":[0,0,0,0,0,0,0,0,0,0,0,0,0,0,0,0,0,0,0,0,0,0,0,0,0,0,0,0,0,0,0,0,0,0,0,0,0,0,0,0,0,0,0,0,0,0,0],"id":5,"left_children":[1,3,5,7,9,11,13,-1,15,17,19,21,23,25,27,-1,-1,-1,29,31,33,35,37,39,41,43,45,-1,-1,-1,-1,-1,-1,-1,-1,-1,-1,-1,-1,-1,-1,-1,-1,-1,-1,-1,-1],"loss_changes":[6.2056274E0,7.011061E-1,1.2250023E0,3.589773E-2,8.4991634E-2,2.1515316E-1,2.122252E-1,0E0,3.2901764E-5,9.656668E-3,9.832993E-3,3.859543E-2,1.606068E-2,1.7029524E-2,9.624243E-3,0E0,0E0,0E0,9.548366E-4,4.5324117E-3,6.17373E-3,7.728949E-3,6.6563375E-3,4.733652E-3,1.1731386E-3,1.3621151E-3,1.4196634E-3,0E0,0E0,0E0,0E0,0E0,0E0,0E0,0E0,0E0,0E0,0E0,0E0,0E0,0E0,0E0,0E0,0E0,0E0,0E0,0E0],"parents":[2147483647,0,0,1,1,2,2,3,3,4,4,5,5,6,6,8,8,9,9,10,10,11,11,12,12,13,13,14,14,18,18,19,19,20,20,21,21,22,22,23,23,24,24,25,25,26,26],"right_children":[2,4,6,8,10,12,14,-1,16,18,20,22,24,26,28,-1,-1,-1,30,32,34,36,38,40,42,44,46,-1,-1,-1,-1,-1,-1,-1,-1,-1,-1,-1,-1,-1,-1,-1,-1,-1,-1,-1,-1],"split_conditions":[3.698329E-1,1.9261214E-1,5.5364996E-1,6.46438E-2,2.9595426E-1,4.7845206E-1,6.5259457E-1,-2.3376945E-2,5.343008E-1,2.5461742E-1,3.7774846E-1,4.182058E-1,5.180299E-1,5.9542656E-1,5.30343E-1,-1.7159086E-2,-5.007074E-3,-1.178503E-2,4.419525E-1,1.4687775E-1,4.4283202E-1,5.114336E-1,4.5426562E-1,5.7080036E-1,2.2691293E-1,3.51803E-1,4.2612138E-1,9.9354535E-3,1.706907E-2,-8.811384E-3,-3.3792926E-3,-5.514338E-3,-3.19939E-3,-7.5870254E-3,-2.8862422E-3,-2.4403709E-3,1.1792835E-4,2.2761493E-3,5.067345E-4,4.208939E-3,1.0091922E-3,2.7589656E-3,6.4313835E-3,3.1092565E-3,8.470948E-3,4.443846E-3,1.1427918E-2],"split_indices":[59,59,59,59,59,59,59,0,18,59,28,59,59,59,32,0,0,0,14,31,51,23,15,39,12,37,27,0,0,0,0,0,0,0,0,0,0,0,0,0,0,0,0,0,0,0,0],"split_type":[0,0,0,0,0,0,0,0,0,0,0,0,0,0,0,0,0,0,0,0,0,0,0,0,0,0,0,0,0,0,0,0,0,0,0,0,0,0,0,0,0,0,0,0,0,0,0],"sum_hessian":[7.52E2,2.64E2,4.88E2,1.08E2,1.56E2,2.83E2,2.05E2,2.1E1,8.7E1,7.9E1,7.7E1,1.55E2,1.28E2,1.24E2,8.1E1,8.6E1,1E0,3.8E1,4.1E1,4.6E1,3.1E1,6.8E1,8.7E1,4.9E1,7.9E1,6.6E1,5.8E1,7E0,7.4E1,3.9E1,2E0,2.1E1,2.5E1,2.6E1,5E0,5.3E1,1.5E1,3.7E1,5E1,4.3E1,6E0,3E0,7.6E1,2E0,6.4E1,2E0,5.6E1],"tree_param":{"num_deleted":"0","num_feature":"60","num_nodes":"47","size_leaf_vector":"1"}},{"base_weights":[-3.4624343E-5,-1.11256294E-1,6.023895E-2,-1.6697128E-1,-7.186655E-2,1.7240396E-2,1.07796654E-1,-2.0246806E-2,-1.509286E-1,-9.279826E-2,-4.947677E-2,-7.4782306E-3,3.8789045E-2,7.891304E-2,1.4198053E-1,-7.967218E-3,-1.5366665E-2,-1.0636746E-2,-7.798881E-2,-3.9344896E-2,-6.281181E-2,-1.6976252E-2,5.0282157E-3,2.614396E-2,5.0699357E-2,6.934231E-2,8.9617945E-2,1.1940372E-1,1.5821683E-1,-7.967073E-3,-2.9567042E-3,-5.3475876E-3,-3.1049878E-3,-6.8564243E-3,-2.6457226E-3,-2.2008538E-3,1.0687262E-4,9.312799E-4,-7.572609E-4,4.260563E-3,1.8555409E-3,5.1573436E-3,1.3987165E-3,1.9579367E-3,6.9767423E-3,3.506868E-3,9.096394E-3,1.2211393E-2,5.906311E-3,1.6211731E-2,8.444822E-3],"categories":[],"categories_nodes":[],"categories_segments":[],"categories_sizes":[],"default_left":[0,0,0,0,0,0,0,0,0,0,0,0,0,0,0,0,0,0,0,0,0,0,0,0,0,0,0,0,0,0,0,0,0,0,0,0,0,0,0,0,0,0,0,0,0,0,0,0,0,0,0],"id":6,"left_children":[1,3,5,7,9,11,13,-1,15,17,19,21,23,25,27,-1,-1,-1,29,31,33,35,37,39,41,43,45,47,49,-1,-1,-1,-1,-1,-1,-1,-1,-1,-1,-1,-1,-1,-1,-1,-1,-1,-1,-1,-1,-1,-1],"loss_changes":[5.0546083E0,5.695689E-1,9.9810386E-1,3.1513453E-2,6.898767E-2,1.3771455E-1,2.1786189E-1,0E0,3.1701326E-3,7.7807903E-3,8.067176E-3,1.4458526E-2,1.9458279E-2,6.899774E-3,1.959753E-2,0E0,0E0,0E0,1.0648966E-3,3.8487688E-3,4.878059E-3,6.2892344E-3,2.9319539E-3,7.8289285E-3,1.5248805E-3,1.5717745E-4,9.950995E-4,6.3729286E-4,2.9979944E-3,0E0,0E0,0E0,0E0,0E0,0E0,0E0,0E0,0E0,0E0,0E0,0E0,0E0,0E0,0E0,0E0,0E0,0E0,0E0,0E0,0E0,0E0],"parents":[2147483647,0,0,1,1,2,2,3,3,4,4,5,5,6,6,8,8,9,9,10,10,11,11,12,12,13,13,14,14,18,18,19,19,20,20,21,21,22,22,23,23,24,24,25,25,26,26,27,27,28,28],"right_children":[2,4,6,8,10,12,14,-1,16,18,20,22,24,26,28,-1,-1,-1,30,32,34,36,38,40,42,44,46,48,50,-1,-1,-1,-1,-1,-1,-1,-1,-1,-1,-1,-1,-1,-1,-1,-1,-1,-1,-1,-1,-1,-1],"split_conditions":[3.698329E-1,1.9261214E-1,5.373791E-1,8.6191736E-2,2.9595426E-1,4.5426562E-1,6.275286E-1,-2.0246806E-2,2.1899736E-1,2.5461742E-1,3.7774846E-1,4.182058E-1,5.0615656E-1,5.743184E-1,6.8601584E-1,-7.967218E-3,-1.5366665E-2,-1.0636746E-2,5.343008E-1,1.06420405E-1,4.4283202E-1,5.114336E-1,5.5540895E-1,3.2805628E-1,6.4863676E-1,2.2691293E-1,4.4151276E-1,7.128408E-1,7.1503955E-1,-7.967073E-3,-2.9567042E-3,-5.3475876E-3,-3.1049878E-3,-6.8564243E-3,-2.6457226E-3,-2.2008538E-3,1.0687262E-4,9.312799E-4,-7.572609E-4,4.260563E-3,1.8555409E-3,5.1573436E-3,1.3987165E-3,1.9579367E-3,6.9767423E-3,3.506868E-3,9.096394E-3,1.2211393E-2,5.906311E-3,1.6211731E-2,8.444822E-3],"split_indices":[59,59,59,59,59,59,59,0,1,59,28,59,59,59,57,0,0,0,32,25,51,23,6,14,0,21,31,7,21,0,0,0,0,0,0,0,0,0,0,0,0,0,0,0,0,0,0,0,0,0,0],"split_type":[0,0,0,0,0,0,0,0,0,0,0,0,0,0,0,0,0,0,0,0,0,0,0,0,0,0,0,0,0,0,0,0,0,0,0,0,0,0,0,0,0,0,0,0,0,0,0,0,0,0,0],"sum_hessian":[7.52E2,2.64E2,4.88E2,1.08E2,1.56E2,2.57E2,2.31E2,3E1,7.8E1,7.9E1,7.7E1,1.2E2,1.37E2,1.27E2,1.04E2,4E0,7.4E1,3.8E1,4.1E1,4.6E1,3.1E1,6.8E1,5.2E1,6.8E1,6.9E1,7.1E1,5.6E1,4.7E1,5.7E1,3.9E1,2E0,1.5E1,3.1E1,2.6E1,5E0,5.3E1,1.5E1,3.9E1,1.3E1,2E1,4.8E1,6.7E1,2E0,1E0,7E1,2E0,5.4E1,4.4E1,3E0,5.3E1,4E0],"tree_param":{"num_deleted":"0","num_feature":"60","num_nodes":"51","size_leaf_vector":"1"}},{"base_weights":[-4.1831674E-5,-1.00444235E-1,5.436855E-2,-1.4419518E-1,-5.9747726E-2,1.9464813E-2,1.0222434E-1,-1.730801E-2,-1.250618E-1,-7.337634E-2,-3.885434E-2,-6.7462856E-3,3.8684804E-2,7.984061E-2,1.3509926E-1,-6.8386714E-3,-1.2873292E-1,-7.7399276E-2,-4.9979117E-2,-1.6526543E-2,-4.2162415E-2,-1.5308983E-2,4.528665E-3,2.5920259E-2,5.1133245E-2,6.809334E-2,9.1827504E-2,8.785123E-2,1.4044133E-1,-1.3058594E-2,-6.3658594E-3,-6.0251527E-3,-8.5772965E-3,-5.192444E-3,-1.1372298E-3,-2.2516237E-3,-3.410369E-4,-4.371097E-3,-3.8476486E-4,-2.0017682E-3,1.5396868E-4,6.667123E-4,-1.7333955E-3,2.832897E-3,-2.0251797E-5,5.1542283E-3,9.000585E-4,3.7783862E-3,6.992824E-3,3.5411639E-3,9.318575E-3,9.192153E-3,2.3574145E-3,1.2752186E-2,1.6976817E-2],"categories":[],"categories_nodes":[],"categories_segments":[],"categories_sizes":[],"default_left":[0,0,0,0,0,0,0,0,0,0,0,0,0,0,0,0,0,0,0,0,0,0,0,0,0,0,0,0,0,0,0,0,0,0,0,0,0,0,0,0,0,0,0,0,0,0,0,0,0,0,0,0,0,0,0],"id":7,"left_children":[1,3,5,7,9,11,13,-1,15,17,19,21,23,25,27,-1,29,31,33,35,37,39,41,43,45,47,49,51,53,-1,-1,-1,-1,-1,-1,-1,-1,-1,-1,-1,-1,-1,-1,-1,-1,-1,-1,-1,-1,-1,-1,-1,-1,-1,-1],"loss_changes":[4.1190495E0,4.6321988E-1,8.1480956E-1,4.8542738E-2,3.6729008E-2,1.4333367E-1,1.4080143E-1,0E0,7.841229E-3,3.9440393E-3,3.513351E-3,1.1751152E-2,2.473399E-2,1.1348844E-2,8.359075E-3,0E0,6.1035156E-4,4.7397316E-3,5.360432E-4,6.302679E-4,2.7390867E-3,5.5049565E-3,2.593439E-3,5.228281E-3,9.492636E-4,1.0840595E-3,1.2210906E-3,7.109195E-4,5.6307316E-3,0E0,0E0,0E0,0E0,0E0,0E0,0E0,0E0,0E0,0E0,0E0,0E0,0E0,0E0,0E0,0E0,0E0,0E0,0E0,0E0,0E0,0E0,0E0,0E0,0E0,0E0],"parents":[2147483647,0,0,1,1,2,2,3,3,4,4,5,5,6,6,8,8,9,9,10,10,11,11,12,12,13,13,14,14,16,16,17,17,18,18,19,19,20,20,21,21,22,22,23,23,24,24,25,25,26,26,27,27,28,28],"right_children":[2,4,6,8,10,12,14,-1,16,18,20,22,24,26,28,-1,30,32,34,36,38,40,42,44,46,48,50,52,54,-1,-1,-1,-1,-1,-1,-1,-1,-1,-1,-1,-1,-1,-1,-1,-1,-1,-1,-1,-1,-1,-1,-1,-1,-1,-1],"split_conditions":[3.698329E-1,2.2251539E-1,5.5364996E-1,1.14775725E-1,3.1442392E-1,4.5426562E-1,6.5259457E-1,-1.730801E-2,1.7194371E-1,4.5954266E-1,1.02902375E-1,4.182058E-1,5.1495165E-1,5.9542656E-1,5.4221636E-1,-6.8386714E-3,3.1222516E-1,2.708883E-1,6.266491E-1,1.2840809E-1,5.5540895E-1,4.8636764E-1,6.072999E-1,5.633245E-1,6.495163E-1,3.9094108E-1,4.2612138E-1,5.2506596E-1,7.330695E-1,-1.3058594E-2,-6.3658594E-3,-6.0251527E-3,-8.5772965E-3,-5.192444E-3,-1.1372298E-3,-2.2516237E-3,-3.410369E-4,-4.371097E-3,-3.8476486E-4,-2.0017682E-3,1.5396868E-4,6.667123E-4,-1.7333955E-3,2.832897E-3,-2.0251797E-5,5.1542283E-3,9.000585E-4,3.7783862E-3,6.992824E-3,3.5411639E-3,9.318575E-3,9.192153E-3,2.3574145E-3,1.2752186E-2,1.6976817E-2],"split_indices":[59,58,59,59,59,59,59,0,14,3,7,59,59,59,31,0,47,48,0,0,45,20,4,47,52,36,27,1,59,0,0,0,0,0,0,0,0,0,0,0,0,0,0,0,0,0,0,0,0,0,0,0,0,0,0],"split_type":[0,0,0,0,0,0,0,0,0,0,0,0,0,0,0,0,0,0,0,0,0,0,0,0,0,0,0,0,0,0,0,0,0,0,0,0,0,0,0,0,0,0,0,0,0,0,0,0,0,0,0,0,0,0,0],"sum_hessian":[7.52E2,2.64E2,4.88E2,1.26E2,1.38E2,2.83E2,2.05E2,4.7E1,7.9E1,8.2E1,5.6E1,1.2E2,1.63E2,1.24E2,8.1E1,6E0,7.3E1,6.8E1,1.4E1,8E0,4.8E1,6.8E1,5.2E1,8.2E1,8.1E1,6.6E1,5.8E1,1E1,7.1E1,7E1,3E0,2.5E1,4.3E1,1.3E1,1E0,5E0,3E0,4.6E1,2E0,5.3E1,1.5E1,4.8E1,4E0,7.5E1,7E0,8E1,1E0,5E0,6.1E1,2E0,5.6E1,9E0,1E0,5.3E1,1.8E1],"tree_param":{"num_deleted":"0","num_feature":"60","num_nodes":"55","size_leaf_vector":"1"}},{"base_weights":[-3.8961716E-5,-9.067094E-2,4.907661E-2,-1.3620743E-1,-5.847891E-2,1.3957878E-2,8.791952E-2,-1.7560732E-2,-1.2480966E-1,-7.541864E-2,-4.03551E-2,-7.0569324E-3,3.0643608E-2,6.354728E-2,1.1531407E-1,-7.037446E-3,-1.27241E-1,-8.6677685E-2,-6.316814E-2,-3.157903E-2,-5.1983856E-2,-1.3804866E-2,2.9997565E-3,2.041271E-2,4.116752E-2,5.6434316E-3,7.1854435E-2,1.06441244E-1,1.4903241E-1,-1.3626354E-2,-1.0221994E-2,-8.8518215E-3,-3.5085261E-3,-1.2831241E-3,-6.4082905E-3,-3.3322298E-3,5.096346E-4,-5.624978E-3,-1.7697919E-3,-1.9323515E-3,-2.7064341E-5,5.2754476E-4,-2.278278E-3,3.5849952E-3,1.4147349E-3,2.6788532E-3,4.368061E-3,7.30708E-3,2.681929E-3,3.901418E-3,1.0754285E-2,3.0318021E-3,1.5368486E-2],"categories":[],"categories_nodes":[],"categories_segments":[],"categories_sizes":[],"default_left":[0,0,0,0,0,0,0,0,0,0,0,0,0,0,0,0,0,0,0,0,0,0,0,0,0,0,0,0,0,0,0,0,0,0,0,0,0,0,0,0,0,0,0,0,0,0,0,0,0,0,0,0,0],"id":8,"left_children":[1,3,5,7,9,11,13,-1,15,17,19,21,23,25,27,-1,29,31,33,35,37,39,41,43,45,-1,47,49,51,-1,-1,-1,-1,-1,-1,-1,-1,-1,-1,-1,-1,-1,-1,-1,-1,-1,-1,-1,-1,-1,-1,-1,-1],"loss_changes":[3.356385E0,3.805015E-1,6.658244E-1,2.7031183E-2,4.5157492E-2,9.06833E-2,1.4757073E-1,0E0,2.692461E-3,5.559057E-3,6.3186735E-3,7.845527E-3,1.4664009E-2,3.3310652E-3,1.6447902E-2,0E0,4.8086643E-3,5.9762597E-4,1.1117011E-3,3.1747706E-3,3.684856E-3,5.148423E-3,2.877824E-3,6.74681E-3,1.3593659E-3,0E0,9.983778E-4,2.415061E-3,6.3868165E-3,0E0,0E0,0E0,0E0,0E0,0E0,0E0,0E0,0E0,0E0,0E0,0E0,0E0,0E0,0E0,0E0,0E0,0E0,0E0,0E0,0E0,0E0,0E0,0E0],"parents":[2147483647,0,0,1,1,2,2,3,3,4,4,5,5,6,6,8,8,9,9,10,10,11,11,12,12,13,13,14,14,16,16,17,17,18,18,19,19,20,20,21,21,22,22,23,23,24,24,26,26,27,27,28,28],"right_children":[2,4,6,8,10,12,14,-1,16,18,20,22,24,26,28,-1,30,32,34,36,38,40,42,44,46,-1,48,50,52,-1,-1,-1,-1,-1,-1,-1,-1,-1,-1,-1,-1,-1,-1,-1,-1,-1,-1,-1,-1,-1,-1,-1,-1],"split_conditions":[3.698329E-1,1.9261214E-1,5.373791E-1,6.46438E-2,2.9595426E-1,4.5118734E-1,6.2401056E-1,-1.7560732E-2,2.1899736E-1,2.5461742E-1,3.7774846E-1,4.182058E-1,5.0615656E-1,5.743184E-1,7.330695E-1,-7.037446E-3,4.1512752E-1,4.1556728E-1,1.8029904E-2,4.1204926E-1,4.5118734E-1,4.639402E-1,5.558487E-1,3.2805628E-1,4.6745822E-1,5.6434316E-3,7.211961E-1,3.8742304E-1,4.7273526E-1,-1.3626354E-2,-1.0221994E-2,-8.8518215E-3,-3.5085261E-3,-1.2831241E-3,-6.4082905E-3,-3.3322298E-3,5.096346E-4,-5.624978E-3,-1.7697919E-3,-1.9323515E-3,-2.7064341E-5,5.2754476E-4,-2.278278E-3,3.5849952E-3,1.4147349E-3,2.6788532E-3,4.368061E-3,7.30708E-3,2.681929E-3,3.901418E-3,1.0754285E-2,3.0318021E-3,1.5368486E-2],"split_indices":[59,59,59,59,59,59,59,0,1,59,28,59,59,59,59,0,10,37,35,24,51,38,49,14,47,0,36,34,0,0,0,0,0,0,0,0,0,0,0,0,0,0,0,0,0,0,0,0,0,0,0,0,0],"split_type":[0,0,0,0,0,0,0,0,0,0,0,0,0,0,0,0,0,0,0,0,0,0,0,0,0,0,0,0,0,0,0,0,0,0,0,0,0,0,0,0,0,0,0,0,0,0,0,0,0,0,0,0,0],"sum_hessian":[7.52E2,2.64E2,4.88E2,1.08E2,1.56E2,2.57E2,2.31E2,2.1E1,8.7E1,7.9E1,7.7E1,1.14E2,1.43E2,1.24E2,1.07E2,5E0,8.2E1,3.8E1,4.1E1,4.6E1,3.1E1,6.8E1,4.6E1,7.4E1,6.9E1,7.1E1,5.3E1,8.8E1,1.9E1,5.7E1,2.5E1,3.6E1,2E0,1E0,4E1,4.4E1,2E0,2.7E1,4E0,4.8E1,2E1,4.3E1,3E0,2E1,5.4E1,1.2E1,5.7E1,5.1E1,2E0,2E0,8.6E1,1E0,1.8E1],"tree_param":{"num_deleted":"0","num_feature":"60","num_nodes":"53","size_leaf_vector":"1"}},{"base_weights":[-6.386769E-5,-8.36073E-2,4.339232E-2,-1.23031154E-1,-5.4401916E-2,1.175964E-2,7.933744E-2,-1.588448E-2,-1.1267967E-1,-7.267667E-2,-4.1754805E-2,-8.921596E-3,2.626718E-2,5.7869446E-2,1.04752354E-1,-1.1829267E-1,-8.768083E-2,-6.1487254E-2,-8.588237E-3,-4.933677E-2,-2.8800786E-2,6.091392E-3,-1.0121133E-2,1.2538331E-2,3.3619143E-2,5.1721025E-2,6.7039296E-2,9.648853E-2,1.3504921E-1,-7.08905E-3,-1.2250113E-2,-4.4075507E-3,-9.278322E-3,-6.5771225E-3,-2.9105544E-3,-9.257913E-4,-5.064973E-3,2.6057562E-4,-3.072487E-3,-1.8228138E-3,-2.678281E-4,2.2102112E-4,1.8214779E-3,3.4855641E-3,-5.079784E-4,5.9132404E-3,3.7150595E-3,6.8321563E-3,2.503135E-3,1.010128E-2,6.833948E-3,2.8802126E-3,1.3912528E-2],"categories":[],"categories_nodes":[],"categories_segments":[],"categories_sizes":[],"default_left":[0,0,0,0,0,0,0,0,0,0,0,0,0,0,0,0,0,0,0,0,0,0,0,0,0,0,0,0,0,0,0,0,0,0,0,0,0,0,0,0,0,0,0,0,0,0,0,0,0,0,0,0,0],"id":9,"left_children":[1,3,5,7,9,11,13,-1,15,17,19,21,23,25,27,29,31,33,-1,35,37,-1,39,41,43,45,47,49,51,-1,-1,-1,-1,-1,-1,-1,-1,-1,-1,-1,-1,-1,-1,-1,-1,-1,-1,-1,-1,-1,-1,-1,-1],"loss_changes":[2.7373786E0,2.9036522E-1,5.630391E-1,2.251041E-2,3.1633794E-2,7.974331E-2,1.2051904E-1,0E0,1.9760132E-3,3.5851598E-3,7.5168014E-3,9.831243E-3,1.5324183E-2,3.7492812E-3,1.3257861E-2,5.0806403E-3,3.6035478E-4,3.0796975E-3,0E0,2.477914E-3,2.2554975E-3,0E0,6.528156E-3,3.242856E-3,5.0100237E-3,6.550148E-3,8.753687E-4,4.049301E-3,4.6542585E-3,0E0,0E0,0E0,0E0,0E0,0E0,0E0,0E0,0E0,0E0,0E0,0E0,0E0,0E0,0E0,0E0,0E0,0E0,0E0,0E0,0E0,0E0,0E0,0E0],"parents":[2147483647,0,0,1,1,2,2,3,3,4,4,5,5,6,6,8,8,9,9,10,10,11,11,12,12,13,13,14,14,15,15,16,16,17,17,19,19,20,20,22,22,23,23,24,24,25,25,26,26,27,27,28,28],"right_children":[2,4,6,8,10,12,14,-1,16,18,20,22,24,26,28,30,32,34,-1,36,38,-1,40,42,44,46,48,50,52,-1,-1,-1,-1,-1,-1,-1,-1,-1,-1,-1,-1,-1,-1,-1,-1,-1,-1,-1,-1,-1,-1,-1,-1],"split_conditions":[3.6235708E-1,1.9261214E-1,5.373791E-1,6.46438E-2,2.7792436E-1,4.4283202E-1,6.275286E-1,-1.588448E-2,2.9903254E-1,4.0413368E-1,3.3157432E-1,3.2585752E-1,4.8109058E-1,5.5189097E-1,7.330695E-1,2.2823219E-1,1.5039578E-1,2.9903254E-1,-8.588237E-3,1.76781E-1,3.0343007E-2,6.091392E-3,4.0413368E-1,4.2040458E-1,6.112577E-1,5.101143E-1,7.211961E-1,7.1635884E-1,4.7273526E-1,-7.08905E-3,-1.2250113E-2,-4.4075507E-3,-9.278322E-3,-6.5771225E-3,-2.9105544E-3,-9.257913E-4,-5.064973E-3,2.6057562E-4,-3.072487E-3,-1.8228138E-3,-2.678281E-4,2.2102112E-4,1.8214779E-3,3.4855641E-3,-5.079784E-4,5.9132404E-3,3.7150595E-3,6.8321563E-3,2.503135E-3,1.010128E-2,6.833948E-3,2.8802126E-3,1.3912528E-2],"split_indices":[58,59,59,59,59,59,59,0,32,13,59,57,56,31,59,1,50,57,0,49,19,0,59,49,51,30,36,22,0,0,0,0,0,0,0,0,0,0,0,0,0,0,0,0,0,0,0,0,0,0,0,0,0],"split_type":[0,0,0,0,0,0,0,0,0,0,0,0,0,0,0,0,0,0,0,0,0,0,0,0,0,0,0,0,0,0,0,0,0,0,0,0,0,0,0,0,0,0,0,0,0,0,0,0,0,0,0,0,0],"sum_hessian":[7.52E2,2.57E2,4.95E2,1.08E2,1.49E2,2.64E2,2.31E2,2.1E1,8.7E1,5.9E1,9E1,1.09E2,1.55E2,1.27E2,1.04E2,6.8E1,1.9E1,3.5E1,2.4E1,5.5E1,3.5E1,1E0,1.08E2,5.5E1,1E2,8E1,4.7E1,8.5E1,1.9E1,7E0,6.1E1,3E0,1.6E1,3E1,5E0,2E0,5.3E1,2E0,3.3E1,5.1E1,5.7E1,2E1,3.5E1,9.7E1,3E0,5.1E1,2.9E1,4.5E1,2E0,7.1E1,1.4E1,1E0,1.8E1],"tree_param":{"num_deleted":"0","num_feature":"60","num_nodes":"53","size_leaf_vector":"1"}},{"base_weights":[-7.617363E-5,-7.604545E-2,3.897646E-2,-1.1117675E-1,-4.9657907E-2,1.3281322E-2,7.533422E-2,-1.4368233E-2,-1.01786986E-1,-6.571027E-2,-3.8278136E-2,-3.0465901E-3,3.090465E-2,5.8456965E-2,1.0014304E-1,-1.0860492E-1,-8.329836E-2,-5.776377E-2,-8.241236E-2,-4.5419145E-2,-2.8810145E-2,-9.5575E-3,9.4184745E-3,2.1348752E-2,3.7924163E-2,5.1629607E-2,7.118547E-2,6.251497E-2,1.0450089E-1,-6.468758E-3,-1.1309999E-2,-3.2664028E-3,-8.593701E-3,-1.7300626E-3,-5.927867E-3,-8.786313E-3,-2.768772E-3,-2.8351515E-3,-5.143616E-3,-3.3564668E-3,-1.452299E-3,-1.4065227E-3,2.1191074E-4,4.0749527E-4,2.7335926E-3,2.3476013E-3,-2.4183691E-4,1.6042198E-3,3.8864766E-3,5.2757817E-3,1.5593991E-3,2.6776015E-3,7.3986845E-3,6.6372934E-3,1.1967659E-3,9.601292E-3,1.3563764E-2],"categories":[],"categories_nodes":[],"categories_segments":[],"categories_sizes":[],"default_left":[0,0,0,0,0,0,0,0,0,0,0,0,0,0,0,0,0,0,0,0,0,0,0,0,0,0,0,0,0,0,0,0,0,0,0,0,0,0,0,0,0,0,0,0,0,0,0,0,0,0,0,0,0,0,0,0,0],"id":10,"left_children":[1,3,5,7,9,11,13,-1,15,17,19,21,23,25,27,29,31,33,35,37,39,41,43,45,47,49,51,53,55,-1,-1,-1,-1,-1,-1,-1,-1,-1,-1,-1,-1,-1,-1,-1,-1,-1,-1,-1,-1,-1,-1,-1,-1,-1,-1,-1,-1],"loss_changes":[2.2369647E0,2.3179853E-1,4.6423995E-1,1.8643975E-2,2.4520218E-2,8.440553E-2,8.0399156E-2,0E0,2.0461679E-3,3.202945E-3,4.7088414E-3,1.2507329E-2,8.648336E-3,7.1874857E-3,6.913185E-3,4.725933E-3,9.339005E-4,1.6715229E-3,2.6382282E-3,3.57382E-3,2.2976175E-3,5.345936E-3,4.962949E-3,3.1914264E-3,1.0231063E-3,2.6330203E-3,3.1196177E-3,1.3507791E-3,6.0058236E-3,0E0,0E0,0E0,0E0,0E0,0E0,0E0,0E0,0E0,0E0,0E0,0E0,0E0,0E0,0E0,0E0,0E0,0E0,0E0,0E0,0E0,0E0,0E0,0E0,0E0,0E0,0E0,0E0],"parents":[2147483647,0,0,1,1,2,2,3,3,4,4,5,5,6,6,8,8,9,9,10,10,11,11,12,12,13,13,14,14,15,15,16,16,17,17,18,18,19,19,20,20,21,21,22,22,23,23,24,24,25,25,26,26,27,27,28,28],"right_children":[2,4,6,8,10,12,14,-1,16,18,20,22,24,26,28,30,32,34,36,38,40,42,44,46,48,50,52,54,56,-1,-1,-1,-1,-1,-1,-1,-1,-1,-1,-1,-1,-1,-1,-1,-1,-1,-1,-1,-1,-1,-1,-1,-1,-1,-1,-1,-1],"split_conditions":[3.592788E-1,1.9261214E-1,5.5364996E-1,6.46438E-2,2.7792436E-1,4.7009674E-1,6.5259457E-1,-1.4368233E-2,3.3685136E-1,4.3315744E-1,3.2145998E-1,4.362357E-1,5.180299E-1,6.1081797E-1,5.4221636E-1,2.2823219E-1,1.24010555E-1,1.8029904E-2,4.4151276E-1,2.6077396E-1,3.4432718E-1,5.114336E-1,4.771328E-1,5.373791E-1,2.4494283E-1,6.072999E-1,5.8399296E-1,5.2506596E-1,7.414248E-1,-6.468758E-3,-1.1309999E-2,-3.2664028E-3,-8.593701E-3,-1.7300626E-3,-5.927867E-3,-8.786313E-3,-2.768772E-3,-2.8351515E-3,-5.143616E-3,-3.3564668E-3,-1.452299E-3,-1.4065227E-3,2.1191074E-4,4.0749527E-4,2.7335926E-3,2.3476013E-3,-2.4183691E-4,1.6042198E-3,3.8864766E-3,5.2757817E-3,1.5593991E-3,2.6776015E-3,7.3986845E-3,6.6372934E-3,1.1967659E-3,9.601292E-3,1.3563764E-2],"split_indices":[59,59,59,59,59,59,59,0,17,7,58,59,59,58,31,1,52,40,32,48,59,23,56,31,15,58,59,1,59,0,0,0,0,0,0,0,0,0,0,0,0,0,0,0,0,0,0,0,0,0,0,0,0,0,0,0,0],"split_type":[0,0,0,0,0,0,0,0,0,0,0,0,0,0,0,0,0,0,0,0,0,0,0,0,0,0,0,0,0,0,0,0,0,0,0,0,0,0,0,0,0,0,0,0,0,0,0,0,0,0,0,0,0,0,0,0,0],"sum_hessian":[7.52E2,2.55E2,4.97E2,1.08E2,1.47E2,2.92E2,2.05E2,2.1E1,8.7E1,5.9E1,8.8E1,1.52E2,1.4E2,1.24E2,8.1E1,6E1,2.7E1,4.3E1,1.6E1,4.8E1,4E1,1E2,5.2E1,6.1E1,7.9E1,8.4E1,4E1,1E1,7.1E1,7E0,5.3E1,2E0,2.5E1,2E0,4.1E1,1.4E1,2E0,1.4E1,3.4E1,2.9E1,1.1E1,7.2E1,2.8E1,4.1E1,1.1E1,5.6E1,5E0,4E0,7.5E1,8.1E1,3E0,3E0,3.7E1,9E0,1E0,5.9E1,1.2E1],"tree_param":{"num_deleted":"0","num_feature":"60","num_nodes":"57","size_leaf_vector":"1"}},{"base_weights":[-9.3196286E-5,-6.835988E-2,3.5416678E-2,-9.400767E-2,-3.8543727E-2,1.2205488E-2,6.8033375E-2,-1.10722564E-1,-7.7607796E-2,-4.4265363E-2,-2.3804717E-2,-2.5006619E-3,2.7868064E-2,5.2746564E-2,9.050677E-2,-1.1644169E-2,-7.1541355E-3,-8.012127E-2,-4.246342E-3,-2.9459363E-2,-4.8024386E-2,-1.592039E-2,-3.3781417E-2,-8.3838655E-3,8.535899E-3,1.9247852E-2,3.4200378E-2,8.634399E-3,5.0021768E-2,8.6147115E-2,1.4041607E-2,-3.2043399E-3,-8.110762E-3,-3.2539738E-3,-9.002939E-4,-5.3334776E-3,-3.1801572E-3,-3.0651412E-3,-9.784712E-4,-1.478533E-4,-3.8637358E-3,5.7762265E-3,-9.6482364E-4,-6.2031664E-5,1.7375973E-3,1.7337159E-3,5.1045804E-3,3.4604266E-3,1.1465848E-4,4.0271464E-3,5.5908994E-3,5.077901E-3,8.891892E-3],"categories":[],"categories_nodes":[],"categories_segments":[],"categories_sizes":[],"default_left":[0,0,0,0,0,0,0,0,0,0,0,0,0,0,0,0,0,0,0,0,0,0,0,0,0,0,0,0,0,0,0,0,0,0,0,0,0,0,0,0,0,0,0,0,0,0,0,0,0,0,0,0,0],"id":11,"left_children":[1,3,5,7,9,11,13,15,17,19,21,23,25,27,29,-1,-1,31,-1,33,35,37,39,41,43,45,47,-1,49,51,-1,-1,-1,-1,-1,-1,-1,-1,-1,-1,-1,-1,-1,-1,-1,-1,-1,-1,-1,-1,-1,-1,-1],"loss_changes":[1.8277997E0,1.9367397E-1,3.7467754E-1,2.923584E-2,9.150356E-3,6.7097515E-2,6.599671E-2,6.4589977E-3,3.0462146E-3,3.371656E-3,2.2939332E-3,9.876044E-3,7.038325E-3,7.1241856E-3,5.745709E-3,0E0,0E0,5.7825446E-4,0E0,9.6731633E-4,4.075885E-3,1.6885502E-3,2.2957865E-3,8.836998E-3,4.3006847E-3,2.8818976E-3,1.0283366E-3,0E0,4.521936E-3,3.1313896E-3,0E0,0E0,0E0,0E0,0E0,0E0,0E0,0E0,0E0,0E0,0E0,0E0,0E0,0E0,0E0,0E0,0E0,0E0,0E0,0E0,0E0,0E0,0E0],"parents":[2147483647,0,0,1,1,2,2,3,3,4,4,5,5,6,6,7,7,8,8,9,9,10,10,11,11,12,12,13,13,14,14,17,17,19,19,20,20,21,21,22,22,23,23,24,24,25,25,26,26,28,28,29,29],"right_children":[2,4,6,8,10,12,14,16,18,20,22,24,26,28,30,-1,-1,32,-1,34,36,38,40,42,44,46,48,-1,50,52,-1,-1,-1,-1,-1,-1,-1,-1,-1,-1,-1,-1,-1,-1,-1,-1,-1,-1,-1,-1,-1,-1,-1],"split_conditions":[3.6235708E-1,2.4098505E-1,5.5364996E-1,1.3368514E-1,3.3157432E-1,4.7009674E-1,6.5259457E-1,3.1442392E-1,3.1442392E-1,2.5021988E-1,3.935796E-1,4.362357E-1,5.180299E-1,4.4371152E-1,7.955145E-1,-1.1644169E-2,-7.1541355E-3,7.651715E-2,-4.246342E-3,2.708883E-1,4.5954266E-1,3.0826738E-1,3.3157432E-1,3.2585752E-1,4.4635004E-1,6.2972736E-1,7.1899736E-1,8.634399E-3,5.2638525E-1,5.30343E-1,1.4041607E-2,-3.2043399E-3,-8.110762E-3,-3.2539738E-3,-9.002939E-4,-5.3334776E-3,-3.1801572E-3,-3.0651412E-3,-9.784712E-4,-1.478533E-4,-3.8637358E-3,5.7762265E-3,-9.6482364E-4,-6.2031664E-5,1.7375973E-3,1.7337159E-3,5.1045804E-3,3.4604266E-3,1.1465848E-4,4.0271464E-3,5.5908994E-3,5.077901E-3,8.891892E-3],"split_indices":[58,59,59,59,59,59,59,15,47,48,53,59,59,50,59,0,0,57,0,43,3,56,57,57,55,10,43,0,32,32,0,0,0,0,0,0,0,0,0,0,0,0,0,0,0,0,0,0,0,0,0,0,0],"split_type":[0,0,0,0,0,0,0,0,0,0,0,0,0,0,0,0,0,0,0,0,0,0,0,0,0,0,0,0,0,0,0,0,0,0,0,0,0,0,0,0,0,0,0,0,0,0,0,0,0,0,0,0,0],"sum_hessian":[7.52E2,2.57E2,4.95E2,1.37E2,1.2E2,2.9E2,2.05E2,6.5E1,7.2E1,8.5E1,3.5E1,1.5E2,1.4E2,1.24E2,8.1E1,5.5E1,1E1,6.6E1,6E0,1.9E1,6.6E1,2.1E1,1.4E1,9.8E1,5.2E1,6.1E1,7.9E1,7E0,1.17E2,7.7E1,4E0,2E0,6.4E1,1.6E1,3E0,4.8E1,1.8E1,5E0,1.6E1,2E0,1.2E1,1E0,9.7E1,2.6E1,2.6E1,5.9E1,2E0,7.8E1,1E0,4.7E1,7E1,7E0,7E1],"tree_param":{"num_deleted":"0","num_feature":"60","num_nodes":"53","size_leaf_vector":"1"}},{"base_weights":[-7.314339E-5,-6.2152658E-2,3.1839367E-2,-9.363182E-2,-4.2359512E-2,1.4572486E-2,6.789133E-2,-1.2146349E-2,-8.58514E-2,-5.7710778E-2,-3.272516E-2,-1.245836E-3,2.9488869E-2,5.5456895E-2,8.587074E-2,-8.9203686E-2,-5.3465045E-3,-5.9881553E-2,-2.1855915E-3,-3.823418E-2,-2.3864998E-2,-9.597182E-3,6.170651E-3,1.9259317E-2,3.4054972E-2,8.976893E-3,5.2243408E-2,4.7264667E-3,8.978264E-2,-4.1343747E-3,-9.070716E-3,-4.127975E-3,-6.3511333E-3,-2.352864E-3,-4.4475077E-3,-2.8408156E-3,-1.3074043E-3,-1.3617387E-3,1.963245E-4,1.0311651E-3,-5.980507E-4,1.584794E-3,3.774659E-3,1.6258346E-3,3.4856044E-3,3.7654128E-3,5.6290696E-3,9.223166E-3,3.4275234E-3],"categories":[],"categories_nodes":[],"categories_segments":[],"categories_sizes":[],"default_left":[0,0,0,0,0,0,0,0,0,0,0,0,0,0,0,0,0,0,0,0,0,0,0,0,0,0,0,0,0,0,0,0,0,0,0,0,0,0,0,0,0,0,0,0,0,0,0,0,0],"id":12,"left_children":[1,3,5,7,9,11,13,-1,15,17,19,21,23,25,27,29,-1,31,-1,33,35,37,39,41,43,-1,45,-1,47,-1,-1,-1,-1,-1,-1,-1,-1,-1,-1,-1,-1,-1,-1,-1,-1,-1,-1,-1,-1],"loss_changes":[1.493757E0,1.5554017E-1,3.0901808E-1,1.0793269E-2,2.1627426E-2,7.978856E-2,3.1231701E-2,0E0,3.916204E-3,3.3612102E-3,3.968619E-3,1.0278935E-2,7.4715316E-3,6.1157644E-3,5.4219365E-3,1.3588071E-3,0E0,1.1594296E-3,0E0,4.4601113E-3,1.6386155E-3,3.6518048E-3,4.489648E-3,2.9335506E-3,1.129806E-3,0E0,3.3127666E-3,0E0,4.587233E-3,0E0,0E0,0E0,0E0,0E0,0E0,0E0,0E0,0E0,0E0,0E0,0E0,0E0,0E0,0E0,0E0,0E0,0E0,0E0,0E0],"parents":[2147483647,0,0,1,1,2,2,3,3,4,4,5,5,6,6,8,8,9,9,10,10,11,11,12,12,13,13,14,14,15,15,17,17,19,19,20,20,21,21,22,22,23,23,24,24,26,26,28,28],"right_children":[2,4,6,8,10,12,14,-1,16,18,20,22,24,26,28,30,-1,32,-1,34,36,38,40,42,44,-1,46,-1,48,-1,-1,-1,-1,-1,-1,-1,-1,-1,-1,-1,-1,-1,-1,-1,-1,-1,-1,-1,-1],"split_conditions":[3.592788E-1,1.76781E-1,5.743184E-1,5.5848725E-2,2.6737028E-1,4.7845206E-1,6.8029904E-1,-1.2146349E-2,3.1442392E-1,3.1002638E-1,3.2145998E-1,4.182058E-1,5.219877E-1,4.4283202E-1,4.8548812E-1,2.0932278E-1,-5.3465045E-3,2.0272647E-1,-2.1855915E-3,2.6737028E-1,3.9709762E-1,4.639402E-1,5.426561E-1,5.2506596E-1,2.6341248E-1,8.976893E-3,5.562885E-1,4.7264667E-3,7.1503955E-1,-4.1343747E-3,-9.070716E-3,-4.127975E-3,-6.3511333E-3,-2.352864E-3,-4.4475077E-3,-2.8408156E-3,-1.3074043E-3,-1.3617387E-3,1.963245E-4,1.0311651E-3,-5.980507E-4,1.584794E-3,3.774659E-3,1.6258346E-3,3.4856044E-3,3.7654128E-3,5.6290696E-3,9.223166E-3,3.4275234E-3],"split_indices":[59,59,59,59,59,59,59,0,30,57,58,59,59,50,1,0,0,5,0,48,51,38,5,18,15,0,54,0,21,0,0,0,0,0,0,0,0,0,0,0,0,0,0,0,0,0,0,0,0],"split_type":[0,0,0,0,0,0,0,0,0,0,0,0,0,0,0,0,0,0,0,0,0,0,0,0,0,0,0,0,0,0,0,0,0,0,0,0,0,0,0,0,0,0,0,0,0,0,0,0,0],"sum_hessian":[7.52E2,2.55E2,4.97E2,9.7E1,1.58E2,3.37E2,1.6E2,1.8E1,7.9E1,5.9E1,9.9E1,1.64E2,1.73E2,9.7E1,6.3E1,7E1,9E0,5.5E1,4E0,5.9E1,4E1,7.7E1,8.7E1,5.5E1,1.18E2,6E0,9.1E1,7E0,5.6E1,3E0,6.7E1,1.1E1,4.4E1,1.9E1,4E1,2.7E1,1.3E1,5.7E1,2E1,6.5E1,2.2E1,4.8E1,7E0,6E0,1.12E2,2.2E1,6.9E1,5.3E1,3E0],"tree_param":{"num_deleted":"0","num_feature":"60","num_nodes":"49","size_leaf_vector":"1"}},{"base_weights":[-7.754938E-5,-5.5826843E-2,2.8921232E-2,-8.458189E-2,-3.797702E-2,1.0392184E-2,5.629226E-2,-9.79738E-2,-7.185562E-2,-5.2150775E-2,-2.9267196E-2,-1.9589302E-3,2.300869E-2,4.359585E-2,7.403104E-2,-5.1809866E-3,-1.03747495E-1,-7.376758E-2,-2.9514283E-3,-5.580138E-2,-3.0816125E-2,-3.4015425E-2,-1.9617239E-2,-9.316641E-3,4.0206327E-3,1.5204468E-2,2.750899E-2,7.6747485E-3,4.1156404E-2,7.001954E-2,1.2180426E-2,-2.5543794E-3,-1.0513328E-2,-7.446322E-3,-1.9492857E-3,-2.4674477E-3,-5.726322E-3,-3.2685255E-3,-6.062418E-4,-2.7495732E-3,-4.265587E-3,-1.2392391E-3,-2.8905866E-3,5.4775984E-3,-1.1090799E-3,-1.1849458E-4,1.3430173E-3,3.9423127E-3,1.2583357E-3,3.6713907E-3,2.5088035E-3,3.2262697E-3,4.65675E-3,4.088115E-3,7.231655E-3],"categories":[],"categories_nodes":[],"categories_segments":[],"categories_sizes":[],"default_left":[0,0,0,0,0,0,0,0,0,0,0,0,0,0,0,0,0,0,0,0,0,0,0,0,0,0,0,0,0,0,0,0,0,0,0,0,0,0,0,0,0,0,0,0,0,0,0,0,0,0,0,0,0,0,0],"id":13,"left_children":[1,3,5,7,9,11,13,15,17,19,21,23,25,27,29,-1,31,33,-1,35,37,39,41,43,45,47,49,-1,51,53,-1,-1,-1,-1,-1,-1,-1,-1,-1,-1,-1,-1,-1,-1,-1,-1,-1,-1,-1,-1,-1,-1,-1,-1,-1],"loss_changes":[1.2189608E0,1.2921214E-1,2.509659E-1,9.662092E-3,1.834929E-2,4.6325948E-2,4.1816354E-2,6.6189766E-3,2.194345E-3,2.9534698E-3,4.0063784E-3,6.680839E-3,4.744582E-3,6.4650476E-3,7.1859956E-3,0E0,1.5410781E-3,4.7403574E-4,0E0,8.621812E-4,3.1079538E-4,2.6014596E-3,2.0577088E-3,8.33982E-3,4.1304105E-3,3.058794E-3,1.1291131E-3,0E0,3.9356947E-3,2.2642612E-3,0E0,0E0,0E0,0E0,0E0,0E0,0E0,0E0,0E0,0E0,0E0,0E0,0E0,0E0,0E0,0E0,0E0,0E0,0E0,0E0,0E0,0E0,0E0,0E0,0E0],"parents":[2147483647,0,0,1,1,2,2,3,3,4,4,5,5,6,6,7,7,8,8,9,9,10,10,11,11,12,12,13,13,14,14,16,16,17,17,19,19,20,20,21,21,22,22,23,23,24,24,25,25,26,26,28,28,29,29],"right_children":[2,4,6,8,10,12,14,16,18,20,22,24,26,28,30,-1,32,34,-1,36,38,40,42,44,46,48,50,-1,52,54,-1,-1,-1,-1,-1,-1,-1,-1,-1,-1,-1,-1,-1,-1,-1,-1,-1,-1,-1,-1,-1,-1,-1,-1,-1],"split_conditions":[3.6235708E-1,1.76781E-1,5.5540895E-1,1.8865435E-1,2.6737028E-1,4.7009674E-1,6.5259457E-1,1.6182938E-1,4.6437994E-1,3.5048372E-1,3.3157432E-1,4.1512752E-1,5.1275283E-1,4.4371152E-1,7.955145E-1,-5.1809866E-3,7.651715E-2,5.7739663E-1,-2.9514283E-3,1.24010555E-1,4.1952506E-1,3.2233948E-1,3.935796E-1,3.2585752E-1,4.5118734E-1,2.2691293E-1,3.7774846E-1,7.6747485E-3,5.2638525E-1,5.30343E-1,1.2180426E-2,-2.5543794E-3,-1.0513328E-2,-7.446322E-3,-1.9492857E-3,-2.4674477E-3,-5.726322E-3,-3.2685255E-3,-6.062418E-4,-2.7495732E-3,-4.265587E-3,-1.2392391E-3,-2.8905866E-3,5.4775984E-3,-1.1090799E-3,-1.1849458E-4,1.3430173E-3,3.9423127E-3,1.2583357E-3,3.6713907E-3,2.5088035E-3,3.2262697E-3,4.65675E-3,4.088115E-3,7.231655E-3],"split_indices":[58,59,59,28,59,59,59,6,17,46,59,59,59,50,59,0,21,3,0,57,17,51,53,57,56,19,13,0,32,32,0,0,0,0,0,0,0,0,0,0,0,0,0,0,0,0,0,0,0,0,0,0,0,0,0],"split_type":[0,0,0,0,0,0,0,0,0,0,0,0,0,0,0,0,0,0,0,0,0,0,0,0,0,0,0,0,0,0,0,0,0,0,0,0,0,0,0,0,0,0,0,0,0,0,0,0,0,0,0,0,0,0,0],"sum_hessian":[7.52E2,2.57E2,4.95E2,9.7E1,1.6E2,2.96E2,1.99E2,4.4E1,5.3E1,5.9E1,1.01E2,1.5E2,1.46E2,1.18E2,8.1E1,6E0,3.8E1,5E1,3E0,4.9E1,1E1,6.6E1,3.5E1,6.7E1,8.3E1,5.5E1,9.1E1,6E0,1.12E2,7.7E1,4E0,1E0,3.7E1,4.9E1,1E0,3E0,4.6E1,9E0,1E0,4E1,2.6E1,2.1E1,1.4E1,1E0,6.6E1,5.4E1,2.9E1,4E0,5.1E1,1.6E1,7.5E1,4.5E1,6.7E1,7E0,7E1],"tree_param":{"num_deleted":"0","num_feature":"60","num_nodes":"55","size_leaf_vector":"1"}},{"base_weights":[-6.684364E-5,-5.1557798E-2,2.5627581E-2,-7.64359E-2,-3.5391487E-2,6.586921E-3,4.784065E-2,-9.812677E-2,-6.924583E-2,-4.7136843E-2,-2.7600827E-2,-5.5286195E-3,1.5631352E-2,3.407625E-2,6.3328706E-2,-1.0036752E-2,-2.5535584E-3,-7.2043076E-2,-4.329997E-2,-5.0684866E-2,-2.8721018E-2,-1.7344724E-2,-3.0454107E-2,-9.332069E-3,3.6489505E-3,2.5371592E-3,1.8990038E-2,2.9844962E-2,4.069422E-2,5.8414064E-2,9.215458E-2,-4.41704E-3,-7.5023263E-3,-4.5391857E-3,-1.2236506E-3,-2.7605891E-3,-5.268007E-3,-3.1371766E-3,-1.0311514E-3,-9.960675E-4,-2.5947923E-3,-3.1438188E-3,2.987196E-4,-3.6341065E-4,-2.1683984E-3,5.203718E-3,6.952619E-5,2.3450118E-3,-1.1560115E-4,2.0615144E-3,-4.0657818E-4,3.6339217E-3,1.7170961E-3,4.3948963E-3,2.4582248E-3,6.204489E-3,3.6609035E-3,3.1699222E-3,9.9588875E-3],"categories":[],"categories_nodes":[],"categories_segments":[],"categories_sizes":[],"default_left":[0,0,0,0,0,0,0,0,0,0,0,0,0,0,0,0,0,0,0,0,0,0,0,0,0,0,0,0,0,0,0,0,0,0,0,0,0,0,0,0,0,0,0,0,0,0,0,0,0,0,0,0,0,0,0,0,0,0,0],"id":14,"left_children":[1,3,5,7,9,11,13,15,17,19,21,23,25,27,29,-1,-1,31,33,35,37,39,41,43,45,47,49,51,53,55,57,-1,-1,-1,-1,-1,-1,-1,-1,-1,-1,-1,-1,-1,-1,-1,-1,-1,-1,-1,-1,-1,-1,-1,-1,-1,-1,-1,-1],"loss_changes":[9.9756324E-1,9.824377E-2,2.1242955E-1,8.489072E-3,1.2790605E-2,2.9891685E-2,4.7300637E-2,1.015529E-3,2.4689734E-3,2.4646819E-3,2.2518188E-3,4.1181045E-3,6.8125874E-3,2.2858083E-3,9.91708E-3,0E0,0E0,2.3346543E-3,9.437464E-5,8.020401E-4,2.6209652E-4,1.202649E-3,2.4962723E-3,5.762799E-3,4.966152E-3,2.575868E-3,4.7298707E-3,5.960673E-3,1.3318881E-3,5.2497685E-3,3.1353012E-3,0E0,0E0,0E0,0E0,0E0,0E0,0E0,0E0,0E0,0E0,0E0,0E0,0E0,0E0,0E0,0E0,0E0,0E0,0E0,0E0,0E0,0E0,0E0,0E0,0E0,0E0,0E0,0E0],"parents":[2147483647,0,0,1,1,2,2,3,3,4,4,5,5,6,6,7,7,8,8,9,9,10,10,11,11,12,12,13,13,14,14,17,17,18,18,19,19,20,20,21,21,22,22,23,23,24,24,25,25,26,26,27,27,28,28,29,29,30,30],"right_children":[2,4,6,8,10,12,14,16,18,20,22,24,26,28,30,-1,-1,32,34,36,38,40,42,44,46,48,50,52,54,56,58,-1,-1,-1,-1,-1,-1,-1,-1,-1,-1,-1,-1,-1,-1,-1,-1,-1,-1,-1,-1,-1,-1,-1,-1,-1,-1,-1,-1],"split_conditions":[3.51803E-1,1.76781E-1,5.373791E-1,6.46438E-2,2.6737028E-1,4.4283202E-1,6.2401056E-1,1.8293755E-1,3.1442392E-1,3.3157432E-1,1.5039578E-1,5.114336E-1,4.525066E-1,5.514512E-1,7.414248E-1,-1.0036752E-2,-2.5535584E-3,2.6077396E-1,4.419525E-1,1.02902375E-1,2.9331574E-1,3.1222516E-1,4.6921724E-1,4.1776606E-1,3.2585752E-1,1.12137206E-1,5.8135444E-1,5.101143E-1,7.4362355E-1,7.211961E-1,6.0246265E-1,-4.41704E-3,-7.5023263E-3,-4.5391857E-3,-1.2236506E-3,-2.7605891E-3,-5.268007E-3,-3.1371766E-3,-1.0311514E-3,-9.960675E-4,-2.5947923E-3,-3.1438188E-3,2.987196E-4,-3.6341065E-4,-2.1683984E-3,5.203718E-3,6.952619E-5,2.3450118E-3,-1.1560115E-4,2.0615144E-3,-4.0657818E-4,3.6339217E-3,1.7170961E-3,4.3948963E-3,2.4582248E-3,6.204489E-3,3.6609035E-3,3.1699222E-3,9.9588875E-3],"split_indices":[59,59,59,59,59,59,59,29,30,48,1,23,55,31,59,0,0,1,0,29,58,47,19,17,57,4,47,30,16,24,0,0,0,0,0,0,0,0,0,0,0,0,0,0,0,0,0,0,0,0,0,0,0,0,0,0,0,0,0],"split_type":[0,0,0,0,0,0,0,0,0,0,0,0,0,0,0,0,0,0,0,0,0,0,0,0,0,0,0,0,0,0,0,0,0,0,0,0,0,0,0,0,0,0,0,0,0,0,0,0,0,0,0,0,0,0,0,0,0,0,0],"sum_hessian":[7.52E2,2.5E2,5.02E2,9.7E1,1.53E2,2.71E2,2.31E2,2.1E1,7.6E1,5.9E1,9.4E1,1.16E2,1.55E2,1.24E2,1.07E2,2E1,1E0,6.7E1,9E0,4.8E1,1.1E1,2.2E1,7.2E1,8.2E1,3.4E1,3.2E1,1.23E2,7.9E1,4.5E1,9.4E1,1.3E1,8E0,5.9E1,8E0,1E0,5E0,4.3E1,9E0,2E0,1.3E1,9E0,7E1,2E0,5.7E1,2.5E1,1E0,3.3E1,4E0,2.8E1,1.15E2,8E0,5.1E1,2.8E1,3.6E1,9E0,7.9E1,1.5E1,2E0,1.1E1],"tree_param":{"num_deleted":"0","num_feature":"60","num_nodes":"59","size_leaf_vector":"1"}},{"base_weights":[-6.956048E-5,-4.5685112E-2,2.3658024E-2,-6.910121E-2,-3.1148078E-2,1.0868317E-2,5.020264E-2,-8.070983E-2,-5.8147702E-2,-4.1146863E-2,-2.3004541E-2,-6.558926E-4,2.1601524E-2,4.18112E-2,6.5615036E-2,-4.1977353E-3,-8.559233E-2,-5.9693933E-2,-2.389632E-3,-3.4824062E-2,-5.138786E-2,-1.5823476E-2,-2.7854674E-2,-5.378284E-3,6.5467637E-3,1.397729E-2,2.5007874E-2,8.394899E-3,3.9788485E-2,3.6917017E-3,7.117199E-2,-2.2058077E-3,-8.668381E-3,-6.0297134E-3,-1.4767051E-3,-7.274717E-4,-3.5886818E-3,-5.8763935E-3,-3.4447357E-3,-1.9785122E-3,5.113342E-4,-3.3830244E-3,-1.6303466E-3,4.943532E-3,-6.4420485E-4,1.4204292E-3,-4.226685E-5,1.124414E-3,3.487952E-3,9.1390143E-4,2.576959E-3,1.363809E-3,4.0971455E-3,7.3166187E-3,1.8864572E-3],"categories":[],"categories_nodes":[],"categories_segments":[],"categories_sizes":[],"default_left":[0,0,0,0,0,0,0,0,0,0,0,0,0,0,0,0,0,0,0,0,0,0,0,0,0,0,0,0,0,0,0,0,0,0,0,0,0,0,0,0,0,0,0,0,0,0,0,0,0,0,0,0,0,0,0],"id":15,"left_children":[1,3,5,7,9,11,13,15,17,19,21,23,25,27,29,-1,31,33,-1,35,37,39,41,43,45,47,49,-1,51,-1,53,-1,-1,-1,-1,-1,-1,-1,-1,-1,-1,-1,-1,-1,-1,-1,-1,-1,-1,-1,-1,-1,-1,-1,-1],"loss_changes":[8.16088E-1,8.567101E-2,1.6784534E-1,7.7680945E-3,1.2162939E-2,4.1574594E-2,1.8078983E-2,4.9170554E-3,1.4334172E-3,2.8078482E-3,2.7286895E-3,5.5794544E-3,4.1693747E-3,5.7797134E-3,6.143585E-3,0E0,7.9241395E-4,4.916787E-4,0E0,1.1150129E-3,1.0995939E-3,3.3359919E-3,3.1067766E-3,6.091032E-3,3.4749638E-3,2.8070305E-3,1.2029186E-3,0E0,2.6584566E-3,0E0,3.3137798E-3,0E0,0E0,0E0,0E0,0E0,0E0,0E0,0E0,0E0,0E0,0E0,0E0,0E0,0E0,0E0,0E0,0E0,0E0,0E0,0E0,0E0,0E0,0E0,0E0],"parents":[2147483647,0,0,1,1,2,2,3,3,4,4,5,5,6,6,7,7,8,8,9,9,10,10,11,11,12,12,13,13,14,14,16,16,17,17,19,19,20,20,21,21,22,22,23,23,24,24,25,25,26,26,28,28,30,30],"right_children":[2,4,6,8,10,12,14,16,18,20,22,24,26,28,30,-1,32,34,-1,36,38,40,42,44,46,48,50,-1,52,-1,54,-1,-1,-1,-1,-1,-1,-1,-1,-1,-1,-1,-1,-1,-1,-1,-1,-1,-1,-1,-1,-1,-1,-1,-1],"split_conditions":[3.6235708E-1,1.76781E-1,5.743184E-1,1.8865435E-1,2.7792436E-1,4.7845206E-1,6.9613016E-1,1.6182938E-1,4.6437994E-1,4.2744064E-1,3.4256816E-1,4.362357E-1,5.219877E-1,3.8742304E-1,5.9542656E-1,-4.1977353E-3,7.651715E-2,5.7739663E-1,-2.389632E-3,1.8029904E-2,4.7933158E-1,3.2805628E-1,4.182058E-1,3.2585752E-1,4.6218118E-1,5.329815E-1,2.6341248E-1,8.394899E-3,4.4547054E-1,3.6917017E-3,7.1503955E-1,-2.2058077E-3,-8.668381E-3,-6.0297134E-3,-1.4767051E-3,-7.274717E-4,-3.5886818E-3,-5.8763935E-3,-3.4447357E-3,-1.9785122E-3,5.113342E-4,-3.3830244E-3,-1.6303466E-3,4.943532E-3,-6.4420485E-4,1.4204292E-3,-4.226685E-5,1.124414E-3,3.487952E-3,9.1390143E-4,2.576959E-3,1.363809E-3,4.0971455E-3,7.3166187E-3,1.8864572E-3],"split_indices":[58,59,59,28,59,59,59,6,17,7,37,59,59,50,32,0,21,3,0,40,9,33,42,57,16,18,15,0,31,0,21,0,0,0,0,0,0,0,0,0,0,0,0,0,0,0,0,0,0,0,0,0,0,0,0],"split_type":[0,0,0,0,0,0,0,0,0,0,0,0,0,0,0,0,0,0,0,0,0,0,0,0,0,0,0,0,0,0,0,0,0,0,0,0,0,0,0,0,0,0,0,0,0,0,0,0,0,0,0,0,0,0,0],"sum_hessian":[7.52E2,2.57E2,4.95E2,9.7E1,1.6E2,3.35E2,1.6E2,4.4E1,5.3E1,7E1,9E1,1.62E2,1.73E2,1.06E2,5.4E1,6E0,3.8E1,5E1,3E0,4.6E1,2.4E1,3.8E1,5.2E1,9.8E1,6.4E1,5.5E1,1.18E2,3E0,1.03E2,1E1,4.4E1,1E0,3.7E1,4.9E1,1E0,2E0,4.4E1,1.5E1,9E0,3.2E1,6E0,3.3E1,1.9E1,1E0,9.7E1,3E1,3.4E1,5E1,5E0,6E0,1.12E2,5E0,9.8E1,4.2E1,2E0],"tree_param":{"num_deleted":"0","num_feature":"60","num_nodes":"55","size_leaf_vector":"1"}},{"base_weights":[-6.865361E-5,-3.6693055E-2,2.4132645E-2,-5.671054E-2,-1.9520624E-2,1.4416383E-2,5.0162453E-2,-7.684782E-2,-5.04053E-2,-2.6353084E-2,-1.0296126E-2,4.0696827E-3,2.3237474E-2,4.7720872E-2,9.823955E-3,-7.9725474E-2,-2.3414553E-3,-5.271189E-2,-2.7559956E-3,-2.8661205E-2,-1.51436245E-2,-5.884437E-3,-3.6618985E-2,3.3221568E-3,4.0587774E-3,1.6756065E-2,2.5689004E-2,8.994508E-3,4.8989665E-2,-8.110759E-3,-2.0513148E-3,-2.9493438E-3,-5.419006E-3,-2.224216E-3,-4.0150057E-3,-6.206715E-4,-2.33909E-3,-8.708209E-4,3.723731E-3,-5.0278404E-4,-4.388829E-3,-3.1961172E-3,4.0056757E-4,1.8758316E-3,1.2046993E-4,8.3318615E-4,2.6624277E-3,1.4900863E-4,1.0498092E-3,5.1503344E-3,3.258243E-3],"categories":[],"categories_nodes":[],"categories_segments":[],"categories_sizes":[],"default_left":[0,0,0,0,0,0,0,0,0,0,0,0,0,0,0,0,0,0,0,0,0,0,0,0,0,0,0,0,0,0,0,0,0,0,0,0,0,0,0,0,0,0,0,0,0,0,0,0,0,0,0],"id":16,"left_children":[1,3,5,7,9,11,13,15,17,19,21,23,25,27,-1,29,-1,31,-1,33,35,37,39,41,-1,43,45,47,49,-1,-1,-1,-1,-1,-1,-1,-1,-1,-1,-1,-1,-1,-1,-1,-1,-1,-1,-1,-1,-1,-1],"loss_changes":[6.683131E-1,1.0201764E-1,1.14099085E-1,1.3648361E-2,1.0001905E-2,3.02068E-2,9.750128E-3,2.899915E-3,4.2383075E-3,1.9721389E-3,8.029625E-3,4.069087E-3,2.4137497E-3,5.4065287E-3,0E0,7.095337E-4,0E0,1.7308891E-3,0E0,4.7117807E-3,1.1815117E-3,7.873761E-3,2.075795E-3,3.793783E-3,0E0,1.5965626E-3,1.8560886E-3,4.0774583E-5,3.0647814E-3,0E0,0E0,0E0,0E0,0E0,0E0,0E0,0E0,0E0,0E0,0E0,0E0,0E0,0E0,0E0,0E0,0E0,0E0,0E0,0E0,0E0,0E0],"parents":[2147483647,0,0,1,1,2,2,3,3,4,4,5,5,6,6,7,7,8,8,9,9,10,10,11,11,12,12,13,13,15,15,17,17,19,19,20,20,21,21,22,22,23,23,25,25,26,26,27,27,28,28],"right_children":[2,4,6,8,10,12,14,16,18,20,22,24,26,28,-1,30,-1,32,-1,34,36,38,40,42,-1,44,46,48,50,-1,-1,-1,-1,-1,-1,-1,-1,-1,-1,-1,-1,-1,-1,-1,-1,-1,-1,-1,-1,-1,-1],"split_conditions":[3.9709762E-1,2.4098505E-1,6.1081797E-1,8.6191736E-2,3.3157432E-1,5.0615656E-1,7.955145E-1,1.644679E-1,3.1002638E-1,3.698329E-1,4.7933158E-1,6.244503E-1,5.30343E-1,5.8399296E-1,9.823955E-3,4.5118734E-1,-2.3414553E-3,1.9613017E-1,-2.7559956E-3,3.2541776E-1,4.876869E-1,4.7009674E-1,3.7994722E-1,3.2541778E-2,4.0587774E-3,5.751979E-1,2.6341248E-1,3.641161E-1,7.07124E-1,-8.110759E-3,-2.0513148E-3,-2.9493438E-3,-5.419006E-3,-2.224216E-3,-4.0150057E-3,-6.206715E-4,-2.33909E-3,-8.708209E-4,3.723731E-3,-5.0278404E-4,-4.388829E-3,-3.1961172E-3,4.0056757E-4,1.8758316E-3,1.2046993E-4,8.3318615E-4,2.6624277E-3,1.4900863E-4,1.0498092E-3,5.1503344E-3,3.258243E-3],"split_indices":[59,59,58,59,59,59,59,43,46,50,12,9,59,59,0,0,0,5,0,49,10,20,26,0,0,7,15,0,2,0,0,0,0,0,0,0,0,0,0,0,0,0,0,0,0,0,0,0,0,0,0],"split_type":[0,0,0,0,0,0,0,0,0,0,0,0,0,0,0,0,0,0,0,0,0,0,0,0,0,0,0,0,0,0,0,0,0,0,0,0,0,0,0,0,0,0,0,0,0,0,0,0,0,0,0],"sum_hessian":[7.52E2,2.99E2,4.53E2,1.37E2,1.62E2,3.31E2,1.22E2,3E1,1.07E2,9.2E1,7E1,1.53E2,1.78E2,1.18E2,4E0,2.8E1,2E0,9.6E1,1.1E1,7.5E1,1.7E1,6.1E1,9E0,1.51E2,2E0,5.1E1,1.27E2,4E0,1.14E2,2.7E1,1E0,7E0,8.9E1,5E1,2.5E1,9E0,8E0,5.8E1,3E0,2E0,7E0,2E0,1.49E2,4.5E1,6E0,7E0,1.2E2,1E0,3E0,9.7E1,1.7E1],"tree_param":{"num_deleted":"0","num_feature":"60","num_nodes":"51","size_leaf_vector":"1"}},{"base_weights":[-7.3312156E-5,-3.7567463E-2,1.9200936E-2,-5.6592874E-2,-2.5604835E-2,9.418392E-3,4.2495187E-2,-7.580533E-2,-5.1322505E-2,-3.3390086E-2,-1.9106435E-2,-6.1449624E-4,1.8173754E-2,3.917653E-2,7.122409E-2,-7.793297E-3,-1.875389E-3,-5.3480703E-2,-3.0867036E-2,-2.8104475E-2,-4.1991435E-2,-1.0448912E-2,-2.2142306E-2,-1.4673696E-2,1.4259015E-3,1.0716483E-2,2.0653985E-2,2.4691382E-2,4.276986E-2,2.0220003E-3,7.803977E-2,-3.474901E-3,-5.6701573E-3,-3.2985525E-3,-5.900324E-4,-2.9076973E-3,-4.148831E-4,-1.1319702E-3,-4.416638E-3,-1.04635656E-4,-1.5672453E-3,-2.8906504E-3,-1.6575468E-3,-2.221467E-3,3.5722183E-5,6.571905E-4,-4.833283E-4,2.7845534E-3,5.0252967E-4,3.8240382E-3,1.915385E-3,2.7670572E-3,-1.0351777E-3,4.525959E-3,2.8083406E-3,8.627075E-3,4.0010153E-3],"categories":[],"categories_nodes":[],"categories_segments":[],"categories_sizes":[],"default_left":[0,0,0,0,0,0,0,0,0,0,0,0,0,0,0,0,0,0,0,0,0,0,0,0,0,0,0,0,0,0,0,0,0,0,0,0,0,0,0,0,0,0,0,0,0,0,0,0,0,0,0,0,0,0,0,0,0],"id":17,"left_children":[1,3,5,7,9,11,13,15,17,19,21,23,25,27,29,-1,-1,31,33,35,37,39,41,43,45,47,49,51,53,-1,55,-1,-1,-1,-1,-1,-1,-1,-1,-1,-1,-1,-1,-1,-1,-1,-1,-1,-1,-1,-1,-1,-1,-1,-1,-1,-1],"loss_changes":[5.44893E-1,5.6815E-2,1.1308253E-1,6.0326457E-3,7.4061155E-3,3.0931398E-2,1.1224866E-2,8.4476173E-4,1.8809736E-3,2.0477548E-3,2.1078363E-3,4.7541726E-3,3.2558627E-3,5.918652E-3,3.2888204E-3,0E0,0E0,2.313286E-3,3.3429172E-4,9.7431615E-4,1.1677854E-3,1.2114665E-3,1.9684471E-3,2.3882384E-3,4.7021825E-3,4.636814E-3,2.961032E-3,3.3140443E-3,2.604887E-3,0E0,3.0454993E-4,0E0,0E0,0E0,0E0,0E0,0E0,0E0,0E0,0E0,0E0,0E0,0E0,0E0,0E0,0E0,0E0,0E0,0E0,0E0,0E0,0E0,0E0,0E0,0E0,0E0,0E0],"parents":[2147483647,0,0,1,1,2,2,3,3,4,4,5,5,6,6,7,7,8,8,9,9,10,10,11,11,12,12,13,13,14,14,17,17,18,18,19,19,20,20,21,21,22,22,23,23,24,24,25,25,26,26,27,27,28,28,30,30],"right_children":[2,4,6,8,10,12,14,16,18,20,22,24,26,28,30,-1,-1,32,34,36,38,40,42,44,46,48,50,52,54,-1,56,-1,-1,-1,-1,-1,-1,-1,-1,-1,-1,-1,-1,-1,-1,-1,-1,-1,-1,-1,-1,-1,-1,-1,-1,-1,-1],"split_conditions":[3.592788E-1,1.76781E-1,5.8927E-1,5.5848725E-2,2.7792436E-1,4.7845206E-1,7.414248E-1,1.76781E-1,3.1442392E-1,4.2744064E-1,1.5039578E-1,1.12137206E-1,4.4283202E-1,6.1081797E-1,5.598065E-1,-7.793297E-3,-1.875389E-3,7.9155676E-2,4.419525E-1,4.5426562E-1,2.6077396E-1,1.2840809E-1,3.8654354E-1,4.0941072E-1,4.7757256E-1,2.6077396E-1,4.7933158E-1,6.072999E-1,7.211961E-1,2.0220003E-3,7.1635884E-1,-3.474901E-3,-5.6701573E-3,-3.2985525E-3,-5.900324E-4,-2.9076973E-3,-4.148831E-4,-1.1319702E-3,-4.416638E-3,-1.04635656E-4,-1.5672453E-3,-2.8906504E-3,-1.6575468E-3,-2.221467E-3,3.5722183E-5,6.571905E-4,-4.833283E-4,2.7845534E-3,5.0252967E-4,3.8240382E-3,1.915385E-3,2.7670572E-3,-1.0351777E-3,4.525959E-3,2.8083406E-3,8.627075E-3,4.0010153E-3],"split_indices":[59,59,59,59,59,59,59,29,30,7,1,12,32,58,9,0,0,57,0,1,30,7,9,58,15,19,44,58,24,0,43,0,0,0,0,0,0,0,0,0,0,0,0,0,0,0,0,0,0,0,0,0,0,0,0,0,0],"split_type":[0,0,0,0,0,0,0,0,0,0,0,0,0,0,0,0,0,0,0,0,0,0,0,0,0,0,0,0,0,0,0,0,0,0,0,0,0,0,0,0,0,0,0,0,0,0,0,0,0,0,0,0,0,0,0,0,0],"sum_hessian":[7.52E2,2.55E2,4.97E2,9.7E1,1.58E2,3.51E2,1.46E2,1.8E1,7.9E1,7E1,8.8E1,1.64E2,1.87E2,1.33E2,1.3E1,1.7E1,1E0,7E1,9E0,4.6E1,2.4E1,2.4E1,6.4E1,2E1,1.44E2,4.8E1,1.39E2,2.8E1,1.05E2,2E0,1.1E1,1.2E1,5.8E1,8E0,1E0,4.4E1,2E0,2E0,2.2E1,9E0,1.5E1,2.7E1,3.7E1,1.3E1,7E0,7.9E1,6.5E1,1.1E1,3.7E1,9E0,1.3E2,2.6E1,2E0,8.8E1,1.7E1,8E0,3E0],"tree_param":{"num_deleted":"0","num_feature":"60","num_nodes":"57","size_leaf_vector":"1"}},{"base_weights":[-7.5363634E-5,-3.0033752E-2,1.9721095E-2,-4.762952E-2,-1.7018257E-2,1.0738793E-2,3.8406998E-2,-6.324968E-2,-4.2146485E-2,-2.3864163E-2,-9.735651E-3,3.4274976E-3,1.7933635E-2,3.532653E-2,6.514812E-2,-6.569146E-2,-1.8562546E-3,-2.1942936E-2,-4.3715987E-2,-1.3103862E-2,-2.8096925E-2,-1.1119427E-2,2.1411613E-2,5.229327E-3,-8.906225E-3,3.167687E-2,1.6452376E-2,2.2281937E-2,3.8562067E-2,1.8871984E-3,7.1288146E-2,-3.0522961E-3,-6.8575405E-3,-5.696416E-4,-2.32617E-3,-5.1949546E-3,-3.6858462E-3,2.0675233E-4,-1.7536998E-3,-2.3892394E-3,-3.99586E-3,-1.0996288E-4,-1.4942023E-3,4.4773086E-3,-1.2999079E-4,-2.5183394E-5,1.0796054E-3,-1.8253556E-3,7.396467E-4,4.643897E-4,3.5795372E-3,1.3846154E-3,2.4024362E-3,2.5005972E-3,-9.661675E-4,7.0395605E-3,3.6951422E-3,2.0632774E-3,7.401747E-3],"categories":[],"categories_nodes":[],"categories_segments":[],"categories_sizes":[],"default_left":[0,0,0,0,0,0,0,0,0,0,0,0,0,0,0,0,0,0,0,0,0,0,0,0,0,0,0,0,0,0,0,0,0,0,0,0,0,0,0,0,0,0,0,0,0,0,0,0,0,0,0,0,0,0,0,0,0,0,0],"id":18,"left_children":[1,3,5,7,9,11,13,15,17,19,21,23,25,27,29,31,-1,33,35,37,39,41,43,45,47,49,51,53,55,-1,57,-1,-1,-1,-1,-1,-1,-1,-1,-1,-1,-1,-1,-1,-1,-1,-1,-1,-1,-1,-1,-1,-1,-1,-1,-1,-1,-1,-1],"loss_changes":[4.4717398E-1,6.789473E-2,7.578802E-2,8.211285E-3,8.442614E-3,1.6140446E-2,9.807706E-3,2.163209E-3,2.116561E-3,3.6854E-3,3.9447574E-3,3.4689559E-3,2.6342236E-3,4.7963858E-3,2.632562E-3,8.481741E-4,0E0,6.0319435E-5,3.1103343E-3,1.852192E-3,2.1872781E-3,3.1626057E-3,2.180499E-3,4.121856E-3,3.182745E-3,1.3924651E-3,2.4696216E-3,2.7650474E-3,2.8336793E-3,0E0,1.3187528E-4,0E0,0E0,0E0,0E0,0E0,0E0,0E0,0E0,0E0,0E0,0E0,0E0,0E0,0E0,0E0,0E0,0E0,0E0,0E0,0E0,0E0,0E0,0E0,0E0,0E0,0E0,0E0,0E0],"parents":[2147483647,0,0,1,1,2,2,3,3,4,4,5,5,6,6,7,7,8,8,9,9,10,10,11,11,12,12,13,13,14,14,15,15,17,17,18,18,19,19,20,20,21,21,22,22,23,23,24,24,25,25,26,26,27,27,28,28,30,30],"right_children":[2,4,6,8,10,12,14,16,18,20,22,24,26,28,30,32,-1,34,36,38,40,42,44,46,48,50,52,54,56,-1,58,-1,-1,-1,-1,-1,-1,-1,-1,-1,-1,-1,-1,-1,-1,-1,-1,-1,-1,-1,-1,-1,-1,-1,-1,-1,-1,-1,-1],"split_conditions":[3.9709762E-1,2.2251539E-1,5.8927E-1,8.6191736E-2,3.2145998E-1,5.0615656E-1,7.414248E-1,4.5118734E-1,1.9613017E-1,2.6737028E-1,4.876869E-1,5.633245E-1,4.8504838E-1,6.1081797E-1,5.598065E-1,1.8293755E-1,-1.8562546E-3,1.644679E-1,2.8188214E-1,1.02902375E-1,4.2744064E-1,1.02902375E-1,4.4063324E-1,4.4151276E-1,6.1565524E-1,2.6077396E-1,5.57168E-1,6.072999E-1,3.8742304E-1,1.8871984E-3,6.0246265E-1,-3.0522961E-3,-6.8575405E-3,-5.696416E-4,-2.32617E-3,-5.1949546E-3,-3.6858462E-3,2.0675233E-4,-1.7536998E-3,-2.3892394E-3,-3.99586E-3,-1.0996288E-4,-1.4942023E-3,4.4773086E-3,-1.2999079E-4,-2.5183394E-5,1.0796054E-3,-1.8253556E-3,7.396467E-4,4.643897E-4,3.5795372E-3,1.3846154E-3,2.4024362E-3,2.5005972E-3,-9.661675E-4,7.0395605E-3,3.6951422E-3,2.0632774E-3,7.401747E-3],"split_indices":[59,58,59,59,58,59,59,0,5,48,20,47,57,58,9,2,0,0,22,19,12,5,2,50,40,15,32,58,50,0,0,0,0,0,0,0,0,0,0,0,0,0,0,0,0,0,0,0,0,0,0,0,0,0,0,0,0,0,0],"split_type":[0,0,0,0,0,0,0,0,0,0,0,0,0,0,0,0,0,0,0,0,0,0,0,0,0,0,0,0,0,0,0,0,0,0,0,0,0,0,0,0,0,0,0,0,0,0,0,0,0,0,0,0,0,0,0,0,0,0,0],"sum_hessian":[7.52E2,2.99E2,4.53E2,1.26E2,1.73E2,3.07E2,1.46E2,3E1,9.6E1,8.8E1,8.5E1,1.53E2,1.54E2,1.33E2,1.3E1,2.8E1,2E0,8E0,8.8E1,2.6E1,6.2E1,8.2E1,3E0,1.34E2,1.9E1,1.3E1,1.41E2,2.8E1,1.05E2,2E0,1.1E1,3E0,2.5E1,1E0,7E0,3.7E1,5.1E1,6E0,2E1,4.8E1,1.4E1,2.3E1,5.9E1,1E0,2E0,6.8E1,6.6E1,1.2E1,7E0,2E0,1.1E1,1.07E2,3.4E1,2.6E1,2E0,3E0,1.02E2,1E0,1E1],"tree_param":{"num_deleted":"0","num_feature":"60","num_nodes":"59","size_leaf_vector":"1"}},{"base_weights":[-6.425415E-5,-2.7126148E-2,1.7818196E-2,-4.1918352E-2,-1.4436267E-2,1.0996218E-2,3.806799E-2,-5.7304263E-2,-3.7113894E-2,-2.0542504E-2,-8.730189E-3,3.7900356E-3,1.8054675E-2,3.592695E-2,7.7557303E-3,-5.955623E-2,-1.6433805E-3,-3.9073963E-2,-1.9784642E-2,-1.1933628E-2,-2.6271861E-2,-1.0026812E-2,2.0357281E-2,-2.9292216E-3,4.3582306E-3,2.5087195E-2,1.6074928E-2,9.4004674E-4,3.7100587E-2,-2.823374E-3,-6.2084454E-3,-3.0319241E-3,-4.2593996E-3,-2.1193668E-3,-8.023332E-4,2.6800708E-4,-1.5971166E-3,-2.9560968E-3,-1.4489308E-3,-9.942403E-5,-1.3472727E-3,4.253443E-3,-1.21324265E-4,9.469694E-4,3.3079385E-5,8.3318836E-4,3.1211087E-3,1.2363244E-3,2.2285993E-3,3.8342238E-3,1.0222982E-3],"categories":[],"categories_nodes":[],"categories_segments":[],"categories_sizes":[],"default_left":[0,0,0,0,0,0,0,0,0,0,0,0,0,0,0,0,0,0,0,0,0,0,0,0,0,0,0,0,0,0,0,0,0,0,0,0,0,0,0,0,0,0,0,0,0,0,0,0,0,0,0],"id":19,"left_children":[1,3,5,7,9,11,13,15,17,19,21,23,25,27,-1,29,-1,31,33,35,37,39,41,-1,43,45,47,-1,49,-1,-1,-1,-1,-1,-1,-1,-1,-1,-1,-1,-1,-1,-1,-1,-1,-1,-1,-1,-1,-1,-1],"loss_changes":[3.6488485E-1,5.570826E-2,6.229861E-2,8.074313E-3,5.500011E-3,1.7276373E-2,6.8521053E-3,1.8744841E-3,2.8952956E-3,3.5337023E-3,3.44765E-3,3.3231792E-3,1.9914173E-3,3.0758083E-3,0E0,5.436316E-4,0E0,1.6670078E-3,4.539173E-5,1.989914E-3,1.3543703E-3,2.570019E-3,1.9650948E-3,0E0,3.455331E-3,3.433831E-3,2.882801E-3,0E0,3.1121373E-3,0E0,0E0,0E0,0E0,0E0,0E0,0E0,0E0,0E0,0E0,0E0,0E0,0E0,0E0,0E0,0E0,0E0,0E0,0E0,0E0,0E0,0E0],"parents":[2147483647,0,0,1,1,2,2,3,3,4,4,5,5,6,6,7,7,8,8,9,9,10,10,11,11,12,12,13,13,15,15,17,17,18,18,19,19,20,20,21,21,22,22,24,24,25,25,26,26,28,28],"right_children":[2,4,6,8,10,12,14,16,18,20,22,24,26,28,-1,30,-1,32,34,36,38,40,42,-1,44,46,48,-1,50,-1,-1,-1,-1,-1,-1,-1,-1,-1,-1,-1,-1,-1,-1,-1,-1,-1,-1,-1,-1,-1,-1],"split_conditions":[3.9709762E-1,2.4098505E-1,6.147757E-1,8.6191736E-2,3.2145998E-1,5.180299E-1,7.955145E-1,1.644679E-1,3.5048372E-1,2.9903254E-1,4.876869E-1,3.2541778E-2,5.1934916E-1,4.4151276E-1,7.7557303E-3,1.8293755E-1,-1.6433805E-3,1.5039578E-1,3.9709762E-1,1.02902375E-1,3.6235708E-1,1.02902375E-1,4.4063324E-1,-2.9292216E-3,4.4283202E-1,4.1776606E-1,5.514512E-1,9.4004674E-4,7.414248E-1,-2.823374E-3,-6.2084454E-3,-3.0319241E-3,-4.2593996E-3,-2.1193668E-3,-8.023332E-4,2.6800708E-4,-1.5971166E-3,-2.9560968E-3,-1.4489308E-3,-9.942403E-5,-1.3472727E-3,4.253443E-3,-1.21324265E-4,9.469694E-4,3.3079385E-5,8.3318836E-4,3.1211087E-3,1.2363244E-3,2.2285993E-3,3.8342238E-3,1.0222982E-3],"split_indices":[59,59,59,59,58,59,59,43,34,48,20,0,53,34,0,2,0,42,37,19,50,5,2,0,1,25,31,0,20,0,0,0,0,0,0,0,0,0,0,0,0,0,0,0,0,0,0,0,0,0,0],"split_type":[0,0,0,0,0,0,0,0,0,0,0,0,0,0,0,0,0,0,0,0,0,0,0,0,0,0,0,0,0,0,0,0,0,0,0,0,0,0,0,0,0,0,0,0,0,0,0,0,0,0,0],"sum_hessian":[7.52E2,2.99E2,4.53E2,1.37E2,1.62E2,3.4E2,1.13E2,3E1,1.07E2,7.7E1,8.5E1,1.69E2,1.71E2,1.09E2,4E0,2.8E1,2E0,9.5E1,1.2E1,3.2E1,4.5E1,8.2E1,3E0,2E0,1.67E2,3.5E1,1.36E2,5E0,1.04E2,3E0,2.5E1,3E1,6.5E1,1E1,2E0,7E0,2.5E1,3.4E1,1.1E1,2.3E1,5.9E1,1E0,2E0,7.3E1,9.4E1,1E1,2.5E1,8.7E1,4.9E1,9.9E1,5E0],"tree_param":{"num_deleted":"0","num_feature":"60","num_nodes":"51","size_leaf_vector":"1"}},{"base_weights":[-6.436204E-5,-2.243941E-2,1.763387E-2,-3.7877887E-2,-1.1454977E-2,1.1378355E-2,3.438005E-2,-5.1918197E-2,-3.3497076E-2,-1.6860688E-2,-5.1609054E-3,6.2897042E-3,1.7683974E-2,3.238693E-2,7.1352697E-3,-5.397727E-2,-1.470777E-3,-3.5649005E-2,-1.9880917E-2,-1.9054396E-2,-8.211186E-3,-4.002596E-3,-3.8189888E-3,7.2669475E-3,-1.2216691E-2,2.4836289E-2,1.5618824E-2,6.224026E-3,3.0968236E-2,-3.3357646E-3,-5.790597E-3,-2.738512E-3,-3.9205966E-3,-2.1447795E-3,-5.4195523E-4,-1.2603144E-3,-2.754174E-3,4.4588489E-4,-1.2945249E-3,-5.2379485E-4,2.3866973E-3,-2.1672597E-4,9.3952566E-4,5.546734E-4,-1.5130461E-3,7.492628E-4,3.0014152E-3,3.3917667E-3,1.4412942E-3,1.6433198E-3,3.4536913E-3],"categories":[],"categories_nodes":[],"categories_segments":[],"categories_sizes":[],"default_left":[0,0,0,0,0,0,0,0,0,0,0,0,0,0,0,0,0,0,0,0,0,0,0,0,0,0,0,0,0,0,0,0,0,0,0,0,0,0,0,0,0,0,0,0,0,0,0,0,0,0,0],"id":20,"left_children":[1,3,5,7,9,11,13,15,17,19,21,23,25,27,-1,29,-1,31,33,35,37,39,-1,41,43,45,47,-1,49,-1,-1,-1,-1,-1,-1,-1,-1,-1,-1,-1,-1,-1,-1,-1,-1,-1,-1,-1,-1,-1,-1],"loss_changes":[2.9858276E-1,5.6037217E-2,4.371108E-2,6.748989E-3,6.5816734E-3,9.771593E-3,6.089881E-3,1.5813038E-3,2.455771E-3,1.8358603E-3,3.3668568E-3,3.19944E-3,1.6356558E-3,2.7313307E-3,0E0,4.1763484E-4,0E0,1.6306192E-3,2.6896875E-4,4.197467E-3,1.4372778E-3,3.223601E-3,0E0,3.313304E-3,5.4975145E-4,2.3794062E-3,1.9163713E-3,0E0,4.982628E-3,0E0,0E0,0E0,0E0,0E0,0E0,0E0,0E0,0E0,0E0,0E0,0E0,0E0,0E0,0E0,0E0,0E0,0E0,0E0,0E0,0E0,0E0],"parents":[2147483647,0,0,1,1,2,2,3,3,4,4,5,5,6,6,7,7,8,8,9,9,10,10,11,11,12,12,13,13,15,15,17,17,18,18,19,19,20,20,21,21,23,23,24,24,25,25,26,26,28,28],"right_children":[2,4,6,8,10,12,14,16,18,20,22,24,26,28,-1,30,-1,32,34,36,38,40,-1,42,44,46,48,-1,50,-1,-1,-1,-1,-1,-1,-1,-1,-1,-1,-1,-1,-1,-1,-1,-1,-1,-1,-1,-1,-1,-1],"split_conditions":[4.182058E-1,2.4098505E-1,6.147757E-1,8.6191736E-2,3.4432718E-1,5.30343E-1,7.955145E-1,4.5118734E-1,3.4256816E-1,3.935796E-1,6.2401056E-1,6.112577E-1,5.2506596E-1,3.8742304E-1,7.1352697E-3,1.24010555E-1,-1.470777E-3,1.5039578E-1,4.4151276E-1,3.1530344E-1,4.3271768E-1,5.901495E-1,-3.8189888E-3,4.1556728E-1,5.2638525E-1,3.9094108E-1,2.5021988E-1,6.224026E-3,5.58927E-1,-3.3357646E-3,-5.790597E-3,-2.738512E-3,-3.9205966E-3,-2.1447795E-3,-5.4195523E-4,-1.2603144E-3,-2.754174E-3,4.4588489E-4,-1.2945249E-3,-5.2379485E-4,2.3866973E-3,-2.1672597E-4,9.3952566E-4,5.546734E-4,-1.5130461E-3,7.492628E-4,3.0014152E-3,3.3917667E-3,1.4412942E-3,1.6433198E-3,3.4536913E-3],"split_indices":[59,59,59,59,59,59,59,0,33,48,7,48,55,50,0,21,0,42,0,47,35,7,0,51,6,5,0,0,45,0,0,0,0,0,0,0,0,0,0,0,0,0,0,0,0,0,0,0,0,0,0],"split_type":[0,0,0,0,0,0,0,0,0,0,0,0,0,0,0,0,0,0,0,0,0,0,0,0,0,0,0,0,0,0,0,0,0,0,0,0,0,0,0,0,0,0,0,0,0,0,0,0,0,0,0],"sum_hessian":[7.52E2,3.32E2,4.2E2,1.37E2,1.95E2,3.07E2,1.13E2,3E1,1.07E2,1.04E2,9.1E1,1.71E2,1.36E2,1.09E2,4E0,2.8E1,2E0,9.1E1,1.6E1,8.2E1,2.2E1,8.9E1,2E0,1.63E2,8E0,2.8E1,1.08E2,3E0,1.06E2,6E0,2.2E1,3E1,6.1E1,1.4E1,2E0,4.8E1,3.4E1,6E0,1.6E1,8.6E1,3E0,3E1,1.33E2,1E0,7E0,7E0,2.1E1,5E0,1.03E2,2.2E1,8.4E1],"tree_param":{"num_deleted":"0","num_feature":"60","num_nodes":"51","size_leaf_vector":"1"}},{"base_weights":[-5.78661E-5,-2.0275833E-2,1.5934154E-2,-3.423461E-2,-1.0344266E-2,9.941287E-3,3.0372636E-2,-4.1003834E-2,-2.6228735E-2,-1.5889691E-2,-5.285911E-3,4.845732E-3,1.4772041E-2,2.7491516E-2,5.0840545E-2,-2.4761604E-2,-4.5492336E-2,-2.9164325E-2,-8.899484E-3,-1.6469989E-2,7.0091983E-4,-4.1395514E-3,-3.2910013E-3,4.080554E-3,3.1180696E-3,1.8700937E-2,1.1322103E-2,5.7572233E-3,2.6110074E-2,3.519351E-2,7.196651E-3,-3.304525E-3,-1.786601E-3,-5.1765754E-3,-3.683698E-3,-3.2616796E-3,-1.8494606E-3,-1.8870166E-3,-5.0621376E-5,-1.1954476E-3,-2.0266082E-3,-5.435573E-4,2.183118E-3,5.4670573E-4,-1.0311672E-3,3.032528E-4,2.0393736E-3,6.8263995E-4,1.7732655E-3,1.4010221E-3,2.9256342E-3,7.844925E-4,3.7360583E-3],"categories":[],"categories_nodes":[],"categories_segments":[],"categories_sizes":[],"default_left":[0,0,0,0,0,0,0,0,0,0,0,0,0,0,0,0,0,0,0,0,0,0,0,0,0,0,0,0,0,0,0,0,0,0,0,0,0,0,0,0,0,0,0,0,0,0,0,0,0,0,0,0,0],"id":21,"left_children":[1,3,5,7,9,11,13,15,17,19,21,23,25,27,29,31,33,35,37,39,-1,41,-1,43,-1,45,47,-1,49,51,-1,-1,-1,-1,-1,-1,-1,-1,-1,-1,-1,-1,-1,-1,-1,-1,-1,-1,-1,-1,-1,-1,-1],"loss_changes":[2.4378766E-1,4.5810506E-2,3.612631E-2,6.4032376E-3,5.4139514E-3,7.2884187E-3,5.8556944E-3,4.195489E-3,3.0979738E-3,1.351241E-3,3.1571514E-3,2.8349515E-3,1.8620938E-3,3.0678138E-3,2.095066E-3,4.3778494E-4,1.1338294E-3,1.4596283E-3,9.110006E-4,1.3175886E-3,0E0,3.5181863E-3,0E0,2.929875E-3,0E0,1.7947983E-3,2.2998247E-3,0E0,3.663525E-3,2.99572E-4,0E0,0E0,0E0,0E0,0E0,0E0,0E0,0E0,0E0,0E0,0E0,0E0,0E0,0E0,0E0,0E0,0E0,0E0,0E0,0E0,0E0,0E0,0E0],"parents":[2147483647,0,0,1,1,2,2,3,3,4,4,5,5,6,6,7,7,8,8,9,9,10,10,11,11,12,12,13,13,14,14,15,15,16,16,17,17,18,18,19,19,21,21,23,23,25,25,26,26,28,28,29,29],"right_children":[2,4,6,8,10,12,14,16,18,20,22,24,26,28,30,32,34,36,38,40,-1,42,-1,44,-1,46,48,-1,50,52,-1,-1,-1,-1,-1,-1,-1,-1,-1,-1,-1,-1,-1,-1,-1,-1,-1,-1,-1,-1,-1,-1,-1],"split_conditions":[4.182058E-1,2.4098505E-1,6.1081797E-1,2.8188214E-1,3.3157432E-1,5.2418643E-1,7.414248E-1,2.3922603E-1,4.6437994E-1,6.4599824E-1,6.248901E-1,6.2972736E-1,4.7845206E-1,3.8742304E-1,6.3148636E-1,1.7194371E-1,1.76781E-1,3.4256816E-1,2.2251539E-1,3.1530344E-1,7.0091983E-4,5.901495E-1,-3.2910013E-3,6.072999E-1,3.1180696E-3,2.6341248E-1,5.558487E-1,5.7572233E-3,5.457344E-1,4.7273526E-1,7.196651E-3,-3.304525E-3,-1.786601E-3,-5.1765754E-3,-3.683698E-3,-3.2616796E-3,-1.8494606E-3,-1.8870166E-3,-5.0621376E-5,-1.1954476E-3,-2.0266082E-3,-5.435573E-4,2.183118E-3,5.4670573E-4,-1.0311672E-3,3.032528E-4,2.0393736E-3,6.8263995E-4,1.7732655E-3,1.4010221E-3,2.9256342E-3,7.844925E-4,3.7360583E-3],"split_indices":[59,59,58,22,59,59,59,1,0,2,10,10,0,50,7,9,28,33,35,47,0,7,0,4,0,15,30,0,30,0,0,0,0,0,0,0,0,0,0,0,0,0,0,0,0,0,0,0,0,0,0,0,0],"split_type":[0,0,0,0,0,0,0,0,0,0,0,0,0,0,0,0,0,0,0,0,0,0,0,0,0,0,0,0,0,0,0,0,0,0,0,0,0,0,0,0,0,0,0,0,0,0,0,0,0,0,0,0,0],"sum_hessian":[7.52E2,3.32E2,4.2E2,1.37E2,1.95E2,2.98E2,1.22E2,7.2E1,6.5E1,9.2E1,1.03E2,1.46E2,1.52E2,1.09E2,1.3E1,1.7E1,5.5E1,5.5E1,1E1,9E1,2E0,1E2,3E0,1.43E2,3E0,6.9E1,8.3E1,3E0,1.06E2,9E0,4E0,6E0,1.1E1,2.9E1,2.6E1,4E1,1.5E1,4E0,6E0,4.3E1,4.7E1,9.6E1,4E0,1.31E2,1.2E1,7E0,6.2E1,5E1,3.3E1,2.3E1,8.3E1,1E0,8E0],"tree_param":{"num_deleted":"0","num_feature":"60","num_nodes":"53","size_leaf_vector":"1"}},{"base_weights":[-4.6681856E-5,-2.25989E-2,1.1684203E-2,-3.4496494E-2,-1.5216519E-2,5.0070737E-3,2.4574228E-2,-4.1723445E-2,-2.7835209E-2,-1.7410161E-2,-7.1160877E-3,2.925469E-4,1.1577745E-2,2.0747256E-2,3.7221227E-2,-2.4534153E-2,-4.6563096E-2,-1.9625064E-2,-3.329354E-2,-1.3852016E-2,-2.2903563E-2,6.3826563E-3,-9.002889E-3,1.7382021E-3,-1.2226997E-2,2.3945251E-2,9.975385E-3,4.1952774E-2,1.9040829E-2,4.930202E-2,2.8967133E-2,-9.1408537E-4,-2.6698727E-3,-4.74173E-3,-9.1871474E-4,-2.318978E-3,3.9959626E-4,-3.8532491E-3,-1.3415003E-3,-1.7208131E-3,-5.9982438E-5,-1.4568456E-4,-2.430097E-3,-1.9088387E-4,8.93274E-4,-1.4749048E-3,-4.29504E-4,-1.0880246E-3,3.458785E-4,-3.7698825E-3,1.3822722E-4,5.7037326E-4,2.803032E-3,8.029732E-4,1.959401E-3,5.5280877E-3,1.1472434E-3,1.1962473E-3,2.292138E-3,1.4039059E-3,5.400926E-3,3.0480574E-3,-3.677726E-4],"categories":[],"categories_nodes":[],"categories_segments":[],"categories_sizes":[],"default_left":[0,0,0,0,0,0,0,0,0,0,0,0,0,0,0,0,0,0,0,0,0,0,0,0,0,0,0,0,0,0,0,0,0,0,0,0,0,0,0,0,0,0,0,0,0,0,0,0,0,0,0,0,0,0,0,0,0,0,0,0,0,0,0],"id":22,"left_children":[1,3,5,7,9,11,13,15,17,19,21,23,25,27,29,31,33,35,37,39,41,43,45,47,49,51,53,55,57,59,61,-1,-1,-1,-1,-1,-1,-1,-1,-1,-1,-1,-1,-1,-1,-1,-1,-1,-1,-1,-1,-1,-1,-1,-1,-1,-1,-1,-1,-1,-1,-1,-1],"loss_changes":[1.9947581E-1,2.2135898E-2,4.2566866E-2,3.5564154E-3,2.7369894E-3,1.01572685E-2,7.4073076E-3,2.601169E-3,1.7665513E-3,2.1455772E-3,9.74362E-4,3.4962501E-3,2.4760943E-3,3.97769E-3,2.3610704E-3,1.5578978E-4,6.4988434E-4,2.1135192E-3,2.7115047E-3,3.5032723E-3,1.4031492E-3,1.2277118E-4,8.0231787E-4,3.7936505E-3,6.9851684E-3,9.578904E-4,2.14455E-3,3.0220002E-3,3.1318255E-3,1.5656352E-3,1.3472512E-3,0E0,0E0,0E0,0E0,0E0,0E0,0E0,0E0,0E0,0E0,0E0,0E0,0E0,0E0,0E0,0E0,0E0,0E0,0E0,0E0,0E0,0E0,0E0,0E0,0E0,0E0,0E0,0E0,0E0,0E0,0E0,0E0],"parents":[2147483647,0,0,1,1,2,2,3,3,4,4,5,5,6,6,7,7,8,8,9,9,10,10,11,11,12,12,13,13,14,14,15,15,16,16,17,17,18,18,19,19,20,20,21,21,22,22,23,23,24,24,25,25,26,26,27,27,28,28,29,29,30,30],"right_children":[2,4,6,8,10,12,14,16,18,20,22,24,26,28,30,32,34,36,38,40,42,44,46,48,50,52,54,56,58,60,62,-1,-1,-1,-1,-1,-1,-1,-1,-1,-1,-1,-1,-1,-1,-1,-1,-1,-1,-1,-1,-1,-1,-1,-1,-1,-1,-1,-1,-1,-1,-1,-1],"split_conditions":[3.6235708E-1,1.76781E-1,5.672823E-1,1.8865435E-1,3.3157432E-1,4.9956024E-1,7.128408E-1,1.02902375E-1,4.0149516E-1,4.0897098E-1,3.3685136E-1,5.901495E-1,4.8504838E-1,4.5470536E-1,5.9718555E-1,1.2840809E-1,2.1372032E-1,3.4432718E-1,4.5470536E-1,3.592788E-1,1.5039578E-1,1.06420405E-1,3.641161E-1,1.12137206E-1,4.4283202E-1,4.525066E-1,5.677221E-1,5.5540895E-1,5.4397535E-1,4.876869E-1,7.1503955E-1,-9.1408537E-4,-2.6698727E-3,-4.74173E-3,-9.1871474E-4,-2.318978E-3,3.9959626E-4,-3.8532491E-3,-1.3415003E-3,-1.7208131E-3,-5.9982438E-5,-1.4568456E-4,-2.430097E-3,-1.9088387E-4,8.93274E-4,-1.4749048E-3,-4.29504E-4,-1.0880246E-3,3.458785E-4,-3.7698825E-3,1.3822722E-4,5.7037326E-4,2.803032E-3,8.029732E-4,1.959401E-3,5.5280877E-3,1.1472434E-3,1.1962473E-3,2.292138E-3,1.4039059E-3,5.400926E-3,3.0480574E-3,-3.677726E-4],"split_indices":[58,59,57,28,56,59,59,38,6,13,56,3,57,50,16,31,38,7,13,12,55,0,54,12,32,47,31,18,31,0,21,0,0,0,0,0,0,0,0,0,0,0,0,0,0,0,0,0,0,0,0,0,0,0,0,0,0,0,0,0,0,0,0],"split_type":[0,0,0,0,0,0,0,0,0,0,0,0,0,0,0,0,0,0,0,0,0,0,0,0,0,0,0,0,0,0,0,0,0,0,0,0,0,0,0,0,0,0,0,0,0,0,0,0,0,0,0,0,0,0,0,0,0,0,0,0,0,0,0],"sum_hessian":[7.52E2,2.57E2,4.95E2,9.7E1,1.6E2,3.27E2,1.68E2,4.4E1,5.3E1,1.25E2,3.5E1,1.91E2,1.36E2,1.31E2,3.7E1,1.1E1,3.3E1,2.3E1,3E1,7.8E1,4.7E1,4E0,3.1E1,1.72E2,1.9E1,1.4E1,1.22E2,8E0,1.23E2,1.3E1,2.4E1,2E0,9E0,3.2E1,1E0,2E1,3E0,2.3E1,7E0,6.2E1,1.6E1,3E0,4.4E1,1E0,3E0,1.3E1,1.8E1,2E1,1.52E2,6E0,1.3E1,3E0,1.1E1,1.03E2,1.9E1,5E0,3E0,4.5E1,7.8E1,2E0,1.1E1,2.3E1,1E0],"tree_param":{"num_deleted":"0","num_feature":"60","num_nodes":"63","size_leaf_vector":"1"}},{"base_weights":[-4.2691427E-5,-1.6596442E-2,1.3050994E-2,-2.8088842E-2,-8.420179E-3,8.35077E-3,2.5635364E-2,-3.374789E-2,-2.1404004E-2,-1.2425112E-2,-3.7578077E-3,4.5979326E-3,1.30014075E-2,2.4010353E-2,5.625851E-3,-2.1281397E-2,-3.774015E-2,-2.3821805E-2,-7.1493806E-3,-1.4257087E-2,-5.273849E-3,5.808505E-3,-6.8473415E-3,5.4874094E-3,-1.212119E-2,1.47225205E-2,5.775556E-3,2.6152225E-2,1.1610101E-2,-2.8332984E-3,-1.5304927E-3,-4.436067E-3,-3.0503129E-3,-2.6261143E-3,-1.268914E-3,-1.5744631E-3,1.1422804E-6,-1.0341677E-3,-2.4643375E-3,2.4712196E-4,-1.1421688E-3,-6.7640736E-4,1.6000032E-3,2.352812E-3,-8.558603E-4,-8.5286656E-4,6.650052E-4,4.8231037E-4,-1.4842115E-3,2.0243973E-4,1.5565845E-3,9.1838025E-5,2.0215886E-3,1.7979641E-3,2.9948524E-3,-6.4083637E-4,1.5641017E-3],"categories":[],"categories_nodes":[],"categories_segments":[],"categories_sizes":[],"default_left":[0,0,0,0,0,0,0,0,0,0,0,0,0,0,0,0,0,0,0,0,0,0,0,0,0,0,0,0,0,0,0,0,0,0,0,0,0,0,0,0,0,0,0,0,0,0,0,0,0,0,0,0,0,0,0,0,0],"id":23,"left_children":[1,3,5,7,9,11,13,15,17,19,21,23,25,27,-1,29,31,33,35,37,39,41,43,45,47,49,51,53,55,-1,-1,-1,-1,-1,-1,-1,-1,-1,-1,-1,-1,-1,-1,-1,-1,-1,-1,-1,-1,-1,-1,-1,-1,-1,-1,-1,-1],"loss_changes":[1.6342905E-1,3.1053796E-2,2.4687797E-2,4.4981763E-3,3.6131172E-3,5.3157713E-3,4.322186E-3,2.8300062E-3,2.104368E-3,1.3004076E-3,2.758874E-3,2.6243727E-3,1.6187709E-3,2.6179478E-3,0E0,4.0923804E-4,1.2341514E-3,1.187522E-3,6.7721755E-4,3.1204745E-3,1.1233804E-3,3.0553024E-3,3.8399932E-3,2.7292073E-3,4.8652245E-4,1.1464413E-3,1.9453324E-3,2.3469105E-3,1.4075905E-3,0E0,0E0,0E0,0E0,0E0,0E0,0E0,0E0,0E0,0E0,0E0,0E0,0E0,0E0,0E0,0E0,0E0,0E0,0E0,0E0,0E0,0E0,0E0,0E0,0E0,0E0,0E0,0E0],"parents":[2147483647,0,0,1,1,2,2,3,3,4,4,5,5,6,6,7,7,8,8,9,9,10,10,11,11,12,12,13,13,15,15,16,16,17,17,18,18,19,19,20,20,21,21,22,22,23,23,24,24,25,25,26,26,27,27,28,28],"right_children":[2,4,6,8,10,12,14,16,18,20,22,24,26,28,-1,30,32,34,36,38,40,42,44,46,48,50,52,54,56,-1,-1,-1,-1,-1,-1,-1,-1,-1,-1,-1,-1,-1,-1,-1,-1,-1,-1,-1,-1,-1,-1,-1,-1,-1,-1,-1,-1],"split_conditions":[4.182058E-1,2.4098505E-1,6.147757E-1,2.8188214E-1,3.4432718E-1,5.30343E-1,7.955145E-1,2.3922603E-1,4.6437994E-1,3.935796E-1,3.2541776E-1,6.112577E-1,6.0510117E-1,7.255937E-1,5.625851E-3,1.7194371E-1,1.644679E-1,3.5048372E-1,2.2251539E-1,3.4256816E-1,4.525066E-1,2.7616534E-1,3.2585752E-1,2.6737028E-1,5.2638525E-1,2.6341248E-1,6.7150396E-1,5.686016E-1,6.3456464E-1,-2.8332984E-3,-1.5304927E-3,-4.436067E-3,-3.0503129E-3,-2.6261143E-3,-1.268914E-3,-1.5744631E-3,1.1422804E-6,-1.0341677E-3,-2.4643375E-3,2.4712196E-4,-1.1421688E-3,-6.7640736E-4,1.6000032E-3,2.352812E-3,-8.558603E-4,-8.5286656E-4,6.650052E-4,4.8231037E-4,-1.4842115E-3,2.0243973E-4,1.5565845E-3,9.1838025E-5,2.0215886E-3,1.7979641E-3,2.9948524E-3,-6.4083637E-4,1.5641017E-3],"split_indices":[59,59,59,22,59,59,59,2,0,48,52,48,55,24,0,9,29,34,35,47,12,49,57,31,6,15,50,32,37,0,0,0,0,0,0,0,0,0,0,0,0,0,0,0,0,0,0,0,0,0,0,0,0,0,0,0,0],"split_type":[0,0,0,0,0,0,0,0,0,0,0,0,0,0,0,0,0,0,0,0,0,0,0,0,0,0,0,0,0,0,0,0,0,0,0,0,0,0,0,0,0,0,0,0,0,0,0,0,0,0,0,0,0,0,0,0,0],"sum_hessian":[7.52E2,3.32E2,4.2E2,1.37E2,1.95E2,3.07E2,1.13E2,7.2E1,6.5E1,1.04E2,9.1E1,1.71E2,1.36E2,1.09E2,4E0,1.9E1,5.3E1,5.5E1,1E1,8.2E1,2.2E1,2.2E1,6.9E1,1.63E2,8E0,1.09E2,2.7E1,9.2E1,1.7E1,7E0,1.2E1,2.5E1,2.8E1,4.4E1,1.1E1,4E0,6E0,6.1E1,2.1E1,1E1,1.2E1,1E1,1.2E1,3E0,6.6E1,1.2E1,1.51E2,1E0,7E0,7E0,1.02E2,2.1E1,6E0,3.1E1,6.1E1,3E0,1.4E1],"tree_param":{"num_deleted":"0","num_feature":"60","num_nodes":"57","size_leaf_vector":"1"}},{"base_weights":[-4.5415218E-5,-1.5529536E-2,1.143368E-2,-2.5405452E-2,-8.038198E-3,6.5787514E-3,2.187514E-2,-3.0535432E-2,-1.9346453E-2,-9.419926E-3,6.0893646E-3,1.6029231E-3,9.413601E-3,1.9694215E-2,3.962938E-2,-1.8399702E-2,-3.3890925E-2,-2.1509174E-2,-6.5774755E-3,-5.027505E-3,-1.39653E-2,2.567338E-2,-6.9267694E-3,9.543801E-3,-3.1388E-3,2.0788128E-2,8.094714E-3,2.0402296E-2,-1.5665808E-3,2.6524162E-2,5.791395E-3,-2.5242013E-3,-1.2875047E-3,-3.478849E-3,-6.437818E-4,-2.4221805E-3,-1.2479861E-3,-1.4485064E-3,1.0441457E-6,-6.709188E-4,1.879341E-3,-1.732977E-3,-7.218867E-4,3.1082204E-3,-3.3897758E-4,-1.585641E-3,4.4108292E-5,-1.03011065E-4,1.7076576E-3,-2.083535E-3,2.1375692E-5,1.2068786E-4,3.210995E-3,3.3756296E-4,1.055052E-3,4.775977E-3,1.931127E-3,9.734969E-4,2.950459E-3],"categories":[],"categories_nodes":[],"categories_segments":[],"categories_sizes":[],"default_left":[0,0,0,0,0,0,0,0,0,0,0,0,0,0,0,0,0,0,0,0,0,0,0,0,0,0,0,0,0,0,0,0,0,0,0,0,0,0,0,0,0,0,0,0,0,0,0,0,0,0,0,0,0,0,0,0,0,0,0],"id":24,"left_children":[1,3,5,7,9,11,13,15,17,19,21,23,25,27,29,31,33,35,37,39,41,43,45,47,49,51,53,55,-1,57,-1,-1,-1,-1,-1,-1,-1,-1,-1,-1,-1,-1,-1,-1,-1,-1,-1,-1,-1,-1,-1,-1,-1,-1,-1,-1,-1,-1,-1],"loss_changes":[1.3401856E-1,2.3544587E-2,2.1805957E-2,3.6986396E-3,3.649124E-3,4.1743107E-3,4.5242608E-3,2.3490787E-3,1.681162E-3,3.2839421E-3,4.5112725E-3,4.1341814E-3,2.667049E-3,3.424298E-3,1.8186085E-3,3.5543274E-4,1.1559203E-3,1.0693353E-3,5.731912E-4,3.6112405E-3,1.7361492E-3,1.2057442E-3,7.307089E-4,3.2832776E-3,4.0981336E-3,4.1734604E-3,1.9461308E-3,2.7191192E-3,0E0,2.1316344E-4,0E0,0E0,0E0,0E0,0E0,0E0,0E0,0E0,0E0,0E0,0E0,0E0,0E0,0E0,0E0,0E0,0E0,0E0,0E0,0E0,0E0,0E0,0E0,0E0,0E0,0E0,0E0,0E0,0E0],"parents":[2147483647,0,0,1,1,2,2,3,3,4,4,5,5,6,6,7,7,8,8,9,9,10,10,11,11,12,12,13,13,14,14,15,15,16,16,17,17,18,18,19,19,20,20,21,21,22,22,23,23,24,24,25,25,26,26,27,27,29,29],"right_children":[2,4,6,8,10,12,14,16,18,20,22,24,26,28,30,32,34,36,38,40,42,44,46,48,50,52,54,56,-1,58,-1,-1,-1,-1,-1,-1,-1,-1,-1,-1,-1,-1,-1,-1,-1,-1,-1,-1,-1,-1,-1,-1,-1,-1,-1,-1,-1,-1,-1],"split_conditions":[4.12489E-1,2.4098505E-1,5.9718555E-1,2.8188214E-1,5.1099384E-1,4.8328936E-1,7.414248E-1,2.3922603E-1,4.6437994E-1,3.4432718E-1,5.3649956E-1,4.0237468E-1,4.7845206E-1,7.603342E-1,6.3148636E-1,1.7194371E-1,3.2541776E-1,4.6437994E-1,2.2251539E-1,3.5576078E-1,4.058927E-1,5.386983E-1,4.4063324E-1,3.9094108E-1,4.4283202E-1,4.3403694E-1,5.2330697E-1,3.8742304E-1,-1.5665808E-3,5.598065E-1,5.791395E-3,-2.5242013E-3,-1.2875047E-3,-3.478849E-3,-6.437818E-4,-2.4221805E-3,-1.2479861E-3,-1.4485064E-3,1.0441457E-6,-6.709188E-4,1.879341E-3,-1.732977E-3,-7.218867E-4,3.1082204E-3,-3.3897758E-4,-1.585641E-3,4.4108292E-5,-1.03011065E-4,1.7076576E-3,-2.083535E-3,2.1375692E-5,1.2068786E-4,3.210995E-3,3.3756296E-4,1.055052E-3,4.775977E-3,1.931127E-3,9.734969E-4,2.950459E-3],"split_indices":[58,59,57,22,22,58,59,1,0,27,22,2,53,4,7,9,18,17,35,14,48,19,51,48,23,44,45,50,0,9,0,0,0,0,0,0,0,0,0,0,0,0,0,0,0,0,0,0,0,0,0,0,0,0,0,0,0,0,0],"split_type":[0,0,0,0,0,0,0,0,0,0,0,0,0,0,0,0,0,0,0,0,0,0,0,0,0,0,0,0,0,0,0,0,0,0,0,0,0,0,0,0,0,0,0,0,0,0,0,0,0,0,0,0,0,0,0,0,0,0,0],"sum_hessian":[7.52E2,3.2E2,4.32E2,1.37E2,1.83E2,2.96E2,1.36E2,7.2E1,6.5E1,1.67E2,1.6E1,1.08E2,1.88E2,1.23E2,1.3E1,1.7E1,5.5E1,5.5E1,1E1,8.6E1,8.1E1,6E0,1E1,4E1,6.8E1,1.8E1,1.7E2,1.21E2,2E0,9E0,4E0,6E0,1.1E1,5.3E1,2E0,4.1E1,1.4E1,4E0,6E0,8.1E1,5E0,5.3E1,2.8E1,5E0,1E0,4E0,6E0,1.7E1,2.3E1,1E1,5.8E1,7E0,1.1E1,5.9E1,1.11E2,3E0,1.18E2,2E0,7E0],"tree_param":{"num_deleted":"0","num_feature":"60","num_nodes":"59","size_leaf_vector":"1"}},{"base_weights":[-3.2838478E-5,-1.40173035E-2,1.0334473E-2,-2.3322675E-2,-7.4787433E-3,5.9352415E-3,1.979606E-2,-3.4702122E-2,-2.0857176E-2,-1.1802092E-2,-3.941353E-3,1.4384375E-3,8.4972335E-3,1.7766245E-2,3.6360417E-2,-3.5906028E-2,-4.7100522E-4,-1.2110212E-2,-2.3947284E-2,-9.81184E-3,-2.1194668E-2,7.65793E-3,-7.070426E-3,2.7991426E-3,-2.2386858E-2,2.0836806E-2,7.4673966E-3,1.8417038E-2,-1.4621417E-2,2.4264157E-2,5.3280853E-3,-3.7224297E-3,-4.770331E-4,6.305041E-4,-1.4308455E-3,-4.3709343E-3,-2.118282E-3,-7.286702E-4,-1.6982437E-3,5.6011975E-4,-2.368675E-3,-8.1679225E-4,1.1419578E-3,-1.0520214E-3,4.494907E-4,6.733114E-4,-3.1684604E-4,-5.8113784E-4,-2.453968E-3,5.0090754E-4,2.9073427E-3,4.755628E-4,1.1603682E-3,4.417777E-3,1.7396366E-3,-4.232347E-4,-1.7699779E-3,9.0859534E-4,2.6922964E-3],"categories":[],"categories_nodes":[],"categories_segments":[],"categories_sizes":[],"default_left":[0,0,0,0,0,0,0,0,0,0,0,0,0,0,0,0,0,0,0,0,0,0,0,0,0,0,0,0,0,0,0,0,0,0,0,0,0,0,0,0,0,0,0,0,0,0,0,0,0,0,0,0,0,0,0,0,0,0,0],"id":25,"left_children":[1,3,5,7,9,11,13,15,17,19,21,23,25,27,29,31,-1,33,35,37,39,41,43,45,47,49,51,53,55,57,-1,-1,-1,-1,-1,-1,-1,-1,-1,-1,-1,-1,-1,-1,-1,-1,-1,-1,-1,-1,-1,-1,-1,-1,-1,-1,-1,-1,-1],"loss_changes":[1.0931579E-1,1.9356415E-2,1.7905578E-2,2.9796138E-3,2.8592236E-3,3.4094462E-3,3.960304E-3,6.2525086E-4,2.7102157E-3,1.3809968E-3,3.901415E-3,3.5963573E-3,2.2461684E-3,2.8829165E-3,1.5726201E-3,6.8437494E-4,0E0,1.3451325E-3,3.4992658E-3,1.1799396E-3,1.0675592E-3,1.4624943E-3,3.398715E-3,2.462877E-3,7.149507E-5,1.6795071E-3,1.9189473E-3,2.4392456E-3,2.1032407E-5,1.5893858E-4,0E0,0E0,0E0,0E0,0E0,0E0,0E0,0E0,0E0,0E0,0E0,0E0,0E0,0E0,0E0,0E0,0E0,0E0,0E0,0E0,0E0,0E0,0E0,0E0,0E0,0E0,0E0,0E0,0E0],"parents":[2147483647,0,0,1,1,2,2,3,3,4,4,5,5,6,6,7,7,8,8,9,9,10,10,11,11,12,12,13,13,14,14,15,15,17,17,18,18,19,19,20,20,21,21,22,22,23,23,24,24,25,25,26,26,27,27,28,28,29,29],"right_children":[2,4,6,8,10,12,14,16,18,20,22,24,26,28,30,32,-1,34,36,38,40,42,44,46,48,50,52,54,56,58,-1,-1,-1,-1,-1,-1,-1,-1,-1,-1,-1,-1,-1,-1,-1,-1,-1,-1,-1,-1,-1,-1,-1,-1,-1,-1,-1,-1,-1],"split_conditions":[4.12489E-1,2.2823219E-1,5.9718555E-1,6.46438E-2,3.2145998E-1,4.8328936E-1,7.414248E-1,1.8293755E-1,2.3922603E-1,3.5048372E-1,3.2541776E-1,5.901495E-1,4.639402E-1,7.603342E-1,6.3148636E-1,3.4256816E-1,-4.7100522E-4,7.651715E-2,1.7194371E-1,4.4371152E-1,8.6191736E-2,8.6191736E-2,4.419525E-1,4.9208444E-1,5.219877E-1,3.2585752E-1,5.3210205E-1,3.8742304E-1,7.326297E-1,5.598065E-1,5.3280853E-3,-3.7224297E-3,-4.770331E-4,6.305041E-4,-1.4308455E-3,-4.3709343E-3,-2.118282E-3,-7.286702E-4,-1.6982437E-3,5.6011975E-4,-2.368675E-3,-8.1679225E-4,1.1419578E-3,-1.0520214E-3,4.494907E-4,6.733114E-4,-3.1684604E-4,-5.8113784E-4,-2.453968E-3,5.0090754E-4,2.9073427E-3,4.755628E-4,1.1603682E-3,4.417777E-3,1.7396366E-3,-4.232347E-4,-1.7699779E-3,9.0859534E-4,2.6922964E-3],"split_indices":[58,55,57,59,58,58,59,29,9,52,54,50,53,4,7,6,0,44,28,21,0,28,53,30,2,0,37,50,0,9,0,0,0,0,0,0,0,0,0,0,0,0,0,0,0,0,0,0,0,0,0,0,0,0,0,0,0,0,0],"split_type":[0,0,0,0,0,0,0,0,0,0,0,0,0,0,0,0,0,0,0,0,0,0,0,0,0,0,0,0,0,0,0,0,0,0,0,0,0,0,0,0,0,0,0,0,0,0,0,0,0,0,0,0,0,0,0,0,0,0,0],"sum_hessian":[7.52E2,3.2E2,4.32E2,1.31E2,1.89E2,2.96E2,1.36E2,2.1E1,1.1E2,8.4E1,1.05E2,1.08E2,1.88E2,1.23E2,1.3E1,2E1,1E0,3E1,8E1,7.1E1,1.3E1,2.2E1,8.3E1,1.03E2,5E0,1.3E1,1.75E2,1.21E2,2E0,9E0,4E0,1.9E1,1E0,3E0,2.7E1,8E0,7.2E1,5.4E1,1.7E1,1E0,1.2E1,4E0,1.8E1,6.4E1,1.9E1,6.2E1,4.1E1,1E0,4E0,5E0,8E0,1.07E2,6.8E1,3E0,1.18E2,1E0,1E0,2E0,7E0],"tree_param":{"num_deleted":"0","num_feature":"60","num_nodes":"59","size_leaf_vector":"1"}},{"base_weights":[-3.116753E-5,-1.2222888E-2,9.716464E-3,-2.0788869E-2,-6.190928E-3,6.160521E-3,1.9176133E-2,-2.5157664E-2,-1.5641732E-2,-7.5335894E-3,4.892799E-3,3.5546275E-3,9.434988E-3,1.7019888E-2,3.3362173E-2,-1.5548884E-2,-2.8250588E-2,-4.565536E-3,-1.8018562E-2,-3.400248E-3,-1.2857406E-2,3.7813187E-3,1.5245335E-3,4.537556E-3,-1.4751468E-2,1.808205E-2,7.773916E-3,1.9149631E-2,5.370003E-3,2.2197837E-2,4.901841E-3,-2.1008735E-3,-1.0992908E-3,-4.3373364E-3,-2.5456632E-3,-9.772294E-4,5.719736E-4,-3.1912234E-3,-1.4530667E-3,-1.0899861E-3,5.6820976E-5,-1.0039664E-3,-2.728354E-3,6.398861E-4,-9.1382436E-4,5.3189363E-4,-1.1364225E-3,-2.163153E-3,-7.4350835E-5,1.0764853E-3,3.4580906E-3,-2.9523176E-6,1.0405652E-3,1.2105511E-3,2.258131E-3,-6.674443E-4,1.2546469E-3,4.910648E-4,2.3573008E-3],"categories":[],"categories_nodes":[],"categories_segments":[],"categories_sizes":[],"default_left":[0,0,0,0,0,0,0,0,0,0,0,0,0,0,0,0,0,0,0,0,0,0,0,0,0,0,0,0,0,0,0,0,0,0,0,0,0,0,0,0,0,0,0,0,0,0,0,0,0,0,0,0,0,0,0,0,0,0,0],"id":26,"left_children":[1,3,5,7,9,11,13,15,17,19,21,23,25,27,29,31,33,35,37,39,41,-1,43,45,47,49,51,53,55,57,-1,-1,-1,-1,-1,-1,-1,-1,-1,-1,-1,-1,-1,-1,-1,-1,-1,-1,-1,-1,-1,-1,-1,-1,-1,-1,-1,-1,-1],"loss_changes":[8.9605585E-2,1.718063E-2,1.3976201E-2,2.7096644E-3,2.9834355E-3,2.577533E-3,2.919279E-3,1.7302372E-3,1.6552676E-3,3.851193E-3,2.381814E-3,3.1618308E-3,1.7984901E-3,2.4031065E-3,1.3589794E-3,2.6655197E-4,1.1774935E-3,7.520829E-4,2.1531153E-3,3.0121445E-3,2.8560665E-3,0E0,1.1499254E-3,2.098201E-3,8.512973E-4,2.1629753E-3,2.3620152E-3,1.7813593E-3,1.553162E-3,1.2196973E-4,0E0,0E0,0E0,0E0,0E0,0E0,0E0,0E0,0E0,0E0,0E0,0E0,0E0,0E0,0E0,0E0,0E0,0E0,0E0,0E0,0E0,0E0,0E0,0E0,0E0,0E0,0E0,0E0,0E0],"parents":[2147483647,0,0,1,1,2,2,3,3,4,4,5,5,6,6,7,7,8,8,9,9,10,10,11,11,12,12,13,13,14,14,15,15,16,16,17,17,18,18,19,19,20,20,22,22,23,23,24,24,25,25,26,26,27,27,28,28,29,29],"right_children":[2,4,6,8,10,12,14,16,18,20,22,24,26,28,30,32,34,36,38,40,42,-1,44,46,48,50,52,54,56,58,-1,-1,-1,-1,-1,-1,-1,-1,-1,-1,-1,-1,-1,-1,-1,-1,-1,-1,-1,-1,-1,-1,-1,-1,-1,-1,-1,-1,-1],"split_conditions":[4.2040458E-1,2.4098505E-1,6.147757E-1,2.8188214E-1,4.8636764E-1,5.30343E-1,7.414248E-1,2.3922603E-1,2.6077396E-1,3.6235708E-1,3.8742304E-1,6.3456464E-1,3.592788E-1,7.211961E-1,6.3148636E-1,1.7194371E-1,3.2541778E-2,3.1002638E-1,2.2823219E-1,1.12137206E-1,3.8654354E-1,3.7813187E-3,4.771328E-1,6.2884784E-1,6.072999E-1,4.7933158E-1,4.9692172E-1,5.598065E-1,7.07124E-1,4.7273526E-1,4.901841E-3,-2.1008735E-3,-1.0992908E-3,-4.3373364E-3,-2.5456632E-3,-9.772294E-4,5.719736E-4,-3.1912234E-3,-1.4530667E-3,-1.0899861E-3,5.6820976E-5,-1.0039664E-3,-2.728354E-3,6.398861E-4,-9.1382436E-4,5.3189363E-4,-1.1364225E-3,-2.163153E-3,-7.4350835E-5,1.0764853E-3,3.4580906E-3,-2.9523176E-6,1.0405652E-3,1.2105511E-3,2.258131E-3,-6.674443E-4,1.2546469E-3,4.910648E-4,2.3573008E-3],"split_indices":[57,59,59,22,20,59,59,2,30,31,45,2,1,24,7,9,55,20,38,25,59,0,48,24,11,32,19,20,4,0,0,0,0,0,0,0,0,0,0,0,0,0,0,0,0,0,0,0,0,0,0,0,0,0,0,0,0,0,0],"split_type":[0,0,0,0,0,0,0,0,0,0,0,0,0,0,0,0,0,0,0,0,0,0,0,0,0,0,0,0,0,0,0,0,0,0,0,0,0,0,0,0,0,0,0,0,0,0,0,0,0,0,0,0,0,0,0,0,0,0,0],"sum_hessian":[7.52E2,3.34E2,4.18E2,1.37E2,1.97E2,3.05E2,1.13E2,7.2E1,6.5E1,1.76E2,2.1E1,1.71E2,1.34E2,1E2,1.3E1,1.9E1,5.3E1,1.2E1,5.3E1,1E2,7.6E1,1E0,2E1,1.63E2,8E0,2E1,1.14E2,8.4E1,1.6E1,9E0,4E0,7E0,1.2E1,6E0,4.7E1,8E0,4E0,9E0,4.4E1,3.4E1,6.6E1,6.5E1,1.1E1,1.4E1,6E0,1.56E2,7E0,5E0,3E0,1.5E1,5E0,2.9E1,8.5E1,2.9E1,5.5E1,6E0,1E1,1E0,8E0],"tree_param":{"num_deleted":"0","num_feature":"60","num_nodes":"59","size_leaf_vector":"1"}},{"base_weights":[-3.0511923E-5,-1.3708479E-2,7.084299E-3,-2.0955702E-2,-9.21198E-3,2.3066702E-3,1.4143656E-2,-2.356551E-2,-1.23924455E-2,-8.73355E-3,-3.1498123E-3,-1.2343052E-3,5.2651023E-3,1.0619084E-2,2.1300549E-2,-2.1431725E-2,-4.09272E-3,-5.0490224E-3,-1.8782604E-2,-1.075003E-2,-2.8602588E-3,2.9106793E-4,-1.8594552E-2,8.007888E-3,-1.6163486E-3,3.969462E-3,9.66479E-3,3.320872E-2,1.4862359E-2,-2.804378E-3,-1.5473688E-3,-1.0932151E-3,-5.54882E-7,-2.4305158E-3,-5.085489E-4,-7.99925E-4,-1.5194541E-3,-1.7631063E-3,-3.8768874E-5,-6.310292E-5,1.8838182E-3,-2.646437E-3,-3.8578987E-4,-6.664442E-4,9.1564347E-4,-7.132682E-4,6.1873347E-4,1.0619914E-3,-1.2321989E-3,1.0757268E-3,3.4916003E-3,1.8199122E-3,6.4122165E-4],"categories":[],"categories_nodes":[],"categories_segments":[],"categories_sizes":[],"default_left":[0,0,0,0,0,0,0,0,0,0,0,0,0,0,0,0,0,0,0,0,0,0,0,0,0,0,0,0,0,0,0,0,0,0,0,0,0,0,0,0,0,0,0,0,0,0,0,0,0,0,0,0,0],"id":27,"left_children":[1,3,5,7,9,11,13,15,17,19,-1,21,23,25,27,29,-1,31,33,35,37,39,41,43,45,-1,47,49,51,-1,-1,-1,-1,-1,-1,-1,-1,-1,-1,-1,-1,-1,-1,-1,-1,-1,-1,-1,-1,-1,-1,-1,-1],"loss_changes":[7.337617E-2,8.2144365E-3,1.669596E-2,1.8981174E-3,1.4415495E-3,3.1177923E-3,4.8188046E-3,1.8642694E-3,1.0783069E-3,1.8523484E-3,0E0,3.6068086E-3,3.0705868E-3,3.3899024E-3,4.4898E-3,2.2449084E-3,0E0,3.856675E-4,8.5975556E-4,1.3211081E-3,1.5270824E-3,2.1667697E-3,1.173625E-3,2.015838E-3,2.067375E-3,0E0,2.9238714E-3,4.676804E-4,1.1239313E-3,0E0,0E0,0E0,0E0,0E0,0E0,0E0,0E0,0E0,0E0,0E0,0E0,0E0,0E0,0E0,0E0,0E0,0E0,0E0,0E0,0E0,0E0,0E0,0E0],"parents":[2147483647,0,0,1,1,2,2,3,3,4,4,5,5,6,6,7,7,8,8,9,9,11,11,12,12,13,13,14,14,15,15,17,17,18,18,19,19,20,20,21,21,22,22,23,23,24,24,26,26,27,27,28,28],"right_children":[2,4,6,8,10,12,14,16,18,20,-1,22,24,26,28,30,-1,32,34,36,38,40,42,44,46,-1,48,50,52,-1,-1,-1,-1,-1,-1,-1,-1,-1,-1,-1,-1,-1,-1,-1,-1,-1,-1,-1,-1,-1,-1,-1,-1],"split_conditions":[3.6235708E-1,1.76781E-1,5.5540895E-1,1.9261214E-1,3.592788E-1,4.6789798E-1,6.596306E-1,1.8161829E-1,2.5461742E-1,3.2145998E-1,-3.1498123E-3,4.9692172E-1,5.505717E-1,3.8742304E-1,6.3456464E-1,1.76781E-1,-4.09272E-3,3.3157432E-1,4.4547054E-1,4.1204926E-1,4.001759E-2,6.5831137E-1,6.121372E-1,4.525066E-1,6.094987E-1,3.969462E-3,7.022867E-1,5.580475E-1,7.273527E-1,-2.804378E-3,-1.5473688E-3,-1.0932151E-3,-5.54882E-7,-2.4305158E-3,-5.085489E-4,-7.99925E-4,-1.5194541E-3,-1.7631063E-3,-3.8768874E-5,-6.310292E-5,1.8838182E-3,-2.646437E-3,-3.8578987E-4,-6.664442E-4,9.1564347E-4,-7.132682E-4,6.1873347E-4,1.0619914E-3,-1.2321989E-3,1.0757268E-3,3.4916003E-3,1.8199122E-3,6.4122165E-4],"split_indices":[58,59,59,44,58,52,31,50,43,58,0,48,12,50,12,25,0,15,15,12,38,15,41,49,8,0,4,12,22,0,0,0,0,0,0,0,0,0,0,0,0,0,0,0,0,0,0,0,0,0,0,0,0],"split_type":[0,0,0,0,0,0,0,0,0,0,0,0,0,0,0,0,0,0,0,0,0,0,0,0,0,0,0,0,0,0,0,0,0,0,0,0,0,0,0,0,0,0,0,0,0,0,0,0,0,0,0,0,0],"sum_hessian":[7.52E2,2.57E2,4.95E2,9.7E1,1.6E2,2.96E2,1.99E2,7.3E1,2.4E1,1.58E2,2E0,1.35E2,1.61E2,1.35E2,6.4E1,6.7E1,6E0,1.2E1,1.2E1,1.17E2,4.1E1,1.25E2,1E1,1.15E2,4.6E1,3E0,1.32E2,2.1E1,4.3E1,3E1,3.7E1,5E0,7E0,8E0,4E0,7.4E1,4.3E1,5E0,3.6E1,1.2E2,5E0,6E0,4E0,8E0,1.07E2,2.7E1,1.9E1,1.27E2,5E0,2E0,1.9E1,3E1,1.3E1],"tree_param":{"num_deleted":"0","num_feature":"60","num_nodes":"53","size_leaf_vector":"1"}},{"base_weights":[-4.0710525E-5,-1.3036205E-2,6.101771E-3,-1.8987453E-2,-8.924078E-3,2.311225E-3,1.3781333E-2,-2.1323074E-2,-1.1314518E-2,-1.0175486E-2,-2.1909177E-3,-2.3045763E-4,6.15326E-3,1.19639095E-2,2.4797851E-2,-1.935255E-2,-3.741915E-3,-4.586411E-3,-1.7172277E-2,-8.087583E-3,-1.7953046E-2,4.1516838E-3,-8.879493E-3,6.862914E-4,-1.2983001E-2,1.6742015E-2,4.8119216E-3,3.0244758E-2,1.1107226E-2,2.952582E-2,1.8720031E-3,-2.5329867E-3,-1.3967041E-3,-6.713657E-4,1.599133E-5,-2.1465276E-3,-2.1467135E-4,1.8815951E-4,-9.6344174E-4,-3.2372357E-4,-2.0601903E-3,-5.533123E-4,9.0708333E-4,2.744198E-6,-1.333639E-3,-1.9431555E-3,1.20934346E-4,-2.8594842E-3,2.3002364E-4,2.6772768E-4,2.0035093E-3,3.325723E-4,1.2771868E-3,3.9108964E-3,8.344233E-4,5.5216975E-4,1.3990767E-3,4.103081E-3,2.105961E-3,-6.098151E-4,5.3890795E-4],"categories":[],"categories_nodes":[],"categories_segments":[],"categories_sizes":[],"default_left":[0,0,0,0,0,0,0,0,0,0,0,0,0,0,0,0,0,0,0,0,0,0,0,0,0,0,0,0,0,0,0,0,0,0,0,0,0,0,0,0,0,0,0,0,0,0,0,0,0,0,0,0,0,0,0,0,0,0,0,0,0],"id":28,"left_children":[1,3,5,7,9,11,13,15,17,19,21,23,25,27,29,31,-1,33,35,37,39,41,43,45,47,49,51,53,55,57,59,-1,-1,-1,-1,-1,-1,-1,-1,-1,-1,-1,-1,-1,-1,-1,-1,-1,-1,-1,-1,-1,-1,-1,-1,-1,-1,-1,-1,-1,-1],"loss_changes":[6.0187455E-2,5.7528503E-3,1.4872331E-2,1.5150011E-3,1.1994662E-3,3.3606582E-3,3.0869879E-3,1.6229562E-3,9.065317E-4,1.8359348E-3,1.055016E-3,2.4406135E-3,1.8652631E-3,1.9662157E-3,2.4377583E-3,1.8351953E-3,0E0,1.3232938E-4,7.9248147E-4,1.5293541E-3,9.0780854E-4,6.6952326E-4,4.767335E-4,2.075422E-3,3.4061675E-3,6.4110523E-4,1.4126217E-3,8.384506E-4,2.2098124E-3,9.865761E-4,1.7302163E-4,0E0,0E0,0E0,0E0,0E0,0E0,0E0,0E0,0E0,0E0,0E0,0E0,0E0,0E0,0E0,0E0,0E0,0E0,0E0,0E0,0E0,0E0,0E0,0E0,0E0,0E0,0E0,0E0,0E0,0E0],"parents":[2147483647,0,0,1,1,2,2,3,3,4,4,5,5,6,6,7,7,8,8,9,9,10,10,11,11,12,12,13,13,14,14,15,15,17,17,18,18,19,19,20,20,21,21,22,22,23,23,24,24,25,25,26,26,27,27,28,28,29,29,30,30],"right_children":[2,4,6,8,10,12,14,16,18,20,22,24,26,28,30,32,-1,34,36,38,40,42,44,46,48,50,52,54,56,58,60,-1,-1,-1,-1,-1,-1,-1,-1,-1,-1,-1,-1,-1,-1,-1,-1,-1,-1,-1,-1,-1,-1,-1,-1,-1,-1,-1,-1,-1,-1],"split_conditions":[3.4432718E-1,1.76781E-1,5.672823E-1,1.9261214E-1,3.698329E-1,4.9956024E-1,7.273527E-1,1.8161829E-1,2.1899736E-1,3.2805628E-1,3.4432718E-1,6.1081797E-1,4.8504838E-1,4.5470536E-1,6.3852245E-1,1.76781E-1,-3.741915E-3,4.362357E-1,4.4151276E-1,1.02902375E-1,2.6341248E-1,2.708883E-1,3.935796E-1,7.9155676E-2,4.7009674E-1,4.525066E-1,5.686016E-1,4.6218118E-1,5.4397535E-1,6.495163E-1,5.598065E-1,-2.5329867E-3,-1.3967041E-3,-6.713657E-4,1.599133E-5,-2.1465276E-3,-2.1467135E-4,1.8815951E-4,-9.6344174E-4,-3.2372357E-4,-2.0601903E-3,-5.533123E-4,9.0708333E-4,2.744198E-6,-1.333639E-3,-1.9431555E-3,1.20934346E-4,-2.8594842E-3,2.3002364E-4,2.6772768E-4,2.0035093E-3,3.325723E-4,1.2771868E-3,3.9108964E-3,8.344233E-4,5.5216975E-4,1.3990767E-3,4.103081E-3,2.105961E-3,-6.098151E-4,5.3890795E-4],"split_indices":[59,59,57,44,50,59,57,50,48,49,57,3,57,53,13,25,0,10,16,19,56,59,53,27,30,47,32,0,31,23,0,0,0,0,0,0,0,0,0,0,0,0,0,0,0,0,0,0,0,0,0,0,0,0,0,0,0,0,0,0,0],"split_type":[0,0,0,0,0,0,0,0,0,0,0,0,0,0,0,0,0,0,0,0,0,0,0,0,0,0,0,0,0,0,0,0,0,0,0,0,0,0,0,0,0,0,0,0,0,0,0,0,0,0,0,0,0,0,0,0,0,0,0,0,0],"sum_hessian":[7.52E2,2.41E2,5.11E2,9.7E1,1.44E2,3.43E2,1.68E2,7.3E1,2.4E1,1.21E2,2.3E1,2.07E2,1.36E2,1.46E2,2.2E1,6.7E1,6E0,1.2E1,1.2E1,9.7E1,2.4E1,1.2E1,1.1E1,1.94E2,1.3E1,1.4E1,1.22E2,5E0,1.41E2,1.8E1,4E0,3E1,3.7E1,8E0,4E0,9E0,3E0,1.3E1,8.4E1,4E0,2E1,4E0,8E0,4E0,7E0,4E0,1.9E2,6E0,7E0,3E0,1.1E1,1.04E2,1.8E1,3E0,2E0,4.9E1,9.2E1,6E0,1.2E1,1E0,3E0],"tree_param":{"num_deleted":"0","num_feature":"60","num_nodes":"61","size_leaf_vector":"1"}},{"base_weights":[-4.004669E-5,-9.133314E-3,7.230322E-3,-1.585977E-2,-4.736129E-3,4.5476016E-3,1.4367884E-2,-4.2168217E-4,-1.6852375E-2,-5.897316E-3,4.65831E-3,-9.884248E-3,5.018211E-3,1.3280826E-2,3.540958E-3,6.9141487E-4,-3.5053694E-3,-3.1333303E-3,-1.5307264E-2,-5.057809E-3,-2.3524364E-2,1.63542E-2,-1.4807787E-3,-1.6962065E-3,4.9729943E-3,1.8735211E-2,4.2221462E-3,3.457597E-3,1.2360626E-2,-7.2842464E-5,-5.405972E-4,-9.2017866E-4,-1.7577674E-3,-1.4609739E-4,-8.3619106E-4,-3.0536677E-3,-8.877885E-4,6.361579E-4,3.0888042E-3,-4.1745795E-4,1.1583884E-3,7.072091E-4,1.9159318E-4,1.1706764E-3,2.8498163E-3,-2.9520088E-4,5.284023E-4,-5.7343417E-4,1.349235E-3],"categories":[],"categories_nodes":[],"categories_segments":[],"categories_sizes":[],"default_left":[0,0,0,0,0,0,0,0,0,0,0,0,0,0,0,0,0,0,0,0,0,0,0,0,0,0,0,0,0,0,0,0,0,0,0,0,0,0,0,0,0,0,0,0,0,0,0,0,0],"id":29,"left_children":[1,3,5,7,9,11,13,15,17,19,21,23,25,27,-1,-1,29,-1,31,33,35,37,39,-1,41,43,45,-1,47,-1,-1,-1,-1,-1,-1,-1,-1,-1,-1,-1,-1,-1,-1,-1,-1,-1,-1,-1,-1],"loss_changes":[4.9847923E-2,9.833338E-3,7.957706E-3,2.015654E-3,2.252846E-3,2.1278793E-3,2.1373164E-3,2.2782931E-4,2.2948235E-3,2.5742599E-3,1.6756654E-3,1.1359206E-3,3.164024E-3,1.7281547E-3,0E0,0E0,3.3007236E-5,0E0,1.418516E-3,2.067537E-3,5.505439E-4,9.6535264E-4,6.1145547E-4,0E0,1.2118639E-5,7.6427264E-4,2.163893E-3,0E0,2.2685695E-3,0E0,0E0,0E0,0E0,0E0,0E0,0E0,0E0,0E0,0E0,0E0,0E0,0E0,0E0,0E0,0E0,0E0,0E0,0E0,0E0],"parents":[2147483647,0,0,1,1,2,2,3,3,4,4,5,5,6,6,7,7,8,8,9,9,10,10,11,11,12,12,13,13,16,16,18,18,19,19,20,20,21,21,22,22,24,24,25,25,26,26,28,28],"right_children":[2,4,6,8,10,12,14,16,18,20,22,24,26,28,-1,-1,30,-1,32,34,36,38,40,-1,42,44,46,-1,48,-1,-1,-1,-1,-1,-1,-1,-1,-1,-1,-1,-1,-1,-1,-1,-1,-1,-1,-1,-1],"split_conditions":[4.2040458E-1,2.2823219E-1,6.147757E-1,1.1081794E-1,4.8636764E-1,2.6737028E-1,7.955145E-1,1.6226913E-1,6.46438E-2,4.7185576E-1,4.5118734E-1,4.5778364E-1,3.7774846E-1,3.8742304E-1,3.540958E-3,6.9141487E-4,1.1081794E-1,-3.1333303E-3,2.7616534E-1,3.2541776E-1,5.615655E-1,4.8416886E-1,5.633245E-1,-1.6962065E-3,3.7994722E-1,3.9401934E-1,4.362357E-1,3.457597E-3,4.753738E-1,-7.2842464E-5,-5.405972E-4,-9.2017866E-4,-1.7577674E-3,-1.4609739E-4,-8.3619106E-4,-3.0536677E-3,-8.877885E-4,6.361579E-4,3.0888042E-3,-4.1745795E-4,1.1583884E-3,7.072091E-4,1.9159318E-4,1.1706764E-3,2.8498163E-3,-2.9520088E-4,5.284023E-4,-5.7343417E-4,1.349235E-3],"split_indices":[57,55,59,20,20,31,59,0,48,21,1,52,42,50,0,0,18,0,9,52,27,9,3,0,3,1,51,0,40,0,0,0,0,0,0,0,0,0,0,0,0,0,0,0,0,0,0,0,0],"split_type":[0,0,0,0,0,0,0,0,0,0,0,0,0,0,0,0,0,0,0,0,0,0,0,0,0,0,0,0,0,0,0,0,0,0,0,0,0,0,0,0,0,0,0,0,0,0,0,0,0],"sum_hessian":[7.52E2,3.34E2,4.18E2,1.31E2,2.03E2,3.05E2,1.13E2,8E0,1.23E2,1.81E2,2.2E1,9E0,2.96E2,1.09E2,4E0,2E0,6E0,1E1,1.13E2,1.74E2,7E0,7E0,1.5E1,6E0,3E0,1.5E1,2.81E2,3E0,1.06E2,3E0,3E0,3.2E1,8.1E1,8.4E1,9E1,4E0,3E0,5E0,2E0,1.3E1,2E0,1E0,2E0,1E1,5E0,3.6E1,2.45E2,6E0,1E2],"tree_param":{"num_deleted":"0","num_feature":"60","num_nodes":"49","size_leaf_vector":"1"}},{"base_weights":[-2.9344017E-5,-1.0747646E-2,5.0367857E-3,-1.564334E-2,-7.364711E-3,1.4655362E-3,1.0600607E-2,-1.7853903E-2,-9.169119E-3,-8.515103E-3,-1.2100246E-3,-8.380242E-3,2.094703E-3,7.853165E-3,1.6589217E-2,-1.5844349E-2,-3.425056E-2,1.8046312E-3,-1.3100164E-2,-6.780139E-3,-1.6093113E-2,3.1762784E-3,-8.87345E-3,-2.4531444E-3,-2.4485487E-2,3.6877233E-3,-2.3075764E-3,2.3624754E-2,6.5795574E-3,2.668393E-2,1.1508206E-2,-1.8066567E-3,-5.394805E-4,-2.6715174E-4,-3.9068484E-3,9.699911E-4,-2.4437805E-4,-1.6336642E-3,-2.825608E-4,2.9571602E-5,-8.215678E-4,-1.9263756E-3,2.9907227E-4,-5.8435176E-5,9.5413876E-4,3.4905673E-4,-1.2904679E-3,5.13764E-4,-8.084516E-4,